-0.3305831253528595 -0.22597341239452362 -0.004934357944875956 -0.0018106058705598116 0.18733000755310059 0.055682241916656494 -0.04073724150657654 -0.01222582720220089 -0.06682343780994415 
0.024561988189816475 -0.0002536338579375297 -0.06422069668769836 -0.03137701004743576 0.04248341545462608 -0.04943985491991043 -0.010381100699305534 0.07666675001382828 0.07443362474441528 
-0.04520442709326744 0.026693757623434067 0.05615541338920593 0.04050881788134575 0.009940220974385738 0.024455338716506958 -0.034774914383888245 0.03477872535586357 0.057644523680210114 
0.02311047539114952 -0.03636842966079712 0.04008428007364273 -0.00526301097124815 0.03260965272784233 -0.059529129415750504 -0.0557410754263401 -0.04676108807325363 0.05318957194685936 
-0.01912003569304943 -0.03394680842757225 0.04404638335108757 -0.08048133552074432 0.04055265709757805 -0.07096023857593536 0.11939246207475662 -0.15384326875209808 0.04003395885229111 
0.015169779770076275 -0.003134368220344186 -0.06263041496276855 0.02756987325847149 0.039327472448349 -0.002875853795558214 -0.0542709156870842 0.05153901129961014 0.028437744826078415 
0.028372135013341904 -0.06419172883033752 -0.013595296069979668 0.05212043225765228 -0.005723710637539625 -0.028816228732466698 -0.04991753771901131 0.0056322538293898106 0.06360874325037003 
-0.0453425757586956 -0.02984175644814968 0.06533592194318771 0.010411573573946953 0.023723702877759933 0.06645549833774567 -0.032527122646570206 0.02362888492643833 -0.016604723408818245 
0.035651806741952896 -0.002285860711708665 0.04253135249018669 -0.05667022615671158 0.0673445463180542 0.06262677162885666 -0.06339595466852188 0.03681017830967903 -0.0645938292145729 
0.06744574755430222 -0.01779925264418125 -0.03415956348180771 -0.0037609345745295286 0.07759501785039902 -0.10014032572507858 0.006016548257321119 0.05873044580221176 -0.0652681365609169 
-0.020810922607779503 0.0203462615609169 0.03157513961195946 0.06159181520342827 0.03878376632928848 0.06177106872200966 0.038451455533504486 0.05446801334619522 -0.035242896527051926 
-0.09158612787723541 -0.014092348515987396 -0.0017580529674887657 -0.04259302467107773 0.0018818064127117395 -0.014241077937185764 0.03914056718349457 -0.011072070337831974 0.06296461820602417 
0.025014372542500496 0.034883614629507065 0.019995754584670067 0.047257471829652786 0.03476468101143837 0.02051689848303795 0.04210589826107025 -0.03332465514540672 0.05823893845081329 
0.007035970687866211 0.16100020706653595 -0.13796454668045044 -0.11764319241046906 0.035965971648693085 0.12067722529172897 0.007153294514864683 0.16999909281730652 -0.10509657114744186 
0.02011767216026783 -0.07091477513313293 -0.007817534729838371 -0.05386997386813164 0.12510830163955688 0.14222963154315948 0.10919927060604095 -0.05945112556219101 -0.15811945497989655 
-0.07701796293258667 0.02945559285581112 -0.037002332508563995 -0.037849750369787216 0.20502187311649323 -0.27350255846977234 -0.04320509731769562 0.002881624037399888 -0.004228423349559307 
-0.010501760989427567 0.058846451342105865 0.010817418806254864 -0.04134972020983696 0.04387996345758438 -0.01784352958202362 -0.03641977533698082 -0.039166681468486786 0.03879931569099426 
-0.02393774315714836 0.1139669418334961 -0.12393849343061447 0.044849883764982224 0.021977517753839493 -0.032430414110422134 -0.03360632434487343 -0.07423734664916992 -0.14662256836891174 
0.03167746216058731 0.01184049155563116 -0.03222037851810455 0.020390115678310394 0.026501599699258804 -0.044941212981939316 0.043248869478702545 0.06100189685821533 -0.031113656237721443 
0.049224819988012314 -0.040118779987096786 -0.022423796355724335 -0.031047439202666283 -0.05831679701805115 0.0053580207750201225 -0.06316422671079636 -0.032785121351480484 -0.0036046404857188463 
-0.06965707987546921 0.01974891684949398 -0.10165298730134964 0.03184308484196663 0.14522342383861542 0.025017032399773598 0.2527311444282532 0.22923855483531952 -0.045691899955272675 
0.03906714916229248 -0.003738187486305833 -0.04939308762550354 0.007382414769381285 0.036798734217882156 -0.002142838668078184 0.05182219296693802 0.0412459634244442 -0.07208885252475739 
0.05468204617500305 -0.03712056577205658 -0.006033868063241243 -0.010384871624410152 0.05750643461942673 0.02698400244116783 -0.07361696660518646 0.05175391957163811 0.0006481090094894171 
-0.006632806733250618 0.024381496012210846 0.03884585201740265 -0.058577053248882294 0.014616887085139751 0.035670191049575806 0.023882828652858734 0.024577217176556587 -0.0362476147711277 
-0.017647352069616318 -0.025325171649456024 0.06943084299564362 -0.036305028945207596 0.015062556602060795 -0.03211120143532753 -0.018515674397349358 0.02156619355082512 -0.012438173405826092 
0.06696973741054535 0.05364648997783661 -0.007714513223618269 0.04607231914997101 0.06464501470327377 0.03307134658098221 -0.0568600632250309 -0.05036790296435356 -0.06442959606647491 
0.035127174109220505 -0.0019149086438119411 -0.010095538571476936 0.05580240488052368 -0.0587739534676075 -0.02526358887553215 0.013011239469051361 0.039535362273454666 0.029857436195015907 
0.013969719409942627 -0.028934717178344727 0.021377839148044586 -0.060199152678251266 -0.01021013967692852 0.027741793543100357 -0.0018707753624767065 0.06221047416329384 -0.025836903601884842 
-0.02783677726984024 0.03931653872132301 0.0029800457414239645 -0.05145174637436867 0.02971280924975872 0.007327964995056391 -0.027924170717597008 -0.0318741500377655 0.08724825084209442 
0.05825115367770195 0.05931752547621727 -0.03625903278589249 0.04253575950860977 -0.030503859743475914 0.013886809349060059 -0.003929793369024992 -0.023387404158711433 0.03308853507041931 
0.016297729685902596 -0.0013095499016344547 -0.029513025656342506 -0.022574789822101593 -0.00041284936014562845 -0.013276894576847553 -0.03905336186289787 0.02040030248463154 -0.03395674377679825 
-0.009173803962767124 -0.057716213166713715 0.013512850739061832 0.04098707437515259 -0.046427901834249496 -0.015370809473097324 -0.00945083424448967 0.016026875004172325 0.021694397553801537 
0.06396768987178802 0.022683653980493546 -0.05269937217235565 -0.020913900807499886 -0.03861737996339798 0.000974304333794862 0.038497596979141235 -0.03115040436387062 0.003531684400513768 
-0.031224384903907776 -0.011655752547085285 0.042464856058359146 0.030574152246117592 0.04473022371530533 0.023090872913599014 -0.06711767613887787 0.0337953083217144 0.04326628893613815 
-0.059038929641246796 0.04724531248211861 0.05036790668964386 0.047698974609375 -0.017198355868458748 0.02700253389775753 -0.06119638681411743 -0.028085943311452866 -0.01629238948225975 
0.04666814208030701 0.016904229298233986 0.02029392682015896 -0.06602449715137482 -0.02103244885802269 0.055029161274433136 -0.033853620290756226 0.04813576862215996 -0.04273519292473793 
-0.002923729130998254 -0.005081485491245985 0.023598117753863335 -0.05319348722696304 0.0600958988070488 -0.04202043637633324 -0.024028325453400612 0.02238255925476551 0.055818822234869 
-0.023625312373042107 0.02329864166676998 0.01624591276049614 -0.08769496530294418 -0.04696577787399292 -0.15543730556964874 -0.03892720490694046 -0.026195915415883064 -0.021919578313827515 
0.01424751989543438 -0.03847698122262955 0.022316496819257736 -0.04838050901889801 -0.04096667841076851 0.0030770201701670885 -0.08617082238197327 0.12450065463781357 0.13210462033748627 
0.0438162237405777 0.04985330253839493 0.016204698011279106 -0.05948568880558014 0.05439060181379318 -0.022059980779886246 -0.026852397248148918 -0.02483171969652176 0.003914664499461651 
-0.0255263801664114 0.0005691663245670497 0.0034608689602464437 -0.025781424716114998 0.044555384665727615 0.0650172010064125 0.05339059233665466 -0.015271720476448536 0.052044570446014404 
0.027338501065969467 0.039306581020355225 -0.00930705014616251 -0.039628855884075165 -0.01275085099041462 0.016316955909132957 -0.03285335376858711 -0.05959575995802879 0.05108524486422539 
0.04677553474903107 -0.024154335260391235 0.02985590323805809 0.048901114612817764 -0.02001296915113926 -0.0365142896771431 -0.04397333040833473 0.06962377578020096 0.07234000414609909 
0.008784481324255466 -0.045004528015851974 0.06178643926978111 -0.009454268962144852 -0.06493513286113739 0.044285159558057785 -0.07165296375751495 -0.01160678081214428 0.1024923250079155 
0.02773597091436386 -0.0063214595429599285 0.05264357477426529 -0.04206940531730652 -0.02178262360394001 -0.05113934352993965 0.08108095079660416 0.1110130250453949 0.13828547298908234 
-0.009938236325979233 -0.034233033657073975 0.03413444384932518 0.04390662908554077 -0.02836625836789608 0.06337351351976395 -0.059311043471097946 -0.04940314590930939 0.029210153967142105 
-0.04247475042939186 0.05608198419213295 -0.054788053035736084 0.04067910462617874 0.01735137403011322 0.01048200111836195 -0.008360066451132298 0.025662731379270554 0.05639673396945 
-0.057742759585380554 0.002346995985135436 0.05685269460082054 0.008870787918567657 0.055802639573812485 -0.008684421889483929 0.025107715278863907 0.062422674149274826 -0.007863659411668777 
-0.11127384006977081 -0.0953027680516243 -0.15167249739170074 -0.010642650537192822 0.17094390094280243 0.0940166562795639 -0.05676061660051346 -0.13403910398483276 -0.020664166659116745 
0.005382014904171228 0.0004692736838478595 0.0011619774159044027 0.032306451350450516 -0.00213783816434443 -0.03724433854222298 -0.017552345991134644 -0.002054024487733841 -0.024080879986286163 
0.027763376012444496 -0.03992970287799835 0.05393484607338905 0.006103309337049723 0.03530697524547577 -0.003358025336638093 0.0352766327559948 0.017360081896185875 -0.042854201048612595 
0.0696643739938736 0.008545528165996075 0.01789645478129387 -0.045611828565597534 -0.04224942997097969 0.042318642139434814 -0.04207582771778107 0.0156848281621933 0.025419659912586212 
-0.07589353621006012 0.11030291765928268 0.022145509719848633 0.09850569069385529 0.08961807191371918 0.08756831288337708 -0.05339007452130318 0.03131399676203728 0.011862766928970814 
-0.07474300265312195 0.02036532200872898 -0.10353323817253113 0.09005679190158844 -0.009565670043230057 0.02002248354256153 0.05089012160897255 -0.030807849019765854 0.01648085191845894 
-0.06584803014993668 -0.050264567136764526 -0.052618708461523056 0.06685527414083481 0.008161013945937157 0.05669499188661575 -0.015657516196370125 0.04175284132361412 -0.028572749346494675 
0.07040732353925705 -0.015926510095596313 -0.06695815920829773 0.01713438704609871 0.025735236704349518 0.02457697130739689 -0.021392077207565308 -0.01587592624127865 0.01714610867202282 
-0.04364416003227234 -0.016033794730901718 0.05856157839298248 -0.029404256492853165 -0.0019220833200961351 -0.05008533596992493 -0.03405127301812172 -0.039262279868125916 -0.02485634759068489 
-0.0009484323090873659 -0.0700901448726654 -0.04959267005324364 -0.05573691055178642 0.0947202816605568 -0.0023067567963153124 -0.01987665332853794 0.064333975315094 0.07283872365951538 
0.02979249507188797 -0.013944213278591633 0.016950787976384163 0.011441251263022423 0.02654704451560974 0.03479757905006409 0.05859331041574478 0.02503219246864319 -0.02611897885799408 
0.08709336072206497 -0.05466906726360321 0.06104571372270584 0.11814715713262558 0.08907629549503326 0.0962604358792305 0.08103276789188385 0.03630540519952774 -0.02825186587870121 
0.03779406100511551 0.033984120935201645 -0.057804692536592484 -0.036428119987249374 0.07699929922819138 -0.03677155449986458 0.011042717844247818 -0.05529968813061714 -0.055530205368995667 
0.06284035742282867 0.014728623442351818 0.025521719828248024 -0.1950884908437729 0.19272682070732117 0.037346094846725464 0.1890992820262909 -0.09191576391458511 0.058465734124183655 
0.003260592231526971 -0.03769117593765259 0.012321719899773598 -0.00882573239505291 0.027878932654857635 0.021795501932501793 0.04647482931613922 0.0017687040381133556 -0.05225538834929466 
-0.0764293372631073 0.08738196641206741 -0.04612685367465019 0.023561106994748116 0.08272239565849304 -0.13663513958454132 -0.04305804520845413 -0.16294987499713898 0.20221088826656342 
0.02943570725619793 0.06845010071992874 -0.03419758751988411 -0.03448314592242241 0.016806675121188164 0.0005513043142855167 -0.048419371247291565 0.06909703463315964 -0.01832878589630127 
0.004120258614420891 0.0005513427313417196 -0.03166613355278969 0.003199218772351742 -0.03352813795208931 -0.031398478895425797 0.05905121564865112 0.02065868489444256 0.15143094956874847 
-0.05728639289736748 -0.04993559047579765 0.05067778006196022 0.06472507864236832 -0.06440573185682297 -0.049002617597579956 0.055659372359514236 0.027900690212845802 -0.015992652624845505 
-0.008798378519713879 -0.01875910349190235 -0.06441681832075119 0.057724516838788986 -0.13914518058300018 0.025708751752972603 -0.018708007410168648 -0.06211261451244354 0.02093353495001793 
0.005592371337115765 -0.0797029510140419 -0.0382886677980423 -0.030735773965716362 0.0662890300154686 0.041965290904045105 0.20398609340190887 -0.2076832354068756 0.19314004480838776 
-0.034682128578424454 -0.0484042726457119 -0.0010988762369379401 0.06132851168513298 -0.015712156891822815 0.07013294100761414 -0.031199272722005844 -0.05062830448150635 -0.01868417300283909 
0.05345873162150383 -0.03379261866211891 0.02656138874590397 0.03544709458947182 -0.04859207943081856 -3.828428816632368e-05 -0.05499810352921486 -0.006743003148585558 -0.03421176224946976 
0.06249033659696579 0.07497821748256683 -0.03176681697368622 0.013167846947908401 0.014807097613811493 0.08247318863868713 -0.0058882106095552444 0.009784705936908722 0.030944092199206352 
0.09613390266895294 0.024904584512114525 -0.028703197836875916 0.05161842703819275 0.08868158608675003 0.04590781778097153 0.014228892512619495 -0.04028620198369026 -0.0344243198633194 
-0.0038113559130579233 -0.036166511476039886 -0.013128730468451977 0.04920812323689461 -0.01339307427406311 -0.02187192626297474 0.028221316635608673 0.04516931250691414 -0.04279397800564766 
-0.05813981965184212 -0.007718218024820089 -0.04695025086402893 -0.04410409927368164 -0.03413739427924156 -0.04062538966536522 0.024563316255807877 -0.045950185507535934 -0.01689855568110943 
-0.04190562665462494 -0.01118562649935484 0.03494361415505409 0.058151163160800934 -0.02772890217602253 0.00137580547016114 0.029298584908246994 0.03392578661441803 -0.06847919523715973 
-0.024365730583667755 0.07727193832397461 -0.010097677819430828 -0.04801225662231445 0.062122296541929245 -0.02753906324505806 0.054080840200185776 0.06896744668483734 -0.014348894357681274 
0.01556735672056675 0.04447644576430321 0.0015102298930287361 0.011567316018044949 -0.036991462111473083 0.052697308361530304 0.038803718984127045 -0.04862497001886368 -0.05065887048840523 
0.014240396209061146 -0.018179884180426598 0.03014465421438217 0.009671494364738464 0.01803615316748619 -0.026401061564683914 -0.02422071062028408 0.029645297676324844 -0.058989327400922775 
0.02694059908390045 -0.031893279403448105 -0.05872631072998047 -0.008757207542657852 -0.03831540793180466 -0.008785609155893326 -0.031827084720134735 -0.042855069041252136 0.0035275029949843884 
0.050299644470214844 0.07305270433425903 0.019788825884461403 -0.05220356211066246 0.009716041386127472 -0.05654240772128105 0.055585961788892746 0.02554616890847683 0.04276755452156067 
-0.018423061817884445 0.015114206820726395 -0.01292332261800766 -0.035777799785137177 0.09544394910335541 -0.030907442793250084 -0.015732795000076294 0.09289002418518066 -0.0029097534716129303 
0.036955054849386215 0.06119749695062637 0.005298025440424681 -0.04029709845781326 0.044030576944351196 -0.0329064279794693 -0.05078721418976784 -0.04851746931672096 0.051973599940538406 
-0.0361478216946125 0.03084411844611168 -0.012129274196922779 -0.004109526053071022 0.09080681204795837 -0.007791193667799234 -0.04148750752210617 -0.03893592208623886 -0.0007665483863092959 
-0.0074320402927696705 0.03140623867511749 -0.020742133259773254 -0.03298414871096611 -0.00018210858979728073 -0.04541007801890373 -0.03259216994047165 -0.03635629266500473 -0.002825981006026268 
-0.06728015094995499 0.11293954402208328 0.014248643070459366 -0.04931814596056938 -0.0665474608540535 -0.06261128187179565 0.045486386865377426 0.09660189598798752 -0.04206550866365433 
0.0463993065059185 0.04247384890913963 -0.0037638216745108366 -0.02457290329039097 -0.1112859696149826 0.03269121050834656 0.08893900364637375 0.07492028176784515 0.03969912230968475 
-0.04335135594010353 0.020330874249339104 -0.08421298861503601 -0.01418062299489975 0.026676161214709282 -0.06265151500701904 -0.05495288595557213 -0.05136851221323013 -0.11050886660814285 
0.01825660839676857 -0.023503493517637253 0.034821853041648865 0.018136516213417053 0.04703717678785324 -0.02235303819179535 -0.023399244993925095 0.009661108255386353 -0.015884969383478165 
0.027086488902568817 0.06498689204454422 -0.03979096934199333 -0.07633905112743378 -0.017194636166095734 -0.0375378243625164 -0.043189700692892075 0.0002836532366927713 -0.05321729928255081 
0.048405393958091736 -0.048774152994155884 -0.03412429988384247 -0.035962577909231186 0.016141695901751518 -0.0202204417437315 -0.010646043345332146 -0.009413594380021095 -0.009753700345754623 
0.040976472198963165 0.06353719532489777 0.02500537969172001 -0.0038183957803994417 0.026897087693214417 0.029009750112891197 -0.03235698863863945 0.04438699781894684 0.06189054995775223 
0.019939502701163292 -0.031546857208013535 0.008003481663763523 -0.014467167668044567 -0.05411238595843315 -0.036623477935791016 0.07905880361795425 0.04550560936331749 -0.06496219336986542 
-0.02496963180601597 0.03391449525952339 -0.037045903503894806 -0.030995620414614677 -0.04462474212050438 0.026927975937724113 0.02332756482064724 -0.04517395794391632 0.07160168141126633 
0.0381527841091156 0.0601436085999012 -0.023969249799847603 -0.05622101202607155 0.0331793837249279 0.05015332251787186 -0.04354017600417137 0.01566489227116108 -0.014349738135933876 
0.04667362943291664 -0.03780859708786011 0.009745758958160877 -0.05136738717556 -0.0386776365339756 -0.033619217574596405 -0.035642027854919434 -0.00621131993830204 -0.006763045210391283 
0.033945582807064056 -0.1348850578069687 0.1142338439822197 -0.022336073219776154 0.09315724670886993 -0.07148603349924088 0.032722022384405136 0.04542456194758415 -0.044273264706134796 
-0.0019119195640087128 0.07025013864040375 -0.04303743690252304 -0.007494584657251835 0.07666180282831192 -0.02372599020600319 0.05456945672631264 0.027315355837345123 -0.04600505158305168 
-0.03454345092177391 0.03909825533628464 0.017417771741747856 0.0026400547940284014 0.04006244242191315 0.03811890259385109 -0.06445404887199402 0.002465649042278528 0.005727015435695648 
-0.05067242681980133 -0.007097183261066675 0.049404576420784 0.01751072332262993 0.07354296743869781 0.07006823271512985 -0.054915621876716614 0.0051266951486468315 -0.005769056733697653 
-0.07778870314359665 0.05654557794332504 -0.011092047207057476 -0.09465975314378738 0.15062031149864197 -0.04841594398021698 -0.023284416645765305 -0.015267581678926945 -0.05394773930311203 
0.02734539285302162 -0.07328600436449051 0.03742202743887901 0.02336306869983673 -0.00347468676045537 0.023662840947508812 -0.04079731926321983 -0.026321860030293465 -0.02222224324941635 
0.04043716564774513 -0.053732212632894516 0.036863625049591064 0.04231083765625954 -0.0071157547645270824 -0.027010556310415268 -0.0035207150503993034 0.0033286253456026316 -0.05841873213648796 
-0.03763534128665924 -0.0524112842977047 0.022166412323713303 0.07733995467424393 0.02857006900012493 -0.04798266291618347 -0.027117932215332985 0.04448602721095085 0.028742220252752304 
-0.008629160933196545 -0.042077600955963135 -0.03440382331609726 -0.06222305819392204 -0.012579149566590786 -0.024996699765324593 0.04683861881494522 -0.05761811137199402 0.046231210231781006 
0.04876383766531944 0.04752586781978607 -0.003422000678256154 -0.017028698697686195 0.07187094539403915 -0.04153241589665413 -0.036289483308792114 0.07367304712533951 -0.04632122069597244 
0.032153088599443436 0.055310145020484924 0.03070458211004734 -0.027234237641096115 0.003241555066779256 -0.028720475733280182 -0.010060450993478298 0.05417415499687195 0.013731894083321095 
0.08919909596443176 0.05632823705673218 -0.07488246262073517 0.04003284499049187 0.11433833092451096 -0.0033678424078971148 0.010447915643453598 0.020716147497296333 -0.06297998130321503 
-0.0014842201489955187 0.026054920628666878 -0.01701762154698372 0.03844941779971123 -0.03719424083828926 -0.029470399022102356 0.052770812064409256 -0.012804611586034298 0.008210618980228901 
0.006061472464352846 -0.06470179557800293 0.032123785465955734 0.07550834119319916 -0.027928540483117104 0.0073938737623393536 -0.04035116359591484 0.04606927931308746 0.019545217975974083 
0.03479020670056343 0.011431342922151089 0.0051551079377532005 -0.023971980437636375 0.07620669156312943 -0.04093271121382713 0.04938064515590668 -0.06972380727529526 -0.03676406666636467 
0.02002563700079918 -0.04532343149185181 0.08420997112989426 -0.09471406787633896 0.14554215967655182 -0.155731663107872 -0.07052995264530182 0.08412089943885803 0.02012958750128746 
-0.05208394303917885 -0.06242719665169716 -0.020999424159526825 0.015992745757102966 0.04097316786646843 -0.04244185984134674 0.006819752976298332 -0.005262918304651976 -0.06100807338953018 
-0.05851122736930847 -0.03263382613658905 0.02239774912595749 0.023517301306128502 0.02574971131980419 -0.0016761783044785261 -0.0012485291808843613 0.038630902767181396 -0.042448706924915314 
-0.04233817383646965 0.04220501333475113 -0.04071413353085518 -0.02175619825720787 0.016846828162670135 0.05935591086745262 -0.049384038895368576 0.0008069031755439937 0.04347545653581619 
0.01621703989803791 -0.0018696488114073873 0.05688522383570671 0.008329825475811958 -0.028485378250479698 0.02160833589732647 0.0010210176697000861 -0.06622286140918732 0.04157493636012077 
-0.02341875620186329 0.017105920240283012 0.023555781692266464 0.047207340598106384 0.1292467564344406 0.005624390207231045 -0.01526712253689766 0.04178421571850777 -0.0738278403878212 
0.016890868544578552 -0.04246043786406517 0.006527793128043413 0.019825266674160957 0.022406648844480515 -0.03730332478880882 0.027148257941007614 -0.06917416304349899 -0.04783337935805321 
-0.053395453840494156 -0.050668127834796906 0.03089298866689205 0.005701114889234304 -0.009822077117860317 0.029143335297703743 0.0320480614900589 -0.03814048320055008 -0.023425625637173653 
0.04117371141910553 0.0004775703710038215 0.027659498155117035 0.023124288767576218 -0.048668842762708664 -0.04838056117296219 -0.06454280018806458 0.017374930903315544 0.04769957438111305 
0.051329586654901505 -0.12595343589782715 0.042884405702352524 -0.052781179547309875 0.15235541760921478 0.09678884595632553 -0.010007893666625023 -0.046901244670152664 -0.003119899658486247 
-0.013379234820604324 0.052525799721479416 0.016541315242648125 0.06713053584098816 0.03585122898221016 -0.04609064757823944 0.00025285343872383237 0.0680907666683197 0.054899152368307114 
-0.049966149032115936 -0.010943375527858734 0.04163007438182831 0.04597722366452217 -0.033989664167165756 0.07707548141479492 0.0016566677950322628 -0.035224322229623795 0.046473413705825806 
-0.061529554426670074 0.06503398716449738 -0.06352357566356659 0.0002076852833852172 -0.012788604944944382 0.004773042164742947 -0.04569622129201889 0.05191535875201225 0.05531678721308708 
-0.08213931322097778 -0.0061404104344546795 -0.056706834584474564 -0.09955135732889175 0.004291395656764507 -0.03153163939714432 -0.05575989559292793 -0.16172254085540771 -0.022341998293995857 
0.043332166969776154 -0.06250568479299545 -0.06922369450330734 0.044737327843904495 -0.046135541051626205 -0.058248329907655716 0.056661996990442276 -0.021167727187275887 -0.05182868614792824 
0.05904529243707657 0.05797303095459938 -0.04860569164156914 0.06889157742261887 0.06761238723993301 0.05356115847826004 -0.03466612473130226 -0.013170529156923294 -0.03387616574764252 
0.017008909955620766 -0.03920145332813263 0.015147295780479908 0.014944344758987427 0.046683717519044876 -0.00048596865963190794 0.00015463279851246625 0.052897822111845016 -0.0300673209130764 
-0.010135763324797153 -0.06779655814170837 0.05206140875816345 -0.004848837852478027 -0.028192272409796715 -0.03793497756123543 -0.07320058345794678 -0.048832543194293976 -0.06650366634130478 
-0.01761738397181034 0.00033295858884230256 -0.04927677661180496 -0.046321988105773926 -0.02505083568394184 -0.07591898739337921 0.009320855140686035 -0.013620072975754738 -0.001922913477756083 
-0.018075892701745033 -0.04056348651647568 0.0013203831622377038 -0.012083558365702629 0.06438674032688141 -0.013664348982274532 0.0027365905698388815 -0.05809707194566727 0.06780687719583511 
-0.06933838874101639 -0.044755980372428894 0.006585375405848026 -0.0029470394365489483 0.041787371039390564 -0.04745016247034073 0.0016918617766350508 -0.022617282345891 -0.01957397349178791 
-0.03529641777276993 -0.007832827977836132 0.012230969965457916 -0.0592169351875782 0.06268047541379929 -0.05667932704091072 0.03597215563058853 -0.036057248711586 -0.007300194352865219 
-0.14871147274971008 -0.08920324593782425 0.02030341513454914 -0.09502122551202774 0.09220568090677261 0.005518363788723946 -0.1010327860713005 0.1019207090139389 0.08479892462491989 
0.022744612768292427 -0.007850040681660175 0.0057405102998018265 -0.016983341425657272 0.026808936148881912 -0.024546071887016296 -0.04533230885863304 -0.014668296091258526 -0.0015572296688333154 
-0.10286562889814377 0.11277997493743896 0.016529763117432594 -0.11173166334629059 0.09568388760089874 -0.19145379960536957 0.03011465072631836 -0.019375523552298546 0.07046058773994446 
-0.019288593903183937 0.05019710585474968 0.053734347224235535 0.06231730803847313 -0.028908807784318924 -0.05153050273656845 0.02122984640300274 0.04046564921736717 -0.034007955342531204 
-0.06297391653060913 0.03236503154039383 0.018175948411226273 0.007331979926675558 0.030644992366433144 -0.09974152594804764 -0.08773103356361389 0.02299870364367962 -0.05483114346861839 
-0.06807930022478104 -0.04111187532544136 0.03576260432600975 -0.05987796187400818 -0.02886180579662323 -0.012899182736873627 -0.02490638941526413 0.022636903449892998 0.04102611169219017 
0.11161517351865768 -0.007366639096289873 0.06631481647491455 0.11453414708375931 -0.01691875047981739 0.012063068337738514 0.07604037970304489 -0.029443910345435143 -0.0026137358509004116 
0.012978194281458855 0.031408026814460754 0.014040426351130009 0.03133247047662735 0.11371514201164246 -0.01773029752075672 -0.027796143665909767 -0.016768379136919975 0.14827701449394226 
0.015865761786699295 -0.020845329388976097 0.0047402833588421345 0.0366257019340992 -0.05011386796832085 -0.05229438468813896 -0.031308598816394806 0.014158973470330238 -0.03587609529495239 
0.056231435388326645 0.009971944615244865 0.007486563641577959 -0.01805977337062359 0.012308908626437187 -0.027359437197446823 -0.06185684725642204 -0.06288563460111618 -0.00484395632520318 
0.021172745153307915 -0.023119142279028893 -0.033162400126457214 0.050234854221343994 -0.027011197060346603 0.06943786889314651 0.03229880332946777 0.03417356684803963 -0.025225097313523293 
-0.1342310756444931 -0.22376172244548798 0.025444218888878822 0.07581324875354767 0.08182535320520401 -0.026258602738380432 -0.0862005203962326 -0.03953542560338974 0.024420389905571938 
0.026128970086574554 0.05350412055850029 -0.03501755744218826 -0.06652188301086426 0.004811914172023535 0.0336470752954483 -0.010353624820709229 0.036538030952215195 0.0722750872373581 
0.04454550892114639 0.03646369278430939 -0.014598474837839603 -0.026774536818265915 0.03455230966210365 0.06179455295205116 0.07640376687049866 0.03006752021610737 0.08747923374176025 
0.07073952257633209 0.0267316997051239 -0.021512208506464958 0.06559906154870987 -0.04119421914219856 0.03527021408081055 0.0061906082555651665 0.07078390568494797 0.08683715015649796 
-0.005630470812320709 0.05755186080932617 -0.03626497462391853 -0.05049525201320648 -0.01046916376799345 -0.0030432131607085466 -0.09793166816234589 0.06421761214733124 -0.00998464785516262 
0.04139624536037445 -0.05079583078622818 -0.03983122110366821 0.027475863695144653 -0.0027703193482011557 0.001446449663490057 -0.01166043896228075 0.015704713761806488 0.014831574633717537 
0.02554091066122055 0.03727743774652481 -0.03683275729417801 -0.020297160372138023 -0.011173580773174763 0.019167425110936165 -0.019969182088971138 0.04233108088374138 -0.043624088168144226 
-0.032300349324941635 0.022052880376577377 -0.015577622689306736 0.0307976845651865 0.0025236057117581367 -0.010439672507345676 0.049991536885499954 0.06834102421998978 -0.022381894290447235 
0.032450608909130096 -0.005605689249932766 0.01054665818810463 -0.02896197699010372 -0.012849721126258373 0.017285281792283058 -0.016341106966137886 -0.06133601814508438 -0.06287078559398651 
-0.05815715715289116 0.021483486518263817 -0.031401846557855606 -0.0649363100528717 -0.014710280112922192 -0.006475598085671663 -0.05041912943124771 -0.02146369218826294 0.07901861518621445 
0.006993487011641264 -0.0009881927398964763 -0.000989247695542872 0.01362610049545765 -0.00507699977606535 0.06509212404489517 0.03772522509098053 -0.04689543694257736 0.052261196076869965 
0.11029128730297089 0.08532270044088364 0.017231013625860214 0.052240341901779175 0.16517850756645203 -0.011003715917468071 -0.012607686221599579 -0.029642459005117416 -0.055545274168252945 
0.004392039962112904 -0.023146092891693115 -0.0031837623100727797 -0.02508879266679287 0.01884218491613865 0.05137195065617561 -0.021607372909784317 -0.035079292953014374 -0.06255476176738739 
0.14522822201251984 0.0211817417293787 -0.007928462699055672 -0.07902781665325165 -0.1143336147069931 0.020844589918851852 0.17259369790554047 -0.12456201761960983 0.019049378111958504 
-0.04764494299888611 -0.03440546616911888 -0.06698668003082275 0.02821158803999424 0.01813073642551899 0.07317553460597992 0.044214244931936264 -0.04507492482662201 -0.10041047632694244 
-0.032759178429841995 -0.08573345839977264 0.011681369505822659 0.03009936586022377 -0.07018594443798065 0.07072578370571136 0.008063227869570255 -0.14500439167022705 0.14567692577838898 
0.030342798680067062 0.049529820680618286 -0.04198151081800461 -0.030303142964839935 -0.03990038111805916 -0.05400394648313522 -0.02605970948934555 -0.0033999946899712086 -0.005248169880360365 
-0.008426304906606674 -0.005383689422160387 -0.05199847370386124 -0.034931376576423645 0.02188359946012497 0.05507664009928703 0.02586495503783226 -0.0028098835609853268 -0.058104418218135834 
-0.026510991156101227 -0.05560244247317314 -0.03703492879867554 -0.06108146160840988 -0.03912155702710152 0.036254048347473145 -0.02250293828547001 0.006746266037225723 -0.034143492579460144 
-0.08447907119989395 -0.053146570920944214 0.04537553712725639 -0.046519748866558075 -0.06825686246156693 0.0016770799411460757 -0.03609618917107582 -0.0021496403496712446 -0.036396875977516174 
-0.05536922812461853 -0.05790288373827934 0.02797989919781685 0.094886913895607 0.02681797370314598 0.08755914866924286 0.053997915238142014 0.01944313570857048 -0.00749204633757472 
0.04636642336845398 0.01445101946592331 -0.013553726486861706 -0.05468108877539635 0.05350833758711815 0.017250848934054375 -0.056077323853969574 0.05025685206055641 -0.05709723383188248 
-0.01527760736644268 -0.03463670238852501 -0.0498967319726944 0.022164275869727135 -0.006748564075678587 0.05266190692782402 -0.040952082723379135 0.01768125593662262 0.01007978618144989 
-0.014518090523779392 -0.0358981229364872 -0.030513066798448563 0.06854825466871262 0.0010604775743559003 0.004176439717411995 0.01192441862076521 0.03588991239666939 0.0341387502849102 
-0.21654076874256134 -0.009238322265446186 0.14939294755458832 0.00557273905724287 -0.03651202470064163 0.05712173879146576 -0.05026063695549965 -0.01546410284936428 -0.020693276077508926 
0.07086048275232315 -0.022407768294215202 0.05875589698553085 0.06820660084486008 -0.03882772475481033 0.0425749234855175 0.04447825625538826 -0.04436720535159111 -0.005185428541153669 
0.0008997468394227326 -0.03439389541745186 -0.05241427943110466 -0.007020126562565565 -0.032270800322294235 -0.0020323593635112047 0.05457456037402153 0.007298250682651997 -0.034204430878162384 
0.040881719440221786 0.022483745589852333 -0.019804738461971283 -0.02882855013012886 -0.006798036862164736 -0.05874389410018921 0.029661498963832855 0.04079899564385414 -0.056783463805913925 
-0.00894931424409151 -0.07515732198953629 -0.04463844373822212 0.09890115261077881 -0.05868077650666237 -0.00215665134601295 0.022747324779629707 -0.045678045600652695 -0.021083436906337738 
-0.029404213652014732 0.005305015482008457 -0.02271658554673195 -0.040122441947460175 -0.051822811365127563 -0.006211116909980774 0.051756855100393295 -0.0019112274749204516 -0.0382755845785141 
0.04118097573518753 0.039604004472494125 0.055108606815338135 -0.00899550225585699 -0.028025826439261436 0.013919767923653126 0.012115190736949444 0.056888096034526825 -0.010757317766547203 
-0.005339589901268482 0.026775192469358444 -0.04767127335071564 0.006258899345993996 -0.0040866355411708355 0.02614852972328663 0.0042084320448338985 0.047446634620428085 0.022340213879942894 
-0.008551156148314476 -0.031050121411681175 0.05132739618420601 0.040822893381118774 -0.05968412756919861 -0.01903388276696205 -0.031191224232316017 -0.004652262665331364 -0.04254639148712158 
0.05120164901018143 -0.04163086414337158 0.010585250332951546 0.03733353316783905 0.037727098912000656 -0.02669619582593441 -0.06716085225343704 -0.023063519969582558 -0.0436369851231575 
0.031679417937994 -0.06894367188215256 0.05816521868109703 0.04415658116340637 0.026682844385504723 0.006808842997997999 -0.047377899289131165 -0.07447245717048645 -0.039249420166015625 
3.02409225696465e-05 -0.022066958248615265 -0.028631145134568214 0.04206927493214607 0.02877730503678322 0.008074002340435982 -0.002363320905715227 -0.011011040769517422 -0.0034181701485067606 
0.0009724357514642179 -0.03991904854774475 -0.07095447182655334 0.05980601906776428 -0.0350327305495739 -0.06114499270915985 0.009946090169250965 0.04820932447910309 -0.034316301345825195 
0.1328856498003006 0.08866436034440994 0.013683781959116459 -0.25129932165145874 0.09821737557649612 -0.12344536185264587 0.02893536537885666 0.027678892016410828 -0.026305237784981728 
-0.05101680010557175 0.03183647617697716 0.02059636265039444 0.03289727866649628 0.06675194203853607 0.024785751476883888 -0.028330612927675247 0.004111095331609249 -0.04230159893631935 
-0.02858709543943405 0.09837256371974945 -0.06488083302974701 0.0293106772005558 0.041423048824071884 -0.031163262203335762 0.00433295127004385 -0.06000036001205444 0.2513044476509094 
0.05687914788722992 -0.050670359283685684 0.015347106382250786 -0.012534748762845993 -0.020718224346637726 -0.02114231139421463 -0.05185873433947563 0.055798038840293884 -0.008101734332740307 
0.027194760739803314 -0.003200235776603222 0.013612097129225731 0.02466433122754097 0.027813227847218513 0.008269383572041988 -0.028255796059966087 0.01036046538501978 -0.025602690875530243 
0.03875679522752762 -0.028890877962112427 0.028667043894529343 -0.039617668837308884 -0.04578910395503044 -0.009553290903568268 -0.008569205179810524 -0.004003139678388834 -0.039909183979034424 
0.017924822866916656 0.026759572327136993 -0.030872508883476257 -0.028906524181365967 0.0023424639366567135 0.05531494319438934 0.12628963589668274 0.009196585975587368 0.0023844267707318068 
0.07638335973024368 -0.024674728512763977 -0.03424257040023804 -0.011046034283936024 -0.0996975377202034 0.0038232081569731236 0.005350205115973949 0.11732282489538193 -0.05601055547595024 
-0.06225837022066116 -0.037379950284957886 0.0062470342963933945 0.005715811625123024 -0.013824512250721455 -0.006776113528758287 0.0304427407681942 -0.060479823499917984 -0.02186676673591137 
-0.02149052545428276 0.054525986313819885 -0.051302071660757065 -0.028045358136296272 -0.009656606242060661 -0.020372934639453888 -0.007371754851192236 -0.01449559535831213 -0.03382772579789162 
-0.06068829819560051 0.010335564613342285 -0.008137240074574947 0.039059676229953766 0.05855153501033783 -0.0540606714785099 0.028189627453684807 -0.008048716932535172 -0.043910883367061615 
-0.2016199827194214 0.01909894309937954 0.14542867243289948 -0.007513401098549366 0.006711096502840519 -0.09771998971700668 0.00866335816681385 -0.016808658838272095 0.07267789542675018 
0.07046284526586533 0.021194901317358017 0.032566897571086884 0.06411310285329819 0.07412528246641159 0.07180671393871307 -0.008175013586878777 0.0248579028993845 -0.025992171838879585 
-0.02849169820547104 0.0642089992761612 0.02611570619046688 -0.05629301071166992 -0.0005277254967950284 0.05778229981660843 0.032513365149497986 -0.05418503284454346 0.02207326330244541 
-0.026183782145380974 0.05077609792351723 -0.022027967497706413 -0.03452710807323456 -0.03438325971364975 0.042215827852487564 0.04666725546121597 -0.01879184879362583 -0.03982570394873619 
0.025139186531305313 0.02264278568327427 0.010554795153439045 0.00965275801718235 -0.11982616782188416 -0.08178628981113434 0.09004876762628555 -0.04753071442246437 -0.01604420319199562 
0.007098383270204067 -0.04287680238485336 0.04002702608704567 -0.026788892224431038 0.03489319235086441 0.016993718221783638 -0.060677602887153625 -0.02970251999795437 0.016357263550162315 
-0.016197850927710533 0.05669936165213585 -0.029853539541363716 -0.06590317189693451 -0.048384781926870346 0.007284512277692556 0.04330027475953102 0.04299289733171463 0.0591580867767334 
-0.07572000473737717 0.046957507729530334 -0.0733611136674881 0.07228117436170578 -0.009501023218035698 -0.012448119930922985 -0.05478157103061676 -0.04717644676566124 -0.040709324181079865 
-0.0776352807879448 0.002661285921931267 -0.04011001065373421 0.03980352729558945 0.010596039704978466 -0.03528851270675659 -0.012084669433534145 0.005130330566316843 -0.002494718413800001 
-0.01823670044541359 -0.002082598162814975 -0.005864633712917566 0.06148436665534973 0.039434075355529785 -0.030166206881403923 0.02196691930294037 -0.08819475769996643 0.008414140902459621 
0.015672633424401283 0.01573926769196987 -0.06228754669427872 0.04826206713914871 0.05551036074757576 -0.037860970944166183 0.0038459415081888437 0.01279383897781372 0.03607445955276489 
0.02651224099099636 0.05916329845786095 0.010907569900155067 -0.04217822104692459 0.027828563004732132 -0.03148580342531204 0.036304425448179245 -0.02025562711060047 0.0519673153758049 
0.017538242042064667 0.03978680819272995 0.0022335397079586983 0.015616674907505512 -0.04317500814795494 -0.016914522275328636 0.03219827264547348 0.05119437351822853 0.026489432901144028 
0.3113989531993866 -0.03972231596708298 -0.03911299258470535 -0.16367873549461365 -0.07942651957273483 0.002900748746469617 0.09084834903478622 0.05679916590452194 -0.1141861155629158 
-0.04849107190966606 0.07081857323646545 0.06677322089672089 -0.05295182019472122 0.027948517352342606 0.10271774977445602 0.15570509433746338 -0.10148030519485474 -0.0308225154876709 
-0.08128581196069717 -0.037573251873254776 -0.011483338661491871 -0.08711463212966919 0.18974801898002625 -0.2802005112171173 0.019691577181220055 0.05580422282218933 0.06992945075035095 
-0.015259590931236744 0.0636453777551651 -0.00015712578897364438 0.04443048685789108 0.027026250958442688 -0.000993772642686963 -0.00749334366992116 -0.02551642432808876 -0.009668715298175812 
-0.05891828611493111 0.02198551595211029 -0.031752947717905045 -0.035569727420806885 0.005242771003395319 0.009698235429823399 -0.07891880720853806 0.009566644206643105 -0.006566798314452171 
0.04159247875213623 -0.025806915014982224 -0.00117017503362149 -0.03143756091594696 0.05008508637547493 -0.004809125792235136 -0.0011874560732394457 0.0190432071685791 -0.007008235435932875 
0.026884540915489197 -0.04809188097715378 0.008614783175289631 0.050942372530698776 -0.014360697008669376 0.018173551186919212 0.11229072511196136 -0.1015956699848175 -0.035031791776418686 
0.045901890844106674 -0.002816461492329836 0.0355074405670166 0.014912850223481655 -0.0038420292548835278 0.07202380150556564 0.02103608287870884 0.08829645812511444 -0.3612200915813446 
-0.06055263802409172 0.017688745632767677 0.03534013032913208 0.009740243665874004 0.0075436485931277275 0.02704228088259697 0.06729050725698471 -0.0037696221843361855 -0.0141662722453475 
0.0025597403291612864 0.07216405123472214 0.009806569665670395 -0.01884317584335804 0.010599251836538315 0.020223405212163925 -0.06342360377311707 -0.03139827400445938 -0.02117132768034935 
0.025939522311091423 0.007494466844946146 -0.002293369732797146 -0.041827812790870667 0.06682970374822617 0.047811124473810196 0.042880766093730927 -0.04413025826215744 0.04767205938696861 
-0.282889187335968 -0.1051982119679451 0.009591191075742245 0.03586689010262489 0.16765503585338593 0.0522918701171875 0.011429298669099808 0.008195060305297375 -0.02298770099878311 
-0.0690481886267662 -0.017293358221650124 -0.051637280732393265 0.030727896839380264 0.01056643482297659 0.01171102188527584 -0.01236710511147976 -0.0022234709467738867 -0.046823062002658844 
0.01641647331416607 -0.014269588515162468 0.024280142039060593 0.04578281566500664 0.06790260225534439 0.04010694473981857 -0.05068857595324516 0.009254255332052708 -0.011049188673496246 
0.06342422962188721 0.005272246897220612 -0.031948886811733246 0.04336622357368469 0.06186513230204582 -0.011203577741980553 -0.029481567442417145 0.04688602313399315 0.017955072224140167 
-0.1345444619655609 0.06211310997605324 -0.04793417453765869 0.019317686557769775 0.13379570841789246 -0.043879322707653046 0.010680096223950386 -0.023713424801826477 0.051568083465099335 
-0.041598450392484665 -0.05088138207793236 -0.06654363870620728 0.06016813591122627 0.06898515671491623 0.02557329274713993 -0.013531839475035667 -0.02462827041745186 -0.0528237521648407 
0.030181674286723137 -0.006429505068808794 0.041247691959142685 0.07079725712537766 -0.03691406175494194 0.06101807579398155 -0.007712272927165031 0.0021854357328265905 -0.012155123054981232 
0.02615017630159855 -0.0025147374253720045 -0.0359647311270237 0.062063880264759064 -0.012508864514529705 -0.014577853493392467 -0.016186514869332314 0.028783155605196953 -0.06662090122699738 
-0.06702910363674164 0.006227271165698767 -0.03920459747314453 0.005339066963642836 -0.05592329427599907 0.07455607503652573 0.04075831174850464 -0.04506858065724373 0.034483712166547775 
-0.07067656517028809 0.058541104197502136 -0.05144061520695686 -0.05045771226286888 0.014315067790448666 -0.06844701617956161 0.0014243647456169128 0.08534166216850281 0.026925571262836456 
0.0007953293970786035 -0.0035861176438629627 -0.03041817434132099 -0.03068576380610466 0.0029462457168847322 0.004642450716346502 0.03156968578696251 -0.05678970366716385 -0.05561450868844986 
0.06453888863325119 -0.039984080940485 -0.031867269426584244 -0.017568927258253098 0.055320948362350464 -0.017934735864400864 0.05360808223485947 0.07597754895687103 -0.01207587867975235 
-0.05964469164609909 -0.012865178287029266 0.05837298929691315 -0.013388820923864841 -0.0404876209795475 -0.05839812383055687 0.024850381538271904 -0.01851397007703781 -0.00961991772055626 
0.1940201371908188 0.004072052426636219 0.033327873796224594 -0.2502187490463257 0.06721021980047226 0.046169109642505646 0.05734255164861679 0.06939222663640976 0.013837245292961597 
-0.0111155454069376 0.043214116245508194 -0.019638709723949432 -0.05409657955169678 0.07059156149625778 0.03701803833246231 0.10107318311929703 -0.06187792867422104 -0.04639189690351486 
0.03443606197834015 -0.02074923925101757 0.09729926288127899 0.01691165380179882 0.12122820317745209 -0.2042565792798996 -0.06810729950666428 -0.11153793334960938 0.17796002328395844 
-0.00565358716994524 -0.02930617518723011 0.06044777110219002 0.021857522428035736 0.019421285018324852 0.010396568104624748 0.010111561976373196 0.022905094549059868 -0.00038637814577668905 
-0.009001001715660095 -0.05027893930673599 -0.06018606945872307 -0.01956511288881302 0.01301639899611473 -0.025142667815089226 0.025786323472857475 -0.01621829904615879 0.018928630277514458 
0.01528986170887947 0.04200589656829834 -0.032439783215522766 -0.034563686698675156 -0.0027734502218663692 0.026572350412607193 -0.016374433413147926 0.023415647447109222 -0.05300815775990486 
-0.054916899651288986 0.047260038554668427 -0.06913867592811584 0.01744122989475727 0.01557382382452488 0.05209553241729736 0.003983879927545786 -0.0946885421872139 -0.04342290759086609 
0.04397454857826233 -0.06784473359584808 0.052168119698762894 -0.004055318888276815 0.001186943263746798 -0.009009693749248981 0.13612553477287292 0.0581221878528595 0.057760901749134064 
-0.0032337394077330828 -0.04228128865361214 -0.034855540841817856 0.014656435698270798 0.025298956781625748 -0.04989374428987503 -0.05125035345554352 -0.044380176812410355 0.011214681901037693 
0.03805484250187874 -0.023832885548472404 -0.030245855450630188 -0.023060578852891922 0.041639626026153564 0.05540814623236656 -0.009787936694920063 -0.06382257491350174 0.02109071984887123 
-0.016995670273900032 -0.008331842720508575 -0.0048924218863248825 0.02767961472272873 0.04896872863173485 0.0019027628004550934 -0.05370773375034332 -0.003010473446920514 -0.043375466018915176 
0.14828646183013916 -0.049925412982702255 0.02607414498925209 -0.07073494791984558 -0.07408260554075241 -0.032362546771764755 0.07529916614294052 -0.03847439959645271 0.039145320653915405 
-0.005264566745609045 -0.01405003946274519 0.014108709059655666 -0.010714451782405376 0.008134281262755394 -0.016760561615228653 -0.06050824373960495 0.0040076798759400845 -0.0603492371737957 
-0.04783712327480316 -0.037581101059913635 -0.05463685467839241 0.06627866625785828 -0.0483659990131855 -0.004285610280930996 0.013295473530888557 0.011427088640630245 -0.013300003483891487 
0.05283933877944946 -0.013722517527639866 0.06828834116458893 -0.03406466171145439 0.009568613022565842 -0.03382701426744461 -0.04512093588709831 -0.04603319242596626 -0.005635432433336973 
0.03876706585288048 0.01591985858976841 -0.002628943882882595 0.013162558898329735 -0.0340602733194828 -0.050544463098049164 -0.03584301099181175 0.08588489890098572 -0.03345571085810661 
-0.01323586143553257 -0.044950660318136215 -0.04557162523269653 -0.025099681690335274 -0.02884751558303833 0.016819221898913383 -0.057231612503528595 0.051190365105867386 0.05570467561483383 
-0.02439703233540058 0.06344762444496155 0.014306674711406231 0.05410024896264076 0.00619516521692276 -0.057226527482271194 -0.017115257680416107 -0.024867737665772438 -0.05912606790661812 
-0.0032100884709507227 0.0034725142177194357 -0.06206761300563812 0.04503553360700607 -0.04080355912446976 -0.0022651804611086845 0.0378786139190197 0.005803926847875118 -0.06641867756843567 
0.039233364164829254 0.03015456534922123 0.044176436960697174 0.0010884781368076801 0.07041698694229126 -0.006040262058377266 0.0535348579287529 0.01579192467033863 -0.03972233459353447 
0.03558920696377754 0.013380992226302624 0.018867462873458862 0.025374218821525574 0.01859576813876629 -0.057231198996305466 0.029768195003271103 0.05788611248135567 -0.04795343056321144 
0.02745407447218895 0.05921962112188339 0.0354788675904274 -0.06658738851547241 -0.015750708058476448 0.06079231575131416 0.03207641467452049 0.03239915892481804 0.028468076139688492 
0.03449840471148491 -0.021833665668964386 0.023034194484353065 0.004082265309989452 0.036336738616228104 0.014765889383852482 -0.01668722555041313 0.0005054254434071481 -0.012686064466834068 
-0.051231853663921356 -0.06858988851308823 -0.03604527935385704 0.019008819013834 -0.0681716799736023 0.0025753017980605364 0.013031277805566788 0.03426549583673477 -0.07404378801584244 
-0.05080645531415939 0.029466865584254265 -0.012880737893283367 0.02315193973481655 -0.11287097632884979 -0.06335211545228958 0.058935582637786865 0.10038211941719055 0.0285527054220438 
-0.023897115141153336 0.017532246187329292 -0.006180036347359419 -0.01978323981165886 -0.09458763152360916 -0.043955136090517044 0.039603520184755325 0.0520806722342968 0.04264729842543602 
0.013627864420413971 -0.06604841351509094 -0.10692372918128967 0.004804613068699837 0.012785063125193119 0.22086170315742493 -0.014615426771342754 0.028451284393668175 -0.14780528843402863 
-0.026385236531496048 -0.02402031607925892 -0.007556289900094271 0.004580652341246605 0.059105582535266876 0.01576792635023594 0.017126793041825294 0.04477621614933014 0.03905739262700081 
0.020268980413675308 0.0003925054334104061 0.020411236211657524 0.021190088242292404 0.04197816178202629 0.01660888083279133 -0.036387231200933456 -0.032834164798259735 -0.1056218147277832 
0.014920533634722233 -0.040350478142499924 0.012886611744761467 0.01637294329702854 0.014930450357496738 0.03389832004904747 -0.0634375512599945 0.01034778542816639 -0.0486384816467762 
-0.03494901582598686 0.024483095854520798 0.010554313659667969 -0.01001968514174223 0.11577164381742477 0.037024371325969696 0.05982757359743118 0.011018897406756878 0.025540689006447792 
0.04559443145990372 0.0423428937792778 0.0007339700241573155 -0.06933210045099258 -0.1174471452832222 -0.07311780005693436 -0.04440581053495407 0.11219016462564468 0.0054270136170089245 
-0.0010864485520869493 -0.01987893134355545 0.017919080331921577 0.04044538363814354 0.03317135199904442 0.03560054674744606 -0.051981061697006226 -0.06291330605745316 0.04907076805830002 
0.028607722371816635 0.031016351655125618 0.011072535999119282 0.025331925600767136 0.001658219494856894 0.06973728537559509 0.05786513537168503 -0.02263806201517582 0.03719770908355713 
0.05917730554938316 0.05021822452545166 -0.04183022677898407 -0.05085276439785957 -0.014382914640009403 0.032236453145742416 0.03996288403868675 -0.010158680379390717 0.05124573037028313 
0.1495118886232376 -0.026036329567432404 0.13500910997390747 0.01951294206082821 -0.026511911302804947 0.0002422710822429508 -0.010497517883777618 0.01635255292057991 0.05525996536016464 
0.05645635351538658 -0.05454374849796295 0.035858698189258575 0.04559697210788727 -0.0020203054882586002 0.06869933009147644 0.003523216350004077 0.061009302735328674 -0.03774375095963478 
-0.00956849753856659 0.03806306794285774 -0.03824584558606148 0.044222284108400345 0.03383104130625725 0.0381908118724823 -0.040919966995716095 -0.036092083901166916 -0.02663501724600792 
0.032151564955711365 -0.026192519813776016 0.00694430572912097 0.0634007379412651 -0.014828220009803772 0.012439345940947533 -0.041871435940265656 0.04893256351351738 -0.06025267019867897 
-0.059829723089933395 -0.020040739327669144 -0.008314804174005985 0.045278724282979965 -0.07123485207557678 0.0016225345898419619 -0.05162307620048523 -0.06975860148668289 0.024688351899385452 
-0.018222955986857414 0.058520831167697906 -0.02676832117140293 0.044786036014556885 0.010767855681478977 0.045462824404239655 -0.04925781115889549 0.004748515784740448 0.03152383491396904 
0.020767999812960625 0.046217404305934906 -0.0443277508020401 -0.02759554050862789 -0.055434104055166245 0.013958243653178215 -0.051606930792331696 0.01267703715711832 -0.011765910312533379 
-0.04755667597055435 0.03993310406804085 -0.017305858433246613 0.003387602511793375 0.02351689338684082 -0.03598717972636223 -0.030576368793845177 -0.06098902225494385 0.0706414133310318 
0.0018738305661827326 0.029841724783182144 -0.05205957964062691 -0.06857718527317047 -0.02852528914809227 0.031036946922540665 0.03371454402804375 0.05243546515703201 0.00305377459153533 
-0.08135949075222015 -0.038608700037002563 -0.017729876562952995 0.011460069566965103 0.011751605197787285 0.02620164304971695 -0.06879830360412598 -0.011885279789566994 -0.0016019890317693353 
0.04045204445719719 0.06837242841720581 0.01867000013589859 -0.004789029248058796 0.02223176881670952 -0.0520821213722229 -0.06126304343342781 -0.0285646952688694 0.04823993146419525 
0.022622190415859222 0.034214768558740616 0.051583923399448395 -0.058510296046733856 0.002551725134253502 -0.012146802619099617 -0.09724409878253937 0.015029583126306534 -0.07931376248598099 
-0.02282174490392208 -0.03606288880109787 -0.0064834533259272575 -0.028991220518946648 0.02129650115966797 0.013067979365587234 0.020174462348222733 -0.060340866446495056 -0.048539064824581146 
-0.1562722623348236 -0.05208567529916763 -0.06004953384399414 0.023838205263018608 0.11138682067394257 -0.013150960206985474 -0.034368809312582016 -0.07191198319196701 0.006002136971801519 
0.013520409353077412 0.07030272483825684 -0.03928740322589874 0.06468028575181961 0.08689328283071518 -0.016800368204712868 -0.03940526023507118 -0.038089483976364136 0.009540080092847347 
-0.027511445805430412 0.11788114160299301 0.047245804220438004 0.03467954322695732 0.06521665304899216 -0.07579918950796127 0.022565951570868492 -0.04354875162243843 -0.010772072710096836 
-0.06868960708379745 0.05288098379969597 0.06913060694932938 0.026672042906284332 0.02914411574602127 -0.059429142624139786 0.04941081255674362 0.0633629709482193 0.0585041344165802 
0.03485292196273804 0.03766832873225212 -0.08744116127490997 -0.022295938804745674 0.0554300919175148 0.048053666949272156 -0.06859798729419708 -0.006620888598263264 -0.07415156811475754 
-0.05212763696908951 0.06040024757385254 0.024698231369256973 0.028036443516612053 -0.03052322193980217 -0.04425348341464996 -0.02664625272154808 0.05597000569105148 0.012089782394468784 
0.08985131233930588 -0.013885884545743465 0.030636193230748177 -0.01564466580748558 -0.04802178964018822 -0.0033813335467129946 0.07548582553863525 0.04143927991390228 -0.0531514473259449 
-0.040150027722120285 0.0719793438911438 0.05232953280210495 0.0696600154042244 0.017993025481700897 0.03397008031606674 -0.1991862803697586 -0.07450516521930695 0.02252124808728695 
-0.057089872658252716 0.037289150059223175 0.044097308069467545 -0.022466810420155525 -0.029301375150680542 -0.05392405390739441 0.03821110352873802 -0.0696975588798523 0.008345486596226692 
0.05174923688173294 0.053858038038015366 -0.0019150485750287771 -0.0010691656498238444 0.028881307691335678 0.025622785091400146 0.03570845350623131 -0.04660004377365112 -0.03713800758123398 
-0.013359098695218563 0.034075524657964706 -0.05992469936609268 -0.0075691561214625835 -0.0032210168428719044 0.023093782365322113 -0.023868300020694733 -0.060253314673900604 0.06384635716676712 
0.04507007077336311 0.2068200558423996 -0.23433974385261536 -0.018462304025888443 0.024864930659532547 -0.07485245168209076 0.03517872095108032 0.048683930188417435 0.01865699701011181 
0.043872151523828506 -0.005835488438606262 0.06969857960939407 0.03616062179207802 0.05453035607933998 -0.013198127038776875 -0.00418046535924077 0.033732954412698746 -0.02499181032180786 
0.07066015899181366 0.0362139567732811 -0.049342572689056396 -0.0021702880039811134 -0.05410135164856911 0.05571206286549568 0.0009117389563471079 -0.05688375607132912 0.03845474496483803 
0.05208634212613106 -0.03780396655201912 -0.028299355879426003 0.014932584948837757 -0.00672169728204608 -0.026605069637298584 -0.023243373259902 -0.025481680408120155 0.016204630956053734 
0.032082244753837585 -0.04919850453734398 -0.001824454520829022 -0.13416528701782227 0.009543843567371368 -0.02957223542034626 0.030236463993787766 -0.012699496932327747 0.07556842267513275 
0.036385148763656616 -0.04042613133788109 0.06919907033443451 -0.069610096514225 0.05901113897562027 -0.06281625479459763 -0.01797972060739994 0.006542997434735298 -0.02566724643111229 
0.005489623174071312 -0.014711234718561172 0.03021836094558239 -0.03902049735188484 0.010771357454359531 -0.06600340455770493 -0.04923022910952568 -0.02360738068819046 0.038724079728126526 
-0.03726034611463547 -0.019317779690027237 0.006185471545904875 -0.05134787783026695 -0.05421561002731323 -0.004786306992173195 0.0024141832254827023 0.0735209733247757 0.07761765271425247 
-0.053052905946969986 -0.006473759189248085 0.0334211029112339 0.05321595445275307 0.0721212849020958 -0.03493155911564827 0.0651012510061264 0.06374096125364304 0.04558510333299637 
-0.02405714802443981 -0.031399570405483246 -0.027284273877739906 0.06844872236251831 0.07288363575935364 0.0022384237963706255 0.019520338624715805 -0.036909062415361404 0.009573787450790405 
-0.05231783911585808 0.0049741147086024284 0.0034890687093138695 -0.02838549017906189 0.028512440621852875 0.00317120342515409 -0.009655877016484737 -0.004946524277329445 0.02739347517490387 
-0.0671471506357193 -0.08776534348726273 -0.0582817941904068 -0.12054198980331421 -0.006831574719399214 0.04122714325785637 0.031257446855306625 -0.019636420533061028 0.07683905959129333 
-0.018587511032819748 0.05105580389499664 -0.05145176872611046 -0.026828523725271225 0.007855595089495182 -0.009633820503950119 0.08010786026716232 0.018425313755869865 -0.03811268135905266 
0.05431488901376724 -0.025551004335284233 -0.013263262808322906 0.17640487849712372 -0.08754070103168488 0.104521244764328 -0.01641817018389702 0.07924719899892807 -0.05883904919028282 
0.04655361548066139 -0.05751747265458107 0.04323320463299751 -0.03587312996387482 0.0477728545665741 0.014237410388886929 -0.18496118485927582 -0.1561490148305893 -0.19789394736289978 
0.03775022178888321 -0.1929825246334076 -0.10248974710702896 -0.040421683341264725 -0.09013401716947556 -0.14698603749275208 -0.0012753440532833338 -0.07347413152456284 -0.08144748210906982 
0.050632182508707047 0.01947781816124916 0.023850735276937485 0.060527049005031586 0.017693929374217987 0.030398618429899216 -0.06402351707220078 -0.06764890998601913 -0.05003789812326431 
-0.11434928327798843 -0.05817805230617523 0.1401606649160385 0.024036800488829613 0.023296168074011803 0.1194906085729599 -0.07969513535499573 -0.2128124088048935 0.0014081054832786322 
0.02792600356042385 -0.032350894063711166 -0.031516481190919876 0.07500330358743668 0.04622339457273483 0.013225105591118336 -0.013531720265746117 0.0003300613316241652 0.02907058224081993 
-0.00016834630514495075 0.017298633232712746 -0.10522382706403732 0.009601649828255177 0.10437741875648499 -0.02387726865708828 0.004403634462505579 -0.06660307198762894 -0.09157142043113708 
0.006452909205108881 -0.14235959947109222 -0.04831735044717789 -0.015568189322948456 0.08081283420324326 0.06933777779340744 0.26448169350624084 -0.5225163102149963 -0.09028394520282745 
0.05754012614488602 0.03400714695453644 -0.019134962931275368 -0.06860632449388504 0.03533024340867996 0.017035558819770813 0.05428248271346092 0.037123020738363266 0.03692692518234253 
-0.011576952412724495 -0.04424159973859787 -0.002598999999463558 -0.02035392075777054 -5.3315627155825496e-05 0.008750597946345806 -0.06089305877685547 0.028409749269485474 -0.04123234376311302 
-0.007127675227820873 0.022952813655138016 -0.06777771562337875 0.05874441936612129 0.038997210562229156 -0.01499857846647501 0.070675790309906 0.016184315085411072 0.036557625979185104 
0.03673176094889641 -0.1482119858264923 -0.13130755722522736 -0.01595630683004856 0.11008736491203308 -0.030289918184280396 -0.011617474257946014 0.05504390969872475 -0.04905147850513458 
-0.022217681631445885 0.04210571199655533 -0.05672590434551239 0.055058885365724564 -0.00013236480299383402 -0.028736867010593414 0.022202445194125175 -0.055342819541692734 -0.03228235989809036 
-0.014596899040043354 -0.036649439483881 0.02943951077759266 0.04273254796862602 -0.042719777673482895 -0.010710755363106728 -0.013611736707389355 0.05014830827713013 0.007671678438782692 
0.04788833111524582 -0.012320608831942081 -0.03616032376885414 0.04779643565416336 0.03804093971848488 0.061621300876140594 -0.05769028142094612 0.04877964407205582 -0.053169868886470795 
0.0046576461754739285 0.04745974391698837 0.044350944459438324 0.04117658734321594 0.036081716418266296 -0.039933349937200546 -0.03230496123433113 0.014815375208854675 -0.009815539233386517 
0.036491088569164276 -0.06639959663152695 0.028264610096812248 0.018503284081816673 0.044192515313625336 -0.033325061202049255 0.0660613551735878 -0.019187405705451965 -0.04845553636550903 
0.018439318984746933 0.04626470431685448 0.009467525407671928 -0.031164437532424927 0.054494090378284454 0.028397362679243088 -0.06299954652786255 -0.061443451792001724 -0.001809688052162528 
-0.050274692475795746 -0.04623602330684662 0.059486836194992065 0.01830611377954483 0.02547336183488369 0.037148091942071915 0.05834367871284485 -0.03117215260863304 0.0073895747773349285 
0.03393768146634102 -0.06272146105766296 0.005636662244796753 -0.05113179236650467 0.023423882201313972 -0.05569799616932869 -0.05688967928290367 0.06750019639730453 -0.03329700976610184 
0.03820781037211418 0.04266509786248207 0.0006230074795894325 -0.03584187477827072 -0.004300341941416264 0.012816046364605427 0.002921760082244873 -0.04904894158244133 0.027781954035162926 
-0.051448144018650055 0.026063520461320877 -0.035203717648983 -0.010487290099263191 -0.04718886688351631 -0.008087976835668087 0.014409855008125305 0.017634302377700806 0.03830074891448021 
-0.07393836975097656 -0.07031400501728058 0.00577510753646493 0.028072115033864975 -0.006108694709837437 -0.024080857634544373 2.559528411438805e-06 -0.02985798381268978 0.05826389417052269 
0.05063050612807274 0.03336546570062637 -0.012827504426240921 -0.029381033033132553 0.028146782889962196 -0.03048410639166832 -0.04510379210114479 0.04315706342458725 0.045010726898908615 
-0.021006939932703972 -0.07327812165021896 -0.0515340156853199 0.0018530604429543018 0.021556807681918144 0.07132894545793533 -0.017705218866467476 -0.021964138373732567 -0.05346275120973587 
0.060644738376140594 0.029755916446447372 -0.036179978400468826 -0.04258257895708084 0.10082488507032394 0.059710826724767685 0.030651135370135307 -0.06754235923290253 -0.0862755998969078 
0.06426036357879639 0.0341307707130909 -0.004385086707770824 0.0376579612493515 0.04065050184726715 -0.08006256073713303 0.052432771772146225 -0.02845444530248642 0.08753441274166107 
0.050832584500312805 0.021088218316435814 -0.06775201857089996 -0.0672009214758873 -0.04149467870593071 0.038084983825683594 0.03998814523220062 0.003771051997318864 -0.06087042763829231 
-0.016404902562499046 0.02179107256233692 0.03598485887050629 -0.03783563897013664 0.05684218183159828 0.04010980948805809 0.03209177777171135 -0.015271039679646492 -0.042335957288742065 
-0.0562504306435585 -0.0437651090323925 0.0057512265630066395 0.045376006513834 -0.008639520965516567 -0.05108834058046341 0.011288439854979515 0.04651033133268356 -0.015802152454853058 
-0.04583919793367386 -0.03808627650141716 0.02654474973678589 -0.06750263273715973 0.044094111770391464 -0.03627960756421089 0.024533646181225777 -0.03974483534693718 0.03697238117456436 
-0.023837842047214508 0.048413533717393875 -0.020657051354646683 0.0610191784799099 0.1200549378991127 -0.03815397620201111 0.09030355513095856 -0.13031286001205444 0.1092333197593689 
0.053333692252635956 0.05450741574168205 -0.0007285652100108564 -0.010573451407253742 -0.005768604576587677 0.023433895781636238 0.04139803722500801 -0.019317366182804108 -0.029995499178767204 
-0.045776430517435074 -0.014881753362715244 -0.05289197340607643 0.000474738102639094 -0.054998572915792465 0.01284256111830473 0.018184497952461243 0.004629982635378838 -0.0062870788387954235 
-0.053264155983924866 0.02553306147456169 0.021718835458159447 -0.04818161949515343 -0.0242781862616539 -0.03265116363763809 -0.05953807756304741 0.027806321159005165 -0.07033209502696991 
-0.0466030016541481 0.06037283316254616 0.11523084342479706 0.04754628241062164 -0.10627938061952591 -0.07393642514944077 -0.023567967116832733 0.001332384068518877 -0.017421938478946686 
0.031660258769989014 0.006291108205914497 -0.04874500259757042 0.0031777946278452873 -0.05052148550748825 -0.0034152884036302567 -0.06890248507261276 -0.028604945167899132 0.024032706394791603 
0.05291963368654251 0.03906499221920967 0.035194508731365204 0.05554986745119095 0.003681905334815383 0.04777456074953079 0.07921650260686874 0.0062730805948376656 0.005393706262111664 
-0.06294111162424088 0.020774055272340775 -0.06236165761947632 0.01964881271123886 -0.003732585348188877 -0.00809594988822937 0.01002204418182373 0.037553317844867706 0.034402161836624146 
0.04045598581433296 -0.004883178975433111 -0.0058477334678173065 -0.037685878574848175 0.02487892098724842 -0.015528137795627117 -0.08349776268005371 0.046746332198381424 -0.02745095081627369 
-0.021540293470025063 0.013334951363503933 -0.06926789879798889 0.018750840798020363 -0.06572224199771881 -0.05954347550868988 0.0457155667245388 -0.06324173510074615 0.006368082482367754 
0.031611595302820206 -0.039834968745708466 -0.040940023958683014 -0.04471782222390175 0.027004869654774666 0.05984173342585564 0.011079064570367336 -0.05194487050175667 0.05694904550909996 
-0.006372970063239336 -0.026266135275363922 0.015830693766474724 0.007231574039906263 -0.06177602335810661 0.04991614446043968 0.018620723858475685 -0.05290719121694565 -0.0019470984116196632 
-0.04775486886501312 -0.022652123123407364 0.03797800466418266 -0.023044543340802193 0.060594674199819565 -0.012201908975839615 -0.031142864376306534 -0.01235379371792078 0.00539809837937355 
0.003263691673055291 0.051046088337898254 0.04311561957001686 0.06610190123319626 -0.05724578723311424 0.07267104834318161 -0.026793165132403374 -0.021331606432795525 0.06674222648143768 
-0.0273702722042799 0.0474199578166008 0.02412228472530842 -0.06480028480291367 -0.06002477928996086 -0.06667863577604294 0.054445598274469376 -0.0038624508306384087 -0.058544255793094635 
0.027099359780550003 0.017253369092941284 -0.06161360442638397 0.002894712146371603 -0.022019414231181145 -0.050995517522096634 0.05470918118953705 0.07683984935283661 0.015832439064979553 
-0.005853477865457535 -0.0012045033508911729 -0.02397821843624115 0.028946349397301674 -0.009041628800332546 0.056511301547288895 0.028291314840316772 0.06620121002197266 0.0005451523466035724 
-0.02142571099102497 0.018924809992313385 -0.0025804757606238127 0.14548015594482422 -0.13996237516403198 0.09713326394557953 -0.05015244334936142 0.018022775650024414 -0.060107290744781494 
-0.037766944617033005 -0.03018469549715519 0.012805795297026634 0.004685627296566963 -0.028726851567626 -0.03264262154698372 -0.02242162637412548 0.03268132358789444 -0.07141642272472382 
-0.025823287665843964 -0.01984923891723156 0.08246633410453796 0.033738330006599426 -0.1010603979229927 0.08409560471773148 -0.017504051327705383 0.04911050200462341 -0.2236514836549759 
0.06552043557167053 -0.056008122861385345 0.0018507904605939984 0.01994587853550911 -0.04817920923233032 -0.06035842001438141 -0.04460432380437851 0.0381619930267334 0.029131131246685982 
-0.008992521092295647 -0.0041246660985052586 0.06348612159490585 -0.055467646569013596 0.00504655484110117 -0.04650692269206047 0.039823293685913086 0.03182617202401161 0.06822562962770462 
-0.02627907320857048 0.05175589397549629 -0.015084193088114262 0.019010405987501144 -0.0419219508767128 -0.05833577364683151 -0.029341628775000572 -0.049232956022024155 0.05615176633000374 
-0.05179527401924133 0.043713733553886414 -0.03543652594089508 -0.002748598577454686 0.08233197033405304 -0.020824402570724487 0.05420629307627678 0.08371663838624954 0.0016680378466844559 
-0.07987260073423386 0.0033499563578516245 0.04964695870876312 0.06330326944589615 0.03673648461699486 0.02220737189054489 0.0030467382166534662 0.07961244136095047 -0.08782931417226791 
0.046263691037893295 -0.05899706855416298 0.07061544805765152 0.04513788968324661 0.02576114982366562 0.017488671466708183 -0.05989916995167732 0.05935975909233093 0.037473637610673904 
0.002535479608923197 -0.0333898551762104 0.04386873543262482 0.004071189556270838 -0.033076006919145584 -0.030810093507170677 0.07051707804203033 0.02661864086985588 0.02793075703084469 
0.03881708160042763 -0.046308040618896484 -0.07145259529352188 0.021086767315864563 -0.006921520456671715 0.05068725720047951 0.030582649633288383 -0.028216149657964706 0.017792047932744026 
-0.1939913034439087 0.024719329550862312 0.04578464850783348 0.04261147230863571 -0.1050533801317215 0.0642494335770607 -0.04447697103023529 0.048182111233472824 0.030002674087882042 
-0.004606236238032579 0.049294088035821915 0.04727380722761154 0.01403260137885809 -0.03263392299413681 0.06437449157238007 0.021375315263867378 -0.0401889905333519 -0.051064059138298035 
-0.04789246991276741 0.05860263481736183 0.011867715045809746 0.05431255325675011 0.055458202958106995 -0.043251167982816696 0.0728800967335701 -0.023184461519122124 -0.04882099851965904 
0.04497505724430084 -0.05533585697412491 0.010037887841463089 0.0008825244731269777 0.02446668967604637 0.008125083521008492 0.06738751381635666 0.04004096984863281 0.06729864329099655 
0.0881001353263855 0.023685161024332047 0.011187990196049213 0.04109213128685951 -0.01751442812383175 -0.027078725397586823 -0.024911921471357346 0.032422520220279694 0.04815791919827461 
0.047837648540735245 0.06738126277923584 0.018767613917589188 -0.028557125478982925 0.031924862414598465 0.04580637812614441 -0.02830534800887108 -0.0026132252532988787 0.01774510182440281 
0.06526520103216171 0.016296694055199623 -0.004832986276596785 0.026069916784763336 0.05285833403468132 -0.010843046009540558 0.03273686766624451 -0.037818074226379395 0.0032405206002295017 
0.00040420517325401306 0.054188091307878494 0.004758658353239298 0.009561554528772831 0.05973951891064644 0.014390296302735806 0.059478022158145905 -0.06048845872282982 -0.01712125912308693 
-0.0032979219686239958 -0.07211446762084961 -0.05918128043413162 0.02189958281815052 -0.020003799349069595 -0.01266573928296566 -0.035625018179416656 -0.032069217413663864 0.030787669122219086 
-0.02818530797958374 0.07456041872501373 -0.07238209247589111 -0.01878318190574646 0.02618124708533287 -0.021096903830766678 0.03173108771443367 -0.0064490679651498795 0.0030995910055935383 
0.05504465103149414 0.020952900871634483 0.013683395460247993 0.04204079881310463 0.01484344806522131 -0.034261927008628845 0.010036280378699303 -0.032383453100919724 -0.05172476917505264 
-0.0022244423162192106 0.03489353507757187 -0.0526990182697773 0.02809097431600094 0.012066032737493515 0.020055873319506645 0.04452867805957794 -0.035851556807756424 -0.0681455060839653 
0.02470434084534645 -0.025454243645071983 0.07324746251106262 0.007310302462428808 0.048845745623111725 -0.03120947815477848 0.0021070733200758696 -0.029136981815099716 0.02708868682384491 
0.21720467507839203 -0.08167386054992676 0.024334322661161423 -0.21013811230659485 -0.00209723599255085 -0.040666475892066956 0.08828709274530411 -0.04514696076512337 -0.026459291577339172 
-0.013029140420258045 0.06408039480447769 0.029003873467445374 -0.04924860969185829 -0.013843091204762459 -0.11264164000749588 0.04977016896009445 0.03137322515249252 0.1346902996301651 
-0.07216431945562363 0.10135667771100998 -0.018797028809785843 0.0028462607879191637 0.030876869335770607 -0.10827668756246567 -0.05054308846592903 0.12825912237167358 -0.12266895920038223 
0.05934992805123329 0.059999819844961166 -0.019275669008493423 0.019807608798146248 0.029465511441230774 0.018575552850961685 -0.030414335429668427 0.020126735791563988 -0.02354058250784874 
-0.04470229893922806 0.007267765700817108 -0.05774000659584999 0.05100356042385101 0.031596943736076355 0.029366502538323402 0.01035863347351551 -0.05090507119894028 0.0630481094121933 
0.053529415279626846 -0.026064859703183174 0.04461180418729782 0.06637737900018692 0.03552718460559845 0.07062441855669022 -0.002961741527542472 -0.00844202097505331 -0.02553337812423706 
-0.061554014682769775 -0.022212496027350426 0.019209088757634163 0.0236591175198555 -0.08720879256725311 0.030259404331445694 -0.023015005514025688 -0.07308319211006165 0.04080813750624657 
-0.018412379547953606 0.01151298824697733 0.05175158381462097 -0.014364290982484818 -0.0704052597284317 0.004878413397818804 -0.04626457765698433 0.13263823091983795 -0.06915862113237381 
0.02245429717004299 -0.07076166570186615 0.056584034115076065 0.013584322296082973 -0.06254743784666061 -0.029306253418326378 -0.05209328979253769 -0.00798260048031807 -0.05369746685028076 
-0.07963322103023529 0.023893527686595917 0.03237520530819893 -0.07318755984306335 0.004966846667230129 -0.06274595111608505 -0.049083661288022995 0.004638634156435728 0.04901682212948799 
-0.060102254152297974 -0.06721440702676773 0.03226309269666672 0.008951087482273579 -0.009766127914190292 -0.025304485112428665 -0.022293634712696075 0.024105317890644073 0.07286794483661652 
-0.01774400845170021 -0.022420428693294525 0.05415674299001694 0.03938613459467888 0.09110455960035324 0.07821627706289291 0.045635662972927094 0.017410192638635635 0.04687291756272316 
-0.026805486530065536 -0.016652831807732582 -0.06133662164211273 0.0331389382481575 -0.016252998262643814 -0.07222195714712143 0.017444750294089317 0.005214645527303219 0.011526762507855892 
0.0013268199982121587 0.012392056174576283 0.04991849139332771 -0.05701608955860138 0.05124165490269661 -0.029056750237941742 0.009909837506711483 0.022769520059227943 0.06521862745285034 
-0.056608762592077255 -0.004423339851200581 0.012665323913097382 -0.05774421617388725 0.004956129472702742 -0.01701098494231701 -0.02430140972137451 -0.014668215997517109 -0.05933035910129547 
0.09908009320497513 -0.019243359565734863 -0.033503346145153046 -0.04168204963207245 0.06834963709115982 0.056507136672735214 0.017724154517054558 -0.02568253129720688 0.056348878890275955 
0.026760384440422058 0.013750389218330383 -0.007980283349752426 0.06426990777254105 0.018810903653502464 -0.05414793640375137 0.026685912162065506 0.004157725255936384 -0.0461774542927742 
-0.02618148736655712 0.002389485714957118 0.044055432081222534 0.06527962535619736 0.06466222554445267 0.06380942463874817 -0.029169006273150444 -0.05379953607916832 -0.022648559883236885 
-0.012933263555169106 -0.016500283032655716 0.0038169939070940018 -0.017060840502381325 0.02016875334084034 -0.02704213373363018 -0.057626985013484955 0.0031347661279141903 -0.02463110350072384 
-0.008208268322050571 -0.0636240616440773 0.047660667449235916 0.026007339358329773 -0.0507676899433136 0.03678430616855621 -0.06617945432662964 0.035722896456718445 -0.03434903919696808 
-0.015750490128993988 0.03800255060195923 0.003957178443670273 -0.03180550038814545 -0.016079990193247795 0.04082507640123367 0.01801038347184658 0.04704543948173523 0.06407654285430908 
-0.019502809271216393 -0.05797690525650978 -0.027046777307987213 -0.03496117517352104 -0.03470207750797272 -0.03825658932328224 -0.05279436334967613 -0.048023875802755356 -0.016833433881402016 
0.04353886842727661 0.036803264170885086 -0.0184671301394701 -0.02235472947359085 -0.0763774961233139 -0.023519590497016907 0.012614807114005089 0.014128618873655796 -0.011214976198971272 
-0.02463505044579506 -0.005053775385022163 0.06327270716428757 -0.01755186729133129 -0.045444849878549576 -0.019805407151579857 0.01012757234275341 0.015836121514439583 -0.06678129732608795 
-0.011174974963068962 0.10734190046787262 -0.05120163783431053 -0.06325706094503403 0.004335740115493536 -0.029569679871201515 0.04218582808971405 0.03952821344137192 0.010854454711079597 
0.022878743708133698 0.029054539278149605 0.00801351573318243 -0.05696338042616844 0.05144679546356201 -0.022325711324810982 0.021356798708438873 0.029456211254000664 0.00232716160826385 
0.008228876627981663 0.07533365488052368 -0.06946729123592377 -0.04640675708651543 0.0016328264027833939 0.005217313766479492 -0.07889306545257568 -0.1098257526755333 0.15481224656105042 
0.031188780441880226 -0.006149292923510075 -0.030401315540075302 0.011708889156579971 0.02746989019215107 0.05740191042423248 0.017191950231790543 0.03299322351813316 0.03189660608768463 
-0.028963644057512283 -0.05720239877700806 0.04649749770760536 -0.03247809782624245 0.04465167969465256 -0.0010800245217978954 -0.042768411338329315 -0.01904424838721752 0.007568505592644215 
-0.059633612632751465 0.057398490607738495 0.05377284437417984 0.06190911680459976 -0.053359370678663254 -0.06979880481958389 0.014783786609768867 -0.04562666639685631 -0.023148251697421074 
0.0394766591489315 -0.0005697544547729194 -0.021055473014712334 0.11404799669981003 -0.03917739540338516 0.052429165691137314 0.009619815275073051 0.08470182120800018 -0.026601530611515045 
0.0038402448408305645 0.010197748430073261 -0.011038516648113728 -0.008139914833009243 -0.083554208278656 -0.04667336493730545 0.03600551187992096 0.09549452364444733 0.027455490082502365 
-0.027028189972043037 -0.06763990223407745 0.03747420385479927 -0.01441647857427597 0.06959857791662216 -0.0552801713347435 0.06458399444818497 0.011700104922056198 0.04355685040354729 
-0.03250149264931679 0.032178424298763275 0.04140296205878258 0.01654275692999363 -0.01542835682630539 -0.06538233160972595 0.005020249634981155 0.051286015659570694 0.021537641063332558 
0.01682984083890915 0.03287013992667198 -0.04120075702667236 -0.034210965037345886 0.0035607698373496532 0.027079470455646515 -0.029244013130664825 -0.018493158742785454 -0.044973138719797134 
0.14873015880584717 0.14824669063091278 0.03417130187153816 -0.028903881087899208 -0.0037496532313525677 0.04833676293492317 0.01642523519694805 0.03909362852573395 0.019352778792381287 
-0.0063519855029881 0.02415086328983307 0.009528953582048416 -0.07794375717639923 0.033547766506671906 -0.044691674411296844 0.06762401014566422 0.011963612399995327 -0.01237563043832779 
-0.02747303992509842 -0.005985520780086517 0.057175155729055405 0.033036768436431885 0.014357894659042358 0.00973796658217907 -0.03535855561494827 0.047875963151454926 0.058425113558769226 
-0.005032629705965519 0.04436824098229408 -0.04631089046597481 -0.05902077630162239 -0.02982770837843418 -0.042168520390987396 -0.007268971297889948 0.00765840383246541 0.0408502034842968 
-0.04807598516345024 0.07986842840909958 0.018670590594410896 -0.05198835954070091 0.12375298887491226 0.03876719996333122 -0.05235756188631058 0.004029615316540003 0.02695595659315586 
-0.009424959309399128 0.022688213735818863 -0.05249699205160141 0.04580357298254967 -0.049240414053201675 0.02102723903954029 0.012347997166216373 -0.007499892730265856 0.04243917018175125 
0.010082032531499863 0.015353905037045479 0.03910289332270622 0.030545316636562347 0.008723017759621143 0.0025783025193959475 0.029070336371660233 0.02982115000486374 0.0075234826654195786 
0.007199476473033428 -0.03219366818666458 0.059955839067697525 0.026733340695500374 -0.030610201880335808 -0.03900032490491867 0.05957309156656265 0.04191381856799126 0.05109438672661781 
0.009528257884085178 0.018167033791542053 -0.052585020661354065 -0.04469926282763481 0.053124766796827316 -0.007015165872871876 -0.012568041682243347 -0.06830297410488129 0.0296801645308733 
-0.022686492651700974 0.05314049869775772 -0.012281994335353374 -0.04456879571080208 0.04717607796192169 0.0445777028799057 0.06353076547384262 0.06085764244198799 0.015376315452158451 
0.04431893676519394 -0.05527745187282562 -0.04612951725721359 -0.0520784854888916 -0.02251335047185421 0.03267328068614006 0.07051361352205276 0.0045148166827857494 0.018606865778565407 
0.01481553353369236 -0.00838989857584238 -0.04690160974860191 -0.002853267826139927 -0.023175634443759918 0.027093632146716118 -0.0232085008174181 -0.0037634428590536118 -0.08506607264280319 
0.06054183468222618 0.01283502671867609 0.007345795165747404 0.03486591577529907 -0.05587010830640793 -0.04999173805117607 -0.07309504598379135 -0.03926541283726692 -0.06843401491641998 
0.0948486402630806 -0.012278219684958458 0.02583128586411476 -0.03560696542263031 0.005160527303814888 0.08812935650348663 -0.0520484484732151 -0.02217111922800541 -0.037642963230609894 
-0.051179494708776474 -0.07820665836334229 0.02945576049387455 0.03093412145972252 -0.030412251129746437 0.0590754859149456 -0.15192382037639618 -0.08534543961286545 -0.06354944407939911 
-0.07306298613548279 -0.057050079107284546 0.011329002678394318 0.058389414101839066 -0.03762852028012276 0.05385535582900047 -0.006869121454656124 0.08616521954536438 0.049618933349847794 
0.013858351856470108 0.01936393603682518 -0.02842254936695099 0.046628981828689575 0.023988183587789536 -0.04143483564257622 0.04391736164689064 -0.060042791068553925 0.03035183995962143 
-0.019941696897149086 -0.02748812921345234 0.01023957971483469 0.07197558134794235 -0.030444027855992317 -0.018697258085012436 0.07104914635419846 0.019990278407931328 0.07507055252790451 
0.05897044390439987 -0.02128698118031025 -0.06129751726984978 0.050142377614974976 -0.025206036865711212 -0.02613021805882454 -0.013713845051825047 0.04239612817764282 0.060248274356126785 
-0.1264808028936386 -0.08065596222877502 0.0480642132461071 -0.06061527505517006 0.016621949151158333 -0.009087128564715385 -0.019926702603697777 -0.08573842793703079 0.05903439223766327 
-0.04175988584756851 -0.026518192142248154 0.04787657409906387 -0.0004568097647279501 0.04862280189990997 -0.001850584987550974 -0.08266070485115051 -0.20195823907852173 -0.05139048025012016 
-0.011260482482612133 0.02680857665836811 -0.020092785358428955 0.02917843498289585 0.04355667904019356 -0.06178789213299751 0.02243356592953205 -0.022868793457746506 0.02681395411491394 
0.0759359747171402 0.042652636766433716 0.018270771950483322 0.01772124692797661 -0.024069547653198242 -0.05695164203643799 -0.03340015560388565 0.03876067325472832 -0.029758449643850327 
0.015990959480404854 -0.01406505610793829 0.008868767879903316 -0.0647747665643692 -0.03657425567507744 0.004846195690333843 -0.02424757368862629 0.013184303417801857 0.0027116197161376476 
0.018862182274460793 0.15009023249149323 0.011719780042767525 -0.007414523512125015 -0.02501486800611019 0.05449824780225754 0.013006515800952911 0.07119534909725189 -0.0025427385699003935 
0.08548024296760559 0.04050494730472565 0.08772581070661545 -0.04225122556090355 -0.01311467308551073 -0.00496381800621748 0.04854542762041092 -0.04820309579372406 -0.04298490285873413 
-0.05561654269695282 0.05537340044975281 0.004018966108560562 0.04127601906657219 0.03124873898923397 -0.07324888557195663 0.022968580946326256 -0.021883519366383553 -0.004299692809581757 
0.046310801059007645 0.036935869604349136 -0.0675291121006012 -0.05987077206373215 0.021065689623355865 0.007634214125573635 -0.011137922294437885 -0.054962098598480225 0.0007696325774304569 
0.04306940734386444 0.07498352974653244 -0.04520339146256447 0.05850590392947197 -0.04698125645518303 0.03440634161233902 -0.04706624522805214 -0.015018093399703503 -0.02188311517238617 
0.03333711996674538 0.013823535293340683 0.06689876317977905 -0.030771754682064056 0.04382174834609032 -0.06134980544447899 0.05920707434415817 -0.03990958631038666 -0.0533108152449131 
0.0613272450864315 -0.030379749834537506 0.04496946558356285 -0.051297176629304886 -0.004687374923378229 0.04153478145599365 -0.028827130794525146 0.02077408693730831 -0.04323430359363556 
0.022473245859146118 -0.030523108318448067 0.04683730751276016 -0.012370837852358818 -0.0641947090625763 0.04014613851904869 0.06786632537841797 0.04074420779943466 0.032151542603969574 
0.017228292301297188 0.0010472695576027036 -0.05015145614743233 -0.0594797320663929 -0.004683820065110922 0.06390456110239029 -0.03746842220425606 -0.034248508512973785 -0.04403127729892731 
0.05385787412524223 -0.022458188235759735 -0.0007666137535125017 -0.025669090449810028 -0.040836818516254425 0.001291103195399046 0.032229918986558914 -0.02687232382595539 -0.07448650151491165 
-0.013262450695037842 -0.030118195340037346 0.037099096924066544 -0.0171844270080328 -0.038887690752744675 -0.03165435418486595 -0.027953583747148514 -0.05342373996973038 0.02468094229698181 
0.023130550980567932 -0.031073158606886864 0.027029717341065407 0.021586479619145393 -0.04582880809903145 -0.03599824756383896 0.048832252621650696 0.05092368274927139 -0.06214502081274986 
-0.03100716322660446 -0.008622312918305397 0.0033054181840270758 -0.050149742513895035 -0.03875219449400902 0.021977746859192848 -0.027944127097725868 -0.015296315774321556 0.07112286239862442 
-0.09919236600399017 -0.023456145077943802 0.002806480973958969 0.05592970550060272 -0.05402037128806114 -0.034933969378471375 -0.03347405046224594 -0.016885356977581978 -0.012888181023299694 
-0.0015321109676733613 0.03475731983780861 -0.060225728899240494 -0.04149358719587326 -0.04717634990811348 -0.042164016515016556 0.0390305295586586 0.03164709731936455 0.006308177951723337 
0.020894287154078484 -0.025754626840353012 -0.01264058705419302 -0.025667689740657806 0.0013128557475283742 0.11135127395391464 0.009500641375780106 -0.0042614443227648735 0.052230894565582275 
0.005986586678773165 0.01024223119020462 -0.017435409128665924 0.05276929587125778 -0.059193387627601624 0.06486482173204422 -0.05503762140870094 0.019259825348854065 0.007247655186802149 
0.001499939477071166 -0.005330363754183054 -0.0037226222921162844 -0.07538628578186035 -0.012658626772463322 0.05590848997235298 -0.05426941439509392 0.034171346575021744 0.015293871983885765 
-0.03261755034327507 -0.056278377771377563 0.067986398935318 0.001909343060106039 0.015011551789939404 0.0351514108479023 0.04621828347444534 -0.020801380276679993 0.014430047012865543 
-0.022306689992547035 0.017765212804079056 0.045473579317331314 -0.0732923299074173 0.0453142374753952 0.04232044145464897 0.04329496622085571 -0.009332132525742054 0.03715232014656067 
0.06660886853933334 0.008292023092508316 -0.015941597521305084 -0.01356709748506546 0.004278875887393951 -0.058145202696323395 0.03648217394948006 0.03947467729449272 -0.020104791969060898 
0.038725435733795166 -0.01354336366057396 0.02709219790995121 -0.03651890531182289 -0.011719622649252415 -0.05735813081264496 -0.03219741955399513 -0.021169809624552727 0.04149804264307022 
0.00956414733082056 -0.004091624636203051 -0.036177683621644974 -0.009484718553721905 0.0026673090178519487 -0.018130917102098465 0.04656638205051422 -0.04682113975286484 -0.03444527089595795 
0.051321689039468765 0.043133631348609924 -0.04683448746800423 0.06198723614215851 -0.05454421788454056 0.05897556617856026 0.06951164454221725 0.01775851845741272 0.014593023806810379 
0.11870300769805908 0.02603142149746418 0.05752059817314148 -0.06780170649290085 -0.005315025802701712 -0.030078282579779625 0.006886547897011042 -0.039816755801439285 0.0587807334959507 
-0.009531610645353794 -0.01875283382833004 -0.04709727689623833 0.03039928898215294 -0.03845808282494545 0.020374583080410957 -0.058160167187452316 -0.05435214564204216 -0.04160131886601448 
-0.06414937973022461 0.0028241281397640705 -0.005294212605804205 0.023355767130851746 0.009827973321080208 0.07446952164173126 -0.01059736404567957 -0.07159291952848434 -0.032470181584358215 
-0.03507942333817482 -0.01821840927004814 0.008090597577393055 0.0010824281489476562 -0.056938059628009796 -0.05731986463069916 0.006910449825227261 -0.040232837200164795 0.033084623515605927 
-0.009896301664412022 -0.021887386217713356 -0.001139911008067429 -0.037294402718544006 -0.1088072657585144 -0.0383371002972126 0.036822106689214706 0.07962433248758316 0.02633577212691307 
-0.06147725507616997 0.07324590533971786 -0.05484338849782944 0.035994917154312134 0.05557147040963173 -0.018770204856991768 -0.05170741677284241 0.04162408038973808 0.035416729748249054 
-0.027660751715302467 0.03880642354488373 -0.05674333870410919 0.01120674703270197 -0.008572964929044247 -0.033783357590436935 0.04253252223134041 -0.05691048130393028 -0.007745619397610426 
0.037989307194948196 -0.0518542043864727 0.026778142899274826 -0.02481323666870594 0.019832564517855644 0.02713765762746334 -0.042891036719083786 0.07695543020963669 -0.024938004091382027 
0.023277586326003075 -0.02571476809680462 -0.021556448191404343 -0.020091447979211807 -0.04213033616542816 0.05447610095143318 0.03393881395459175 0.04556688666343689 0.010152078233659267 
0.06991057097911835 0.0006917462451383471 -0.023168770596385002 0.0556059405207634 0.017120499163866043 -0.01515734288841486 0.04373975098133087 -0.08731184899806976 0.010728872381150723 
-0.034390728920698166 0.034812577068805695 0.04383603110909462 -0.04577568173408508 0.02458535134792328 -0.015667583793401718 -0.0029525840654969215 -0.04967419430613518 -0.043218497186899185 
-0.06497976183891296 0.010357211343944073 0.022953972220420837 0.06822270154953003 0.07363107800483704 -0.06860005110502243 0.03152979165315628 -0.060091737657785416 0.033807363361120224 
0.025907674804329872 0.003961255308240652 0.024149173870682716 -0.050596583634614944 0.011224261485040188 0.058102257549762726 0.06533724069595337 -0.03862147033214569 -0.060046907514333725 
0.11445488035678864 0.01174711249768734 0.06186056137084961 0.03069266676902771 -0.027229275554418564 0.002539603039622307 0.06657853722572327 -0.05210691690444946 0.03216757997870445 
-0.05637470632791519 -0.0639071986079216 0.0021238597109913826 0.01261140312999487 -0.07239127904176712 0.08720815926790237 -0.041943565011024475 -0.12788979709148407 -0.0676531195640564 
-0.06785797327756882 0.031871501356363297 -0.05213136970996857 0.019988074898719788 0.021285410970449448 -0.08177697658538818 0.0051491581834852695 0.043413542211055756 0.028625428676605225 
0.021496376022696495 0.04501365125179291 0.030774669721722603 0.054672371596097946 0.006033066660165787 0.04854856804013252 0.051329027861356735 0.025011232122778893 -0.022928379476070404 
-0.027318261563777924 0.02661568485200405 0.08050943166017532 0.04383309185504913 0.07122862339019775 0.01405122596770525 -0.03200951963663101 -0.04825534299015999 -0.0036732940934598446 
0.04568130522966385 0.053467925637960434 0.025320734828710556 0.04580435901880264 0.016719650477170944 -0.0032639175187796354 -0.0216770488768816 -0.014615005813539028 -0.033596575260162354 
0.034311361610889435 -0.02101782150566578 0.013970666565001011 -0.0014747296227142215 0.030215078964829445 -0.015840068459510803 -0.07395226508378983 -0.03230494260787964 -0.05118491128087044 
-0.06858045607805252 0.03759465366601944 -0.008904488757252693 0.03940369933843613 0.13106922805309296 0.03513767570257187 0.12345357239246368 -0.0959998369216919 -0.09732739627361298 
-0.01684715785086155 -0.006876097526401281 0.011429437436163425 -0.037757545709609985 0.023233000189065933 0.03339597210288048 -0.043547824025154114 0.0681854709982872 0.04195263609290123 
0.020139506086707115 0.019076520577073097 -0.04247526079416275 -0.023725204169750214 0.020259886980056763 -0.027768133208155632 -0.04354555532336235 -0.07148430496454239 -0.021821074187755585 
-0.01254134438931942 0.05414258688688278 0.026009107008576393 0.0430944487452507 0.03941987827420235 -0.048919547349214554 -0.007560516241937876 0.04963306710124016 0.011608118191361427 
0.05469173192977905 0.10960141569375992 0.08231667429208755 -0.03750632703304291 -0.12145499140024185 -0.032047826796770096 -0.04235294461250305 0.02371521107852459 -0.004407333675771952 
0.05894597992300987 0.05318789184093475 0.05527346953749657 -0.05336102470755577 0.040739756077528 0.02069872058928013 0.04165920615196228 -0.020710989832878113 -0.05230938643217087 
-0.01290698442608118 -0.019724756479263306 0.05218584090471268 -0.0479276180267334 -0.0901266559958458 -0.0003698760410770774 0.028480401262640953 -0.03364298865199089 -0.054591137915849686 
0.054777681827545166 -0.031900033354759216 -0.03480033203959465 0.044770821928977966 -0.016335071995854378 0.0634794607758522 -0.061505548655986786 -0.0017758116591721773 -0.058225300163030624 
-0.021007170900702477 -0.054557301104068756 -0.059381142258644104 0.033861033618450165 -0.09143233299255371 0.05672147870063782 -0.04171576723456383 -0.01905214972794056 0.005462096072733402 
0.06079581007361412 0.05305289477109909 0.05230206251144409 -0.0007642846903763711 0.04246591404080391 -0.001216078526340425 0.021310506388545036 -0.04337498918175697 -0.0431966707110405 
-0.05317186564207077 0.027106743305921555 0.01883118227124214 -0.03205722197890282 -0.04820670560002327 0.026186782866716385 0.05942614749073982 0.05726984143257141 0.01497855968773365 
0.03463367000222206 0.006561749614775181 0.05445609614253044 -0.07102590799331665 -0.0809977576136589 -0.03343352675437927 0.011425359174609184 -0.05707867071032524 -0.0710221454501152 
-0.007494780700653791 0.06290668994188309 -0.06213025376200676 -0.039395060390233994 -0.015992632135748863 -0.013388737104833126 0.005226667504757643 0.05829349905252457 -0.010894213803112507 
-0.013350912369787693 -0.06873145699501038 -0.0035662546288222075 0.017147596925497055 -0.02565382421016693 0.009743480011820793 0.017038460820913315 0.011782042682170868 0.08962265402078629 
-0.003176060738041997 0.04229699447751045 -0.028877094388008118 0.03742183372378349 -0.006157625932246447 0.0335872620344162 0.06527408957481384 0.06297950446605682 -0.03179667145013809 
0.0022731029894202948 -0.052863989025354385 -0.02208857052028179 0.006105213891714811 -0.11783704906702042 -0.012101705186069012 -0.02343100868165493 0.046225618571043015 0.07935523241758347 
0.017786890268325806 -0.019922416657209396 0.026976535096764565 0.07696403563022614 0.01949859969317913 0.027749868109822273 0.0007605527061969042 -0.06195727735757828 -0.04902203753590584 
0.008931581862270832 -0.016198288649320602 -0.004220237955451012 0.12226254492998123 0.02295001782476902 0.007950427941977978 0.048217445611953735 -0.08019224554300308 -0.0014724137727171183 
-0.022146670147776604 0.011547395028173923 -0.0018475711112841964 0.02239619940519333 -0.008613429963588715 -0.007282380945980549 -0.04673643410205841 0.01659350097179413 0.03707365319132805 
-0.05315965786576271 -0.09208407998085022 0.042201071977615356 0.03327525407075882 -0.15679332613945007 0.1468992829322815 0.018525036051869392 0.04679211229085922 0.15249161422252655 
-0.023059852421283722 0.05847375839948654 -0.004273625556379557 0.0305161215364933 0.024575473740696907 -0.03726181387901306 -0.05216936394572258 -0.028359295800328255 -0.05448159947991371 
0.021003980189561844 0.027233058586716652 -0.028500111773610115 0.02045733481645584 0.012723072431981564 -0.050296951085329056 -0.003295567352324724 -0.036019217222929 0.03889591619372368 
-0.013076499104499817 0.06044495850801468 0.0031685587018728256 0.03835552558302879 0.050129570066928864 -0.03848320245742798 0.025586241856217384 -0.021078335121273994 0.028177177533507347 
-0.02909991703927517 -0.029804153367877007 -0.04022756218910217 -0.013093109242618084 0.0852208212018013 -0.002074142685160041 -0.05439193546772003 -0.0011285587679594755 -0.0677354484796524 
0.002532350365072489 0.023290157318115234 0.02831529825925827 0.008129814639687538 -0.08750531077384949 -0.006751600652933121 -0.08093664795160294 -0.030194032937288284 0.028368918225169182 
0.0465165413916111 0.04433673620223999 -0.03689456731081009 0.034761905670166016 -0.05257983133196831 0.02052156627178192 0.02854546718299389 0.061015162616968155 0.0671771988272667 
0.05406641215085983 0.056132227182388306 -0.004689603578299284 -0.02656453475356102 -0.00950804352760315 -0.0043822648003697395 -0.059971120208501816 -0.05040233954787254 -0.03795599192380905 
0.032636865973472595 0.03713849186897278 -0.04178521782159805 -0.014439080841839314 -0.035190653055906296 0.03501240536570549 0.055717505514621735 -0.0636407807469368 -0.015731174498796463 
-0.03789965435862541 -0.011851468123495579 0.0904603973031044 -0.029151899740099907 -0.10490085184574127 -0.09290523082017899 0.015924418345093727 -0.02945278398692608 0.04974869638681412 
-0.008055743761360645 -0.026204975321888924 -0.042027052491903305 -0.04695115610957146 0.05402122065424919 -0.04201669991016388 -0.030637864023447037 0.04888097196817398 0.04966934770345688 
0.04414546489715576 0.051564425230026245 0.028216125443577766 0.026751797646284103 0.026597747579216957 0.0063806213438510895 0.0027203643694519997 0.05220118910074234 0.011877956800162792 
-0.0056034112349152565 -0.0027219776529818773 0.02777060866355896 -0.03264261409640312 -0.006832250393927097 -0.029999516904354095 -0.039786141365766525 -0.045607537031173706 -0.007333677262067795 
-0.05960911139845848 -0.04978054389357567 -0.02793499268591404 0.013937960378825665 0.08901222050189972 0.0362798236310482 -0.011973362416028976 -0.015572595410048962 -0.023879779502749443 
0.006271219812333584 -0.02585919015109539 -0.007136376108974218 -0.012004815973341465 0.025940191000699997 -0.051618315279483795 -0.04439336806535721 -0.06830144673585892 -0.052244883030653 
-0.01392705924808979 -0.04521737992763519 0.006943556480109692 -0.05678518861532211 0.0624433234333992 -0.017400244250893593 0.02837562747299671 0.023524345830082893 0.061305414885282516 
-0.04910461604595184 0.017990756779909134 0.002185334451496601 -0.024588512256741524 -0.03214133530855179 0.036849018186330795 0.04640689119696617 0.0205850712954998 0.025487087666988373 
0.021293185651302338 0.04393729940056801 -0.061724308878183365 -0.01284234318882227 0.05902661383152008 0.037808384746313095 0.03409780189394951 -0.024589547887444496 0.003934199921786785 
-0.023287435993552208 0.0369211845099926 -0.03916812315583229 -0.05425513908267021 0.007241787388920784 -0.03302232176065445 -0.014419592916965485 -0.006837194785475731 0.04115192964673042 
-0.06187340244650841 -0.06691557914018631 -0.05347760021686554 0.0018926626071333885 -0.0677260309457779 0.0018769381567835808 0.0031486006919294596 0.038631074130535126 -0.05266037955880165 
-0.017836175858974457 0.01167869009077549 -0.013727687299251556 0.0028361037839204073 -0.0510731115937233 0.013727202080190182 0.06204751878976822 0.04542240500450134 0.05245567113161087 
0.028162213042378426 0.04771019145846367 -0.03426772356033325 -0.026909543201327324 0.06731013208627701 0.05472958832979202 0.01889001950621605 0.027120333164930344 0.03989585116505623 
-0.011448518373072147 -0.05925407260656357 0.018443668261170387 -0.00192873680498451 -0.003268413944169879 0.030910497531294823 -0.06604001671075821 0.021132512018084526 -0.07656567543745041 
-0.014753584749996662 -0.030630530789494514 -0.032611243426799774 -0.003763566492125392 0.0491161048412323 0.05145172029733658 0.013017615303397179 0.06370949000120163 0.01611640490591526 
-0.009791184216737747 0.0160482507199049 -0.01735985279083252 -0.03523031622171402 7.847288361517712e-05 -0.01001709420233965 -0.048014990985393524 -0.03507458046078682 0.07073424011468887 
0.05006411299109459 -0.06075573340058327 -0.02313775196671486 0.01988602988421917 0.028576044365763664 -0.042034514248371124 -0.036154020577669144 -0.04700443893671036 0.00883300881832838 
-0.03991289436817169 0.019163936376571655 -0.016268756240606308 -0.03476764261722565 -0.06193774193525314 -0.03333588317036629 0.07111851125955582 -0.05505233258008957 0.036957159638404846 
-0.025970013812184334 0.039236992597579956 0.0554003082215786 -0.04460938647389412 0.03403337672352791 -0.009318229742348194 -0.03001129999756813 0.030054623261094093 0.023284494876861572 
-0.04480733722448349 -0.03190791606903076 0.034971706569194794 -0.04530810937285423 0.018459733575582504 -0.04225097596645355 -0.02685084380209446 -0.05514286458492279 0.01870610937476158 
-0.06593284755945206 0.021141717210412025 0.028226926922798157 0.04757963865995407 -0.020118631422519684 0.02044350653886795 0.0901249572634697 0.016538605093955994 -0.032773207873106 
-0.05164673179388046 0.02985156700015068 0.06835437566041946 -0.05296977981925011 -0.03490041196346283 0.04397568851709366 -0.053213976323604584 0.03666508570313454 0.015767324715852737 
-0.055958326905965805 0.047462109476327896 -0.042648039758205414 0.06744296848773956 0.043788209557533264 4.540090594673529e-05 -0.06371569633483887 0.003304896177724004 -0.019579501822590828 
