-0.0034276756923645735 -0.08242982625961304 -0.0693749338388443 0.09063997864723206 0.11528387665748596 -0.0322357639670372 -0.11718232929706573 -0.33514493703842163 -0.12812037765979767 
-0.018919581547379494 -0.01826450042426586 0.036605365574359894 0.03605553135275841 0.01960170827805996 0.06195156276226044 -0.009482838213443756 -0.05790174379944801 -0.06520990282297134 
0.04120774194598198 -0.09114465117454529 -0.032367706298828125 0.04606770724058151 0.17790399491786957 -0.004391434136778116 -0.08916627615690231 -0.2422926127910614 -0.01677200384438038 
-0.010566324926912785 -0.02751675248146057 -0.014709020033478737 -0.02382781356573105 0.04059562087059021 0.005193823948502541 0.04723304510116577 -0.040009625256061554 -0.0573592483997345 
-0.010456221178174019 0.018990561366081238 0.05385714769363403 -0.0234591756016016 0.1005358174443245 0.0724579393863678 0.01562691666185856 -0.10363154858350754 -0.018641512840986252 
-0.017048444598913193 0.0806141048669815 0.004444799851626158 0.02548844926059246 0.042913682758808136 0.004095204174518585 -0.01938953436911106 -0.09968265891075134 0.01944528892636299 
-0.0005844682455062866 -0.10897572338581085 -0.042021602392196655 0.03949148207902908 0.02329152449965477 0.04327418655157089 0.010145041160285473 0.014003291726112366 -0.07213524729013443 
0.005336092785000801 -0.02410675585269928 -0.02337316982448101 0.0667489767074585 -0.07539348304271698 0.058755479753017426 0.04559604823589325 -0.016330504789948463 -0.029086263850331306 
0.021320682018995285 0.04444202035665512 -0.026548871770501137 0.009352218359708786 -0.07325273752212524 -0.07170166075229645 0.06367001682519913 0.17586712539196014 -0.044042740017175674 
-0.011898753233253956 -0.03573068603873253 -0.038800984621047974 0.005272277165204287 0.020435959100723267 0.011036704294383526 -0.005580131895840168 -0.15824122726917267 -0.10805638879537582 
-0.01440040860325098 0.029997538775205612 0.008956286124885082 0.0012361352564767003 0.027152255177497864 0.03801512345671654 0.02970740757882595 0.041377078741788864 -0.043059904128313065 
0.05372446030378342 0.01612904481589794 -0.006813918240368366 -0.024076048284769058 0.09370344877243042 0.007016725372523069 -0.010968159884214401 -0.07152217626571655 0.009008392691612244 
-0.010033507831394672 -0.07945940643548965 0.06145807355642319 0.09383764863014221 0.042409997433423996 -0.04936755821108818 -0.01601731963455677 0.14565229415893555 0.053331565111875534 
-0.05670394375920296 -0.053247760981321335 0.013404487632215023 -0.009794712997972965 0.05376625061035156 -0.009227915666997433 -0.02978099137544632 -0.07579169422388077 0.024882324039936066 
-0.08196886628866196 0.04781913012266159 0.007763780187815428 0.010082845576107502 -0.03164682164788246 0.00929941050708294 0.04039543494582176 -0.0576678141951561 -0.019943321123719215 
0.025284921750426292 0.05062761530280113 -0.06031171604990959 -0.14439019560813904 -0.04325191676616669 0.030840931460261345 0.08874716609716415 -0.03909577056765556 -0.02363826148211956 
-0.012115931138396263 0.04718829318881035 -0.0005967490724287927 -0.018725529313087463 0.0716775432229042 0.053255271166563034 -0.017025882378220558 0.0043094223365187645 -0.04534351825714111 
0.05571431666612625 0.042074237018823624 0.08492248505353928 -0.009564172476530075 -0.005239876918494701 0.022211682051420212 -0.1021602600812912 -0.08614254742860794 -0.06484880298376083 
0.014393100515007973 -0.0616002082824707 -0.06773113459348679 0.07092510908842087 -0.016616802662611008 0.056911177933216095 0.01936255395412445 0.06380748003721237 0.04749563708901405 
-0.013247729279100895 -0.0019127118866890669 0.009717864915728569 0.017497604712843895 0.033610694110393524 0.07878369092941284 -0.09201300889253616 -0.1277880072593689 -0.11686678975820541 
0.007149296812713146 0.034331947565078735 0.0672517940402031 0.044587984681129456 -0.033639516681432724 -0.02604842558503151 -0.011621568351984024 0.07524092495441437 0.04346667602658272 
-0.06167253106832504 0.015337028540670872 -0.0568588487803936 0.003320580581203103 -0.01846245862543583 -0.05518622696399689 -0.008174753747880459 0.009857457131147385 -0.02268965356051922 
-0.048314761370420456 -0.019874414429068565 0.00720397662371397 0.022782962769269943 -0.004943761974573135 0.0093590272590518 0.023569460958242416 -0.0702071562409401 -0.06199542060494423 
0.06762772053480148 0.06488849222660065 0.04160118103027344 0.03051205538213253 -0.0021208771504461765 -0.012407813221216202 -0.10219977051019669 0.012077391147613525 -0.04482388123869896 
0.006910857744514942 0.0676845908164978 -0.013566220179200172 0.0030457149259746075 0.050812844187021255 0.003523960243910551 0.020189430564641953 -0.006236913613975048 0.06487435102462769 
0.010621489025652409 -0.036127809435129166 -0.05189862474799156 0.00109853595495224 -0.0032906506676226854 -0.025635667145252228 -0.040816087275743484 -0.039169736206531525 0.005527527071535587 
-0.03719843178987503 -0.026042116805911064 -0.045280978083610535 0.08395865559577942 -0.003963695373386145 -0.04835227504372597 0.04592878744006157 0.05529269576072693 0.044973764568567276 
-0.00891496054828167 0.06042100861668587 -0.06924738734960556 -0.01102866604924202 -0.02335934527218342 0.006425682455301285 -0.04492640495300293 0.04802165552973747 0.05522602051496506 
-0.049941860139369965 -0.034322891384363174 -0.013938340358436108 -0.04269121587276459 0.060800567269325256 0.028178147971630096 -0.030458733439445496 -0.038634032011032104 -0.0201728492975235 
-0.06574960798025131 0.057007163763046265 -0.020334450528025627 -0.046668682247400284 -0.00696305138990283 -0.039524927735328674 0.049444012343883514 0.028311343863606453 0.014399324543774128 
-0.02240724489092827 -0.0043997494503855705 -0.08669081330299377 0.02675822377204895 -0.06079002097249031 0.029379377141594887 -0.0020081771072000265 0.046743858605623245 0.04085087403655052 
0.0182142686098814 0.023142576217651367 -0.023558471351861954 -0.005042184144258499 -0.02700967714190483 0.013431724160909653 0.04138970375061035 0.008222214877605438 0.015980377793312073 
0.03799508884549141 0.008032265119254589 -0.025981180369853973 0.03616330400109291 0.023693758994340897 -0.00849870778620243 0.032049790024757385 0.036419935524463654 0.011525976471602917 
0.05390424281358719 0.06160823628306389 -0.06717590242624283 0.006744855083525181 -0.038352251052856445 -0.059352245181798935 -0.04790206253528595 -0.06220410019159317 0.019611550495028496 
0.00255973800085485 0.053211428225040436 -0.02717912197113037 0.05411696806550026 -0.055034611374139786 -0.003930896986275911 0.049349624663591385 -0.056101877242326736 0.0007852617418393493 
0.04934276267886162 0.012746741995215416 -0.04889748990535736 0.04113585129380226 -0.0007554788608103991 0.013141685165464878 -0.028555385768413544 0.06132373586297035 0.05056552216410637 
0.041474658995866776 0.07515174150466919 0.0031786616891622543 -0.021022524684667587 0.012676302343606949 -0.014132821932435036 0.06315624713897705 -0.04935293644666672 -0.07354217022657394 
-0.019889699295163155 0.01572965644299984 -0.02425956353545189 0.004592022858560085 -0.029139256104826927 -0.028552789241075516 -0.04151914641261101 -0.025866888463497162 0.024982819333672523 
-0.005926778540015221 0.013355659320950508 0.057538289576768875 -0.0034319055266678333 -0.023843612521886826 -0.07645028084516525 0.04233225807547569 -0.05654698237776756 -0.05780652165412903 
0.05214371904730797 -0.0674520879983902 -0.0011279798345640302 -0.05982530489563942 0.014610128477215767 0.03433296084403992 0.03759188577532768 -0.061050839722156525 -0.11656031757593155 
0.04932781308889389 0.006811375264078379 -0.034029167145490646 -0.04882827773690224 -0.019487570971250534 -0.03541896119713783 -0.0038905914407223463 -0.049912966787815094 -0.058755259960889816 
-0.016898827627301216 -0.04815465956926346 0.030919473618268967 0.006463342811912298 -0.012771958485245705 -0.06571304053068161 -0.05784034729003906 0.05778559669852257 0.064391128718853 
-0.001014087931253016 -0.06712900847196579 -0.04907587543129921 -0.05998292937874794 0.0379813015460968 -0.07004731148481369 -0.03436477854847908 0.030633777379989624 0.007115023676306009 
0.04172882065176964 -0.017599957063794136 0.041531044989824295 -0.0614752471446991 0.04790472239255905 0.010390596464276314 -0.02775595709681511 0.0772852823138237 -0.01945917308330536 
-0.03594115749001503 0.03595465421676636 -0.0008524915319867432 0.021993855014443398 0.030227934941649437 0.054894134402275085 -0.02189618907868862 -0.0021509486250579357 -0.02252943255007267 
-0.01818050444126129 0.023614048957824707 0.02672726847231388 -0.015113423578441143 0.026414768770337105 -0.05696738883852959 -0.02403314970433712 0.05471576750278473 -0.034708987921476364 
0.016599973663687706 0.008022019639611244 0.0014119026018306613 0.059624262154102325 -0.049218468368053436 0.03656299039721489 0.0707496777176857 -0.032143425196409225 -0.027603790163993835 
0.06951252371072769 -0.04653363302350044 0.0029654286336153746 0.006023762747645378 0.07523695379495621 -0.05345014110207558 0.040334466844797134 -0.03974321484565735 0.012897220440208912 
-0.059635501354932785 -0.04333347827196121 0.06611692160367966 -0.04118161275982857 -0.019639069214463234 0.06079897657036781 -0.04532862827181816 -0.01302692387253046 0.021663587540388107 
-0.018336167559027672 -0.022623861208558083 -0.032751236110925674 0.057961251586675644 -0.006402718368917704 0.008193637244403362 -0.015147915109992027 0.00035037501947954297 0.03179868683218956 
0.05882010981440544 -0.01650586910545826 -0.08662266284227371 0.059024628251791 -0.03623904287815094 0.01704156957566738 0.04626798257231712 0.038848116993904114 -0.05054313689470291 
-0.042332254350185394 0.028429197147488594 -0.023867057636380196 0.002013023244217038 0.04770321026444435 -0.050368502736091614 -0.05821710452437401 0.016131307929754257 -0.018076177686452866 
-0.01900392770767212 -0.05642722174525261 0.036324188113212585 0.0201715137809515 0.016580557450652122 -0.05417560040950775 0.021420665085315704 -0.0045384797267615795 -0.017528479918837547 
-0.04230861738324165 -0.04339512810111046 0.0547364242374897 -0.02955857664346695 -0.05347270518541336 0.030787596479058266 0.04562356695532799 -0.05456236004829407 -0.023943763226270676 
0.038594238460063934 -0.06647989898920059 0.050955187529325485 -0.04882816597819328 -0.07731667160987854 0.05078698694705963 0.02714782953262329 -0.043189022690057755 0.06440514326095581 
0.008921653963625431 -0.059995412826538086 -0.05698571354150772 -0.04693321883678436 0.05320035666227341 0.017534766346216202 -0.043199099600315094 -0.06977719068527222 -0.015488448552787304 
-0.034633759409189224 0.03433601185679436 0.016608253121376038 0.06222629174590111 -0.031095391139388084 0.0030973898246884346 -0.023510495200753212 0.041791658848524094 -0.05863695964217186 
0.030431224033236504 -0.004985616076737642 -0.06536418199539185 0.050758060067892075 0.05129169300198555 -0.05165380239486694 -0.0014234818518161774 0.034525491297245026 0.027213579043745995 
-0.05241679772734642 0.05135887861251831 0.043881483376026154 -0.030664382502436638 -0.025365076959133148 0.04774783179163933 -0.06727718561887741 -0.039509035646915436 0.061539795249700546 
-0.058797311037778854 0.07543624192476273 -0.034692950546741486 0.00671971682459116 -0.018924562260508537 -0.02654387801885605 -0.05653581768274307 0.06518971174955368 -0.025839954614639282 
-0.02611062116920948 -0.04959780350327492 0.0479247123003006 0.008683698251843452 0.04816078394651413 -0.030482813715934753 0.01005503349006176 -0.040639765560626984 0.060116373002529144 
0.0033731611911207438 0.047495465725660324 -0.06601769477128983 -0.045988213270902634 -0.04206811264157295 0.06221206113696098 0.04145421087741852 -0.005573998671025038 0.023039381951093674 
-0.06979139149188995 -0.014150921255350113 0.02330962009727955 0.021006612107157707 0.05938834324479103 0.009358067065477371 0.02640376053750515 -0.0026193195953965187 0.05625275894999504 
0.03217171132564545 -0.08029821515083313 0.03573911637067795 0.002316978294402361 -0.026764914393424988 -0.0351501889526844 -0.02260998636484146 0.032599110156297684 -0.00218287855386734 
-0.033985573798418045 -0.051362428814172745 0.006061082240194082 0.03014201670885086 -0.012091387063264847 -0.05545920878648758 0.00577168446034193 -0.05125841498374939 -0.03903777152299881 
-0.0050955722108483315 -0.049209486693143845 0.05632386356592178 0.03687090799212456 -0.03262230381369591 0.02981887198984623 -0.027881981804966927 -0.060879796743392944 -0.036499056965112686 
-0.06373137980699539 -0.0088042626157403 -0.01659746840596199 -0.07351747900247574 -0.03955177590250969 0.05454717576503754 0.024932829663157463 -0.06151741370558739 -0.05458397418260574 
0.010023307055234909 0.026792537420988083 -0.04349987581372261 -0.029044050723314285 0.016618363559246063 0.024228790774941444 -0.014062473550438881 0.007723597809672356 -0.029990697279572487 
0.04679568111896515 0.0497283898293972 -0.04955487698316574 -0.02368941716849804 0.054777514189481735 0.022291408851742744 -0.04929902032017708 0.045832108706235886 0.01556312944740057 
0.0019209465244784951 -8.576501568313688e-05 0.04547921195626259 -0.055516839027404785 -0.04024364799261093 0.0026832420844584703 0.018942730501294136 0.006701974663883448 -0.046844955533742905 
-0.025767352432012558 0.05394373834133148 0.03651591017842293 -0.043926697224378586 -0.06992775201797485 -0.031003247946500778 -0.005785298999398947 -0.06076560541987419 0.06112693250179291 
-0.07372383028268814 -0.0904303714632988 0.04348149523139 -0.008312661200761795 -0.053938306868076324 0.006233553402125835 -0.012614953331649303 -0.04012198746204376 0.010047651827335358 
-0.014275109395384789 -0.06862299889326096 -0.01584620587527752 0.06804981827735901 -0.030223172158002853 -0.05126160383224487 -0.017817093059420586 -0.042329173535108566 0.010292889550328255 
-0.04072773829102516 -0.058003757148981094 0.02631893940269947 -0.01639627292752266 0.048594459891319275 -0.03748444467782974 -0.03584190085530281 -0.030032940208911896 0.046512357890605927 
0.018357591703534126 0.01274983212351799 -0.06257116049528122 0.016324367374181747 -0.028619665652513504 -0.06202032044529915 0.050580594688653946 -0.004473983310163021 0.03794671595096588 
0.025740502402186394 0.055415790528059006 0.0020842666272073984 0.03131594881415367 0.02102365531027317 0.026606643572449684 0.020474039018154144 0.04256555810570717 0.04031998664140701 
0.026154352352023125 -0.05162288248538971 -0.033517833799123764 0.07474040240049362 0.03888227790594101 0.020898016169667244 0.019666017964482307 0.011601165868341923 -0.03311658650636673 
0.023539511486887932 0.007045248989015818 0.008770412765443325 0.011747232638299465 0.023037010803818703 0.01851833239197731 -0.0008483119308948517 -0.059118375182151794 0.02657199092209339 
-0.044027961790561676 -0.035890646278858185 -0.01760042831301689 -0.017952749505639076 0.004878168925642967 0.039308223873376846 0.02159723825752735 -0.02952064387500286 -0.0020394218154251575 
-0.04137171059846878 -0.04180941358208656 0.013014430180191994 0.04888708516955376 -0.020765826106071472 -0.020239898934960365 -0.012945165857672691 0.05706240236759186 -0.027625715360045433 
-0.016853684559464455 -0.015143927186727524 0.05636018514633179 -0.03531962260603905 0.006330061703920364 0.05409872159361839 0.043552104383707047 -0.024597758427262306 -0.0459306500852108 
-0.024821968749165535 -0.06468236446380615 0.07210890203714371 0.07755278050899506 0.03461079299449921 -0.03842253237962723 0.022832637652754784 0.01544492319226265 0.0031880256719887257 
0.026879334822297096 0.019426515325903893 -0.04316336289048195 -0.011280620470643044 -0.05952669307589531 -0.022436469793319702 0.024363305419683456 -0.004452231340110302 0.01742648333311081 
0.05992257595062256 -0.015134907327592373 0.006021834909915924 -0.015538913197815418 0.021670321002602577 0.01279666367918253 0.058932531625032425 -0.02890755422413349 -0.027752511203289032 
-0.010281864553689957 0.04541264846920967 -0.00014483960694633424 0.006569588556885719 -0.002612501848489046 0.0678165927529335 -0.02521582320332527 0.06303734332323074 0.035112764686346054 
-0.005668094381690025 0.02619999647140503 -0.050164926797151566 0.05700445920228958 -0.03216133639216423 -0.046775657683610916 -0.05501002445816994 -0.03470948338508606 0.0070527479983866215 
0.03531337529420853 -0.00778166064992547 0.03888249769806862 0.05229213461279869 0.05064742639660835 0.01565845124423504 -0.021002374589443207 -0.06674125790596008 -0.0007567559950985014 
-0.010942966677248478 -0.06349292397499084 -0.05365007370710373 0.017302151769399643 -0.09157094359397888 0.0004853377176914364 -0.01907314360141754 -0.051635824143886566 0.031190799549221992 
-0.06512989103794098 0.03295871987938881 0.03729332983493805 0.0420449897646904 0.015496890060603619 -0.025387223809957504 0.06244899332523346 0.014240407384932041 -0.05999143794178963 
0.029493417590856552 -0.03728672116994858 -0.04446559399366379 0.055990561842918396 -0.029118239879608154 0.04444803670048714 0.04493078961968422 0.003198114689439535 0.05230718106031418 
-0.03558490797877312 0.017089739441871643 0.02673739194869995 0.027526000514626503 -0.00031237275106832385 -0.042755648493766785 -0.03837989643216133 -0.012393958866596222 -0.022743258625268936 
-0.02825956419110298 0.0693376436829567 0.05908580869436264 0.0006716846255585551 0.06853702664375305 -0.009490969590842724 0.052318673580884933 9.277234494220465e-05 -0.04017822444438934 
0.005080269183963537 -0.035151585936546326 0.0632641464471817 -0.0006258703651838005 -0.0425792895257473 0.0032397813629359007 0.02189604565501213 -0.0075472332537174225 0.023992279544472694 
0.0104540279135108 0.0007488327100872993 0.04070364311337471 0.012749161571264267 0.05523775517940521 -0.06763891875743866 -0.002421083627268672 -0.05377201363444328 0.023370973765850067 
-0.06748674809932709 -0.003699281020089984 0.0024909640196710825 -0.03435130789875984 0.0072332420386374 -0.01006304007023573 0.027511822059750557 0.04567888751626015 0.006022796034812927 
-0.0028714134823530912 -0.06113974004983902 -0.03331047296524048 0.03197097405791283 0.042195942252874374 0.04848957806825638 0.002115572104230523 0.04149242118000984 0.11763942241668701 
0.026694035157561302 -0.012569107115268707 0.09343746304512024 0.10671775043010712 0.14495141804218292 -0.06747306138277054 0.06385096907615662 0.037768423557281494 0.03577117249369621 
-0.03886014595627785 0.05346464365720749 0.05913418158888817 0.03682228922843933 -0.002470818581059575 0.016476305201649666 -0.06515760719776154 0.027161799371242523 0.07248280942440033 
-0.052860796451568604 0.023052744567394257 0.05572623386979103 -0.03898745775222778 0.004384784493595362 -0.0037919366732239723 -0.0026969057507812977 0.07563267648220062 0.01649126037955284 
-0.04192117601633072 -0.01815161667764187 0.07680321484804153 -0.1194949522614479 0.08126835525035858 -0.059868309646844864 -0.020213091745972633 0.038502853363752365 0.09298858046531677 
0.05333491042256355 0.07557154446840286 -0.003901926800608635 -0.012324206531047821 0.11753765493631363 -0.04077962040901184 -0.045425884425640106 -0.001997231040149927 0.014894167892634869 
0.0745001956820488 0.04358365386724472 -0.05818728357553482 0.0769108459353447 0.15845854580402374 0.01518126018345356 0.05400467664003372 0.01675911247730255 0.06768710166215897 
-0.010534004308283329 0.08549214899539948 -0.025290094316005707 0.040284909307956696 -0.04260718822479248 0.036973048001527786 0.011271396651864052 0.021929878741502762 0.014212916605174541 
-0.00950936134904623 -0.04132949188351631 -0.00250293524004519 0.05200409144163132 -0.03605016693472862 0.06337402015924454 0.02549305185675621 -0.08116214722394943 0.02741144225001335 
-0.07133319228887558 0.08740247040987015 0.11769624799489975 -0.05862809345126152 -0.029897404834628105 0.008044334128499031 0.030697161331772804 -0.05330382287502289 0.0391969159245491 
-0.03368275985121727 0.037812240421772 0.10403581708669662 0.033687859773635864 0.006869561038911343 -0.003478445578366518 0.002584378467872739 0.04611410200595856 -0.023486493155360222 
-0.015866529196500778 -0.06047186255455017 -0.020808828994631767 -0.02649647928774357 -0.10087169706821442 -0.03959140181541443 0.05995451286435127 0.01874624192714691 0.009656115435063839 
-0.06197861209511757 -0.04021070525050163 -0.0053522903472185135 -0.0021581952460110188 -0.033694617450237274 0.04632757231593132 0.03807507082819939 0.038016557693481445 -0.0025187532883137465 
0.005400565918534994 0.009034717455506325 0.08278701454401016 0.024178901687264442 0.0050398195162415504 0.0966738909482956 -0.0742083340883255 -0.08835341036319733 -0.029258310794830322 
-0.020278355106711388 -0.03178195282816887 0.04115515202283859 -0.014843598939478397 -0.0016714921221137047 -0.05847308784723282 0.07287728041410446 0.029320107772946358 -0.05722172558307648 
0.006988502107560635 -0.028565064072608948 0.032291438430547714 0.06415858864784241 0.035251036286354065 -0.0007005494553595781 0.06116386875510216 -0.06469331681728363 0.11700521409511566 
-0.07455042004585266 -0.03905174136161804 0.08792591840028763 -0.06193946674466133 -0.11198362708091736 -0.02962367981672287 0.029403751716017723 0.03438134863972664 0.0024561015889048576 
0.01883741095662117 0.015623101033270359 -0.0892544537782669 -0.058487679809331894 -0.06175723299384117 0.006084201857447624 0.06613576412200928 0.016690848395228386 0.019542258232831955 
-0.024357011541724205 0.030790364369750023 -0.055590782314538956 -0.0063387444242835045 0.06015783175826073 -0.06269378215074539 0.024521149694919586 0.05716722831130028 0.07331381738185883 
0.010335118509829044 0.042080413550138474 0.0117178438231349 -0.02078838273882866 -0.08569658547639847 0.01854799874126911 0.05084441602230072 -0.017193984240293503 -0.037162914872169495 
0.04629989340901375 0.009390212595462799 -0.03273047134280205 0.08288335800170898 -0.04830138757824898 -0.022816380485892296 0.0629618838429451 -0.05142495036125183 0.02318299002945423 
0.05211130157113075 0.05440515652298927 0.04102657362818718 0.015970328822731972 -0.03091816045343876 0.0860476866364479 0.03899267315864563 -0.05281684175133705 0.07424867898225784 
0.014407064765691757 -0.0051069436594843864 0.02669488452374935 -0.0132331857457757 -0.019398590549826622 -0.028075454756617546 0.035903479903936386 0.06209025904536247 -0.07606496661901474 
-0.08535182476043701 -0.07338158786296844 -0.048225726932287216 0.026321152225136757 0.03892308473587036 -0.09388688206672668 -0.026435745880007744 -0.033842477947473526 0.01452100183814764 
-0.0743330717086792 0.04805486649274826 -0.10647265613079071 0.021204117685556412 0.12079714983701706 -0.054422348737716675 -0.004049275536090136 0.10251592844724655 -0.09710744768381119 
-0.00321941333822906 0.011271078139543533 0.04062708839774132 -0.0755583718419075 -0.07619477808475494 0.012801839970052242 -0.019147243350744247 -0.003225568449124694 0.11401622742414474 
-0.001015082118101418 -0.06901725381612778 -0.0002682404883671552 0.03435644879937172 0.0021531081292778254 0.041318971663713455 0.04984821006655693 0.0022179989609867334 0.014848963357508183 
-0.01796497032046318 -0.021515855565667152 -0.015305787324905396 0.04882427304983139 0.058181412518024445 -0.045150090008974075 -0.015601380728185177 -0.03610201179981232 -0.06376641988754272 
0.03591769188642502 0.03414632007479668 -0.05481017008423805 0.008358418010175228 -0.04341199994087219 0.0037387299817055464 -0.033370453864336014 -0.046658050268888474 -0.0319875106215477 
-0.023199770599603653 -0.012982443906366825 -0.0007028020336292684 0.02257358469069004 0.0018489715876057744 -0.02219608798623085 0.008298289962112904 -0.0022082978393882513 -0.005326252430677414 
0.03872356563806534 -0.05862974375486374 -0.03904992714524269 0.02485964633524418 0.050485968589782715 -0.03369256854057312 0.02055550180375576 0.011807965114712715 -0.008551769889891148 
0.0722571313381195 -0.08027027547359467 -0.08385466039180756 0.04396166279911995 0.030732857063412666 0.030381422489881516 -0.046263422816991806 -0.001428204937838018 -0.0016516941832378507 
0.040406662970781326 0.01878049224615097 0.005246665794402361 0.013703741133213043 -0.007947277277708054 0.018878772854804993 0.0018087751232087612 0.028274785727262497 -0.12047535181045532 
-0.005709607619792223 -0.0702395886182785 0.00877133384346962 0.06979454308748245 0.14475630223751068 -0.007043480407446623 -0.04216359183192253 0.012495125643908978 0.051600381731987 
-0.022162755951285362 -0.0006722079124301672 0.004771532956510782 -0.03720499202609062 0.004843324422836304 0.05073382705450058 -0.09232304245233536 0.0009469054639339447 0.005947283934801817 
0.05946939438581467 0.00018039475253317505 0.06384971737861633 0.04858992621302605 0.0707448273897171 0.009051438421010971 0.02982771396636963 -0.0410979688167572 0.005599569529294968 
0.03145638480782509 0.05597637966275215 -0.019398728385567665 0.01602017506957054 0.012981236912310123 -0.014132372103631496 0.0010212264023721218 -0.022704290226101875 -0.06800315529108047 
-0.012617318890988827 0.0635266900062561 0.0691983699798584 -0.05263202264904976 -0.005688175559043884 0.017289409413933754 -0.034651000052690506 0.012189356610178947 0.027100808918476105 
0.014436442404985428 0.06777017563581467 -0.040238965302705765 0.045453835278749466 0.03255148231983185 0.0011977292597293854 -0.016442960128188133 -0.04274272918701172 -0.037122271955013275 
0.007346034981310368 -0.04218621551990509 -0.019149968400597572 0.02877405285835266 -0.02657773345708847 0.06021430343389511 0.05491558462381363 -0.030228152871131897 0.0008661404717713594 
0.08854258805513382 -0.07406346499919891 0.03148430958390236 0.023409344255924225 -0.06999440491199493 0.003442333545535803 0.028549199923872948 0.08681198954582214 -0.01180766336619854 
0.0283973328769207 0.017981622368097305 0.06293214857578278 -0.016073953360319138 -0.056909020990133286 0.019588174298405647 -0.03250939026474953 0.04790433123707771 0.03559958562254906 
0.08676830679178238 -0.035254646092653275 0.017784688621759415 0.018725940957665443 0.04333926737308502 -0.08624697476625443 0.05817746743559837 -0.01426247600466013 0.026943186298012733 
-0.029574593529105186 0.05792970955371857 -0.043778613209724426 -0.003431269433349371 -0.04828989505767822 -0.030121592804789543 0.06683003902435303 -0.049291424453258514 0.000165958670550026 
-0.05614691227674484 -0.05408826842904091 -0.06616147607564926 0.03503422439098358 -0.005652736872434616 0.006952423136681318 -0.04291714355349541 -0.008098717778921127 -0.044123224914073944 
-0.02565276436507702 0.024130847305059433 -0.02801075391471386 0.028706593438982964 -0.05004091560840607 0.017329121008515358 0.05086175724864006 -0.024156175553798676 0.0560288168489933 
-0.007725553587079048 -0.031769588589668274 -0.032186463475227356 -0.059448644518852234 -0.032953184098005295 -0.0038525634445250034 -0.04741052910685539 0.029183296486735344 0.06284372508525848 
0.016641099005937576 0.05946759507060051 -0.041465386748313904 0.0051604509353637695 0.02912811003625393 0.035921044647693634 0.02933315373957157 -0.051066864281892776 0.022360052913427353 
0.0984509065747261 0.007830159738659859 -0.008705219253897667 0.06689330190420151 0.1183621808886528 0.004277440719306469 0.03777599707245827 -0.02053155191242695 -0.050755005329847336 
-0.03291730582714081 -0.01751103065907955 0.0010886776726692915 0.005850126966834068 -0.014483063481748104 -0.06194538623094559 -0.0017304614884778857 -0.03122461400926113 -0.001599869574420154 
0.009761782363057137 -0.06194789335131645 0.018765950575470924 0.029524244368076324 0.061033912003040314 -0.051020294427871704 -0.017396336421370506 -0.04670903459191322 -0.036424677819013596 
0.0117590157315135 0.030470868572592735 -0.03946909308433533 -0.04312191531062126 0.006465428974479437 0.026425110176205635 -0.04858476668596268 0.018305925652384758 0.017826886847615242 
-0.008980019018054008 0.06421919912099838 0.009441175498068333 -0.027341239154338837 -0.06060407683253288 -0.008764984086155891 -0.014909405261278152 -0.03731926158070564 0.06209627166390419 
0.05721969157457352 -0.054418373852968216 0.019729865714907646 0.06124858185648918 -0.015398229472339153 -0.037779539823532104 -0.02634625881910324 -0.05920287221670151 -0.0005293721333146095 
-0.0708664283156395 -0.058724917471408844 -0.02400791458785534 -0.05933389812707901 -0.04988229274749756 0.03350653871893883 -0.04526015743613243 -0.010297581553459167 -0.05816342681646347 
0.011728527955710888 -0.014044627547264099 -0.06828140467405319 0.0450483001768589 0.016981761902570724 -0.012114954181015491 -0.037251606583595276 -0.016584983095526695 0.03834105283021927 
0.0632038488984108 0.073253333568573 0.016333475708961487 -0.005541459657251835 -0.039934191852808 -0.01876131445169449 -0.03084006905555725 0.026671787723898888 0.06129952892661095 
-0.0302570927888155 0.05980319902300835 0.07121894508600235 -0.05251314863562584 0.0005445868009701371 0.05438767373561859 0.028988266363739967 0.08511849492788315 0.06890074163675308 
0.04768076166510582 0.02698035165667534 -0.007895867340266705 0.017275337129831314 0.012537835165858269 0.03602750599384308 0.05374220013618469 -0.04920109733939171 0.013810894452035427 
0.006750291679054499 0.0059004975482821465 -0.03130806237459183 0.012771460227668285 -0.032654814422130585 0.015971634536981583 0.06922366470098495 -0.0011448166333138943 0.005814610980451107 
0.04826059192419052 0.0032245484180748463 0.01145058311522007 0.054169509559869766 0.04416428506374359 -0.046823978424072266 -0.008909513242542744 0.0108279287815094 -0.0421719029545784 
-0.014998074620962143 0.049036867916584015 0.03606170788407326 0.007087202277034521 0.016417833045125008 -0.06724011898040771 0.012186435051262379 0.007397861685603857 0.022459160536527634 
-0.015409783460199833 -0.02060832642018795 -0.0160328671336174 0.06270308047533035 -0.007978148758411407 0.031383879482746124 0.011018318124115467 -0.009621980600059032 -0.017945071682333946 
-0.0050305090844631195 -0.014155670069158077 0.03953045606613159 0.03936976566910744 0.022804629057645798 0.00525020994246006 0.05549151077866554 0.019212400540709496 -0.014403046108782291 
-0.03258470445871353 -0.045601051300764084 -0.03441327437758446 -0.012113559991121292 0.07458379864692688 -0.06514939665794373 -0.04062173143029213 0.058445096015930176 0.0064636277966201305 
0.0658130869269371 -0.03450853377580643 -0.007114876993000507 0.0015441777650266886 0.06263703107833862 0.0055743553675711155 0.05574891343712807 0.026699448004364967 -0.03434271737933159 
0.05245853215456009 0.008595160208642483 0.005127915181219578 0.02115090936422348 -0.00487350020557642 0.03645278140902519 -0.01887049525976181 0.0018437093822285533 0.04200722649693489 
0.04052537679672241 -0.014716803096234798 -0.03684745356440544 -0.05443935841321945 -0.05025888979434967 0.03342185914516449 0.001830920809879899 -0.02359412983059883 -0.01996581070125103 
-0.04524578899145126 -0.0005985979223623872 0.01580095663666725 0.03095564804971218 -0.04911155626177788 -0.025055620819330215 0.04140062630176544 -0.011382769793272018 0.051709242165088654 
0.03695221617817879 -0.020797640085220337 0.034674059599637985 0.054353468120098114 0.06841491162776947 -0.0047753602266311646 -0.032842185348272324 -0.07000474631786346 -0.005365552846342325 
0.01867782510817051 0.030004248023033142 0.04420332610607147 0.06147123873233795 0.02637290768325329 0.01599188521504402 0.04074156656861305 0.03993819281458855 -0.017722269520163536 
0.04742554947733879 -0.028106631711125374 -0.0345919169485569 -0.025995822623372078 0.038961734622716904 0.030496932566165924 0.007388452533632517 0.02027514949440956 0.03181090205907822 
0.03822141885757446 0.038437679409980774 0.008062677457928658 -0.046345680952072144 -0.0023242849856615067 0.03494890406727791 0.01239603478461504 -0.028103899210691452 0.04111985117197037 
-0.02736949920654297 0.03029697574675083 -0.032681696116924286 0.008278017863631248 0.0704033151268959 -0.05972310155630112 -0.021116415038704872 0.05167603865265846 0.06900736689567566 
-0.010617690160870552 -0.002182917669415474 0.055447421967983246 -0.013483316637575626 -0.008381332270801067 0.06354756653308868 0.010193097405135632 0.039012812077999115 0.06362532824277878 
0.037779681384563446 -0.07789785414934158 -0.007670240476727486 -0.052403226494789124 -0.06304243206977844 -0.0042210048995912075 0.03018075041472912 0.02419731765985489 0.03185925632715225 
0.05375581979751587 -0.018920766189694405 0.006748286075890064 0.05306786671280861 0.06304028630256653 -0.018474426120519638 0.022320672869682312 0.022312600165605545 -0.052552781999111176 
-0.047349169850349426 -0.04464992135763168 -0.0652758926153183 -0.04907608404755592 0.0400458499789238 0.024282649159431458 0.03157733008265495 0.0030879960395395756 -0.046191178262233734 
-0.052064575254917145 -0.05154551938176155 0.021544072777032852 -0.02222476527094841 0.013620494864881039 0.001096811261959374 -0.06635714322328568 0.04948550462722778 -0.031484562903642654 
0.05766867473721504 -0.1010117456316948 0.01098273042589426 -0.0038490905426442623 0.03664116561412811 -0.0024631402920931578 -0.07237996906042099 -0.04240182042121887 0.042319562286138535 
0.04671327397227287 0.03132077306509018 -0.050967246294021606 0.025222409516572952 0.011791713535785675 0.044252075254917145 -0.0018500885926187038 0.07915150374174118 -0.04708379879593849 
-0.03602718561887741 -0.022477852180600166 0.018857784569263458 0.051073022186756134 -0.03020027093589306 -0.03279566019773483 -0.04376230761408806 0.011471564881503582 -0.04839300364255905 
-0.029167059808969498 -0.04962286353111267 -0.030891573056578636 0.046541690826416016 0.017943652346730232 0.022452620789408684 -0.03532423824071884 -0.025953777134418488 -0.006800441071391106 
0.06166888773441315 -0.013428705744445324 0.04569480940699577 -0.005210270173847675 0.047451168298721313 -0.05158863216638565 0.06050528958439827 -0.033478036522865295 0.0013176801148802042 
-0.03224904090166092 0.02764156088232994 0.0070031932555139065 0.04760962352156639 -0.03854949027299881 0.04763491079211235 -0.04676179960370064 -0.0062271831557154655 -0.035054028034210205 
0.04797741025686264 0.09758618474006653 0.09190190583467484 -0.02864527888596058 -0.015699660405516624 -0.02450660988688469 0.04102923348546028 -0.05197298154234886 -0.0049803960137069225 
0.03253595903515816 -0.03401946648955345 0.03715413063764572 0.00383336516097188 -0.0020531094633042812 -0.008085960522294044 0.025748692452907562 -0.057069145143032074 -0.04222693666815758 
0.008900144137442112 0.04194386675953865 0.0687815323472023 -0.024190647527575493 0.019346490502357483 0.038422517478466034 0.01847578026354313 -0.007971213199198246 -0.023117607459425926 
0.008359118364751339 0.006799841765314341 -0.013662018813192844 0.08254596590995789 0.03391234576702118 0.005125942174345255 -0.04776211827993393 0.05434512346982956 -0.08128537982702255 
0.009635820984840393 0.032572273164987564 -0.021916519850492477 0.05974861606955528 0.02339327707886696 0.05773835629224777 0.0014735378790646791 0.05594500154256821 -0.06911291927099228 
0.06510188430547714 0.0455433651804924 0.05020194873213768 -0.0075612617656588554 0.003875128924846649 -0.06540326774120331 -0.020223941653966904 0.030674386769533157 -0.0431416817009449 
-0.015484181232750416 -0.008178162388503551 -0.008055509999394417 -0.03980804607272148 0.02207331731915474 0.03143654391169548 0.03127800673246384 -0.01842460408806801 -0.05073992535471916 
-0.07931540161371231 0.011575775220990181 -0.017671138048171997 -0.0808403342962265 -0.04360038414597511 -0.04918312653899193 0.0008435701602138579 -0.046818289905786514 -0.007591179106384516 
-0.04290969297289848 -0.029737548902630806 -0.048863332718610764 0.039038386195898056 -0.014760109595954418 -0.06568140536546707 -0.010688127018511295 0.07219851762056351 0.05743497610092163 
-0.04593900591135025 -0.011774994432926178 0.011323893442749977 -0.025872401893138885 -0.06218970939517021 -0.016445068642497063 0.03389372304081917 0.05250191316008568 -0.012131252326071262 
0.06156334653496742 -0.036144401878118515 -0.024768395349383354 -0.014529979787766933 0.012994984164834023 -0.009201397188007832 -0.013338876888155937 -0.0554533414542675 0.004245089832693338 
-0.01567472517490387 -0.10743807256221771 0.030683962628245354 0.13645489513874054 -0.01865038275718689 -0.0920591801404953 -0.11090867221355438 -0.037999577820301056 -0.014306969940662384 
-0.03901928290724754 0.007554704323410988 0.06680794060230255 -0.05527757853269577 0.07267541438341141 0.025413760915398598 -0.05400651693344116 -0.051059331744909286 -0.021689685061573982 
-0.006146848667412996 -0.020314153283834457 -0.026394855231046677 0.05237907916307449 0.02595750242471695 0.032243501394987106 -0.030046749860048294 0.0031750674825161695 -0.004319694824516773 
0.014310294762253761 0.05701024457812309 0.04500965401530266 0.012858284637331963 -0.0650549829006195 -0.04469692334532738 0.04204779490828514 -0.02013954147696495 0.01512994710355997 
-0.05724083259701729 -0.025621719658374786 -0.06605754047632217 -0.07047014683485031 0.016803625971078873 0.026494454592466354 -0.0030907755717635155 0.04507585987448692 -0.03193434700369835 
-0.02790575660765171 0.06076515465974808 0.052841778844594955 -0.023258421570062637 -0.025768466293811798 0.06666718423366547 -0.017773084342479706 0.04907901585102081 -0.034166403114795685 
0.0814378410577774 0.019064050167798996 -0.02727523073554039 0.024548031389713287 0.049714457243680954 -0.036607902497053146 -0.026808250695466995 -0.007788828574120998 0.05852700024843216 
-0.0019482217030599713 0.06550055742263794 0.016961203888058662 -0.062476735562086105 -0.06569910049438477 -0.013392836786806583 -0.0010405131615698338 -0.04463256523013115 -0.016667228192090988 
0.02456003800034523 -0.02224363386631012 -0.06993220001459122 -0.020830614492297173 0.015129628591239452 -0.031904011964797974 -0.04379156604409218 0.04915072023868561 -0.04429687559604645 
0.06360633671283722 -0.04253408685326576 0.07262489944696426 0.054031334817409515 -0.04489320516586304 0.06207197159528732 0.022936394438147545 0.030318906530737877 -0.03602783381938934 
0.05067409947514534 -0.011349852196872234 0.009975106455385685 0.029612349346280098 -0.03424549847841263 -0.03167159855365753 0.043343786150217056 0.01506012212485075 0.07676108926534653 
0.0015718817012384534 -0.013069136999547482 -0.007087862119078636 0.040194276720285416 0.06284420192241669 0.04321075975894928 -0.049589019268751144 -0.030285334214568138 0.04628652334213257 
-0.027684887871146202 -0.047945067286491394 -0.053768690675497055 -0.01588248461484909 -0.029964368790388107 -0.009693375788629055 0.008131492882966995 0.06679900735616684 0.00555436871945858 
0.04166184738278389 0.0331636480987072 -0.0023072753101587296 -0.033538829535245895 0.0584929920732975 -0.029489073902368546 -0.07312117516994476 0.041702114045619965 0.03340547904372215 
0.03113679401576519 -0.009462174028158188 0.05931936949491501 0.0324200764298439 0.06494830548763275 0.043828319758176804 0.01909421570599079 -0.04635881632566452 -0.04210307449102402 
0.059126291424036026 -0.03052244521677494 -0.023467395454645157 0.009654048830270767 0.05262673273682594 -0.03170815482735634 0.042119674384593964 0.019593920558691025 -0.04281407967209816 
-0.06540121138095856 0.0071365381591022015 0.03417093679308891 0.05173235014081001 -0.029016003012657166 0.0621948279440403 -0.013092383742332458 0.047142915427684784 0.04757582023739815 
-0.0320628322660923 0.07000250369310379 -0.04968816787004471 0.029427925124764442 -0.0013389558298513293 0.002435701433569193 0.023692568764090538 0.021888451650738716 -0.04021066427230835 
0.05706613510847092 -0.014491263777017593 0.07299838960170746 0.02433704398572445 0.05705106258392334 0.010384258814156055 0.03974483907222748 0.03964947536587715 0.03013879805803299 
-0.004900486208498478 -0.04705351963639259 0.042909663170576096 -0.01960570178925991 -0.018043743446469307 0.025223802775144577 -0.0006923040491528809 -0.01319831982254982 0.05582750216126442 
-0.04584679752588272 0.004873584024608135 -0.06323505192995071 -0.00820180494338274 -0.04890192672610283 -0.04682324081659317 0.014133532531559467 -0.005087643396109343 -0.03488590568304062 
-0.008300075307488441 0.04515651613473892 0.0016274494118988514 0.028031783178448677 -0.049613434821367264 0.03754418343305588 -0.03107483871281147 0.050742555409669876 -0.011278936639428139 
0.02494792826473713 -0.04508502408862114 -0.007946942932903767 0.01131077017635107 0.029153650626540184 -0.027956588193774223 0.03447471186518669 -0.030485238879919052 0.013568083755671978 
0.03240474686026573 -0.04683119058609009 0.042444489896297455 0.011645182967185974 -0.007500534411519766 -0.03734918683767319 -0.00555869285017252 -0.0309080109000206 -0.018760941922664642 
-0.014512176625430584 0.02215476520359516 0.03484772890806198 -0.01960219070315361 0.05099959671497345 -0.00950272660702467 0.04733195900917053 -0.0006524426280520856 0.02957109734416008 
0.11872738599777222 0.03180877864360809 0.01575968600809574 0.024307090789079666 0.00843342300504446 0.00622555473819375 0.027074063196778297 -0.015055661089718342 -0.025491217151284218 
-0.06969210505485535 0.07220549881458282 -0.010298124514520168 0.0013164128176867962 0.008432398550212383 -0.03397337347269058 -0.06007075682282448 -0.014533793553709984 -0.04702630266547203 
-0.005835201125591993 0.010572823695838451 0.04150064289569855 0.09119626879692078 -0.006908426992595196 -0.06728240102529526 -0.0013619312085211277 0.062190163880586624 -0.01842288300395012 
-0.04807567223906517 0.040319375693798065 0.0021383105777204037 -0.09202995896339417 0.027867531403899193 -0.05065399035811424 0.014823753386735916 -0.027303257957100868 0.0392875149846077 
-0.04397471994161606 -0.0025736792013049126 0.028495868667960167 -0.00806498620659113 -0.04140714928507805 0.005727939307689667 -0.02090514823794365 0.061330292373895645 0.0031495338771492243 
-0.0016285907477140427 -0.04040096327662468 0.054804589599370956 0.042614422738552094 0.0021632311400026083 -0.08476091921329498 0.07821714878082275 0.003251882968470454 0.05264806002378464 
-0.04800909385085106 0.015389365144073963 0.06683023273944855 0.04919864609837532 -0.011583523824810982 -0.03127363696694374 -0.07552619278430939 0.026474082842469215 0.044729460030794144 
0.020329387858510017 -0.06949533522129059 0.049329742789268494 -0.09355911612510681 -0.10137868672609329 -0.06138183921575546 -0.05006187781691551 -0.037872426211833954 -0.09133671969175339 
0.039046015590429306 -0.0810631811618805 -0.09927462786436081 0.016963079571723938 -0.013892042450606823 0.0737544596195221 -0.04091275483369827 -0.021963493898510933 0.02883540466427803 
-0.04229767620563507 0.05401954799890518 0.039786189794540405 0.04280639812350273 -0.03295418992638588 0.05902441218495369 0.014127327129244804 0.03498612716794014 -0.006690510548651218 
-0.008502569049596786 0.02272375300526619 0.046564724296331406 0.06452947109937668 -0.003964818082749844 0.05608499050140381 -0.07470707595348358 0.004728297237306833 0.03691508620977402 
0.06324522197246552 -0.010561089031398296 -0.07165782898664474 0.009433331899344921 0.026113681495189667 0.040253810584545135 -0.014656675048172474 -0.03573841229081154 -0.04186463728547096 
-0.020741185173392296 0.057944685220718384 0.004690258763730526 -0.022625811398029327 -0.05985218286514282 0.056800518184900284 0.02481687441468239 -0.1055186465382576 -0.04593214392662048 
-0.03876884654164314 0.00209921901114285 0.004061935935169458 0.004176483955234289 0.03182540833950043 -0.02934272214770317 -0.027292991057038307 -0.03312312439084053 -0.05792053043842316 
-0.03159402683377266 0.072874516248703 0.0353626124560833 -0.027069618925452232 -0.06141092628240585 -0.04624996706843376 0.042619410902261734 -0.08892854303121567 -0.05744526535272598 
0.00123874144628644 -0.06372562050819397 0.016074735671281815 -0.012905021198093891 -0.06948817521333694 0.04776619002223015 0.12198290973901749 -0.040625374764204025 0.032937001436948776 
0.07778240740299225 0.00844570156186819 -0.005404355935752392 0.07276101410388947 -0.03835311159491539 -0.03797420859336853 0.008303807117044926 -0.0006795808440074325 -0.04598524793982506 
0.023928597569465637 -0.010150251910090446 -0.02302531898021698 0.029750468209385872 -0.07502210140228271 -0.042166873812675476 -0.013665594160556793 -0.059125982224941254 -0.05278652906417847 
0.02755449339747429 -0.042253293097019196 0.00811710674315691 -0.01309109851717949 -0.0010838264133781195 0.047649696469306946 0.02665216103196144 -0.05428957939147949 -0.05111965909600258 
0.08220186829566956 -0.11282412707805634 -0.0240532997995615 -0.054660700261592865 -0.10716040432453156 -0.04351804405450821 -0.02327127568423748 0.03489541634917259 0.058628249913454056 
0.006277210079133511 0.03750135377049446 0.0006689290748909116 0.024168193340301514 -0.040847718715667725 0.05669986084103584 0.0261534396559 0.00027638048049993813 -0.009596502408385277 
0.04304729774594307 0.01665571704506874 0.04680008068680763 -0.04596073180437088 0.04304111748933792 -0.029244787991046906 -0.045854225754737854 -0.030306119471788406 0.0062627848237752914 
-0.07371500879526138 0.028631964698433876 0.039081644266843796 -0.04834799841046333 -0.09712682664394379 -0.05715084820985794 -0.05849466472864151 -0.0756639912724495 -0.019140219315886497 
-0.04986659437417984 0.03944632411003113 0.08397991210222244 -0.09058418869972229 0.04761977866292 -0.1558234989643097 -0.026066437363624573 0.013898538425564766 -0.028602605685591698 
-0.024318372830748558 0.004654757212847471 -0.003687814809381962 0.03099806420505047 -0.04932659864425659 -0.031906843185424805 -0.025082414969801903 -0.03350284323096275 0.0359579399228096 
-0.03173869103193283 0.03868526592850685 -0.06804899126291275 -0.05699892342090607 -0.047544922679662704 0.04214112088084221 -0.04355316981673241 -0.046747054904699326 -0.01313953660428524 
-0.0030582882463932037 -0.04043976962566376 0.032478757202625275 -0.008652680553495884 -0.08568555116653442 0.0402284637093544 -0.04365667328238487 0.017402678728103638 -0.036173198372125626 
-0.061899296939373016 -0.01843334175646305 0.034220434725284576 0.07384417206048965 -0.013188865967094898 0.05358922854065895 -0.002719662617892027 0.02926848828792572 -0.006664877291768789 
-0.0499250665307045 -0.007313322741538286 -0.01020559761673212 -0.03505557402968407 0.006719715427607298 -0.024129606783390045 0.039652999490499496 -0.0032942139077931643 -0.019253533333539963 
-0.04556000605225563 0.06140542030334473 -0.01879003271460533 -0.023874076083302498 0.01734231412410736 0.007215178571641445 0.021810248494148254 -0.02187819592654705 -0.039719510823488235 
0.05464841425418854 0.01077498123049736 -0.03461768105626106 -0.01841736026108265 0.07777705043554306 -0.008653296157717705 -0.018422018736600876 0.004561117384582758 0.03656793758273125 
0.0077851880341768265 -0.02608911134302616 -0.024788474664092064 0.07014792412519455 0.014498730190098286 0.03470255807042122 0.05052344873547554 -0.074538454413414 -0.0028024623170495033 
-0.04756248742341995 -0.006401709746569395 0.03489617630839348 -0.0559609979391098 -0.061139289289712906 0.04740047827363014 0.08669463545084 -0.025556655600667 -0.004026925656944513 
0.05008402466773987 0.007325544022023678 0.024821320548653603 -0.03543771803379059 0.0308147594332695 -0.016448765993118286 0.05051162838935852 0.058146413415670395 -0.05117340385913849 
0.06739385426044464 -0.039062514901161194 0.016675183549523354 -0.013121562078595161 -0.047522369772195816 0.0058370316401124 -0.006134462542831898 -0.0547463521361351 0.011806217022240162 
-0.047785840928554535 0.04868696257472038 0.05210024490952492 -0.07142626494169235 -0.07078313827514648 -0.03392453119158745 0.03335624560713768 0.02978520654141903 0.05320417135953903 
0.05806030333042145 0.023927981033921242 -0.008088024333119392 0.02533937804400921 -0.0551326647400856 -0.027984779328107834 0.01787412352859974 -0.012639639899134636 0.03425042703747749 
0.04492641240358353 -0.04063669219613075 0.008713842369616032 -0.005351198371499777 -0.024727823212742805 -0.018140433356165886 -0.023710962384939194 0.0282603707164526 0.005945131648331881 
0.02173181250691414 0.012787358835339546 0.009715355932712555 -0.044819969683885574 0.05053381249308586 0.06466403603553772 -0.03246393799781799 -0.043304093182086945 -0.003928079269826412 
-0.06121232360601425 0.000733782711904496 -0.06710709631443024 -0.01414539571851492 -0.011115574277937412 0.07489931583404541 -0.021277545019984245 0.034413956105709076 0.025166574865579605 
-0.049859657883644104 0.04958358034491539 -0.021243680268526077 0.05269310250878334 0.0352942980825901 0.05596015602350235 -0.003111816244199872 -0.06683389842510223 0.04242599755525589 
-0.0204374548047781 -0.06590703874826431 -0.035103704780340195 0.03885534405708313 -0.014543991535902023 -0.009377813898026943 -0.012027464807033539 0.04917373135685921 -0.03327381983399391 
0.0007069872808642685 0.002122159581631422 0.03150959312915802 -0.03496846556663513 0.0010992184979841113 -0.021673807874321938 0.044171348214149475 -0.009999209083616734 -0.036158107221126556 
0.013067555613815784 -0.008024179376661777 -0.0075650401413440704 -0.0205682385712862 0.07840839773416519 -0.032814133912324905 0.06778521090745926 -0.008123750798404217 0.017039114609360695 
0.04865771532058716 0.02030852437019348 0.012013114988803864 0.043544236570596695 -0.04957997053861618 -0.037054382264614105 0.006519502028822899 -0.017117025330662727 -0.051984015852212906 
-0.026778947561979294 -0.005913878791034222 0.06495469063520432 0.0657956451177597 -0.012613771483302116 0.024652013555169106 -0.06609620898962021 -0.0017763193463906646 0.031097766011953354 
-0.02656087465584278 0.0264911949634552 0.05716536566615105 0.053069718182086945 -0.04336266964673996 0.026991555467247963 0.00631805369630456 0.03707477077841759 0.0012857456458732486 
0.012606355361640453 0.06894624978303909 0.07955091446638107 -0.06368601322174072 -0.07555915415287018 -0.02677270956337452 0.0305855181068182 0.01397026889026165 -0.0013950716238468885 
0.03292972594499588 -0.014739754609763622 0.037323322147130966 0.03409639000892639 0.018476448953151703 0.0422852449119091 0.06544419378042221 0.07569541037082672 0.04596985504031181 
0.002272551879286766 0.03056732751429081 0.027231283485889435 -0.048529915511608124 -0.04274836927652359 -0.048576720058918 0.01653781533241272 -0.03526323661208153 0.009604428894817829 
0.03335506096482277 0.04570680484175682 -0.08288836479187012 -0.04530835524201393 -0.008139880374073982 -0.020356349647045135 0.07258999347686768 0.051006216555833817 -0.04700429365038872 
0.007949430495500565 -0.04320255294442177 0.021310066804289818 0.014852420426905155 0.06733102351427078 0.0558057501912117 -0.008099405094981194 0.047734055668115616 0.022437499836087227 
-0.05626700446009636 -0.0037477067671716213 -0.047167807817459106 -0.06016918271780014 -0.009116352535784245 0.0018043997697532177 -0.08701906353235245 0.01934122107923031 -0.0011282400228083134 
0.028809363022446632 0.05699372664093971 0.0875745415687561 -0.008111570030450821 0.0326412059366703 0.0023614668752998114 0.02142963372170925 0.015170633792877197 -0.0275960024446249 
-0.05298374965786934 0.0002980588178616017 0.01791645959019661 -0.012195427902042866 0.032141126692295074 0.06601192057132721 0.015801873058080673 0.05574275180697441 -0.030008552595973015 
0.06138459965586662 -0.026861147955060005 0.02171722799539566 0.021710814908146858 -0.0908874124288559 0.06319112330675125 -0.011916891671717167 -0.01593903824687004 -0.020587943494319916 
-0.00015612057177349925 0.028682038187980652 0.010430475696921349 0.024869346991181374 0.059111952781677246 0.006219956092536449 -0.021088173612952232 0.023758355528116226 -0.028748923912644386 
0.00551243033260107 -0.018458042293787003 -0.029552580788731575 -0.018183233216404915 -0.020319873467087746 -0.011803463101387024 -0.029198801144957542 -0.04479261115193367 0.05186055973172188 
-0.01850040815770626 -0.03042428568005562 0.027222387492656708 0.03985287994146347 -0.039299432188272476 -0.03721890598535538 -0.007861302234232426 -0.01593276858329773 0.015608109533786774 
0.0013754400424659252 0.026727396994829178 -0.006050831638276577 -0.012614409439265728 0.05871134251356125 0.040092941373586655 0.025170927867293358 -0.0499328188598156 0.04021241515874863 
0.01197476964443922 -0.057122427970170975 0.044174034148454666 0.05318675562739372 0.035234998911619186 -0.040353015065193176 -0.05196348950266838 -0.04828820377588272 -0.02845720574259758 
-0.02335136942565441 -0.023643914610147476 0.025088530033826828 0.0027778728399425745 0.015109981410205364 -0.01791112869977951 0.08248654007911682 -0.021371031180024147 -0.026201149448752403 
0.00016891177801880985 -0.0330781526863575 0.05525915324687958 0.01716500148177147 -0.035293564200401306 -0.008858957327902317 0.03624990954995155 -0.0384751595556736 -0.019867295399308205 
0.0227808877825737 -0.000520303554367274 -0.004053692799061537 -0.018854670226573944 -0.05509211868047714 -0.12130489200353622 -0.040749773383140564 0.06984769552946091 -0.14875008165836334 
-0.006003372371196747 -0.039336640387773514 -0.0073319911025464535 -0.031130731105804443 -0.0024364979472011328 0.0004683479783125222 -0.061233945190906525 0.050414279103279114 -0.0515463761985302 
-0.026442300528287888 0.03600276634097099 0.03058088757097721 -0.03914690762758255 0.017099998891353607 0.04031411185860634 0.033229488879442215 0.057943910360336304 0.009940031915903091 
-0.05211995169520378 -0.01175100076943636 -0.03131966292858124 0.03402891010046005 0.038705892860889435 -0.033883821219205856 0.00235270825214684 0.053651195019483566 -0.002259983913972974 
-0.0034105509985238314 0.053391605615615845 -0.046693895012140274 0.049759767949581146 0.06322504580020905 0.00817965343594551 -0.03876541927456856 0.005206014029681683 0.07355663925409317 
0.048261456191539764 0.05694301798939705 0.0003341130504850298 -0.03921482712030411 -0.013504443690180779 0.0008046934963203967 0.023963820189237595 -0.01747024431824684 0.04316002503037453 
-0.030840972438454628 0.0494670532643795 0.02582983300089836 -0.027669917792081833 0.029916241765022278 -0.051904305815696716 -0.027388693764805794 0.028240369632840157 -0.01908567175269127 
0.010536184534430504 -0.05050985515117645 0.03389056399464607 0.041583169251680374 -0.030356625095009804 0.014178664423525333 0.007126047741621733 -0.03556990623474121 -0.0253298282623291 
0.0357324481010437 0.06306383013725281 0.06516308337450027 -0.059323519468307495 -0.10545861721038818 0.010914080776274204 -0.008491458371281624 -0.0488494448363781 -0.030385712161660194 
-0.009134803898632526 0.002457041759043932 0.01194246206432581 0.021375367417931557 0.058063119649887085 0.05623902752995491 -0.020792583003640175 -0.037491124123334885 0.0022374491672962904 
0.0014837656635791063 -0.03003578819334507 0.023567356169223785 -0.05202722176909447 -0.03415295109152794 -0.002126280916854739 -0.06313848495483398 0.06630662083625793 -0.05054590478539467 
-0.057657014578580856 -0.02527671679854393 -0.011549449525773525 0.0425640344619751 0.047863397747278214 -0.032493457198143005 0.007302521262317896 -0.0011523034190759063 -0.020065952092409134 
0.018560146912932396 -0.023630838841199875 0.01440485566854477 -0.03983693569898605 0.06714103370904922 -0.0005818851641379297 -0.03649824485182762 -0.004737292882055044 0.04639130085706711 
0.048893969506025314 -0.023324551060795784 -0.0015160957118496299 -0.006379025988280773 -0.014636746607720852 -0.05870760977268219 -0.01739249750971794 -0.03104710951447487 0.04313305765390396 
-0.006665058899670839 -0.012066810391843319 0.009199846535921097 0.0177626833319664 0.03360868990421295 0.03032960742712021 -0.024501042440533638 0.01872831955552101 0.04542091488838196 
0.047747667878866196 0.01474506314843893 -0.033531635999679565 -0.060349833220243454 -0.050128642469644547 0.03999246284365654 -0.05442566052079201 -0.006898956373333931 -0.015227687545120716 
0.05043437331914902 0.039613205939531326 -0.011910874396562576 0.04180417209863663 0.06414097547531128 -0.07835055887699127 -0.01747548207640648 -0.033747598528862 -0.07233354449272156 
-0.051794979721307755 0.018960751593112946 0.042880989611148834 0.009855140931904316 0.028635218739509583 0.04545533284544945 -0.020677931606769562 0.054760467261075974 0.0002643742482177913 
-0.03816138207912445 0.03523823246359825 0.051267269998788834 0.021535973995923996 0.006001903675496578 -0.039049066603183746 0.0551246777176857 0.06379423290491104 0.06618283689022064 
-0.02017850987613201 -0.05158309265971184 -0.06147210672497749 0.010548547841608524 -0.054437145590782166 -0.01599382981657982 -0.057893384248018265 0.02856408804655075 0.008544307202100754 
0.06121015548706055 0.02897239476442337 -0.025148866698145866 -0.017696179449558258 0.04231030121445656 -0.0013762891758233309 0.018958965316414833 0.05717018246650696 0.0269951019436121 
0.07280283421278 0.019619276747107506 0.03914663940668106 0.04508931189775467 -0.018155537545681 0.01945602148771286 -0.024290012195706367 -0.024110186845064163 -0.057564668357372284 
0.01104658655822277 0.055817946791648865 0.010689221322536469 -0.04436919838190079 -0.016398979350924492 -0.05407789349555969 -0.005974911618977785 0.05189090594649315 -0.057924192398786545 
0.020240727812051773 -0.05768977478146553 -0.058058686554431915 -0.051478803157806396 0.05876251310110092 -0.007711783982813358 -0.06013138219714165 -0.046149469912052155 0.04929076135158539 
-0.034542620182037354 -0.01235217321664095 0.0745481550693512 -0.009135705418884754 -0.022129349410533905 0.050731681287288666 0.02112557366490364 -0.033416349440813065 -0.03772668540477753 
0.04747109115123749 0.029939919710159302 -0.016064971685409546 -0.0715019479393959 -0.05920732393860817 -0.0385369174182415 -0.006481382995843887 -0.03222033753991127 -0.06604383885860443 
-0.02855767495930195 0.029926905408501625 -0.010660846717655659 0.01574769988656044 -0.007035094313323498 0.00013850745745003223 0.05629834532737732 -0.0242778193205595 0.06698939204216003 
0.06543911248445511 0.027454080060124397 -0.028928060084581375 2.962466851386125e-06 -0.05131649971008301 0.02517285943031311 0.01242592092603445 -0.03958238661289215 0.0519593171775341 
-0.03888833895325661 0.047714073210954666 -0.027285439893603325 0.01758335530757904 0.02925102598965168 -0.028417253866791725 -0.06592769175767899 0.04222835227847099 -0.056880153715610504 
0.028088228777050972 -0.050965264439582825 0.00847985502332449 0.05644351243972778 0.023974046111106873 -0.025154223665595055 0.020132513716816902 -0.04295232519507408 0.0109094912186265 
0.013825821690261364 -0.016782961785793304 -0.04045466333627701 -0.0551980622112751 0.06669297814369202 -0.012947959825396538 -0.022579548880457878 0.043900519609451294 0.027196025475859642 
-0.054520659148693085 -0.041859496384859085 -0.013664326630532742 0.04994712397456169 0.00880808848887682 0.001470025978051126 0.014603218995034695 -0.05371983349323273 0.03000517748296261 
0.002468684921041131 -0.01326982956379652 -0.021565886214375496 0.022619768977165222 -0.06951393932104111 0.019566494971513748 -0.04218117147684097 -0.022793103009462357 -0.029110049828886986 
0.05709267780184746 0.1827031522989273 -0.09967833012342453 0.04349455237388611 -0.1402440220117569 -0.060658909380435944 -0.08364047855138779 0.03658456355333328 0.1096205785870552 
0.017827626317739487 0.05583617463707924 0.04648470878601074 0.037020619958639145 0.002583327703177929 0.03820117563009262 -0.021814817562699318 -0.031236320734024048 -0.0645284503698349 
0.012126907706260681 0.06211809068918228 0.09072006493806839 0.06390463560819626 0.00927022472023964 -0.0004067269910592586 -0.023631053045392036 -0.04471893236041069 -0.00804046168923378 
-0.07618564367294312 0.03836197778582573 -0.023820387199521065 0.005733725149184465 -0.09975285083055496 0.04525512829422951 0.03322529420256615 0.03705040365457535 0.1136462464928627 
0.05259665101766586 0.0962192639708519 0.0221327506005764 -0.004203877877444029 -0.005367923527956009 -0.07432153075933456 -0.046095021069049835 -0.07123742997646332 0.10970494151115417 
0.07166237384080887 0.009532210417091846 -0.02724681794643402 -0.006043270695954561 -0.17302414774894714 -0.12292852997779846 -0.05366591736674309 -0.07574494183063507 0.0014212938258424401 
-0.06350625306367874 0.02012563869357109 0.07033690065145493 0.04540082439780235 -0.002294589066877961 -0.04162035509943962 -0.06528838723897934 -0.11731062829494476 0.11145634949207306 
-0.026266980916261673 0.03719789534807205 -0.034681353718042374 0.025237152352929115 0.09129403531551361 0.007170072291046381 0.03494053706526756 -0.008070302195847034 0.19918106496334076 
-0.07710488885641098 0.042578309774398804 -0.09073317050933838 0.13211782276630402 -0.03236287832260132 -0.10603149235248566 -0.006253981962800026 0.03527180850505829 0.14091338217258453 
0.046868856996297836 0.07638692110776901 0.08824684470891953 0.02477896399796009 0.023785172030329704 -0.03277019411325455 0.09792964160442352 -0.03290459141135216 0.10016212612390518 
-0.053467024117708206 0.035834889858961105 0.03649074211716652 0.004279182758182287 0.030420053750276566 -0.030636625364422798 0.03437572345137596 0.06909889727830887 -0.021719234064221382 
-0.010201950557529926 0.07513517141342163 0.08164254575967789 0.04077110067009926 0.07319995015859604 -0.057620543986558914 -0.01960057020187378 0.003731038188561797 -0.07324004918336868 
0.034522902220487595 0.03382394090294838 0.025863399729132652 0.24075935781002045 -0.011617525480687618 0.2064976990222931 -0.13972905278205872 -0.09616969525814056 -0.050251372158527374 
0.033856235444545746 -0.04649608954787254 -0.0590607151389122 0.08500487357378006 -0.04576369374990463 -0.013110418803989887 -0.056025538593530655 -0.0377366729080677 -0.04084387049078941 
0.0266142375767231 -0.008488530293107033 -0.03027288429439068 -0.05366833135485649 -0.14935608208179474 -0.08697690814733505 -0.031603507697582245 -0.0247974656522274 0.028059273958206177 
-0.1472541093826294 -0.08396150171756744 0.04609806090593338 -0.04978761449456215 0.12146884948015213 0.09819380939006805 -0.0036577442660927773 -0.09175889939069748 -0.1639360934495926 
0.06980596482753754 0.03792204335331917 0.0324227549135685 0.04088996350765228 -0.006079000420868397 -0.054791975766420364 0.03915989398956299 -0.0030736045446246862 0.02898941934108734 
0.06409625709056854 -0.01290260162204504 -0.034618888050317764 -0.01878379099071026 -0.11295938491821289 -0.045080121606588364 -0.09340215474367142 -0.0806974545121193 0.03614075481891632 
-0.05899547040462494 -0.005155680701136589 0.07482904940843582 -0.014419144950807095 0.03395102173089981 -0.009166659787297249 0.05971680209040642 -0.06294122338294983 0.0853523388504982 
0.04240640625357628 -0.029745392501354218 0.15122200548648834 -0.04086703062057495 -0.037651654332876205 0.0007262742146849632 0.1272701919078827 -0.11944989114999771 -0.1112070307135582 
0.04537925869226456 -0.006526766810566187 0.024238690733909607 -0.0479736365377903 0.010172774083912373 0.055781830102205276 0.0038912640884518623 -0.004033008590340614 -0.0036719548515975475 
0.023181993514299393 -0.05678843334317207 0.0003571520501282066 0.03641261160373688 0.010186071507632732 0.04449230059981346 0.010471751913428307 0.0022154240868985653 -0.013399378396570683 
-0.03782999515533447 0.0028253449127078056 -0.09542276710271835 0.04463234543800354 -0.0026333038695156574 -0.032781295478343964 0.046752892434597015 -0.06873529404401779 -0.013308126479387283 
-0.24301780760288239 0.0637713298201561 0.08652585744857788 -0.03281557559967041 0.06885357946157455 -0.013076289556920528 0.16533657908439636 -0.18118785321712494 0.03649410232901573 
-0.12094350904226303 -0.11145481467247009 0.0361395888030529 -0.001192194758914411 0.13529789447784424 -0.012159393168985844 0.02977944351732731 0.035207588225603104 -0.023269115015864372 
0.006989708635956049 0.04734260216355324 -0.012746606022119522 -0.019225357100367546 -0.011684359051287174 0.007056752685457468 0.002636038465425372 -0.041162215173244476 -0.04687776416540146 
0.039828263223171234 0.08331238478422165 -0.0765983834862709 -0.02277408540248871 0.06497140228748322 -1.8043559975922108e-05 0.016560310497879982 -0.036319538950920105 -0.008950297720730305 
0.057524729520082474 -0.010546543635427952 -0.05154553800821304 -0.02439897507429123 0.05811361223459244 -0.021795962005853653 -0.05645240843296051 -0.05811354145407677 -0.029594719409942627 
0.012119070626795292 -0.04945855587720871 -0.08190318197011948 0.04488825425505638 0.03492455556988716 -0.02777070179581642 -0.0023778353352099657 0.03331276774406433 0.021855156868696213 
-0.012866119854152203 -0.03263314813375473 -0.0009588835528120399 -0.06436076760292053 0.021302755922079086 -0.044070757925510406 -0.008489483036100864 0.08082818984985352 0.0863809883594513 
0.023411400616168976 0.029242416843771935 -0.012032922357320786 -0.025744369253516197 -0.0958385244011879 0.04921561852097511 0.04101469740271568 -0.009724011644721031 0.020540282130241394 
0.10648937523365021 -0.06554844975471497 0.02543766424059868 0.035838738083839417 0.06477221846580505 0.005632638931274414 0.006685708183795214 -0.04058322310447693 0.0048090871423482895 
0.20755046606063843 0.04204249382019043 0.09996208548545837 -0.010107681155204773 -0.06391724944114685 -0.0015055109979584813 0.06361345946788788 -0.00026759214233607054 0.008139928802847862 
-0.08575054258108139 0.03820013254880905 -0.00542230112478137 0.06788703799247742 -0.004857367370277643 0.037029169499874115 -0.046576082706451416 -0.07071224600076675 0.00943956058472395 
0.015478217042982578 0.03228131681680679 -0.013881076127290726 -0.03264293074607849 -0.005821512080729008 -0.06841453909873962 -0.07973077893257141 -0.033478111028671265 0.006187735125422478 
-0.06957446038722992 -0.0018045217730104923 0.03323327749967575 -0.06092270836234093 -0.04960257560014725 0.062326401472091675 -0.01642448455095291 -0.022446606308221817 -0.03602692857384682 
-0.007598637603223324 0.060682374984025955 -0.04544292390346527 0.05313761904835701 0.01389079075306654 -0.08830150961875916 -0.012165972962975502 -0.06083621084690094 0.058916132897138596 
-0.030421223491430283 -0.042471759021282196 -0.01945241540670395 0.029781145974993706 0.04136461764574051 0.013004024513065815 0.025920046493411064 -0.014556631445884705 0.04466939717531204 
0.0076667144894599915 0.026856524869799614 0.05060194805264473 0.014388177543878555 0.037323396652936935 0.019399059936404228 -0.019517788663506508 0.015657823532819748 0.02752944640815258 
0.13405334949493408 0.10753439366817474 0.008421136066317558 -0.025138771161437035 -0.04941483587026596 -0.05274157598614693 0.08238673955202103 -0.020255859941244125 0.06186263635754585 
-0.03473256528377533 0.03509072959423065 0.020898988470435143 -0.01519386749714613 -0.05469028651714325 0.060175925493240356 0.05137772858142853 0.05944502726197243 -0.00315734907053411 
-0.07164718210697174 -0.045431893318891525 0.0023826223332434893 0.013817893341183662 0.020165912806987762 -0.014422854408621788 -0.042399290949106216 -0.021048424765467644 -0.015713002532720566 
0.03349926322698593 0.04155413806438446 0.004585478454828262 0.05377427116036415 0.031919799745082855 -0.0600869283080101 -0.02860843576490879 -0.03685135021805763 0.04678065702319145 
0.0854933112859726 -0.08972866088151932 0.0025508468970656395 -0.05072103068232536 0.038296058773994446 0.006117022130638361 0.021749241277575493 -0.0012223604135215282 -0.021932421252131462 
0.03226009011268616 0.026479564607143402 0.014244968071579933 0.0507785826921463 -0.015938598662614822 0.027407515794038773 0.004047049675136805 -0.012294458225369453 0.027732746675610542 
0.0711158812046051 0.04709620401263237 0.06838518381118774 0.04072534665465355 -0.03618159145116806 0.029660621657967567 -0.05770182982087135 -0.052777860313653946 0.03240447863936424 
0.018044479191303253 -0.06048792973160744 0.04979236423969269 -0.007311003748327494 -0.014646926894783974 -0.030679097399115562 -0.05096128210425377 -0.05185456946492195 -0.07221551984548569 
0.18752320110797882 0.0745621845126152 0.00759616494178772 -0.13372375071048737 -0.1390673965215683 -0.06294141709804535 0.14223287999629974 0.17814071476459503 0.0973517969250679 
-0.041867755353450775 -0.0561457984149456 0.06307529658079147 -0.30315101146698 0.22660276293754578 -0.1379733830690384 0.29177889227867126 0.04766320809721947 -0.0607297420501709 
0.06915117800235748 0.0655854120850563 -0.05437656491994858 -0.049824316054582596 0.05545228719711304 0.025338752195239067 0.02541442960500717 -0.045594215393066406 0.048927441239356995 
0.3825145661830902 -0.16603901982307434 -0.08199518173933029 0.09579065442085266 0.09089171886444092 0.04310987889766693 -0.038549501448869705 0.04512079060077667 -0.006640724837779999 
-0.015153148211538792 0.08401139825582504 -0.022593125700950623 -0.04885582998394966 0.22219446301460266 -0.06674879044294357 -0.0006225507822819054 0.07789933681488037 -0.08268085867166519 
-0.20781069993972778 0.05806848034262657 -0.030171863734722137 -0.3020328879356384 0.07434898614883423 0.01584911160171032 -0.04052083194255829 -0.0023983053397387266 0.06375133991241455 
-0.12377986311912537 0.008033917285501957 -0.032791122794151306 -0.36929675936698914 0.0733070895075798 -0.04766030237078667 -0.15138515830039978 0.08002126216888428 0.04680988937616348 
0.13862638175487518 -0.04594846069812775 -0.041536491364240646 0.01105982344597578 -0.023294568061828613 0.06492602080106735 -0.07946209609508514 0.038750335574150085 -0.03438901528716087 
-0.0343131422996521 0.12779881060123444 0.04763181880116463 -0.1081266924738884 0.033422358334064484 0.3022858798503876 0.14782753586769104 0.10107185691595078 0.05027446150779724 
0.059495970606803894 0.03383287787437439 0.007321944925934076 0.0684414803981781 0.042295902967453 -0.14499299228191376 0.029461873695254326 -0.048189274966716766 -0.07320821285247803 
0.05385756120085716 0.017679434269666672 -0.09395135939121246 -0.15576934814453125 0.07713967561721802 0.03276926279067993 0.022501999512314796 0.018256325274705887 -0.05570647493004799 
0.030097540467977524 -0.029117755591869354 -0.029818344861268997 0.043978236615657806 -0.023595577105879784 -0.034024666994810104 0.05615704879164696 -0.06526333838701248 0.019717395305633545 
-0.08047349750995636 -0.04312032461166382 -0.06309053301811218 -0.07959594577550888 0.033953599631786346 -0.028360240161418915 -0.03581667318940163 0.06146521866321564 0.06192576512694359 
-0.02678705006837845 0.066157765686512 0.013521452434360981 0.049789655953645706 -0.0031637800857424736 -0.008056601509451866 0.02658405341207981 -0.15252874791622162 -0.018724726513028145 
-0.007875575684010983 0.05811561644077301 -0.02044876664876938 -0.03568694368004799 0.007226471323519945 0.04608234763145447 -0.04313194006681442 -0.019844310358166695 -0.004557622130960226 
-0.23647256195545197 0.05491290241479874 -0.1316695213317871 -0.04026612639427185 -0.08373171836137772 0.03189190477132797 0.21386101841926575 -0.0799466148018837 -0.021107802167534828 
-0.04883194714784622 0.13254207372665405 -0.06685412675142288 0.012996855191886425 -0.03845762461423874 -0.1543435901403427 -0.12114474922418594 0.0030721642542630434 -0.016238635405898094 
0.031095849350094795 -0.004180328920483589 0.07631650567054749 -0.08582013100385666 0.05834827572107315 -0.005630266387015581 -0.03748612850904465 0.08118366450071335 0.0590076744556427 
-0.08709981292486191 -0.009012672118842602 0.08158832788467407 -0.013576188124716282 0.027636824175715446 0.04712018370628357 -0.11292380094528198 -0.012851891107857227 -0.03277156502008438 
0.020308002829551697 0.05866070091724396 0.0027322822716087103 0.008469984866678715 0.019776208326220512 -0.047004859894514084 -0.008025722578167915 0.0343136265873909 0.04921121522784233 
0.1348663568496704 -0.033135414123535156 -0.010329168289899826 -0.05196889489889145 -0.039892200380563736 0.07910105586051941 -0.2954099178314209 0.19642198085784912 0.020506665110588074 
0.03519317880272865 0.02528618648648262 -0.007887125015258789 0.10094363242387772 0.032159265130758286 -0.003422413719817996 -0.031231772154569626 0.0242763664573431 0.04403617978096008 
-0.019684208557009697 -0.07133589684963226 -0.03320152312517166 0.02295132540166378 -0.04721202328801155 -0.021678626537322998 0.027700841426849365 0.0206043291836977 -0.003224665066227317 
-0.10799700766801834 -0.021890943869948387 -0.0021825036965310574 -0.033880870789289474 -0.015674538910388947 -0.01877707615494728 -0.0008973993244580925 0.11162813007831573 -0.07624208182096481 
-0.06745842099189758 -0.12445440143346786 0.026286961510777473 -0.2618589997291565 -0.06025511771440506 -0.17897652089595795 -0.4916820824146271 0.11522043496370316 -0.06168147176504135 
-0.01295985747128725 0.005634672474116087 0.0020828908309340477 0.011278944090008736 -0.034445371478796005 0.027711162343621254 0.03609729930758476 -0.04584254324436188 -0.06731216609477997 
-0.05496283248066902 -0.020636722445487976 -0.047000136226415634 -0.038958460092544556 -0.017911845818161964 0.002716975985094905 0.03189896419644356 -0.052538059651851654 0.008813798427581787 
-0.03215065971016884 0.005960192531347275 -0.030839940533041954 0.010831644758582115 -0.014483744278550148 0.020853497087955475 0.01974387839436531 -0.015553927980363369 0.026990588754415512 
-0.056744206696748734 0.0437212735414505 0.06903129816055298 0.03688697889447212 -0.026048000901937485 -0.05943639203906059 -0.0453556589782238 0.03861250355839729 0.03166487440466881 
-0.004113621078431606 0.04695507884025574 -0.04995119571685791 0.025549976155161858 -0.0738968476653099 0.024749044328927994 0.038747638463974 0.047690775245428085 -0.06306971609592438 
0.06023329868912697 -0.004024052992463112 0.055465202778577805 0.04208165407180786 -0.010309929959475994 0.02932305634021759 0.031454943120479584 -0.020180676132440567 0.05642903968691826 
0.06686107814311981 0.07274148613214493 0.0428575836122036 0.0014936146326363087 -0.06222296878695488 0.05724075436592102 0.06546008586883545 0.010716062970459461 0.0522022508084774 
-0.04232296720147133 0.0033762131351977587 0.00021661605569534004 0.05566489323973656 -0.015325070358812809 0.05088943988084793 -0.07152396440505981 -0.03349429368972778 0.04729682579636574 
-0.002073819749057293 -0.0649685263633728 0.03590383380651474 0.0383339524269104 -0.000149642612086609 -0.03670218586921692 0.01311092171818018 0.0680198147892952 0.06204071640968323 
-0.01138908788561821 0.054214730858802795 -0.03945387154817581 0.017324170097708702 -0.06341711431741714 0.014325425028800964 0.01761689968407154 0.025202734395861626 0.002275741659104824 
0.01255565881729126 0.008011526428163052 0.056209176778793335 -0.039937980473041534 -0.021783296018838882 -0.06328367441892624 0.06694033741950989 -0.032863419502973557 0.05460376664996147 
0.019953230395913124 0.043753448873758316 0.010594537481665611 -0.034225285053253174 0.00613175006583333 -0.028803391382098198 0.055884744971990585 0.06386007368564606 -0.05220705643296242 
-0.05421102046966553 -0.017732679843902588 0.026617206633090973 -0.05611209571361542 -0.04784626141190529 -0.009618622250854969 0.04288353770971298 0.06397944688796997 -0.053343649953603745 
0.046062879264354706 -0.030283719301223755 -0.06817007809877396 0.04685381427407265 -0.06919588893651962 -0.046534519642591476 0.0029870900325477123 0.042615339159965515 0.050613027065992355 
0.04558956250548363 -0.02118276059627533 0.01581425778567791 -0.04057390242815018 -0.003479448612779379 0.04856836795806885 0.06220918148756027 -0.03691672533750534 0.03308488801121712 
-0.0701693594455719 -0.0053852396085858345 -0.024969875812530518 -0.03481214493513107 -0.04798060283064842 0.0748850405216217 0.021993517875671387 -0.002426930470392108 -0.039839476346969604 
-0.03848402947187424 0.015700438991189003 0.022423064336180687 -0.053245216608047485 -0.005471622571349144 -0.04837455227971077 0.05264738202095032 0.06327349692583084 -0.03309349715709686 
0.03728250414133072 -0.04550917446613312 -0.024717427790164948 -0.06934908777475357 -0.012605035677552223 -0.05909382179379463 -0.020440107211470604 -0.03195898234844208 -0.032192111015319824 
0.045556675642728806 -0.02819160930812359 -0.01975538767874241 -0.0012126502115279436 0.0630386620759964 0.017144329845905304 -0.05182719975709915 -0.05667228251695633 0.0008226450881920755 
0.019521908834576607 -0.07270145416259766 0.049069199711084366 0.051612429320812225 0.004064707551151514 0.014521211385726929 -0.0014944688882678747 -0.022391116246581078 -0.02421124279499054 
0.020315399393439293 0.059181030839681625 -0.0050109620206058025 -0.023929817602038383 0.0005212873802520335 -0.04274498298764229 0.02438962087035179 -0.03407847881317139 -0.01117776520550251 
-0.03075258620083332 0.002654758282005787 0.017339488491415977 0.020713355392217636 -0.009771158918738365 0.04968588054180145 -0.03996901214122772 0.027188759297132492 0.011939204297959805 
-0.026599150151014328 -0.021761219948530197 0.03603947162628174 0.054080914705991745 0.006640808656811714 -0.00463199382647872 0.011772150173783302 -0.04430661350488663 0.055242955684661865 
-0.02547023631632328 -0.04586857557296753 0.04545500874519348 -0.08491935580968857 -0.07300262898206711 -0.015396571718156338 0.062277402728796005 0.08485893160104752 -0.08501996845006943 
0.04376278817653656 0.01744270883500576 0.043663833290338516 0.035018350929021835 -0.14499349892139435 0.04407521337270737 0.011903020553290844 -0.053309205919504166 -0.04607677459716797 
0.049964554607868195 0.001483768573962152 -0.06881410628557205 -0.061170730739831924 0.04319894686341286 -0.01946711167693138 0.017977317795157433 -0.05430891364812851 0.011165988631546497 
0.044854626059532166 0.03943037614226341 -0.0025942286010831594 0.04618031159043312 -0.025494525209069252 -0.043299827724695206 0.002773538464680314 -0.05993116274476051 0.05494105443358421 
0.0668274313211441 0.003079093061387539 0.09564805030822754 0.000899235368706286 0.05996416509151459 -0.0364929661154747 0.04086839407682419 -0.01009202841669321 -0.03760197013616562 
0.08780770003795624 -0.012235390022397041 0.04621781036257744 0.06731200963258743 0.026406610384583473 -0.024768702685832977 -0.03264230117201805 0.04279055818915367 0.0014303529169410467 
0.08179343491792679 -0.039851099252700806 -0.03527441248297691 0.07808694243431091 -0.09228190034627914 0.055118512362241745 -0.017670316621661186 -0.08459437638521194 -0.0031450181268155575 
-0.0678587257862091 0.03151519596576691 -0.03145025670528412 0.015964681282639503 0.029036231338977814 0.002319746185094118 -0.07348757982254028 -0.060002610087394714 -0.003124416107311845 
0.07849892973899841 -0.045219793915748596 0.013054228387773037 -0.05694745481014252 -0.015061051584780216 -0.08166024088859558 -0.026192734017968178 -0.05329899489879608 -0.0008610918303020298 
-0.10614266991615295 -0.040798481553792953 -0.12289892882108688 0.13302192091941833 0.12180829048156738 -0.009322668425738811 0.01278021838515997 -0.002355298027396202 -0.060662634670734406 
-0.04897993057966232 0.008808487094938755 0.018177367746829987 -0.05708609148859978 0.01779148541390896 -0.006511665880680084 -0.010799258947372437 -0.005416093394160271 0.0009171137935481966 
0.03047773987054825 -0.012145474553108215 -0.011958401650190353 0.0095712561160326 0.0017237886786460876 0.044806018471717834 0.07233258336782455 -0.042327914386987686 -0.044446200132369995 
-0.04024944826960564 0.02395510859787464 0.020870978012681007 -0.005954149644821882 -0.04162024334073067 -0.02404712326824665 0.05728248879313469 -0.047021251171827316 0.03161381557583809 
-0.03438258916139603 -0.05777379870414734 0.034772422164678574 -0.12884223461151123 0.04637226462364197 0.05444527789950371 -0.016190815716981888 0.049298014491796494 -0.00025966839166358113 
-0.0029006728436797857 -0.044134531170129776 0.04009144753217697 -0.021942777559161186 0.02015036717057228 0.06776763498783112 0.027652902528643608 -0.02216217666864395 -0.04374510049819946 
0.006542115937918425 0.005479277111589909 0.13058583438396454 -0.061756331473588943 -0.09493131935596466 0.043627750128507614 -0.017968181520700455 -0.058269474655389786 -0.055237192660570145 
-0.07893110811710358 -0.05821280553936958 -0.047086458653211594 0.03362910449504852 0.061643633991479874 -0.009426097385585308 0.12066807597875595 -0.003886587917804718 0.038890592753887177 
-0.048518966883420944 0.008324476890265942 -0.06641504168510437 -0.014284069649875164 0.06570728123188019 0.044455163180828094 0.016247441992163658 -0.0633491724729538 0.0380430705845356 
-0.0050758616998791695 -0.060612600296735764 0.012392946518957615 0.041143693029880524 -0.03183123469352722 0.00944939162582159 0.04403991624712944 -0.061871204525232315 -0.06054014340043068 
-0.050438541918992996 -0.07870171964168549 0.049900081008672714 0.045783739537000656 0.017489539459347725 -0.051906704902648926 0.03464854136109352 -0.038185447454452515 0.046791158616542816 
0.0599614679813385 -0.06671063601970673 -0.01606319099664688 -0.04567612707614899 0.0011314147850498557 0.016202671453356743 -0.013860723935067654 0.0074399192817509174 0.07121383398771286 
-0.026385443285107613 -0.010227397084236145 -0.016890857368707657 -0.013583792373538017 0.07753463834524155 0.03705897927284241 0.04820791259407997 -0.011271457187831402 0.011026980355381966 
-0.006483331322669983 -0.05115549638867378 0.026222260668873787 0.08157503604888916 -0.00796053372323513 -0.037658628076314926 -0.061825647950172424 0.00324391876347363 0.04589400812983513 
0.09206870943307877 0.013936882838606834 0.06143852695822716 0.06085430830717087 -0.11498402059078217 -0.06237926706671715 -0.008014854975044727 -0.0661974847316742 0.06945336610078812 
0.05163334682583809 -0.0548182912170887 -0.023034285753965378 0.2369207739830017 0.06652890145778656 -0.003009217791259289 -0.020987410098314285 -0.17725330591201782 0.10282397270202637 
0.0477522611618042 0.006142867729067802 0.024436507374048233 -0.011647415347397327 0.034451939165592194 -0.014873087406158447 -0.024345330893993378 -0.024617759510874748 0.008758334442973137 
0.011094676330685616 0.01037845853716135 0.014238690957427025 0.023965757340192795 0.04090811312198639 -0.02160557731986046 0.052757345139980316 0.03954339027404785 0.005450676195323467 
0.018671123310923576 0.018907058984041214 0.02877862937748432 0.049436312168836594 -0.05719969421625137 0.08597831428050995 0.08464232832193375 -0.009981662966310978 -0.013384870253503323 
0.011258376762270927 -0.04006432741880417 -0.004829584155231714 0.003236728487536311 0.0035728737711906433 -0.028420360758900642 -0.0019846525974571705 -0.0180140919983387 -0.007401531562209129 
-0.04272473230957985 -0.005910326726734638 0.023188497871160507 0.019594281911849976 -0.028580298647284508 -0.035588860511779785 0.028863634914159775 0.05129333958029747 0.023000529035925865 
-0.004867721814662218 0.020580323413014412 0.024779925122857094 0.03212546184659004 0.03370235487818718 0.012810525484383106 0.0015123169869184494 0.026983343064785004 0.018006229773163795 
0.013150597922503948 -0.03232268989086151 -0.01691036857664585 0.03148488700389862 0.07406196743249893 -0.04087664559483528 -0.00698722992092371 -0.05556067079305649 -0.0386447012424469 
-0.032828189432621 0.00040226621786132455 0.020703494548797607 -0.06052633747458458 -0.0052233850583434105 -0.05807238817214966 -0.025587793439626694 0.010792396031320095 -0.08042833209037781 
0.057420358061790466 0.05675458535552025 -0.03545995056629181 0.06617189943790436 0.03422321379184723 -0.0026768799871206284 -0.0030939620919525623 0.04730132222175598 0.04791644215583801 
0.05226462334394455 0.026903733611106873 0.06110601872205734 -0.00011696060391841456 -0.003010720480233431 0.020776359364390373 -0.010536139830946922 0.04166543111205101 -0.014325055293738842 
0.03938398137688637 -0.06097191944718361 0.058563943952322006 0.04269356280565262 -0.003090896876528859 0.00905952975153923 0.04925425723195076 0.007670952472835779 0.05123963579535484 
-0.023377930745482445 -0.03052581287920475 0.03821634128689766 0.025604311376810074 -0.01740424521267414 -0.05688213184475899 0.015180252492427826 -0.03463190421462059 0.012859370559453964 
-0.030159708112478256 -0.028388872742652893 -0.02007792703807354 -0.059260476380586624 -0.06886264681816101 0.004063628613948822 0.02146529033780098 0.055917419493198395 -0.019606219604611397 
0.009453331120312214 5.40007786185015e-05 0.05244174227118492 -0.009784650057554245 0.03216882050037384 0.059460513293743134 -0.01913905143737793 0.05681712180376053 0.06601069122552872 
-0.06536363065242767 -0.040383290499448776 -0.01439749076962471 0.0012825134908780456 -0.05803587660193443 -0.04549911618232727 -0.0012028967030346394 0.03503038361668587 -0.048976726830005646 
0.02451956458389759 0.02785942330956459 0.019037233665585518 -0.035252682864665985 0.03509577363729477 0.03144330531358719 -0.01394304633140564 0.047832950949668884 -0.04912849888205528 
0.015980171039700508 -0.0461450032889843 -0.037265483289957047 0.005291689187288284 -0.03336320444941521 0.06102711334824562 0.024370627477765083 0.004859951324760914 0.03357016295194626 
0.004709913861006498 0.029281755909323692 0.010933158919215202 -0.027188293635845184 -0.03953662887215614 0.00026185036404058337 0.05396541953086853 -0.03660076856613159 0.06938822567462921 
0.010273424908518791 0.02844391204416752 0.03972843661904335 -0.03259936720132828 -0.015351580455899239 -0.022053968161344528 0.015511398203670979 -0.06830337643623352 -0.05432891845703125 
-0.06890805810689926 -0.044791329652071 0.01880006119608879 0.04426043480634689 0.048736412078142166 0.03141730651259422 -0.05524039268493652 0.029187064617872238 -0.006280521396547556 
-0.044455040246248245 -0.05232417955994606 -0.007616186048835516 -0.06063744053244591 -0.0032322187907993793 -0.04792642220854759 -0.040904782712459564 0.04047534614801407 -0.01569816656410694 
0.02908509410917759 0.01631183736026287 0.049675557762384415 0.010592922568321228 0.020455563440918922 -0.0061542741023004055 0.016102230176329613 0.013094708323478699 0.054989296942949295 
0.06924240291118622 0.002980514196678996 0.00969324167817831 0.04629074037075043 -0.046777836978435516 0.04481004923582077 -0.06124206632375717 0.016859563067555428 -0.060359664261341095 
0.04938690736889839 -0.022804774343967438 0.049673013389110565 -0.039733514189720154 0.08294545859098434 0.025855913758277893 -0.0756174623966217 0.0215474683791399 0.06110037863254547 
-0.06789683550596237 0.040272947400808334 -0.029768269509077072 -0.07716092467308044 0.07389068603515625 -0.08180525153875351 -0.023306718096137047 0.006465191021561623 0.0484013594686985 
-0.07502028346061707 -0.07195540517568588 0.07143137603998184 0.0259538721293211 -0.058201733976602554 0.0007841034093871713 -0.05873025581240654 0.033141277730464935 0.05405247211456299 
0.0571417398750782 -0.04291124269366264 -0.007657182402908802 -0.061782579869031906 -0.0035204561427235603 0.018521439284086227 -0.009838850237429142 -0.028473228216171265 -0.008250596933066845 
-0.026822729036211967 0.03637631982564926 -0.039959654211997986 0.014776831492781639 0.04340079054236412 -0.06108883023262024 0.004902237560600042 -0.03210083767771721 -0.009769854135811329 
-0.0643429383635521 0.03630635887384415 0.07105202972888947 -0.058765582740306854 -0.0010727070039138198 -0.04743192344903946 -0.025187641382217407 -0.00992788840085268 0.08441635221242905 
-0.013729721307754517 0.04614514112472534 -0.001965544419363141 -0.03678864240646362 0.01538259256631136 0.00809891801327467 -0.0634525939822197 0.04151979088783264 -0.04561668634414673 
0.053987327963113785 -0.06379195302724838 0.04587509110569954 -0.06180835887789726 -0.05419453606009483 0.07326670736074448 -0.025407154113054276 -0.03836488723754883 -0.022647859528660774 
0.01058080792427063 -0.07755759358406067 -0.02574465237557888 -0.05639847740530968 -0.09065837413072586 0.00031238890369422734 0.05011437460780144 -0.06171444430947304 -0.11570564657449722 
0.061702240258455276 0.0014001120580360293 0.065834179520607 -0.04482334107160568 0.06957469880580902 -0.04080182686448097 -0.03582103177905083 0.019185615703463554 0.05795250087976456 
-0.0827702134847641 0.0026564784348011017 -0.09925561398267746 0.013370406813919544 -0.015831705182790756 -0.029876815155148506 0.05029865726828575 -0.04337397962808609 0.010177300311625004 
-0.035092055797576904 0.03626958280801773 0.011964927427470684 0.04559165984392166 0.048333216458559036 0.037043582648038864 -0.01585385575890541 -0.04094141721725464 -0.07292959094047546 
-0.07144749164581299 -0.005024733487516642 0.009944305755198002 -0.07531528174877167 -0.04487108066678047 0.04733484610915184 0.03301611542701721 -0.01924850605428219 -0.009290722198784351 
-0.05598917976021767 -0.002992628375068307 -0.046903062611818314 0.05215083807706833 0.029514027759432793 -0.048513587564229965 0.015583685599267483 0.04005983844399452 -0.013507336378097534 
0.06668569147586823 0.03962714597582817 0.02216150052845478 -0.029764872044324875 -0.009463747963309288 0.056979767978191376 -0.03282981738448143 -0.010350028052926064 -0.021628176793456078 
-0.0837547779083252 -0.0351056233048439 0.03439323231577873 0.03862743824720383 0.027851564809679985 -0.08311955630779266 -0.05338822677731514 0.0030621164478361607 -0.0286976620554924 
-0.00010249289334751666 0.0683727115392685 0.05411972478032112 -0.02187880501151085 0.11315666139125824 0.04339958354830742 0.0007794286939315498 0.07151748985052109 0.13974334299564362 
-0.04223381355404854 -0.04759804531931877 -0.01720787212252617 -0.0061812447383999825 0.021814629435539246 0.04239877313375473 0.03983079642057419 0.04828556999564171 -0.01247517392039299 
0.008119214326143265 -0.10179910063743591 -0.0406133271753788 0.001617611269466579 0.006418091244995594 0.018762268126010895 -0.03429502248764038 -0.10811275243759155 -0.0609668605029583 
-0.07617444545030594 0.04260816052556038 0.06210445985198021 -0.06525125354528427 -0.0356198213994503 0.08322164416313171 -0.011531953699886799 0.03016694448888302 0.0803053006529808 
-0.011365985497832298 0.026494767516851425 -0.11393404006958008 0.034549545496702194 0.07026726007461548 -0.011420399881899357 -0.06112099066376686 0.07318321615457535 -0.002475930843502283 
-0.058793820440769196 0.027067074552178383 0.08587615936994553 0.07156974077224731 -0.0557577908039093 0.03480708226561546 0.06944247335195541 0.01712827757000923 0.019398283213377 
0.02626560442149639 0.05209975689649582 -0.027368372306227684 0.01190238632261753 -0.039662886410951614 0.026806281879544258 -0.01645873859524727 0.0058340816758573055 0.04547961801290512 
0.02482982911169529 -0.08446960896253586 -0.05150170996785164 0.0013513045851141214 0.014481442049145699 0.03485230728983879 -0.030303865671157837 -0.029837630689144135 0.060433510690927505 
-0.024341672658920288 0.18038639426231384 -0.0015820586122572422 -0.11479740589857101 0.04350869357585907 -0.04765520989894867 -0.11628509312868118 0.048626456409692764 -0.007089155726134777 
-0.06467892974615097 -0.21901153028011322 0.06418002396821976 0.11074171960353851 0.10790310055017471 -0.012861225754022598 0.03506232425570488 -0.010859684087336063 0.05907932296395302 
-0.009007390588521957 0.04491832107305527 0.03507394716143608 -0.0194369088858366 -0.015378900803625584 0.05074261128902435 -0.0330575592815876 -0.061400819569826126 -0.06251177191734314 
-0.04511700198054314 -0.006517614703625441 0.0050455117598176 0.08188790827989578 0.05675329640507698 0.052324432879686356 0.024858761578798294 -0.024451401084661484 -0.022224843502044678 
0.035342879593372345 -0.07701043039560318 0.00977738294750452 0.10899219661951065 0.060690272599458694 0.0139459865167737 0.025367647409439087 0.035609111189842224 -0.03726806491613388 
-0.05815410986542702 -0.25721657276153564 -0.029860936105251312 -0.05705668404698372 0.0022216306533664465 -0.011060594581067562 0.006688028108328581 0.0815652534365654 0.03490891680121422 
-0.08952785283327103 -0.13902263343334198 -0.06644022464752197 -0.035229843109846115 -0.11725875735282898 -0.13007834553718567 0.01876002363860607 0.025868015363812447 0.00823172740638256 
0.027255890890955925 -0.002510025864467025 -0.00634184991940856 -0.07099093496799469 -0.09043616056442261 -0.013395951129496098 0.0010029890108853579 0.006318345665931702 -0.08363395184278488 
0.08440393209457397 0.06134701147675514 -0.11820755898952484 -0.15112946927547455 -0.050000954419374466 0.09488348662853241 0.14299547672271729 -0.05312848463654518 -0.08811237663030624 
0.0958462730050087 0.1819745898246765 -0.046333618462085724 -0.08641886711120605 0.08164685219526291 0.05481363832950592 0.15646114945411682 0.01117982342839241 0.010968181304633617 
-0.05889495834708214 -0.036839310079813004 -0.040469031780958176 0.08119116723537445 0.15587204694747925 0.027446705847978592 -0.06612839549779892 0.005244702100753784 0.03516460210084915 
-0.018196817487478256 -0.038543954491615295 0.022962091490626335 0.01108601689338684 -0.046040408313274384 0.05308879166841507 -0.0095599964261055 -0.002610227558761835 -0.038853004574775696 
-0.03794346749782562 -0.062466349452733994 -0.002413850976154208 0.007858898490667343 0.07320183515548706 -0.03313414379954338 0.03204294294118881 0.02876967564225197 -0.00984964333474636 
0.0599152110517025 0.04730147495865822 0.07946039736270905 0.020386824384331703 -0.020276952534914017 0.016317280009388924 -0.12309980392456055 -0.024378012865781784 -0.030958598479628563 
-0.010064874775707722 -0.06530752032995224 0.005410839803516865 0.019056398421525955 0.08123665302991867 0.010075791738927364 0.02660466358065605 -0.055323660373687744 0.04497335106134415 
-0.023170946165919304 -0.007875967770814896 -0.05737876147031784 -0.07464999705553055 0.02090844325721264 0.08060713112354279 -0.0014647195348516107 -0.031170137226581573 -0.034526191651821136 
0.026210391893982887 0.10338626056909561 -0.04776652157306671 -0.11387480050325394 -0.05931663140654564 -0.02239910140633583 0.0354280062019825 0.09409891068935394 -0.07097095251083374 
0.03972852602601051 -0.08194577693939209 0.031398285180330276 0.009600983932614326 -0.06723745912313461 0.051691360771656036 0.06586673855781555 0.08947516232728958 -0.06049133837223053 
-0.09721077233552933 -0.09677204489707947 0.0073022423312067986 0.038288939744234085 0.04837014153599739 -0.003354922868311405 -0.014137109741568565 -0.011648458428680897 0.033766936510801315 
0.07022644579410553 -0.025263717398047447 0.073330357670784 0.046282485127449036 -0.02040509507060051 -0.03658643364906311 0.03335821256041527 0.0391552709043026 0.014635351486504078 
-0.01874646544456482 -0.02772071212530136 -0.08242635428905487 -0.010379988700151443 -0.0008767838007770479 0.1347452998161316 -0.02250729687511921 0.03897302225232124 -0.0591314435005188 
0.016284247860312462 0.04954993352293968 0.005872695241123438 0.009296346455812454 0.04363147169351578 -0.02702750824391842 -0.03544020280241966 -0.050697434693574905 0.003819831879809499 
0.023895733058452606 -1.0569749065325595e-05 -0.02054147608578205 0.07813700288534164 0.022461289539933205 -0.032530542463064194 -0.062112048268318176 0.038909368216991425 -0.038774292916059494 
-0.02686264179646969 -0.02384483814239502 -0.006131148897111416 -0.04609966650605202 0.015368548221886158 0.03456277772784233 0.03147416189312935 -0.1115477979183197 -0.08764389157295227 
-0.0021048509515821934 0.04645325243473053 0.02683352306485176 -0.0674147978425026 -0.20568117499351501 -0.03187475726008415 0.16410383582115173 0.3326117992401123 -0.008520935662090778 
-0.006464771460741758 0.024358857423067093 -0.05392296984791756 0.020936278626322746 0.0013936245813965797 -0.058648306876420975 -0.0292062908411026 0.004410004708915949 -0.041195448487997055 
-0.06910136342048645 0.00984370056539774 -0.06695999950170517 0.00045335438335314393 -0.0199002455919981 0.05295248702168465 0.05201472342014313 0.024381350725889206 -0.00492468336597085 
-0.0025197635404765606 0.012167491018772125 -0.010954356752336025 -0.0074289473704993725 -0.01193323079496622 0.02935388870537281 0.01066313125193119 -0.044884197413921356 0.0580374151468277 
-0.04876666143536568 0.04948392137885094 0.007638456299901009 -0.053121913224458694 0.002093948656693101 0.0318857841193676 -0.027976026758551598 -0.0015973887639120221 0.0573432557284832 
-0.021053509786725044 -0.027242405340075493 -0.03658057749271393 -0.039628177881240845 -0.004940726328641176 -0.037276655435562134 -0.014376509934663773 0.020888017490506172 0.061358917504549026 
-0.018912820145487785 -0.04505230486392975 0.0015608295798301697 0.02720515802502632 0.04845266416668892 0.006347415503114462 0.024098709225654602 -0.049062423408031464 0.03026847541332245 
-0.04309246689081192 -0.01710227131843567 -0.006758157629519701 -0.016175486147403717 0.020697511732578278 0.02884545549750328 -0.030860740691423416 0.058816589415073395 -0.03779447823762894 
-0.05842065438628197 0.011329574510455132 -0.06088133156299591 0.04906012490391731 0.018260149285197258 0.004791556857526302 -0.0039012639317661524 -0.024090947583317757 0.04450993612408638 
0.03296541050076485 -0.014594083651900291 0.03797976300120354 0.013102446682751179 0.011720276437699795 0.07254144549369812 -0.0056596784852445126 0.04254944249987602 -0.030483916401863098 
-0.04842216894030571 0.02186436951160431 -0.010708160698413849 0.004340671468526125 0.012741555459797382 0.03988642618060112 0.06435845792293549 0.06975144147872925 0.006260808557271957 
-0.008445207960903645 0.05573781207203865 0.029032845050096512 -0.015739591792225838 -0.009730638936161995 0.0598292350769043 0.013783682137727737 -0.03248433768749237 0.00792202539741993 
0.03152194619178772 -0.050955817103385925 -0.027106020599603653 -0.01368639525026083 0.04843124374747276 0.07048655301332474 0.042226556688547134 -0.05253319814801216 0.0054252976551651955 
0.02948204055428505 0.015274337492883205 -0.04082556068897247 0.03623529523611069 -0.0425863042473793 0.04696645215153694 -0.06102745980024338 -0.07659251242876053 -0.07182230800390244 
-0.030111363157629967 0.04798198863863945 0.047290604561567307 0.022172996774315834 -0.008293150924146175 0.05839477851986885 -0.038935091346502304 0.06190323457121849 0.07045956701040268 
0.05479580909013748 0.03528757393360138 -0.04140679910778999 0.027731288224458694 -0.011422887444496155 0.0003911223611794412 -0.0551731213927269 -0.06820301711559296 -0.037939753383398056 
0.04960482940077782 0.023076338693499565 0.023594725877046585 -0.005120101384818554 0.038613930344581604 0.0740855410695076 0.07827594131231308 0.014178888872265816 0.028333459049463272 
0.027226684615015984 -0.03390069305896759 0.03692048788070679 -0.04428108409047127 0.061778441071510315 0.024761561304330826 -0.04625742882490158 0.06857309490442276 -0.030818063765764236 
0.04296429455280304 -0.018979700282216072 0.008164504542946815 -0.04818705469369888 -0.02284683845937252 -0.026156244799494743 0.05497133359313011 -0.00991938915103674 0.008289760909974575 
0.04798033460974693 -0.053028106689453125 -0.06482106447219849 -0.03161650523543358 0.04821178317070007 0.019529491662979126 0.04668957367539406 -0.00482898810878396 0.046383753418922424 
0.02931559458374977 -0.07398039847612381 0.008973865769803524 -0.03097720444202423 0.0388806015253067 -0.057009823620319366 -0.013662923127412796 -0.04503807798027992 -0.04249599948525429 
-0.06196203827857971 -0.041523098945617676 0.0017008614959195256 -0.034226253628730774 0.04890640825033188 -0.04787309467792511 0.005491076037287712 0.045357950031757355 0.03082067333161831 
0.02421708218753338 -0.04695042222738266 -0.05391865223646164 0.013084759004414082 0.011346088722348213 -0.019138287752866745 -0.05505935847759247 0.056609202176332474 0.049941014498472214 
0.051922306418418884 0.001200480037368834 -0.04574735090136528 0.027043472975492477 -0.011122814379632473 0.05441482365131378 0.03696206584572792 0.04663613811135292 0.034346770495176315 
