-0.04128291830420494 -0.033598192036151886 -0.014597420580685139 -0.03629199042916298 -0.03159540891647339 0.04811595752835274 -0.0390690378844738 -0.04436691477894783 0.03465001657605171 
-0.05085424333810806 -0.05732576549053192 -0.00824474822729826 0.06373589485883713 -0.047711506485939026 0.034519925713539124 -0.027025368064641953 0.06654693931341171 0.0011402155505493283 
-0.02466176077723503 0.00783511996269226 -0.031173035502433777 0.012012198567390442 -0.03623051196336746 -0.03430531546473503 -0.04392663761973381 -0.02812453918159008 0.08450513333082199 
-0.03858886659145355 0.04707453399896622 -0.02536015398800373 0.05001278221607208 0.026126131415367126 -0.008069410920143127 -0.01317333709448576 0.023664336651563644 -0.01163836196064949 
-0.01007047202438116 0.05164061859250069 0.027537230402231216 -0.034225791692733765 0.018523545935750008 0.06372326612472534 -0.045811187475919724 -0.018626350909471512 0.06672758609056473 
0.04433637857437134 0.06128567084670067 0.03229287639260292 -0.019794197753071785 0.0825948566198349 0.041537173092365265 0.06391438841819763 -0.022199898958206177 -0.011958477087318897 
0.05941645801067352 0.017840350046753883 -1.5484829418710433e-05 -0.04897020384669304 0.057314902544021606 -0.07220868021249771 0.02380114048719406 -0.03703855723142624 -0.01369121577590704 
-0.021334245800971985 -0.032251618802547455 -0.03997885435819626 -0.03303271532058716 0.060944702476263046 0.018529828637838364 -0.03401121869683266 0.02122509479522705 0.009028887376189232 
-0.06235749274492264 -0.07281360030174255 -0.04910862445831299 0.01685655675828457 0.02468843013048172 0.03589750453829765 0.019016999751329422 0.04005007818341255 -0.029601752758026123 
0.012325258925557137 0.03826185688376427 0.0367136113345623 0.04937596246600151 0.0071816458366811275 0.0688372254371643 -0.02186771109700203 0.009249411523342133 0.03624126315116882 
0.046471450477838516 -0.04565206915140152 -0.01931164227426052 0.06641463190317154 -0.04220190271735191 -0.00993833877146244 0.06167801842093468 -0.019558828324079514 -0.0031106011010706425 
0.02055387943983078 0.010402935557067394 0.003648825455456972 0.06022432819008827 0.06719861924648285 -0.033064693212509155 -0.039377469569444656 0.043162133544683456 0.04558468982577324 
0.053590357303619385 0.05198986083269119 -0.06252961605787277 0.05793392285704613 0.06621693074703217 -0.05392489954829216 0.04683314263820648 -0.03079569898545742 -0.04909592866897583 
0.03648246452212334 -0.0006552121485583484 0.018954727798700333 0.0316554419696331 -0.0067454674281179905 -0.012810865417122841 0.06568475812673569 -0.046032801270484924 0.04475022479891777 
-0.02366011030972004 -0.05206294730305672 -0.03431433066725731 -0.0019536579493433237 -0.036769524216651917 0.005652537569403648 -0.047020744532346725 0.0350966602563858 -0.02586737461388111 
-0.018504776060581207 0.005620026960968971 0.017389148473739624 -0.06459511071443558 0.06564550846815109 -0.02215355634689331 0.03914176672697067 -0.040160469710826874 0.030570482835173607 
0.008651046082377434 0.045086655765771866 0.039455343037843704 -0.018906602635979652 -0.012721773236989975 0.01733282394707203 -8.783729572314769e-05 0.0669335424900055 0.02386331930756569 
-0.01618645153939724 0.05865572765469551 0.014182226732373238 -0.0470270961523056 0.012860284186899662 -0.027283741161227226 -0.042036272585392 0.05833809822797775 -0.0008504712022840977 
-0.025150015950202942 -0.046911679208278656 0.0052489847876131535 -0.048948436975479126 0.04302486032247543 0.023338165134191513 0.007554386742413044 0.021411197260022163 -0.013762650080025196 
0.05757681652903557 0.022989116609096527 -0.0055895037949085236 0.02736302651464939 0.045626163482666016 -0.01833891123533249 -0.054170724004507065 -0.035185255110263824 0.04224923998117447 
-0.04806521534919739 -0.03244328871369362 -0.012659277766942978 0.026322390884160995 0.02076120860874653 -0.009614028036594391 -0.04077558591961861 0.06793361902236938 0.007544033229351044 
-0.003838043427094817 -0.012710809707641602 -0.046188801527023315 0.050655610859394073 0.059656258672475815 0.06000335514545441 0.03628670424222946 -0.03285520151257515 -0.012559719383716583 
0.05808665603399277 -0.018666060641407967 0.06379742175340652 -0.001821567420847714 0.06335935741662979 -0.018172116950154305 -0.016146507114171982 -0.05365294963121414 -0.057274192571640015 
0.0739101693034172 0.07303785532712936 0.07639986276626587 -0.024678243324160576 0.04347061365842819 -0.004308649804443121 0.06434020400047302 0.06869210302829742 0.07719983160495758 
-0.026160048320889473 -0.007591814734041691 0.05642108991742134 0.04362569376826286 -0.060981471091508865 -0.05036568269133568 0.08625132590532303 0.020042965188622475 0.011829903349280357 
0.057988520711660385 -0.004770128056406975 0.04491094499826431 -0.07192567735910416 -0.04978635907173157 -0.017740579321980476 0.02517138235270977 0.020241685211658478 0.03404223546385765 
-0.0013411102117970586 0.03991539403796196 -0.030374180525541306 0.018563881516456604 0.06282331794500351 -0.1103631779551506 -0.014889717102050781 0.04715719446539879 0.0041104694828391075 
-0.04493549093604088 -0.041802700608968735 0.03806556016206741 0.04222558066248894 0.05842791125178337 0.03711100295186043 -0.0020943940617144108 -0.015024170279502869 -0.006248782854527235 
-0.0075343274511396885 0.0478772409260273 -0.04826073348522186 0.053066693246364594 -0.0021605512592941523 -0.02174125239253044 -0.016689812764525414 -0.022569570690393448 0.017566340044140816 
0.016480697318911552 0.06587585806846619 0.059719156473875046 0.034813933074474335 0.018875541165471077 0.01154747512191534 0.04861237853765488 0.009380945935845375 0.12660472095012665 
0.049553755670785904 -0.013461383059620857 0.04432697221636772 -0.027570070698857307 0.08063668012619019 0.006583888549357653 -0.01814863458275795 0.016961118206381798 -0.027944140136241913 
0.07196572422981262 0.05382174998521805 -0.03427116200327873 -0.04896092414855957 -0.015163740143179893 -0.04256957396864891 0.025788774713873863 0.002695690840482712 0.01603379286825657 
0.03177569434046745 0.01681246981024742 0.03575387969613075 0.05777294933795929 0.019802838563919067 -0.057383257895708084 0.003419538727030158 0.026718253269791603 -0.019853685051202774 
-0.059067342430353165 0.024959322065114975 -0.06090262532234192 -0.033090606331825256 0.046415772289037704 0.02017846517264843 -0.02940959483385086 0.0034874468110501766 0.05240151286125183 
0.03557899594306946 -0.030769720673561096 0.002179894596338272 0.06072579324245453 -0.047952692955732346 -0.0054177697747945786 0.0484028086066246 -0.028442610055208206 0.04367433488368988 
0.027177363634109497 0.047172434628009796 0.02328837290406227 0.05932626873254776 0.007324863225221634 -0.017809536308050156 0.011685295030474663 -0.03569198027253151 0.054660614579916 
0.07333999127149582 0.05314984917640686 -0.04080677032470703 0.017834236845374107 0.041733670979738235 0.01870105415582657 -0.06916727870702744 0.047327615320682526 0.044175781309604645 
-0.08036501705646515 -0.03323211520910263 0.01767546497285366 0.00016632086772006005 0.02770676277577877 0.0456995889544487 -0.007536614313721657 0.023361194878816605 -0.03173810988664627 
0.018447117879986763 -0.07408533990383148 -0.11570058017969131 0.06634001433849335 0.017209786921739578 0.03344639018177986 0.008783570490777493 0.019855355843901634 0.014437317848205566 
-0.015358800068497658 -0.020772984251379967 0.021281080320477486 -0.030715251341462135 0.0587611198425293 0.06393317878246307 0.07680796086788177 0.028980912640690804 -0.022537192329764366 
0.027017634361982346 -0.0106944115832448 -0.0654209777712822 0.02700861543416977 -0.013782195746898651 0.02701893448829651 0.06242721527814865 0.07008137553930283 0.008067031390964985 
-0.03349311277270317 0.03847702592611313 0.017969664186239243 -0.027150630950927734 0.05407180264592171 0.030911097303032875 0.0694969967007637 0.006036017555743456 0.005890361033380032 
-0.06040157377719879 -0.04015455022454262 0.03669057786464691 0.007764966692775488 -0.04747781530022621 0.04471122846007347 0.013694215565919876 -0.009252972900867462 0.051703523844480515 
-0.02038666233420372 -0.06983672082424164 -0.02490915358066559 -0.010191154666244984 0.025125937536358833 0.016194572672247887 0.05527382716536522 -0.10688496381044388 0.03513699397444725 
-0.016522716730833054 -0.058367226272821426 0.026027822867035866 -0.03852301090955734 0.02208011969923973 -0.026640184223651886 -0.04647383466362953 0.008449860848486423 0.052323587238788605 
-0.002320484258234501 0.010766780003905296 -0.05060737580060959 -0.02683376520872116 -0.02551124431192875 0.034327950328588486 0.03447616472840309 0.053624339401721954 -0.030458969995379448 
0.011522193439304829 0.020192541182041168 -0.041915830224752426 0.008077788166701794 -0.029103180393576622 -0.017391005530953407 0.0010048960102722049 0.05366608127951622 -0.0012014403473585844 
-0.04696846380829811 0.021382911130785942 -0.04037006199359894 0.040569622069597244 -0.026865405961871147 0.006879953667521477 -0.004129030741751194 0.05440910533070564 -0.042801473289728165 
-0.014036405831575394 -0.0377880297601223 -0.016141464933753014 -0.01623714715242386 -0.005224996712058783 0.04238161817193031 -0.021479951217770576 0.005188798997551203 0.05669425055384636 
-0.08115001767873764 0.062395114451646805 -0.009747162461280823 -0.05528956651687622 0.05801540985703468 0.022028736770153046 -0.0008902065455913544 0.057012226432561874 0.005942103452980518 
-0.061054058372974396 -0.06918800622224808 0.09182324260473251 0.04819173365831375 0.012522554025053978 -0.026636680588126183 0.061179883778095245 -0.05101117119193077 0.0498671717941761 
-0.05356938764452934 -0.009434781968593597 0.011087290942668915 0.011064003221690655 0.03671004995703697 0.0723915547132492 0.058353714644908905 -0.037001993507146835 -0.053101878613233566 
0.03316045179963112 0.0817609652876854 0.050565168261528015 0.01796642690896988 -0.025597166270017624 0.0030769354198127985 -0.061753954738378525 0.022956620901823044 0.05972975865006447 
0.030675509944558144 0.028165100142359734 -0.0268322192132473 0.016277307644486427 0.09934800118207932 -0.06432215124368668 -0.025386154651641846 0.054027773439884186 -0.06456243991851807 
0.04415847361087799 -0.03927448019385338 -0.00532156229019165 -0.0208389014005661 -0.10482185333967209 0.048532623797655106 -0.04096565768122673 -0.02574821561574936 -0.043559107929468155 
-0.04293501377105713 0.039496757090091705 0.01607445627450943 0.0009037720737978816 0.005476268008351326 0.0037733393255621195 -0.03675040602684021 0.023976432159543037 0.05425740405917168 
-0.019071059301495552 -0.024750061333179474 0.015922319144010544 0.039866987615823746 -0.02970624342560768 -0.003984611481428146 0.02335548959672451 -0.06193210184574127 -0.005856983829289675 
-0.03277605026960373 0.023653728887438774 0.0148706566542387 0.024288948625326157 -0.01626661606132984 0.05998499318957329 0.033488333225250244 -0.09529978036880493 0.04403356835246086 
-0.039510153234004974 -0.06572812795639038 0.044003766030073166 -0.07122822850942612 -0.02743033692240715 0.05070960894227028 -0.03081868402659893 -0.033796247094869614 0.015642059966921806 
0.013238522224128246 -0.0014602462761104107 -0.0016290995990857482 0.02067408710718155 0.015796799212694168 -0.05745678395032883 0.055326297879219055 0.021285058930516243 -0.006108520552515984 
-0.002124446677044034 -0.0738963708281517 0.00045487680472433567 0.04328325763344765 -0.07179223001003265 -0.030479775741696358 -0.07725492119789124 0.04865911230444908 -0.006761073134839535 
0.012011148035526276 -0.0589766688644886 -0.058537956327199936 0.024860646575689316 0.022726604714989662 -0.0735253393650055 0.05182304605841637 -0.06825722008943558 -0.0211762934923172 
0.009382558986544609 -0.0684584304690361 0.037459298968315125 -0.01698445715010166 -0.08406826853752136 -0.0044559589587152 -0.05903571471571922 -0.005532069131731987 0.012800394557416439 
-0.021781831979751587 0.0035378732718527317 0.0693196952342987 0.04606461524963379 0.0006268622237257659 0.016897108405828476 0.004083871375769377 -0.0645245909690857 -0.006200974807143211 
0.0011150856735184789 0.059028469026088715 0.02735607698559761 0.04522234573960304 -0.05233440175652504 -0.05085216462612152 0.06685078889131546 -0.062100451439619064 -0.039052195847034454 
-0.010799549520015717 0.005782146006822586 -0.01555432379245758 0.003923684824258089 -0.055053964257240295 -0.02702348493039608 -0.013519293628633022 0.017512382939457893 0.04871567338705063 
-0.037563689053058624 0.01051504909992218 0.013990944251418114 0.007620756980031729 0.009990604594349861 0.032582253217697144 -0.05728470906615257 -0.05909575894474983 0.04830251261591911 
-0.04252456873655319 -0.03671124950051308 0.08401375263929367 -0.02453315071761608 0.1047174409031868 -0.05329584330320358 0.025048812851309776 0.06125280261039734 -0.019892044365406036 
-0.008062079548835754 -0.02243339829146862 0.023995572701096535 -0.01950770802795887 0.047493670135736465 -0.007463230285793543 -0.04102829471230507 0.005467308219522238 -0.024630749598145485 
0.049230143427848816 0.05326415225863457 -0.0024975850246846676 0.035583727061748505 -0.05787838250398636 -0.019002597779035568 -0.05456312745809555 -0.0052363756112754345 0.025704585015773773 
0.010510826483368874 -0.027980217710137367 0.03938531130552292 0.048785991966724396 0.03713855892419815 -0.07562507688999176 -0.03925647959113121 -0.03927576169371605 0.0495225191116333 
-0.017669567838311195 0.022866729646921158 -0.0887896791100502 -0.019517209380865097 -0.02786911278963089 0.027532747015357018 -0.013303926214575768 -0.02717861533164978 0.04082418605685234 
0.009565464220941067 -0.07220567762851715 0.0035286920610815287 -0.023543817922472954 0.06082086265087128 0.045076753944158554 -0.02005797252058983 -0.05562290921807289 -0.06849183142185211 
0.05925966426730156 -0.0008504060097038746 0.05688051879405975 -0.02795705758035183 -0.055331919342279434 0.009278801269829273 0.05765913054347038 -0.0055458080023527145 0.005576188210397959 
0.037488438189029694 -0.041368257254362106 0.0015109662199392915 -0.006591958925127983 -0.029898982495069504 0.058894794434309006 0.041810277849435806 -0.05848004296422005 -0.004392536822706461 
-0.0045909457840025425 0.019650226458907127 0.005266777705401182 0.021871639415621758 0.0173211507499218 -0.038870617747306824 0.07217071205377579 0.03843611106276512 -0.02751314640045166 
0.04896964505314827 -0.053416114300489426 3.678914436022751e-05 0.012938856147229671 -0.02541467361152172 0.0197958592325449 -0.0005870627355761826 0.05706801638007164 0.025498216971755028 
-0.017106639221310616 -0.055568303912878036 -0.0909704938530922 0.04137029871344566 -0.027656905353069305 -0.09042748063802719 0.027038082480430603 0.06760069727897644 0.09536519646644592 
-0.010586792603135109 -0.004373911302536726 -0.04686461016535759 -0.05306330323219299 -0.029105475172400475 -0.0653972402215004 0.01572614721953869 0.03502768650650978 -0.043502077460289 
0.015752140432596207 -0.05485308915376663 -0.057294443249702454 -0.01632409542798996 0.06314913928508759 0.037550222128629684 -0.06062579154968262 0.0009740737732499838 -0.03996126353740692 
-0.020763739943504333 0.06340985000133514 -0.04921084642410278 -0.06618655472993851 -0.06094682216644287 -0.05109776556491852 0.08643849194049835 0.05056585744023323 -0.023873556405305862 
-0.04261024296283722 0.01293334923684597 -0.04141855984926224 0.02010057307779789 0.008261507377028465 0.05453789606690407 -0.07060115784406662 0.017023079097270966 -0.06408832967281342 
-0.06058850139379501 0.04355714097619057 0.05940070003271103 0.06627346575260162 -0.04183129593729973 0.03614003583788872 -0.06459379196166992 0.020080171525478363 0.06882107257843018 
0.0432179793715477 -0.06748054921627045 -0.06961800903081894 -0.004206074867397547 0.06723988056182861 -0.045447710901498795 -0.06487960368394852 -0.04372243955731392 -0.06422644108533859 
-0.0031116094905883074 -0.022150494158267975 0.045012738555669785 0.051910728216171265 -0.013814198784530163 -0.008076958358287811 -0.006140517070889473 -0.005161175969988108 0.03972437232732773 
-0.015075932256877422 0.03665328770875931 0.05787072330713272 -0.019752545282244682 0.005323290359228849 0.04587044194340706 0.039047520607709885 -0.04066622257232666 -0.025603588670492172 
0.061329275369644165 -0.00789233110845089 0.05604847893118858 0.033417683094739914 -0.06519687920808792 -0.04215209558606148 0.009248458780348301 -0.033085208386182785 0.03859065845608711 
-0.03122449666261673 0.02244175784289837 0.0479876883327961 -0.016391487792134285 0.06153113767504692 -0.013389050960540771 0.0030015783850103617 0.0499783530831337 -0.021441679447889328 
0.053562939167022705 0.02606235258281231 -0.011886094696819782 0.015708666294813156 0.06201297789812088 0.02142683044075966 0.026282325387001038 -0.00021048386406619102 0.059082821011543274 
-0.04111235961318016 0.05740733817219734 0.00391074875369668 0.02592647820711136 0.014519158750772476 0.01238987222313881 -0.016334690153598785 -0.010711781680583954 0.02751629427075386 
-0.037878744304180145 0.0173272006213665 -0.042323946952819824 0.009841340593993664 0.02176622673869133 -0.05849738419055939 -0.03751199692487717 0.05860087648034096 -0.005192655138671398 
0.061019882559776306 -0.05462457239627838 -0.05768904834985733 -0.0300762802362442 -0.019984275102615356 -0.021365296095609665 0.03579945117235184 0.007902037352323532 0.007911184802651405 
-0.0029828737024217844 -0.013604390434920788 -0.01448708027601242 0.05823730304837227 0.05712020769715309 -0.014489516615867615 0.011583149433135986 -0.0260937437415123 -0.024922987446188927 
0.005461580585688353 -0.049427781254053116 -0.055450767278671265 0.012531530112028122 -0.00646551325917244 0.046602170914411545 0.06183333322405815 0.007894470356404781 0.00523777212947607 
-0.03564762324094772 -0.01614837348461151 0.03140891343355179 0.04008926823735237 -0.0006003112066537142 0.06377572566270828 -0.037115536630153656 -0.01954049989581108 0.015608202666044235 
-0.029269268736243248 0.004962114151567221 -0.012028101831674576 -0.048873476684093475 0.02300063893198967 -0.04932812601327896 0.02923262119293213 0.08454068005084991 0.04716375842690468 
-0.06741058081388474 0.055948443710803986 -0.00906292162835598 0.0015394616639241576 0.06861243396997452 -0.02066252939403057 0.043323688209056854 -0.04739968478679657 0.05597817152738571 
0.010430898517370224 -0.05333821475505829 0.021781038492918015 -0.05163804069161415 0.02857498824596405 -0.008674545213580132 0.0016302426811307669 -0.030466418713331223 -0.01784895732998848 
0.006579184904694557 -0.02862592414021492 0.026530105620622635 -0.03964051604270935 -0.024353522807359695 -0.0024317223578691483 0.043815307319164276 0.04117186367511749 0.038154080510139465 
-0.02454078011214733 0.06437088549137115 0.0038288843352347612 0.05560559779405594 0.037809137254953384 -0.013676642440259457 -0.03724396228790283 -0.05736827850341797 0.00479152100160718 
-0.009917519055306911 0.05898808315396309 0.048786383122205734 -0.0011550246272236109 -0.049455612897872925 0.05548222362995148 0.06825590133666992 0.014720231294631958 -0.007991037331521511 
0.02316381223499775 0.10934924334287643 0.03365042805671692 -0.053714167326688766 -0.02700718119740486 -0.04340842366218567 -0.03732079640030861 0.04975065588951111 0.05215095728635788 
-0.008481061086058617 0.018690237775444984 -0.04991791769862175 0.06107015535235405 -0.06406550854444504 0.03602061793208122 0.04182373732328415 -0.023334069177508354 -0.003428621916100383 
-0.030017996206879616 -0.06525309383869171 0.06072197109460831 0.05828586593270302 0.03525368496775627 -0.03809821233153343 -0.02243935875594616 0.00645065400749445 -0.04279817268252373 
-0.016124442219734192 0.03609861806035042 0.04318920895457268 0.026082800701260567 0.06590790301561356 -0.052405789494514465 -0.045185551047325134 0.05797972530126572 -0.02874055691063404 
-0.004037148784846067 0.01221855916082859 0.0414588637650013 -0.033505916595458984 -0.020884035155177116 -0.03359159454703331 0.050774022936820984 0.01296574342995882 0.07157690823078156 
-0.06094894930720329 -0.03532109409570694 0.0368935689330101 -0.02968953177332878 -0.038616620004177094 0.0421658530831337 0.04282686859369278 0.03186884894967079 0.029035473242402077 
-0.062348950654268265 -0.05453444644808769 -0.05083267018198967 -0.00937565416097641 0.053166501224040985 -0.05092063918709755 0.04839073494076729 0.003638313850387931 0.011810663156211376 
0.014653939753770828 0.0081297867000103 -0.057714372873306274 0.01254955492913723 -0.058935441076755524 0.05079677328467369 -0.06388028711080551 0.06164761632680893 -0.00394070940092206 
0.022435208782553673 -0.06052543222904205 -0.012289758771657944 -0.024355251342058182 -0.02959047071635723 -0.038880765438079834 0.0073634046129882336 -0.06205490604043007 0.018866850063204765 
-0.05552218481898308 -0.06500012427568436 -0.028893155977129936 -0.062157634645700455 0.012155679985880852 -0.06142164021730423 -0.017688116058707237 0.01380010973662138 -0.04855950176715851 
-0.050936900079250336 -0.03964647650718689 -0.06301472336053848 0.06833130121231079 0.009720799513161182 -0.027249235659837723 0.01945120096206665 -0.01408217754215002 -0.000764468393754214 
0.0500059500336647 0.039071232080459595 -0.008426043204963207 -0.025414006784558296 0.0001413370919181034 -0.0028151748701930046 0.012368028052151203 -0.018636533990502357 -0.015381322242319584 
0.024604542180895805 0.008512788452208042 0.03602441027760506 -0.04963177442550659 -0.049748409539461136 0.04940663278102875 -0.005869582761079073 0.06974919140338898 0.04982217028737068 
-0.03794613480567932 0.05571844056248665 -0.03432276472449303 -0.062242038547992706 -0.036347512155771255 -0.04048250615596771 0.040331561118364334 0.015489944256842136 -0.05685269460082054 
-0.003431005636230111 -0.04916521534323692 -0.024723155423998833 0.0018931422382593155 -0.060817819088697433 -0.013735477812588215 -0.005682573653757572 -0.0393114797770977 -0.006076416000723839 
0.05440333113074303 0.04182226583361626 0.023256726562976837 -0.06639786809682846 0.05979889631271362 -0.0509381927549839 -0.030200965702533722 -0.04942728579044342 0.012287833727896214 
-0.039514582604169846 0.05810485780239105 -0.04298597574234009 -0.02466113679111004 0.01844434253871441 0.05407935753464699 0.02486947923898697 0.03754759952425957 -0.007433229126036167 
0.0002928778121713549 -0.013877828605473042 -0.030497940257191658 0.03467843309044838 -0.02204824984073639 0.010424966923892498 0.012726220302283764 -0.04839970916509628 -0.043156154453754425 
-0.003661112394183874 -0.04892868176102638 0.031078586354851723 -0.04767729714512825 -0.03856672719120979 0.03473339229822159 -0.0781102403998375 0.03824622184038162 -0.010940990410745144 
0.042608048766851425 -0.08965159207582474 -0.048215556889772415 0.07596708089113235 -0.03281134366989136 0.08451709151268005 0.024239197373390198 -0.030515845865011215 0.045454174280166626 
-0.05802324414253235 0.10756410658359528 0.008303932845592499 -0.0976962000131607 0.09682115912437439 0.008611274883151054 -0.06396966427564621 0.06739312410354614 0.03149709478020668 
-0.02563866414129734 -0.019085388630628586 0.15244781970977783 0.003939006011933088 -0.040664441883563995 -0.03289094567298889 -0.08097998797893524 -0.030280450358986855 0.09851864725351334 
-0.09748195111751556 0.03555431589484215 -0.1451338231563568 0.021107174456119537 0.20800988376140594 -0.06896784156560898 -0.045466598123311996 0.10271158069372177 -0.07697474211454391 
-0.0762462243437767 -0.003081386210396886 -0.12114137411117554 0.02016935497522354 0.014014477841556072 -0.0862666666507721 0.07646318525075912 0.05301598086953163 -0.015939194709062576 
-0.012587787583470345 0.11612174659967422 -0.011911189183592796 -0.03689383342862129 -0.07070042937994003 -0.10758251696825027 -0.022785069420933723 0.1532895714044571 0.016333332285284996 
0.22522157430648804 -0.10510104149580002 0.1802220195531845 0.12251942604780197 -0.027093056589365005 -0.025056175887584686 0.002968502463772893 0.06244202330708504 0.0010264272568747401 
-0.018628109246492386 0.06872818619012833 -0.07360509037971497 -0.06348925828933716 0.030073771253228188 -0.04304837808012962 -0.014173201285302639 -0.03442640230059624 -0.02547743171453476 
-0.054205745458602905 0.11995634436607361 -0.04183432459831238 -0.021616501733660698 -0.054234057664871216 -0.03480243682861328 0.04830121994018555 0.10532721132040024 -0.11322065442800522 
-0.16118815541267395 0.09544834494590759 -0.245588481426239 0.08644748479127884 0.11142875254154205 0.038859773427248 -0.010059048421680927 0.01313693355768919 0.0789344534277916 
-0.018619930371642113 -0.0569925494492054 0.040252797305583954 0.022450000047683716 -0.053718116134405136 0.10820895433425903 0.0041689383797347546 -0.11390705406665802 0.0891776904463768 
-0.07580485194921494 -0.03331492468714714 0.00820193998515606 0.007111093495041132 -0.0025000975001603365 -0.0505727119743824 0.0081678107380867 0.09499464184045792 0.0002283737703692168 
0.15027806162834167 -0.030150683596730232 0.09793946892023087 0.1703321933746338 -0.147335022687912 0.13536770641803741 0.11239945143461227 -0.10513090342283249 0.1274823695421219 
-0.010077344253659248 -0.02326969802379608 0.050907671451568604 0.07016109675168991 0.01769123412668705 0.014819123782217503 0.056299980729818344 0.03179077431559563 -0.07190188765525818 
0.058232810348272324 0.13042396306991577 -0.029274452477693558 -0.08882331848144531 -0.18505747616291046 0.020735375583171844 0.06940285116434097 -0.09834574162960052 0.014092067256569862 
0.10569371283054352 -0.08414921909570694 -0.0045026452280581 0.040616072714328766 -0.058303941041231155 0.08098965883255005 0.09823164343833923 -0.0006838604458607733 0.0035796661395579576 
-0.002889486728236079 -0.008066286332905293 -0.0033248430117964745 -0.020129496231675148 -0.030282244086265564 -0.051171883940696716 0.06844606250524521 0.03705311566591263 0.010974163189530373 
0.056202687323093414 -0.10346267372369766 0.11423124372959137 0.024468306452035904 -0.2151481807231903 0.057088736444711685 0.050493158400058746 -0.19875425100326538 0.031814493238925934 
-0.05467764660716057 0.03262682259082794 0.04651188105344772 0.012947012670338154 -0.017216181382536888 0.05163547396659851 0.05664575845003128 0.031191492453217506 -0.036155592650175095 
-0.04687916487455368 0.0024818931706249714 -0.1218029260635376 -0.07169587165117264 0.24841028451919556 -0.03395868465304375 -0.22319646179676056 0.0953538566827774 -0.13342706859111786 
0.006070359144359827 -0.009012026712298393 0.0214061439037323 -0.09613345563411713 -0.059579793363809586 0.04934586212038994 -0.043865881860256195 -0.011518985964357853 0.05296389386057854 
0.03588699921965599 0.0436718724668026 0.07811754941940308 -0.005358480382710695 -0.04503863677382469 0.041168294847011566 0.006553372368216515 -0.010944290086627007 -0.08921173959970474 
-0.05524090677499771 0.014629674144089222 -0.04813971742987633 -0.005923056975007057 -0.01409147772938013 0.005262764170765877 -0.07717114686965942 0.03526386246085167 0.03416318818926811 
0.04114902764558792 -0.06452875584363937 0.09078527241945267 -0.028491271659731865 -0.1598835438489914 -0.03164513036608696 0.10495948791503906 -0.07477625459432602 0.023789778351783752 
-0.037299465388059616 0.009449349716305733 -0.010333195328712463 -0.03875325992703438 -0.008574975654482841 0.005990572273731232 0.021241772919893265 0.01711147278547287 -0.03856996074318886 
0.04512538015842438 0.033501654863357544 -0.00329535617493093 -0.04883328452706337 0.042389314621686935 -0.034797970205545425 -0.03637903556227684 0.05716312304139137 -0.013242252171039581 
-0.06851941347122192 -0.04091379791498184 0.09035485982894897 -0.05463315546512604 0.022068707272410393 0.019811151549220085 0.030281782150268555 -0.03276655822992325 0.039916474372148514 
0.02223622053861618 -0.04428088665008545 -0.015553743578493595 -0.06700840592384338 0.07159262895584106 -0.0051544541493058205 0.04429080709815025 -0.042666081339120865 0.038857005536556244 
0.0564168356359005 0.008010155521333218 -0.027228113263845444 0.038326479494571686 -0.04282323271036148 0.017010467126965523 -0.0685088112950325 -0.006365802604705095 0.04329904541373253 
-0.06263423711061478 0.10693380981683731 -0.0019209010060876608 0.04655125364661217 -0.12635184824466705 0.022585995495319366 0.03197545185685158 0.182420015335083 0.0060288733802735806 
0.024563822895288467 0.060570988804101944 0.0308384969830513 -0.028129471465945244 0.067703016102314 0.010316555388271809 0.04032537713646889 -0.02153196930885315 -0.00960815791040659 
-0.04752883315086365 -0.06405767798423767 -0.008886215277016163 0.03190179169178009 0.04664572328329086 0.00030055723618716 0.05174849554896355 -0.05651991441845894 0.04518747329711914 
0.024267151951789856 0.013719946146011353 0.00377193046733737 -0.023477353155612946 0.0318417102098465 0.021957790479063988 0.03002076782286167 0.004329903516918421 -0.06619225442409515 
0.03721023350954056 0.00094635906862095 0.01491276640444994 -0.015432526357471943 0.012294502928853035 -0.0037819347344338894 0.029339442029595375 0.016292845830321312 0.010144326835870743 
-0.005289857741445303 -0.02316352352499962 -0.0446445606648922 -0.05525689572095871 0.03189878910779953 0.021591899916529655 0.019592419266700745 0.05352938175201416 0.05984416976571083 
-0.043250922113657 0.05098026618361473 0.06417865306138992 0.016360606998205185 -0.055909525603055954 -0.05725991353392601 0.06799285113811493 0.03410804644227028 0.004910942167043686 
-0.052033618092536926 0.038280587643384933 0.05196326598525047 -0.01675327867269516 -0.04614011198282242 -0.06937094032764435 0.04515713453292847 0.05860458314418793 0.0138764763250947 
-0.045395832508802414 0.018591465428471565 0.009726490825414658 0.03671213984489441 0.034477729350328445 -0.052803874015808105 0.010146810673177242 -0.009374084882438183 -0.05452302470803261 
-0.013790520839393139 0.024804553017020226 -0.02484082616865635 -0.0526827797293663 -0.007892925292253494 -0.05123624950647354 0.07326360791921616 0.03428163379430771 0.002638595411553979 
0.04968598112463951 0.05154087021946907 -0.07292620837688446 0.04468143358826637 -0.0142050264403224 0.00234891171567142 0.031111089512705803 0.04699064791202545 0.04357922449707985 
0.041290026158094406 0.06400362402200699 0.02360198274254799 0.046121884137392044 0.0067705754190683365 -0.016107158735394478 0.06799612194299698 -0.011204848065972328 0.015984784811735153 
0.060036271810531616 0.03841257095336914 -0.037851329892873764 -0.03173098340630531 -0.0334039144217968 0.026420699432492256 0.04580691084265709 -0.0726916715502739 -0.017036452889442444 
0.024810468778014183 -0.011855924502015114 -0.00011442281538620591 -0.008681239560246468 0.018282797187566757 0.06719538569450378 0.026698118075728416 -0.045494288206100464 -0.043839406222105026 
0.04919743910431862 0.012469558045268059 -0.03245428577065468 0.005732606630772352 0.07618332654237747 0.06495194137096405 0.02238667570054531 -0.011230587027966976 -0.058846600353717804 
0.04736984521150589 -0.029730789363384247 -0.02784952148795128 0.007792014628648758 0.052756212651729584 0.02545992285013199 -0.012300828471779823 -0.047356847673654556 -0.007400902453809977 
0.03793259337544441 0.03924515098333359 -0.019596023485064507 -0.04744727164506912 -0.01626214012503624 0.009171998128294945 -0.03427403047680855 0.06646793335676193 -0.055266123265028 
0.052170898765325546 0.03166685998439789 0.059584714472293854 0.029411952942609787 0.04719275236129761 -0.05781201273202896 -0.002719233511015773 -0.047859035432338715 0.03270205110311508 
-0.007628919091075659 -0.03814469650387764 -0.07715041190385818 -0.04015575721859932 -0.029444487765431404 -0.02551111951470375 0.014811143279075623 0.01198707427829504 0.016440829262137413 
-0.028874874114990234 -0.0034794891253113747 0.13124921917915344 0.05572215095162392 -0.13787509500980377 0.0241946242749691 -0.045186638832092285 -0.014139891602098942 0.0010250519262626767 
-0.042116351425647736 -0.05573248118162155 0.05856989324092865 0.015699133276939392 0.016563495621085167 0.030889151617884636 -0.05849474295973778 -0.0465356707572937 -0.01839940994977951 
-0.008947455324232578 0.10921718180179596 -0.06186889857053757 -0.02058938331902027 -0.013768143020570278 -0.06146468222141266 -0.02326515130698681 -0.04610515758395195 0.020295433700084686 
-0.07104609906673431 -0.06351760774850845 0.08036217838525772 0.03853067755699158 0.041533078998327255 0.017236333340406418 0.058166537433862686 -0.033776458352804184 -0.015853775665163994 
0.07139952480792999 -0.07964139431715012 -0.003296487731859088 0.030043670907616615 -0.0765947625041008 -0.016178740188479424 -0.048171188682317734 -0.02240770496428013 -0.037186335772275925 
-0.044075723737478256 -0.08813072741031647 0.08583556115627289 0.14567099511623383 -0.40002015233039856 0.1371808499097824 0.01724562980234623 -0.1872783899307251 -0.18967226147651672 
-0.14225518703460693 0.0749068334698677 -0.044068001210689545 -0.05794300511479378 0.028575027361512184 -0.07902761548757553 0.008335664868354797 -0.03190608322620392 0.1055227518081665 
0.05280177295207977 -0.00700162211433053 0.08234493434429169 -0.010927918367087841 0.08169334381818771 0.056479133665561676 -0.09062866866588593 -0.010143700987100601 0.0340057909488678 
0.13672085106372833 -0.048283856362104416 -0.03257172182202339 -0.06853587925434113 0.013376617804169655 0.04206473380327225 -0.04729456827044487 0.011304409243166447 0.020341552793979645 
-0.04926523566246033 0.016057642176747322 -0.028367219492793083 -0.03496705740690231 -0.027536775916814804 0.010856173932552338 -0.016863694414496422 0.05679125338792801 0.023379452526569366 
-0.048506010323762894 -0.04963110387325287 0.01622484065592289 -0.06716739386320114 0.013633579015731812 -0.04263545200228691 -0.015395878814160824 -0.0015956052811816335 -0.053494181483983994 
-0.0023978957906365395 0.0717628002166748 -0.05289829894900322 0.0388094000518322 -0.020821036770939827 -0.011091784574091434 -0.000350058835465461 -0.0367228239774704 -0.07111655920743942 
0.048865098506212234 -0.006394017953425646 0.018021732568740845 -0.004084744490683079 -0.09459700435400009 0.03224547579884529 0.04600445181131363 -0.032899223268032074 -0.023217905312776566 
-0.03949487954378128 0.005247919820249081 0.008656095713376999 2.8987060431973077e-05 -0.03091459535062313 0.020517783239483833 -0.0269247405230999 0.06011972576379776 -0.036580640822649 
-0.025860454887151718 -0.07360252737998962 -0.061256442219018936 -0.009036190807819366 0.1539495587348938 -0.24640586972236633 -0.1020839586853981 0.08341062068939209 -0.06849644333124161 
-0.06005265563726425 0.018782885745167732 0.0209660567343235 -0.010973876342177391 -0.08212362229824066 -0.016673460602760315 0.01817839965224266 -0.002179983537644148 -0.013653412461280823 
0.007626947481185198 -0.034994401037693024 0.0012058563297614455 0.0013369033113121986 0.058895938098430634 -0.07300008088350296 -0.04196431115269661 0.027658037841320038 -0.06960980594158173 
-0.053254418075084686 0.0028229053132236004 -0.05050622299313545 0.03256606310606003 -0.05583234503865242 0.050856344401836395 0.033643852919340134 0.05131532996892929 0.021667474880814552 
0.016820142045617104 -0.00880035012960434 0.008360723033547401 -0.06562244892120361 0.010080383159220219 0.02023455500602722 0.015047109685838223 0.07143403589725494 -0.05730285122990608 
-0.013919373974204063 0.025832856073975563 0.0090632988139987 -0.0477495901286602 -0.048057921230793 -0.05141933262348175 0.04985600337386131 0.018665984272956848 0.018458031117916107 
-0.01420428417623043 -0.07046251744031906 0.0134790800511837 -0.03382590785622597 -0.0023721405304968357 0.05507374927401543 -0.00271760206669569 4.346684363554232e-06 0.03190310299396515 
0.04485941305756569 0.047932934015989304 0.038419581949710846 0.016263853758573532 0.05035673826932907 0.062488630414009094 -0.05775360018014908 -0.0065725152380764484 0.030219683423638344 
0.05522872880101204 0.05340105667710304 0.04518689215183258 -0.03125672787427902 -0.04024455323815346 -0.0656660944223404 -0.04794071242213249 0.04626409709453583 -0.014366943389177322 
-0.018602777272462845 0.0005814246833324432 -0.05331526696681976 -0.11152230203151703 -0.09043335914611816 0.041312362998723984 0.05774693563580513 -0.05138900876045227 -0.08781617879867554 
-0.06942272186279297 -0.07532280683517456 0.027660097926855087 -0.022020412608981133 -0.027634240686893463 -0.08415261656045914 0.022670172154903412 0.001024484052322805 -0.0015974696725606918 
-0.032316748052835464 0.03847208619117737 -0.0715014785528183 0.04802986606955528 -0.03468497470021248 -0.051288288086652756 0.0019591159652918577 0.0435713529586792 -0.005308017134666443 
-0.02837226539850235 -0.05367439612746239 -0.00555319944396615 0.049710556864738464 0.03417850285768509 0.0035692474339157343 0.04324467107653618 -0.03277388587594032 -0.02974233590066433 
0.0622033029794693 -0.023157484829425812 -0.07411165535449982 -0.06442384421825409 0.060727477073669434 -0.04083343222737312 -0.01816801354289055 -0.06387999653816223 -0.03233516216278076 
-0.012349572032690048 -0.006289599929004908 0.032217975705862045 0.0088546983897686 0.038902707397937775 -0.047140978276729584 -0.015081970021128654 -0.058073852211236954 -0.024470724165439606 
-0.03490005433559418 0.041708577424287796 0.04651273041963577 -0.07437419891357422 0.096991166472435 -0.2694014012813568 -0.18047796189785004 0.06532084196805954 -0.07129867374897003 
0.013753696344792843 -0.07069015502929688 0.00318339467048645 0.037785742431879044 -0.05460924655199051 0.04147344082593918 0.06936657428741455 0.0036156736314296722 -0.07698376476764679 
0.013579681515693665 0.04336953163146973 0.02258349023759365 -0.0649932250380516 -0.035962171852588654 -0.03972361609339714 0.06050435081124306 -0.01877775974571705 0.05043540894985199 
-0.025398213416337967 0.09018814563751221 0.014855482615530491 0.003318722825497389 0.039730992168188095 -0.14010916650295258 0.049342334270477295 0.01716604270040989 -0.03169560432434082 
-0.0677211657166481 -0.09253212809562683 -0.011245057918131351 -0.049196287989616394 0.07546103745698929 -0.07306112349033356 -0.015396262519061565 -0.060097835958004 -0.012298956513404846 
0.014055966399610043 0.03588276356458664 -0.054396141320466995 0.0340031161904335 -0.01223366241902113 0.03809810057282448 0.010594488121569157 0.06039097532629967 -0.05861122906208038 
0.018914923071861267 0.006735642906278372 -0.024959096685051918 -0.011238946579396725 0.06513886153697968 -0.03942939266562462 -0.061586614698171616 0.02717205323278904 -0.03657068312168121 
-0.01332686748355627 0.003828343702480197 -0.029191702604293823 -0.02213592641055584 -0.020497970283031464 0.040495846420526505 -0.0015005278401076794 -0.004922413267195225 -0.05430278182029724 
-0.005752666387706995 -0.06201532483100891 -0.06782617419958115 0.02824386954307556 0.0322866253554821 0.040394023060798645 -0.04991232976317406 0.02077633887529373 0.006596882361918688 
-0.015868831425905228 0.014895595610141754 -0.07564627379179001 -0.02014734409749508 0.02157805673778057 -0.0159028097987175 0.003602057695388794 -0.05400553345680237 0.03576090186834335 
-0.026752086356282234 0.04499401897192001 -0.02193625271320343 0.010398593731224537 -0.04335765168070793 -0.0017387818079441786 0.005823180545121431 0.07028071582317352 -0.020144926384091377 
-0.047540754079818726 0.05162486806511879 0.025240717455744743 -0.050593938678503036 0.01659160666167736 -0.00011413453466957435 0.02366863377392292 -0.030287591740489006 -0.03754737973213196 
-0.007327118422836065 -0.09139551967382431 -0.022091198712587357 -0.013232644647359848 -0.013127782382071018 -0.04699396342039108 0.02404031716287136 -0.09140659868717194 0.015956150367856026 
-0.06588378548622131 -0.06392676383256912 0.013379087671637535 -0.06133541092276573 0.02505308762192726 -0.06332556158304214 0.01027278508991003 0.030417397618293762 0.033038537949323654 
0.003560517681762576 0.02265540510416031 -0.013918174430727959 -0.060266971588134766 -0.04955204948782921 0.0035144397988915443 -0.03417341038584709 -0.014541885815560818 -0.07541611045598984 
0.00366375595331192 -0.0018814431969076395 0.0389396958053112 -0.04565591365098953 -0.07494901120662689 -0.06090250238776207 -0.011455114930868149 0.02086378075182438 -0.001348892692476511 
-0.03955712914466858 0.03302093595266342 -0.031835027039051056 -0.06564658880233765 -0.0074167256243526936 -0.055331118404865265 -0.04301683232188225 0.05521669611334801 0.029682524502277374 
0.023919938132166862 0.03302117437124252 -0.027730273082852364 0.039588335901498795 -0.01223694533109665 -0.05079863220453262 0.03222797065973282 0.050717201083898544 -0.06919991970062256 
-0.005761809181421995 0.006580833811312914 -0.07326343655586243 0.05837259814143181 0.0270256157964468 0.0370408371090889 -0.05147739499807358 -0.019614508375525475 0.02612217329442501 
-0.006616727914661169 0.04564984142780304 0.03221321851015091 0.04659213498234749 0.011113007552921772 0.011015359312295914 -0.012904728762805462 0.006460011936724186 -0.055789683014154434 
-0.03391570225358009 0.028454523533582687 -0.04579794406890869 0.06345203518867493 0.009104898199439049 0.004615405108779669 -0.028516558930277824 -0.06107217073440552 -0.026928208768367767 
-0.06437824666500092 -0.001651919912546873 0.022195689380168915 -0.049616068601608276 0.009649255312979221 0.028129585087299347 0.03214959800243378 -0.01340130902826786 -0.055394094437360764 
0.001288706436753273 0.04833301901817322 0.013028454966843128 -0.04506063833832741 -0.007050640881061554 0.05180055648088455 0.04578637331724167 -0.007598698139190674 0.0229660514742136 
0.012523391284048557 -0.026457007974386215 -0.02384939044713974 0.021696453914046288 -0.04263030365109444 0.0030029751360416412 0.06456403434276581 -0.06631869822740555 -0.01948094367980957 
0.02967936173081398 -0.030197173357009888 -0.04160372167825699 0.07986931502819061 0.020642561838030815 0.018691832199692726 0.019142044708132744 0.05526050552725792 0.006753707304596901 
0.013321620412170887 -0.023935610428452492 0.06549035012722015 0.02530793659389019 -0.029215067625045776 -0.007654094602912664 0.02278539352118969 0.05651872232556343 -0.03229520097374916 
0.023370778188109398 0.05957063287496567 0.035426367074251175 0.042994555085897446 -0.032721664756536484 0.016759226098656654 0.021390363574028015 -0.03489486500620842 0.05660010129213333 
0.06874941289424896 0.0625542402267456 -0.04947476461529732 -0.0123954638838768 0.0328327938914299 -0.03754084184765816 0.06715553998947144 0.07757517695426941 0.052289366722106934 
0.008839666843414307 -0.004122614394873381 -0.050792146474123 -0.050546690821647644 -0.017244987189769745 -0.03498907387256622 -0.0047144899144768715 -0.044567108154296875 -0.015239916741847992 
-0.057140421122312546 0.018958929926156998 0.026994798332452774 0.022199291735887527 -0.04930909350514412 -0.055102404206991196 -0.016204217448830605 0.03152485564351082 -0.021693091839551926 
0.03763091191649437 -0.011459367349743843 -0.0058219837956130505 -0.04329240694642067 0.025483086705207825 0.04918506741523743 -0.020317381247878075 7.124157855287194e-05 0.034279342740774155 
0.033299144357442856 -0.050778377801179886 -0.052249304950237274 -0.04500950500369072 0.05757839232683182 0.02682475745677948 0.042214468121528625 0.03682396188378334 0.012473205104470253 
0.0020840787328779697 -0.04436754062771797 -0.03648794814944267 -0.02278152108192444 0.06381886452436447 -0.009764386340975761 -0.01393059827387333 0.023632939904928207 -0.0044340635649859905 
0.043472833931446075 0.042489733546972275 0.01185008604079485 -0.030421951785683632 -0.030280597507953644 0.06446600705385208 0.06641645729541779 0.04124130681157112 -0.06530124694108963 
-0.007521060761064291 -0.004884485155344009 -0.014887828379869461 -0.02069730870425701 0.011946199461817741 0.05301440879702568 -0.019416116178035736 -0.04301201552152634 -0.05065399035811424 
0.0014499274548143148 0.061615511775016785 -0.024332696571946144 -0.012215295806527138 0.024303989484906197 -0.01230340264737606 -0.0399455800652504 -0.024590084329247475 0.007739043328911066 
-0.011856509372591972 0.04501156136393547 0.027753258123993874 -0.053886257112026215 0.03344738483428955 -0.03464917466044426 0.006835659500211477 -0.060771021991968155 0.027002006769180298 
-0.03968069329857826 -0.02272125333547592 0.030910814180970192 0.002072131959721446 -0.046602994203567505 0.06364279985427856 -0.03535834699869156 -0.037781283259391785 -0.02783184126019478 
-0.04583653435111046 -0.03812063857913017 0.058248668909072876 -0.06471762806177139 -0.02713359147310257 -0.012922432273626328 0.08197440952062607 0.06132151186466217 0.039809275418519974 
-0.0003563779464457184 0.04150816798210144 0.055297352373600006 0.054023195058107376 0.00795490201562643 0.024447768926620483 0.05011709779500961 0.058902591466903687 -0.032029956579208374 
0.01282013300806284 0.007634022273123264 0.060429200530052185 -0.058626726269721985 0.054425954818725586 -0.039358943700790405 -0.05061456561088562 0.06498333066701889 0.03220284357666969 
-0.014966798946261406 0.008847609162330627 0.014292875304818153 -0.06129331514239311 -0.021688928827643394 0.04181786999106407 -0.04701445251703262 0.04513762518763542 0.05748597905039787 
-0.061036087572574615 -0.056967929005622864 -0.014774873852729797 0.009610965847969055 0.053481798619031906 0.07040586322546005 -0.006498901639133692 0.04623505100607872 -0.04243319481611252 
-0.08547741174697876 -0.016664372757077217 0.0686359703540802 0.05972674861550331 -0.06353458017110825 -0.05898125842213631 -0.08697295188903809 -0.09139968454837799 -0.03055928833782673 
-0.06332099437713623 -0.040231071412563324 -0.0012895771069452167 -0.03185047209262848 -0.021438412368297577 0.005191046744585037 0.04734525829553604 -0.018768463283777237 -0.05975571274757385 
0.039863813668489456 -0.06138106808066368 0.019668973982334137 0.03226540610194206 -0.028529483824968338 -0.03519972041249275 0.020743785426020622 0.0067480760626494884 0.04654799774289131 
0.013550592586398125 0.014715888537466526 -0.0053375037387013435 -0.09907569736242294 0.004656441044062376 -0.029526183381676674 0.03913581371307373 0.1028878390789032 -0.008287418633699417 
0.0034438101574778557 0.06020909547805786 -0.09550577402114868 -0.07567678391933441 -0.00622576056048274 0.0060222577303647995 -0.015684688463807106 0.022466858848929405 0.0389864481985569 
-0.029408210888504982 0.03494516760110855 -0.012434691190719604 0.12461504340171814 0.04376168176531792 -0.1654910296201706 -0.2692081332206726 0.14338895678520203 -0.045185502618551254 
-0.0037207978311926126 -0.05640674754977226 -0.01573142595589161 0.13464215397834778 -0.02711903490126133 -0.05827132612466812 0.04833947494626045 0.054537758231163025 -0.030534621328115463 
0.03950408846139908 0.055554404854774475 0.04138573631644249 -0.11449801921844482 0.007421086076647043 0.09336782246828079 0.00011553772492334247 -0.08800522983074188 -0.053062502294778824 
0.05014162138104439 0.11734867841005325 -0.0925518274307251 -0.06644169241189957 -0.22336044907569885 -0.06073692440986633 0.10357394069433212 0.01889237016439438 -0.005642784293740988 
0.001972288591787219 0.019724871963262558 -0.042393654584884644 0.06067916005849838 0.15849994122982025 0.010101383551955223 -0.11966093629598618 -0.049780696630477905 -0.06749959290027618 
0.0012479705037549138 -0.02105618268251419 -0.03270575776696205 -0.018363358452916145 -0.04474060609936714 -0.028388163074851036 0.029597053304314613 0.029683902859687805 0.026386253535747528 
-0.07579964399337769 -0.04251577705144882 -0.005776811856776476 -0.03727259859442711 0.06388112902641296 -0.04244523122906685 -0.0014044602867215872 -0.022905496880412102 0.009310854598879814 
-0.09005364030599594 -0.008160741999745369 0.008157498203217983 0.03274233266711235 -0.048398565500974655 -0.08965649455785751 -0.04327310249209404 0.05029292777180672 -0.014234245754778385 
0.02481207437813282 -0.032491534948349 0.006361399311572313 0.008790380321443081 0.05860256776213646 0.07086192816495895 -0.047929126769304276 -0.05493737384676933 0.0031206777784973383 
0.07585985213518143 0.058741554617881775 -0.1626664102077484 -0.10897988826036453 -0.013285896740853786 -0.023650219663977623 0.06210968643426895 -0.1490105837583542 0.03689754754304886 
0.042164046317338943 -0.04072113707661629 -0.06700681895017624 0.016455670818686485 0.08946811407804489 0.0980512946844101 0.10594099760055542 0.018597343936562538 0.02715696021914482 
0.0756014883518219 -0.043580539524555206 -0.009276777505874634 0.028002601116895676 0.01911475509405136 -0.04087873920798302 0.04227606579661369 -0.05805223435163498 0.011339605785906315 
-0.043271634727716446 0.015057001262903214 -0.031186144798994064 -0.05808625742793083 -0.028560832142829895 0.008072367869317532 0.05925330892205238 -0.10200923681259155 0.061509836465120316 
0.03343796357512474 0.026519285514950752 -0.03311379626393318 0.03637445345520973 -0.07846225053071976 0.04071592167019844 0.07184716314077377 -0.01674247346818447 -0.03535084426403046 
0.04479282349348068 -0.06637547165155411 -0.04266937077045441 0.022425035014748573 0.013781487010419369 0.035473741590976715 -0.01876050792634487 -0.02819671481847763 -0.17198173701763153 
0.0309478510171175 0.008520478382706642 -0.028861355036497116 -0.042031772434711456 0.019611820578575134 -0.0744205042719841 0.05072622746229172 -0.04209889471530914 0.013743954710662365 
-0.0165687408298254 0.025906680151820183 -0.025247331708669662 -0.005767356138676405 0.01609211415052414 0.02401360496878624 -0.08594416826963425 -0.01688011921942234 0.03710968792438507 
-0.03546811640262604 0.03634743392467499 -0.03707987815141678 0.015529335476458073 -0.002930981805548072 -0.03936092555522919 -0.004902112763375044 -0.011058330535888672 -0.007231604773551226 
-0.039293669164180756 -0.01482320111244917 -0.03362942487001419 0.04779016971588135 0.013870090246200562 -0.0498250275850296 0.11625886708498001 0.12792207300662994 0.035144463181495667 
-0.0010348368668928742 0.05154389888048172 0.052492428570985794 -0.014252605848014355 -0.03524988889694214 -0.016478784382343292 -0.01664619892835617 0.04330518841743469 -0.011020286940038204 
-0.02089015394449234 -0.03851756080985069 0.06050511822104454 0.011447994969785213 0.05370157212018967 0.032497506588697433 0.009793098084628582 0.022065749391913414 -0.03777533397078514 
0.03196140378713608 0.033769719302654266 -0.03565770760178566 0.03882424905896187 -0.0586375966668129 0.024460352957248688 0.05250869691371918 -0.025218069553375244 0.020358683541417122 
-0.0034606806002557278 0.022695736959576607 0.06514306366443634 0.0016926369862630963 0.002200658665969968 -0.03041383996605873 0.047834884375333786 0.035380393266677856 -0.040185656398534775 
-0.015588656067848206 -0.04163088649511337 0.028977014124393463 0.058889225125312805 -0.0316958948969841 -0.037057675421237946 -0.00358408922329545 -0.03972918167710304 -0.0566507913172245 
-0.0009457194246351719 0.0036012399941682816 -0.11646158993244171 -0.030705619603395462 0.10611360520124435 -0.025777297094464302 0.024554744362831116 0.016971584409475327 0.03332146257162094 
0.003971023950725794 -0.04474663734436035 0.024177879095077515 -0.027726562693715096 -0.014273746870458126 -0.0019397843861952424 0.034182675182819366 0.022843262180685997 -0.01437123492360115 
-0.029630983248353004 -0.0024463043082505465 -0.036473195999860764 0.04804918169975281 -0.009083343669772148 0.009038475342094898 -0.04277149215340614 0.02663484215736389 -0.0478399358689785 
0.007859948091208935 0.057772573083639145 0.04669845104217529 0.03125981241464615 0.05221300572156906 -0.06388301402330399 -0.03132660314440727 -0.05554383248090744 0.042961277067661285 
0.0007243745494633913 0.055275555700063705 0.027909452095627785 -0.004395306576043367 -0.029175983741879463 -0.01260844711214304 0.018957436084747314 0.06051033362746239 0.048781149089336395 
0.058932192623615265 -0.026565441861748695 0.010397245176136494 0.01696026884019375 -0.06276089698076248 0.04173795506358147 -0.020296011120080948 0.06231175735592842 0.02052447572350502 
-0.005017556715756655 0.02020956389605999 0.017767969518899918 0.07554333657026291 0.05981677398085594 -0.0011982314754277468 0.03717166557908058 -0.05886220932006836 -0.0539017990231514 
-0.012758802622556686 0.019377805292606354 -0.020591283217072487 -0.03494507819414139 -0.027075279504060745 0.05158328264951706 0.015869027003645897 0.023719457909464836 0.052706483751535416 
-0.04057655483484268 0.048665791749954224 -0.014234725385904312 -0.00799217727035284 0.05896053835749626 0.0018537568394094706 0.059918973594903946 0.04262017086148262 -0.057297442108392715 
-0.03814920783042908 0.0611642524600029 -0.010041533969342709 0.049904365092515945 0.008502298034727573 -0.0246420931071043 -0.024396346881985664 0.06110034137964249 -0.05210039019584656 
-0.015461055561900139 0.06929845362901688 0.008195318281650543 -0.0007724863244220614 0.03756178170442581 0.03391318768262863 -0.0016336514381691813 -0.06060614436864853 0.042589712888002396 
0.029326211661100388 -0.03744387999176979 -0.000658386095892638 0.05094671994447708 -0.000649948779027909 0.045007962733507156 -0.057861294597387314 0.045529164373874664 -0.022185444831848145 
0.043492380529642105 -0.028050916269421577 0.05992980673909187 -0.03693275526165962 0.00675703352317214 -0.028980769217014313 0.07951441407203674 0.01784774661064148 -0.03182503581047058 
0.0246747899800539 -0.008621636778116226 0.036673471331596375 -0.06721241772174835 -0.017810124903917313 -0.04863041639328003 -0.03214692696928978 -0.06345390528440475 0.006063821725547314 
0.017789147794246674 0.06222497299313545 0.03914602845907211 0.04156140238046646 -0.002637699944898486 -0.03375297784805298 -0.001608827500604093 -0.03107987344264984 0.028252441436052322 
-0.0286965724080801 -0.03472936153411865 -0.018459541723132133 -0.006245411466807127 0.031203262507915497 -0.0031933733262121677 -0.0269952230155468 -0.00024144153576344252 -0.0033636298030614853 
0.03226965665817261 0.015042200684547424 0.039983682334423065 -0.019248051568865776 -0.0022290535271167755 -0.028913160786032677 -0.006800261791795492 0.01012684777379036 0.04064697399735451 
-0.055150944739580154 -0.06382223218679428 -0.033874671906232834 0.04908526688814163 0.05836537107825279 0.04464993253350258 0.05819754675030708 0.04098847508430481 -0.047282569110393524 
-0.011823398992419243 0.030873430892825127 -0.03484678640961647 -0.040209781378507614 0.015813710168004036 -0.04283235967159271 0.03113216906785965 0.022749708965420723 -0.03636699542403221 
0.05891492962837219 0.03847441449761391 -0.04311571642756462 -0.03028554655611515 0.05598479509353638 0.05068882554769516 0.005945379380136728 -0.038024090230464935 0.050733987241983414 
-0.011462907306849957 -0.040193427354097366 0.0166714396327734 0.009370410814881325 0.0248242300003767 -0.0030650394037365913 -0.02356509491801262 -0.005854668095707893 -0.026524709537625313 
-0.03971641883254051 0.029862055554986 0.05592077597975731 -0.07960373908281326 -0.022745968773961067 -0.04287779703736305 0.045282185077667236 0.03910205140709877 0.05733546242117882 
0.015330754220485687 0.033151041716337204 -0.035856232047080994 0.031672172248363495 -0.024373222142457962 -0.03540912643074989 -0.06953278928995132 0.03102545067667961 0.05205220356583595 
-0.04936334118247032 0.010304185561835766 0.060989946126937866 0.02973191812634468 -0.03279528394341469 -0.006292206235229969 -0.034847356379032135 -0.03023127280175686 -0.054851729422807693 
0.025181647390127182 0.1030162051320076 -0.033491622656583786 0.014332530088722706 -0.03249557316303253 -0.05285821482539177 0.10838805884122849 0.0033445621374994516 0.007249513640999794 
-0.005547621287405491 0.042720939964056015 0.021086374297738075 0.0031343000009655952 0.0760684460401535 -0.013454658910632133 -0.037729501724243164 -0.02761615626513958 -0.04559628665447235 
0.01111895777285099 -0.01556034293025732 0.019585570320487022 -0.057069651782512665 -0.033717602491378784 -0.00566163519397378 -0.015322476625442505 0.008910059928894043 0.035351432859897614 
-0.030961820855736732 -0.03245929628610611 -0.007619314361363649 -0.012369034811854362 -0.05619101971387863 -0.024883108213543892 0.016883481293916702 0.0015103063778951764 0.07265221327543259 
-0.05484079197049141 0.013771974481642246 0.07059035450220108 -0.03764169290661812 -0.04083670303225517 -0.024569327011704445 -0.0028732214123010635 -0.05176601558923721 0.07645204663276672 
0.000580477761104703 -0.011474634520709515 0.04710349440574646 0.025712262839078903 0.04725247621536255 -0.02281414344906807 -0.047859884798526764 -0.02371111884713173 0.05803527683019638 
0.06553728878498077 0.014840405434370041 0.06030779704451561 -0.05228497460484505 -0.029682902619242668 0.030933037400245667 0.019448472186923027 -0.037611786276102066 0.05070561170578003 
-0.03759930282831192 -0.068144790828228 0.004395640455186367 -0.008639109320938587 -0.01454358920454979 -0.04004037752747536 -0.04836719483137131 -0.03307094797492027 -0.05752268061041832 
-0.04687030240893364 0.030101759359240532 -0.01643221266567707 -0.0577874481678009 -0.02276107296347618 -0.030341902747750282 0.02537297084927559 0.03487555682659149 -0.05350976437330246 
-0.011391149833798409 -0.034930258989334106 -0.011889076791703701 0.00397502863779664 0.047587066888809204 0.04647385701537132 0.022996416315436363 0.06312697380781174 -0.0135927340015769 
0.02627500332891941 -0.02059248462319374 0.009207533672451973 0.012099619023501873 0.05196536332368851 0.01494505163282156 0.03971840813755989 0.04200100898742676 0.012585613876581192 
0.0484076663851738 -0.022770212963223457 -0.046147651970386505 0.0497034452855587 -0.012703793123364449 0.02609764225780964 -0.034836627542972565 -0.017130166292190552 0.059409499168395996 
-0.001671263249590993 -0.036981113255023956 -0.020231489092111588 0.03530529886484146 -0.009505108930170536 0.019161326810717583 -0.04764975234866142 -0.016546374186873436 -0.023352624848484993 
-0.021195895969867706 -0.05884154886007309 -0.027942918241024017 0.012666123919188976 0.01745644398033619 -0.06779444962739944 0.011098728515207767 -0.013413572683930397 0.03693686053156853 
0.06031619757413864 -0.051470670849084854 -0.013706959784030914 0.04890766367316246 0.04783192649483681 -0.03434903174638748 0.015321510843932629 -0.0018108562799170613 -0.0179173294454813 
-0.027637027204036713 0.02833712100982666 -0.018482139334082603 0.01739625819027424 0.055363792926073074 0.057126857340335846 -0.028906334191560745 0.04885665327310562 -0.049597568809986115 
-0.059774890542030334 -0.04445762187242508 0.02578519657254219 0.00048112875083461404 0.007840142585337162 -0.013486635871231556 -0.061595991253852844 0.04379541426897049 -0.004381511826068163 
0.05282093212008476 0.05824990198016167 -0.0044006360694766045 -0.055799078196287155 -0.06650244444608688 0.06618480384349823 0.020880525931715965 -0.06088950112462044 0.04127449914813042 
0.011346854269504547 0.009259244427084923 -0.005016519222408533 -0.018363216891884804 -0.06550721079111099 -0.014232280664145947 -0.032793816179037094 0.02468864805996418 -0.014896325767040253 
-0.054886627942323685 0.04788174852728844 0.05582302063703537 0.04912777245044708 0.04221362620592117 0.08407322317361832 0.030849991366267204 -0.0980718582868576 0.004917713813483715 
-0.03267275169491768 0.0671301782131195 -0.05697580426931381 0.05900529399514198 0.015719875693321228 0.0018577578011900187 -0.0003456474223639816 0.03349396958947182 0.024561578407883644 
0.006695807911455631 -0.03470172360539436 -0.012752020731568336 0.021872375160455704 0.013453889638185501 0.016452930867671967 0.06554891169071198 -0.05143873766064644 0.13497516512870789 
0.03743364289402962 -0.021140776574611664 -0.06947819143533707 -0.0013053788570687175 0.05409747734665871 -0.055093519389629364 -0.015216638334095478 -0.03423035889863968 -0.015180881135165691 
-0.002226718934252858 0.04397723451256752 0.018651427701115608 -0.046421367675065994 0.06187070533633232 -0.031516801565885544 -0.0001793575065676123 -0.039484694600105286 0.06498866528272629 
-0.003661360824480653 0.011246811598539352 0.0209601279348135 -0.033681720495224 0.02356072887778282 -0.040255770087242126 0.054075974971055984 0.14708168804645538 0.006520361639559269 
0.04656082019209862 -0.04333582520484924 0.04843795672059059 0.048086900264024734 0.033021945506334305 -0.0020943498238921165 -0.027124963700771332 -0.11977986246347427 0.096031554043293 
-0.03471311181783676 -0.026948854327201843 0.024129748344421387 0.007876940071582794 0.05694124102592468 -0.046697426587343216 0.014870356768369675 0.0035973850172013044 -0.028121130540966988 
0.07618705928325653 0.0900847539305687 -0.029127543792128563 -0.03414735570549965 -0.014428849332034588 -0.04277868941426277 0.06067665293812752 -0.10006030648946762 -0.17045442759990692 
0.022958004847168922 -0.027940325438976288 -0.051847491413354874 0.07261025905609131 0.03280426189303398 0.028343619778752327 0.022177070379257202 -0.03236855939030647 -0.023448197171092033 
-0.04689602926373482 -0.01177392527461052 0.028877420350909233 0.006376675330102444 0.023652533069252968 0.02971452847123146 -0.0007825715583749115 -0.008864447474479675 -0.006477431394159794 
-0.040257833898067474 -0.05361365154385567 -0.02202587202191353 0.05647508427500725 0.023071298375725746 -0.05457012355327606 -0.06259095668792725 -0.0539993941783905 -0.02214585430920124 
-0.07538522779941559 -0.03876321762800217 0.01095649041235447 0.051274895668029785 0.06132300943136215 -0.04061263054609299 -0.009569095447659492 -0.023565135896205902 0.11808440089225769 
0.05880055949091911 -0.006988363340497017 -0.011378553695976734 -0.036055102944374084 0.029963096603751183 0.006118283607065678 -0.02624361775815487 -0.032323215156793594 -0.03830842673778534 
0.014572061598300934 0.022867532446980476 -0.05080457776784897 0.05130705237388611 -0.024119528010487556 -0.05407259613275528 0.07674763351678848 0.04967878386378288 0.023497449234128 
0.017460700124502182 -0.04705647751688957 0.05226742848753929 -0.05563715100288391 -0.028148215264081955 0.0033545081969350576 0.003359208581969142 0.04630709066987038 0.025065455585718155 
-0.011073091067373753 -0.030479349195957184 -0.02211768366396427 -0.025570929050445557 0.03343973308801651 0.05718358978629112 0.05136282742023468 0.03724179416894913 -0.011095493100583553 
0.018869956955313683 -0.024765916168689728 0.037702567875385284 -0.049666035920381546 0.014834761619567871 0.046453140676021576 0.08652766793966293 -0.05203460529446602 -0.02601720578968525 
0.04923783615231514 0.011939583346247673 -0.06250067055225372 -0.04953029006719589 0.03577973693609238 0.0283057764172554 0.010274991393089294 0.06130466237664223 0.045589473098516464 
-0.03937005251646042 -0.02259354293346405 0.04865280166268349 -0.04441981017589569 0.028906073421239853 0.03799924999475479 0.03543713316321373 0.09586198627948761 -0.03635707125067711 
-0.006055045872926712 -0.06537185609340668 -0.05301066115498543 0.032141175121068954 -0.02689245343208313 0.051170509308576584 0.0588931180536747 -0.04460929334163666 -0.016687698662281036 
0.05242297425866127 -0.037679269909858704 -0.0454576201736927 -0.05950760096311569 -0.02014194242656231 -0.055341288447380066 -0.06373174488544464 0.048162560909986496 0.05117267742753029 
-0.03697701916098595 0.026456981897354126 0.03497392684221268 -0.048818837851285934 -0.06143959239125252 0.000951628026086837 -0.014917812310159206 -0.0026027406565845013 -0.0181772131472826 
-0.04677005484700203 -0.029131941497325897 -0.0559375025331974 0.008239073678851128 0.053115423768758774 0.022211723029613495 -0.013270440511405468 0.09383414685726166 -0.050489187240600586 
0.005659145303070545 0.02239287458360195 0.009597580879926682 0.03760427609086037 -0.004110871814191341 -0.034606561064720154 -0.007913627661764622 0.023303691297769547 0.03555651754140854 
-0.04879686236381531 -0.050957709550857544 -0.06062505394220352 -0.029043041169643402 0.04981889948248863 0.01252587977796793 -0.01252533309161663 -0.042489077895879745 -0.022937608882784843 
0.0795292854309082 -0.03682568296790123 -0.046599142253398895 -0.028509551659226418 -0.05692662298679352 0.07274994254112244 0.01841108500957489 -0.004669655114412308 0.01511860266327858 
0.05948782339692116 0.020543580874800682 -0.0032415722962468863 -0.0393429771065712 -0.011007009074091911 0.02269703336060047 0.05673626810312271 -0.03475945442914963 -0.04780349135398865 
0.03333672136068344 0.056917451322078705 -0.015927601605653763 0.013260167092084885 0.05704483762383461 -0.04236004129052162 0.039750836789608 -0.01388979610055685 -0.013629181310534477 
-0.039093293249607086 0.029903795570135117 0.05998273193836212 0.03500138595700264 0.023398809134960175 -0.020931588485836983 0.04229722544550896 -0.04446040838956833 -0.011186324059963226 
-0.035896554589271545 -0.04724016413092613 0.057792991399765015 0.08702602982521057 -0.007292586844414473 -0.023420963436365128 -0.03979247808456421 0.060542766004800797 0.04243288189172745 
-0.03980110585689545 0.0031199688091874123 -0.03424832224845886 -0.06391923129558563 0.00953231193125248 0.021197114139795303 0.026656081900000572 -0.026844101026654243 -0.0013008028035983443 
-0.004202117212116718 -0.04911554232239723 -0.074474036693573 0.009064922109246254 0.01485099270939827 -0.05242529138922691 -0.03484059497714043 0.016995029523968697 0.004220444243401289 
-0.05843166261911392 -0.05970347300171852 -0.016345877200365067 -0.011036253534257412 0.0480014942586422 -0.00911743938922882 0.051606256514787674 0.029534079134464264 -0.02549741044640541 
0.027880268171429634 0.02494608610868454 -0.01145192515105009 0.02893894724547863 -0.04157815873622894 0.029665617272257805 -0.018227504566311836 -0.05008591711521149 0.033429667353630066 
-0.045567259192466736 0.017846086993813515 -0.05964728072285652 -0.059023745357990265 0.012703314423561096 -0.019595233723521233 -0.060064490884542465 -0.052950259298086166 -0.015962809324264526 
0.03139733150601387 0.050366900861263275 0.03816336765885353 0.03490236774086952 0.008614107966423035 -0.024772342294454575 0.011438369750976562 -0.06310120224952698 -0.03755709528923035 
-0.06676497310400009 0.044708140194416046 0.0034423251636326313 -0.010889147408306599 0.05009891837835312 0.04850698262453079 -0.011206058785319328 -0.01512871589511633 0.04053494706749916 
0.0608324259519577 -0.005313146393746138 0.06764431297779083 0.004109197296202183 0.017679661512374878 0.049106646329164505 0.04280052334070206 -0.04833029583096504 0.021251095458865166 
-0.06165207549929619 0.06218665465712547 -0.06747948378324509 0.025017768144607544 -0.03186173364520073 0.026170283555984497 -0.0617762990295887 -0.01623203419148922 0.06440003216266632 
0.019120465964078903 -0.039299964904785156 0.059441693127155304 0.0297804307192564 0.054964084178209305 0.01092193741351366 -0.053553756326436996 -0.02400326356291771 0.055668529123067856 
-0.06167459487915039 0.04523641616106033 0.017861323431134224 -0.05010733753442764 -0.010673572309315205 -0.024599220603704453 0.015404841862618923 0.03752870485186577 0.0616646446287632 
-0.016075219959020615 0.03797805309295654 0.05620016157627106 0.05558982491493225 0.03858456015586853 0.03761449083685875 -0.0468275211751461 -0.01219319086521864 0.0025355853140354156 
0.06467782706022263 -0.015831366181373596 0.011961891315877438 -0.03270385414361954 -0.013101711869239807 -0.03276853635907173 -0.06268812716007233 0.054972320795059204 -0.03487977012991905 
0.04831841588020325 0.03245692327618599 -0.02528897486627102 -0.021991245448589325 -0.009421824477612972 -0.02915080450475216 -0.06438152492046356 0.06344950199127197 -0.022001095116138458 
-0.009266495704650879 0.07104253768920898 -0.035869050770998 -0.03797001764178276 -0.048290103673934937 0.044766101986169815 -0.0033575945999473333 0.01998722180724144 0.0308192428201437 
0.02127799391746521 -0.04061073437333107 0.0386432409286499 -0.06420397758483887 0.04624543339014053 -0.03261275961995125 -0.06503992527723312 0.016067199409008026 -0.050327617675065994 
0.022019077092409134 -0.05625298246741295 -0.053678568452596664 -0.05993930622935295 0.027489908039569855 0.04314974695444107 0.09100494533777237 -0.04328114539384842 -0.01724485121667385 
0.033980127424001694 -0.0034856265410780907 0.03893716260790825 0.07509638369083405 0.012225438840687275 -0.021538084372878075 0.009066984057426453 -0.026148106902837753 -0.011689058504998684 
-0.0073388018645346165 0.04021795466542244 0.06347116082906723 -0.0012306349817663431 -0.027689985930919647 0.013055180199444294 -0.03339281305670738 -0.01588275656104088 0.05592173710465431 
0.002235177205875516 0.0011824277462437749 0.018005888909101486 0.0758393183350563 -0.06833693385124207 -0.013024130836129189 0.05463831499218941 -0.020974868908524513 -0.0025759192649275064 
-0.028004540130496025 -0.012731996364891529 0.04018034785985947 -0.020509246736764908 0.05919253081083298 0.04766421765089035 -0.027549494057893753 -0.012738162651658058 0.028033489361405373 
0.02928164228796959 -0.05126626044511795 0.023029599338769913 -0.030730845406651497 -0.0373012013733387 0.02935618720948696 -0.013908379711210728 -0.03083564154803753 -0.024842916056513786 
-0.039226703345775604 0.0321410670876503 0.047152455896139145 -0.06262887269258499 0.09093401581048965 -0.01784178987145424 -0.08665775507688522 0.17573468387126923 -0.07086768746376038 
-0.028532078489661217 -0.0246814526617527 -0.09971999377012253 -0.04402092844247818 -0.1049719825387001 0.07941734790802002 0.06417524069547653 0.02910352312028408 0.021474892273545265 
8.608496136730537e-05 -0.008978329598903656 -0.053093913942575455 -0.04782930761575699 -0.01403591874986887 0.008605237118899822 0.013008340261876583 -0.025665035471320152 0.04232494905591011 
-0.04967612028121948 0.005853819660842419 0.02966880239546299 0.01056381594389677 0.10478731244802475 0.0060960957780480385 0.06070176139473915 -0.03885290399193764 -0.014061992056667805 
0.034093670547008514 -0.03086390160024166 -0.010180833749473095 -0.0072321100160479546 0.045615293085575104 -0.018015572801232338 0.012908633798360825 0.03366030007600784 0.009499769657850266 
0.06077639013528824 0.009904307313263416 -0.01776568777859211 -0.0027205576188862324 0.046649180352687836 0.015229887329041958 0.0006208998383954167 -0.03442636504769325 0.03918123617768288 
-0.020832499489188194 0.023426707834005356 0.014409544877707958 -0.013412835076451302 0.0240793339908123 -0.049171362072229385 -0.008277223445475101 -0.07221221178770065 0.05227578058838844 
0.08172422647476196 0.006118140649050474 -0.05671568587422371 0.059154998511075974 -0.019147243350744247 -0.04186945781111717 0.022792091593146324 -0.009102854877710342 -0.048733457922935486 
0.022168459370732307 0.00763827096670866 0.01685129851102829 0.034394264221191406 -0.048164840787649155 -0.05066429078578949 0.03812431916594505 0.028767375275492668 0.011233706027269363 
0.018098343163728714 -0.12165697664022446 -0.012323317117989063 -0.07260137796401978 0.09505623579025269 -0.022402586415410042 0.021382097154855728 0.015648141503334045 0.024936717003583908 
0.07976101338863373 0.0056747859343886375 0.03132453188300133 -0.02353251725435257 -0.022253816947340965 -0.01682261750102043 0.0760883241891861 -0.01134782936424017 -0.042414553463459015 
0.03958333283662796 -0.005403933115303516 0.02550174854695797 0.0438261404633522 -0.04471646249294281 0.038840558379888535 0.02458077296614647 -0.0036747700069099665 0.05216978117823601 
0.06453415751457214 -0.04595938324928284 -0.06483950465917587 0.01280828844755888 -0.0646384060382843 -0.01543134544044733 0.039924636483192444 -0.0011026833672076464 -0.04739518463611603 
-0.030159365385770798 -0.007749942131340504 -0.03626605123281479 -0.05360335484147072 0.005197443068027496 0.03917756304144859 -0.04139618203043938 -0.0018688002601265907 -0.01612958312034607 
-0.05153485760092735 0.027346912771463394 -0.002469242550432682 -0.015909066423773766 -0.0619487501680851 0.06268616020679474 -0.08472409099340439 0.015850188210606575 -0.059297073632478714 
-0.05172916129231453 0.016641899943351746 -0.010623360052704811 0.01308851595968008 -0.06116496026515961 -0.02553802728652954 -0.02728179842233658 0.0756816491484642 0.050261490046978 
-0.009116793982684612 0.00039989611832425 -0.05394560843706131 0.06669929623603821 -0.06383100152015686 0.025590214878320694 -0.0022602516692131758 0.05820832774043083 -0.0005645693163387477 
-0.020543580874800682 -0.059599194675683975 -0.06363579630851746 0.01693459041416645 0.0332295298576355 -0.026626797392964363 0.022724339738488197 -0.0522519014775753 -0.021797483786940575 
0.02430901862680912 0.060233596712350845 -0.03520442172884941 -0.01038790587335825 0.022055353969335556 0.01631898246705532 0.0026396128814667463 0.011905706487596035 -0.023971229791641235 
-0.030739769339561462 0.044628649950027466 -0.032586678862571716 0.027603302150964737 -0.026707947254180908 0.03807155415415764 0.05934394150972366 -0.046177808195352554 -0.03966222703456879 
-0.04125650227069855 0.03864418715238571 0.02551037073135376 0.02864729054272175 -0.07863307744264603 -0.0662633553147316 -0.040909990668296814 -0.018323032185435295 0.0698103979229927 
0.06711065769195557 -0.046640150249004364 -0.030600938946008682 -0.002570335054770112 0.07780548930168152 -0.01732894964516163 -0.02886676788330078 -0.034860748797655106 0.06603919714689255 
0.01548994705080986 0.054731570184230804 -0.06369760632514954 -0.06411469727754593 -0.06225278601050377 -0.04358812794089317 0.027863362804055214 -0.008516841568052769 0.048287417739629745 
0.05257823318243027 0.01999036967754364 0.06176431104540825 -0.05355021730065346 -0.05621699243783951 -0.057494018226861954 -0.05481589585542679 -0.04085409641265869 0.027294328436255455 
-0.04002417251467705 0.08626566082239151 0.06527560204267502 -0.009000635705888271 0.06261187046766281 -0.14700722694396973 -0.003867944236844778 -0.04011434689164162 -0.019558792933821678 
-0.06129143759608269 -0.010580526664853096 -0.043987125158309937 0.04081317409873009 -0.0071520074270665646 0.006715783383697271 -0.040822211652994156 0.05340629816055298 -0.07333502918481827 
0.06021452322602272 0.0793369933962822 -0.06095924973487854 -0.02425483800470829 0.0545974001288414 0.03494497388601303 0.0007779859588481486 0.005400396417826414 -0.054877206683158875 
-0.008825664408504963 0.046951789408922195 0.06098403036594391 0.007243209984153509 -0.024110211059451103 0.006018034182488918 -0.038609229028224945 0.013422503136098385 -0.005178198684006929 
0.0071388366632163525 -0.04380687698721886 -0.06433656811714172 -0.049583520740270615 0.030090399086475372 -0.046275220811367035 -0.04202102869749069 0.01816045492887497 -0.09254514425992966 
-0.06317415833473206 -0.03672327101230621 -0.049077462404966354 0.03780236840248108 -0.07794225215911865 -0.025485143065452576 0.07212457060813904 0.05928584188222885 0.05656583607196808 
-0.010247482918202877 -0.026125479489564896 0.027791203930974007 0.044676803052425385 0.02458387054502964 -0.035035666078329086 -0.04025054723024368 0.046125784516334534 -0.032390493899583817 
-0.015115544199943542 -0.06988263130187988 -0.005194633733481169 -0.05373701825737953 0.0412362776696682 0.002674141200259328 0.030663156881928444 -0.06109100580215454 0.021980950608849525 
-0.04671017453074455 0.04198789224028587 -0.04728283733129501 0.053277090191841125 -0.043357569724321365 0.018721411004662514 0.015670258551836014 -0.019013764336705208 -0.052722495049238205 
-0.052815031260252 0.02853127382695675 0.01691056787967682 -0.03090711310505867 0.010499894618988037 -0.015915334224700928 0.05717894434928894 -0.04833775758743286 0.043610453605651855 
-0.0046888538636267185 0.03356972336769104 0.01601923070847988 -0.07719651609659195 -0.05802036076784134 -0.0004084864049218595 -0.01762252114713192 0.05173509567975998 -0.030260270461440086 
0.06621475517749786 0.048648446798324585 0.061072200536727905 0.002532732207328081 -0.04304153472185135 0.05482837185263634 -0.05081905052065849 -0.043431080877780914 -0.05788401886820793 
0.08407606184482574 -0.024799635633826256 -0.02902931533753872 -0.011670871637761593 0.03409629687666893 -0.025163715705275536 -0.03657768294215202 -0.012928174808621407 0.04907171055674553 
0.026180824264883995 0.04924309626221657 0.014148861169815063 0.02720685675740242 -0.07108284533023834 -0.0006987655651755631 -0.004767299629747868 -0.024616016075015068 -0.024860190227627754 
-0.03892693296074867 0.05935555696487427 -0.026281405240297318 0.012135915458202362 0.05026903375983238 0.0473652184009552 0.05225754529237747 0.06553008407354355 0.022204631939530373 
-0.021456332877278328 0.055261045694351196 -0.00063892244361341 0.048118267208337784 0.012985948473215103 0.03491263836622238 0.07281707227230072 -0.042729780077934265 -0.01785641349852085 
0.039534080773591995 0.031231671571731567 -0.0340992771089077 0.05935364589095116 0.0009807845344766974 -0.04647618159651756 0.01721390150487423 -0.0058463397435843945 -0.02462766133248806 
0.041839636862277985 0.019289061427116394 0.01715429313480854 -0.013252492062747478 0.006805393844842911 -0.04869907349348068 -0.0129195936024189 -0.018540343269705772 -0.009140991605818272 
-0.04759478569030762 -0.021726731210947037 -0.031753722578287125 0.0634721890091896 0.020341264083981514 -0.017097944393754005 -0.036922331899404526 -0.036013148725032806 0.0035660224966704845 
-0.06983938813209534 -0.01633845828473568 -0.04830107465386391 0.005546364467591047 -0.023288777098059654 -0.05562985688447952 0.06145956367254257 -0.0978042259812355 -0.0009301530080847442 
0.07965743541717529 -0.005814832169562578 0.06791561841964722 -0.07494714111089706 0.06550921499729156 0.004867473151534796 -0.07251646369695663 -0.026785412803292274 -0.06190650165081024 
0.052198540419340134 -0.052985597401857376 0.008188298903405666 -0.026693491265177727 -0.10011348873376846 0.06006723642349243 -0.002138493349775672 -0.05072164908051491 0.0978548601269722 
0.0208758395165205 0.011531917378306389 0.02867409959435463 -0.02295719087123871 -0.013566480949521065 0.07899636775255203 0.0479540191590786 -0.018827833235263824 0.04013809561729431 
-0.04823727905750275 -0.05059406906366348 -0.14833711087703705 -0.08274339139461517 0.0723620057106018 -0.08383862674236298 -0.00940967258065939 0.09530049562454224 0.08355271071195602 
-0.03435315936803818 0.05146525055170059 0.030764911323785782 -0.09683491289615631 0.09988325089216232 -0.1370915174484253 -0.1356501281261444 0.17205198109149933 -0.10934194922447205 
0.00027372725890018046 -0.04043804109096527 0.1240568682551384 0.036171913146972656 -0.08377242833375931 0.08190103620290756 0.17214512825012207 0.01593499816954136 0.12696948647499084 
-0.019659191370010376 0.07365584373474121 0.06748105585575104 -0.03573736175894737 0.03150559216737747 -0.0910310447216034 0.014509191736578941 0.03929374739527702 0.05624721571803093 
-0.08047129958868027 0.06203702464699745 -0.07565052807331085 0.04840952530503273 0.042526062577962875 -0.05751722306013107 0.07342006266117096 0.022213535383343697 -0.022943897172808647 
-0.07183539867401123 0.05875474214553833 -0.03794098645448685 0.08940089493989944 0.02395763248205185 -0.055207595229148865 0.038365233689546585 -0.09789270907640457 0.00437759468331933 
-0.02897702343761921 -0.019813908264040947 0.05799479782581329 0.0011539090191945434 0.022293904796242714 0.024343328550457954 0.049429118633270264 0.058165114372968674 -0.056156568229198456 
-0.07371751219034195 -0.06170598417520523 -0.024843206629157066 -0.01425687875598669 0.017709292471408844 0.09469188004732132 0.05266708880662918 0.05741128325462341 0.030890945345163345 
-0.014113452285528183 0.02077978104352951 -0.055330757051706314 0.03720157593488693 0.028989596292376518 0.019796444103121758 -0.012228891253471375 -0.08978603780269623 -0.08599939197301865 
0.0415211096405983 0.03010697104036808 0.08060234040021896 0.052895687520504 0.08711229264736176 -0.015163592994213104 -0.004098930396139622 0.025103414431214333 0.0037611075676977634 
-0.09582767635583878 0.0931236669421196 -0.12869061529636383 0.06599210947751999 0.19005225598812103 0.2409427911043167 -0.05731448158621788 -0.13404110074043274 -0.045453377068042755 
-0.04415284842252731 0.08750371634960175 0.010079103522002697 -0.05096151679754257 -0.049516402184963226 0.040618591010570526 0.018156617879867554 -0.06053275242447853 0.01782541163265705 
0.0241517536342144 -0.07021593302488327 0.013366219587624073 0.025671178475022316 0.03727011755108833 -0.028811929747462273 0.06599908322095871 0.06743498146533966 0.01311747170984745 
-0.12366387248039246 -0.13916705548763275 -0.10652141273021698 0.04062013328075409 -0.031714193522930145 0.055120859295129776 0.011774714104831219 -0.02578086405992508 0.008044851012527943 
0.027376392856240273 0.08626990765333176 0.013893949799239635 0.00578116113319993 0.0448959544301033 0.07191082835197449 -0.05540456995368004 0.05087229609489441 0.018427424132823944 
0.05560852959752083 -0.04715808108448982 -0.05578410625457764 -0.017979847267270088 -0.004559636581689119 -0.010835420340299606 -0.013150712475180626 0.0800003707408905 -0.13449548184871674 
-0.013638955540955067 -0.06312751770019531 0.05327165871858597 -0.016489950940012932 -0.05077262222766876 -0.053754374384880066 0.020463453605771065 -0.002984657185152173 -0.0415092408657074 
0.04949222505092621 0.029904095456004143 0.005085828248411417 -0.05958889052271843 -0.040854863822460175 -0.03676251322031021 -0.0009044029284268618 0.018722141161561012 0.024704454466700554 
0.044191837310791016 0.08336318284273148 0.023851528763771057 0.00639925105497241 0.06007763370871544 -0.021177342161536217 0.01642819680273533 0.022567996755242348 -0.09904210269451141 
-0.027276720851659775 0.06950009614229202 0.056751761585474014 -0.012127845548093319 -0.056737370789051056 -0.07558788359165192 0.09476598352193832 0.009131139144301414 0.06584235280752182 
0.00945917796343565 0.047467589378356934 -0.015729453414678574 -0.05741427466273308 0.04923716560006142 0.020102938637137413 -0.009599280543625355 0.07826313376426697 -0.0910065770149231 
0.005403969902545214 -0.046702925115823746 -0.0421038419008255 0.024537427350878716 -0.006859104614704847 -0.03895526006817818 0.0514913871884346 -0.030299073085188866 0.055707089602947235 
-0.04309866204857826 0.12143124639987946 -0.084757499396801 -0.06863769888877869 0.046725206077098846 0.01803780347108841 -0.05262955650687218 0.08638385683298111 0.01968424767255783 
0.04343349486589432 0.0197004321962595 0.06188543140888214 -0.05880647525191307 -0.05075957998633385 -0.046157531440258026 0.03520812466740608 0.03670129179954529 -0.028055917471647263 
-0.02391151897609234 -0.0033946156036108732 0.0702214166522026 -0.02551998570561409 -0.027845511212944984 0.036439187824726105 -0.11214172840118408 0.01080690324306488 -0.0009928435320034623 
0.055882494896650314 0.02235102839767933 0.060047656297683716 -0.02217249572277069 -0.027942925691604614 0.23548057675361633 -0.0831003412604332 0.022616159170866013 0.12311209738254547 
-0.03343622386455536 0.04074573144316673 0.022310005500912666 0.04871004447340965 0.05991952866315842 -0.07487627863883972 -0.08402253687381744 0.02670411951839924 0.02439514547586441 
0.05860413983464241 -0.07934129238128662 0.08029818534851074 0.009729578159749508 0.004522918723523617 0.025649037212133408 -0.029355676844716072 0.10050950944423676 0.03234085813164711 
0.06678139418363571 -0.007728041149675846 0.01568686217069626 -0.007546629291027784 -0.0686800479888916 0.021825147792696953 -0.050407540053129196 0.15694722533226013 -0.009992914274334908 
-0.010050511918962002 -0.02335367538034916 0.05138421431183815 -0.02357773669064045 0.020835911855101585 -0.01631595566868782 0.023711450397968292 0.0412750206887722 -0.05986969172954559 
0.029960690066218376 0.024933332577347755 -0.03150955215096474 0.04914076253771782 0.03951035812497139 -0.0450863353908062 0.04970632493495941 -0.007302014622837305 -0.07286056131124496 
-0.019466668367385864 -0.018732573837041855 -0.012312367558479309 0.024221209809184074 -0.024502936750650406 -0.015568854287266731 -0.031085465103387833 0.010280194692313671 -0.029208429157733917 
-0.10742902755737305 0.02342918887734413 -0.026243221014738083 -0.1346263885498047 0.014609301462769508 -0.10585322976112366 0.017054758965969086 -0.058283187448978424 0.009953157044947147 
-0.05140263959765434 -0.005426183808594942 -0.06945249438285828 -0.004713020287454128 0.04326670616865158 0.04720830172300339 -0.07629551738500595 -0.00844579841941595 0.013379230163991451 
-0.06069234386086464 -0.042168885469436646 0.21694505214691162 -0.10282690823078156 0.039902832359075546 -0.06072314456105232 -0.0036055059172213078 -0.04386115074157715 -0.02214648388326168 
-0.007436805870383978 0.023848198354244232 -0.03243410587310791 0.026166854426264763 -0.06447526812553406 0.01638771966099739 -0.0070216841995716095 -0.014769048430025578 -0.019519003108143806 
-0.05755394324660301 0.04851536825299263 -0.03644680604338646 -0.009212127886712551 -0.06608176231384277 0.04537833854556084 0.02532685361802578 0.06976734101772308 0.011724872514605522 
0.007156141102313995 -0.011841247789561749 0.027342142537236214 -0.06484948843717575 0.0645148903131485 0.06404166668653488 -0.00542899826541543 0.07529602199792862 0.04504571855068207 
-0.013841231353580952 0.039984557777643204 0.05635277181863785 0.0003070799575652927 0.05374683067202568 -0.029378794133663177 0.040345486253499985 0.00878835842013359 -0.060326579958200455 
-0.08091965317726135 -0.011887283995747566 -0.06303271651268005 0.024810221046209335 -0.02800210937857628 -0.058314044028520584 0.02481253817677498 -0.13180699944496155 0.11643404513597488 
-0.037189677357673645 -0.055602990090847015 -0.047577403485774994 0.08093087375164032 -0.056304313242435455 -0.010798798874020576 -0.007244359701871872 -0.07230250537395477 0.01910252869129181 
0.018781226128339767 0.00812061782926321 0.00716803502291441 -0.0050863102078437805 -0.017391709610819817 -0.06939899176359177 0.050006698817014694 -0.00836669560521841 -0.03492450714111328 
0.049188703298568726 0.017568832263350487 -0.01196402870118618 -0.017852751538157463 -0.017853248864412308 0.018523404374718666 -0.015427619218826294 0.07379414141178131 0.04246115684509277 
0.000865838082972914 0.023882711306214333 -0.026555785909295082 0.04259901121258736 -0.04121807590126991 0.04011533409357071 0.005137369502335787 0.06899741291999817 -0.052003707736730576 
0.02360382117331028 0.020214740186929703 -0.01757901720702648 -0.05332636088132858 0.040730588138103485 -0.060179855674505234 -0.044635556638240814 0.04847616329789162 0.03750038146972656 
0.03809128329157829 -0.0392896942794323 0.040171749889850616 0.035740867257118225 -0.039787497371435165 0.03995274379849434 0.05798231065273285 0.03558635711669922 0.03599293902516365 
-0.048906851559877396 -0.019726723432540894 -0.02741985023021698 -0.0003792678180616349 -0.020694607868790627 -0.00707075372338295 0.029070869088172913 -0.05031127110123634 0.03487133979797363 
0.06338513642549515 0.000953726121224463 -0.036052823066711426 -0.015618263743817806 -0.013146359473466873 0.007941076532006264 0.02580537088215351 0.02908877097070217 0.008487033657729626 
0.004329930990934372 -0.013958636671304703 -0.019376086071133614 -0.05759924650192261 -0.013306264765560627 0.01396098267287016 0.002134298672899604 -0.04327692836523056 -0.06552685797214508 
-0.011422740295529366 0.015041761100292206 -0.11356420814990997 -0.09652642905712128 0.09915679693222046 -0.07764852792024612 -0.05428113415837288 0.06411346793174744 -0.013310176320374012 
-0.008747758343815804 -0.028915008530020714 0.026507604867219925 -0.020591499283909798 -0.04329536482691765 -0.03388538584113121 0.07693719863891602 -0.07197470963001251 0.05143546313047409 
0.05071752145886421 0.03636425733566284 0.0753859132528305 -0.043446242809295654 -0.010839579626917839 -0.03121141530573368 -0.07574954628944397 -0.06422235071659088 0.01982409693300724 
-0.005129493772983551 -0.05262576416134834 0.036215223371982574 -0.0011425596894696355 0.03611244633793831 -0.07952713221311569 0.00424602348357439 0.06547053158283234 0.05471423640847206 
-0.06090188026428223 0.059886571019887924 -0.0400446318089962 0.06821239739656448 0.08010749518871307 -0.006419456098228693 0.0181083045899868 0.022447695955634117 -0.0382220484316349 
-0.047746747732162476 -0.05850602686405182 -0.019662141799926758 0.0031600918155163527 0.006560400128364563 0.05414709821343422 0.06219157204031944 0.016917739063501358 0.03778552636504173 
0.040557485073804855 -0.018302418291568756 0.01033579371869564 -0.04148298501968384 0.016352705657482147 -0.03839198872447014 0.0009229847346432507 -0.06257663667201996 0.042224109172821045 
-0.00888822041451931 -0.02637319825589657 -0.05364656448364258 -0.021775327622890472 0.05373984947800636 0.06094652786850929 -0.06079366058111191 -0.04288877546787262 -0.004323997069150209 
-0.049090925604104996 0.027981946244835854 0.060463931411504745 -0.046602897346019745 0.059125687927007675 -0.032723318785429 -0.027524342760443687 0.0019453332060948014 -0.023623721674084663 
-0.03890509530901909 0.018601248040795326 -0.003554659429937601 0.023482130840420723 0.05575452744960785 -0.07029643654823303 -0.029567860066890717 0.05751047283411026 -0.02191799134016037 
0.02961317077279091 0.039878733456134796 0.04490602761507034 -0.044762447476387024 0.005683436989784241 -0.06017516553401947 0.06304468959569931 0.03239386901259422 -0.014830389060080051 
0.0037649432197213173 0.03979797661304474 0.06719207018613815 0.05368780344724655 0.05994446575641632 -0.037661708891391754 0.014048469252884388 0.06635474413633347 0.017332792282104492 
0.03422023728489876 -0.056633710861206055 0.0409981943666935 -0.0585615336894989 -0.024106210097670555 0.02313581295311451 0.02607046253979206 0.0007613478810526431 -0.022988684475421906 
-0.018108127638697624 0.03523312136530876 0.02744370885193348 -0.05804876610636711 0.01809137500822544 -0.0017237504944205284 0.008493953384459019 -0.017749374732375145 0.04248761013150215 
-0.010452204383909702 -0.06110629811882973 -0.06709267199039459 0.012222417630255222 0.027698442339897156 0.015385881997644901 0.028050044551491737 -0.04208408296108246 -0.07925482094287872 
-0.04330793768167496 0.024693304672837257 -0.04063082113862038 -0.031967926770448685 -0.020674332976341248 0.048492707312107086 -0.008099442347884178 -0.04305288568139076 0.007275702431797981 
0.04123058170080185 -0.020393425598740578 -0.061638250946998596 -0.03625703975558281 -0.02913794293999672 0.05298333615064621 -0.025435971096158028 -0.0744645893573761 0.03943530097603798 
-0.013978585600852966 0.018864944577217102 0.02698802761733532 0.004448472522199154 -0.013050902634859085 0.018173126503825188 -0.03872650861740112 0.03856314718723297 0.0339248925447464 
0.04686161130666733 -0.06814269721508026 -0.04450294375419617 -0.0023149806074798107 -0.026687229052186012 -0.01729569584131241 -0.010581576265394688 -0.021165963262319565 -0.03402048349380493 
-0.2870306074619293 0.046002477407455444 0.07086001336574554 0.02047104574739933 0.03528706729412079 -0.020122835412621498 -0.10187304019927979 0.02613135799765587 -0.06007528305053711 
0.06938529014587402 0.06045281141996384 0.050075963139534 -0.04742501303553581 -0.056220803409814835 0.04329362511634827 -0.015138673596084118 0.0056280833669006824 0.07968617975711823 
-0.0021390023175626993 -0.06504806131124496 0.014485832303762436 0.013731788843870163 0.05354180559515953 0.07490286976099014 -0.021301601082086563 0.011925843544304371 -0.015883933752775192 
0.02711128070950508 0.0563940592110157 0.049191683530807495 0.024969251826405525 -0.017100563272833824 0.025410711765289307 0.047198470681905746 -0.04396490007638931 -0.030065782368183136 
0.06327691674232483 0.09452931582927704 -0.017349284142255783 0.056881133466959 -0.048515718430280685 -0.005365071818232536 -0.015038805082440376 0.016911963000893593 -0.06175787001848221 
0.008465000428259373 0.08155686408281326 0.0401969850063324 -0.13385462760925293 0.03866783529520035 0.026689352467656136 0.005746328737586737 0.09471127390861511 0.07516554743051529 
0.06178653612732887 0.04050528630614281 -0.0021056889090687037 -0.07662886381149292 -0.06249059736728668 0.03170178458094597 -0.01668407954275608 -0.11632217466831207 -0.024242298677563667 
-0.01566535420715809 0.003615519031882286 -0.028973503038287163 0.00908933486789465 0.01478663645684719 0.044345248490571976 -0.06726203858852386 0.030920499935746193 0.0504714772105217 
0.17770850658416748 -0.01376395020633936 0.06855591386556625 -0.07225655764341354 -0.12267999351024628 -0.10080382972955704 0.031897250562906265 -0.010010765865445137 0.04797758162021637 
-0.17011868953704834 -0.04047353193163872 0.06718622893095016 0.039606302976608276 0.012040408328175545 0.04600664600729942 -0.05948592722415924 -0.028067877516150475 0.04469585046172142 
0.047857098281383514 -0.013027697801589966 0.06700558215379715 0.02525942027568817 -0.04484795778989792 -0.0704050287604332 0.07890225946903229 0.057929426431655884 0.04322003200650215 
-0.018672702834010124 -0.09711947292089462 -0.0022635608911514282 0.021511368453502655 0.035454608500003815 0.017433779314160347 0.03436172381043434 -0.012717381119728088 0.04669704660773277 
-0.052316948771476746 0.11316622793674469 0.05173574760556221 -0.11695143580436707 0.03409023582935333 -0.02260730229318142 -0.02976393699645996 -0.061183080077171326 -0.023449916392564774 
-0.01396319642663002 -0.05179557949304581 0.07110205292701721 0.04273085296154022 0.09521817415952682 0.08045460283756256 0.004062821622937918 0.028052393347024918 -0.04038815572857857 
0.09354600310325623 -0.029552940279245377 -0.15241524577140808 0.1253342181444168 -0.06754028797149658 -0.0999356135725975 0.008689784444868565 -0.08275628834962845 0.015043450519442558 
0.11719042807817459 -0.010550940409302711 -0.0010111865121871233 -0.015446128323674202 0.010347986593842506 -0.019889649003744125 0.014184623956680298 0.08367440849542618 -0.009350567124783993 
-0.07563839852809906 -0.027831343933939934 0.00011287626693956554 -0.01123503502458334 0.002998415380716324 0.017659232020378113 -0.0431128665804863 0.002192947082221508 -0.006876247003674507 
-0.012398463673889637 -0.02362506464123726 -0.05007912591099739 -0.001789168338291347 -0.027545519173145294 -0.06986016035079956 -0.02730739302933216 0.024722671136260033 0.009717665612697601 
0.052537765353918076 0.04945925250649452 0.03483012691140175 0.04134616628289223 -0.07095135748386383 -0.07552935183048248 -0.02153589203953743 -0.05777732655405998 -0.05657213553786278 
-0.05449288338422775 -0.022313615307211876 0.07332795113325119 -0.031576257199048996 0.027740368619561195 -0.05678733065724373 0.0369068868458271 -0.014887250028550625 0.0564090795814991 
-0.0283641554415226 0.02278115041553974 -0.033461399376392365 0.07123569399118423 0.08510923385620117 0.013441280461847782 -0.0845387876033783 0.027880022302269936 0.006354904733598232 
0.25232142210006714 -0.02237061597406864 0.03610735386610031 -0.035663820803165436 -0.0362890362739563 0.010929450392723083 -0.004323498345911503 0.05987738445401192 -0.0053459154441952705 
-0.07429805397987366 -0.034363824874162674 -0.03590209782123566 0.11602349579334259 0.2033224105834961 0.03226245939731598 -0.01202803198248148 0.10188554227352142 -0.03317735716700554 
0.12756939232349396 0.04745233803987503 -0.021535638719797134 -0.0335635282099247 -0.03180910274386406 -0.06558092683553696 -0.10093438625335693 0.1071920394897461 -0.013558704406023026 
0.055787499994039536 -0.0971287414431572 0.039646364748477936 0.02050822786986828 0.049860451370477676 -0.007483716122806072 0.06237422302365303 -0.0608358308672905 -0.03994407132267952 
0.06181354820728302 -0.016932623460888863 -0.027689075097441673 0.04694841802120209 0.0008551712380722165 -0.060150641947984695 0.00857002567499876 0.06634993851184845 0.005505135748535395 
-0.06309262663125992 -0.04709750413894653 -0.022362133488059044 -0.016777727752923965 -0.012527776882052422 -0.0352853499352932 0.04731235280632973 0.06496912240982056 -0.004254775587469339 
-0.018396873027086258 0.024558184668421745 0.04373215138912201 0.011505376547574997 0.06464274227619171 -0.05407945439219475 0.04956403002142906 0.07315856218338013 -0.050512440502643585 
0.0013825064525008202 0.01808137819170952 -0.043108019977808 0.023380916565656662 -0.06417849659919739 -0.058253657072782516 0.01664612628519535 0.0401071161031723 0.065128855407238 
-0.11314752697944641 0.07657913118600845 -0.05002178996801376 0.026693228632211685 0.05392950028181076 -0.017756106331944466 0.08180777728557587 -0.09638257324695587 -0.016253400593996048 
-0.02261788584291935 0.013021619990468025 0.00457747420296073 -0.10627923160791397 0.02445140667259693 0.038958050310611725 0.030679557472467422 0.002043265150859952 0.031493090093135834 
-0.03369525820016861 -0.020811207592487335 -0.03065803460776806 -0.02251242659986019 0.020668139681220055 -0.0027303455863147974 0.061530377715826035 -0.01288711465895176 -0.03574386611580849 
0.0057358709163963795 4.8162928578676656e-05 0.017373288050293922 0.028272759169340134 -0.008802087046205997 -0.08365073800086975 -0.006335656624287367 0.03770601376891136 -0.043149057775735855 
-0.012750997208058834 0.04149898141622543 0.0028081387281417847 0.05639110505580902 -0.04071323946118355 -0.041678279638290405 -0.029153786599636078 -0.061038438230752945 -0.052149660885334015 
0.04380779340863228 -0.046486806124448776 -0.024326078593730927 0.060706380754709244 -0.05439094454050064 -0.026692092418670654 0.0024619614705443382 -0.04172755032777786 0.05069936439394951 
0.012355574406683445 -0.034086380153894424 -0.017522530630230904 0.009483409114181995 0.07068372517824173 0.006518257316201925 -0.0623323917388916 -0.0076290336437523365 -0.009964686818420887 
-0.038527972996234894 -0.029896177351474762 0.057324569672346115 0.011468150652945042 -0.01220615766942501 -0.04142863303422928 -0.006186519283801317 -0.037863798439502716 -0.0578787736594677 
0.003590246196836233 -0.055417124181985855 0.029653986915946007 0.0037154576275497675 -0.009318778291344643 0.04057900980114937 0.017669765278697014 -0.052011534571647644 0.03154794126749039 
0.04523424431681633 -0.05100483447313309 0.0007936833426356316 0.011743023991584778 -0.08771605789661407 -0.020684033632278442 -0.01810109242796898 0.03541804105043411 0.03397265821695328 
0.014550084248185158 -0.007502858992666006 0.02212243340909481 -0.03521335497498512 -0.0639093816280365 -0.05025091767311096 -0.007203100714832544 0.006708014756441116 0.035516586154699326 
0.013260360807180405 0.04222308471798897 0.04290080443024635 -0.033935919404029846 -0.018483301624655724 0.04663481190800667 -0.005144106689840555 0.03381972387433052 -0.019213290885090828 
-0.0661584883928299 -0.026816653087735176 -0.030597805976867676 0.036865394562482834 -0.06157715246081352 0.02733057178556919 -0.040833085775375366 -0.06924373656511307 0.02432391792535782 
0.03132650628685951 0.0016539415810257196 0.006399043835699558 0.06478226184844971 -0.004016194026917219 0.04189225658774376 -0.046617187559604645 -0.021466853097081184 -0.03412836417555809 
0.002204769989475608 0.008513201959431171 -0.035360343754291534 -0.020197171717882156 -0.013056432828307152 0.05887850001454353 0.038626085966825485 0.01814180612564087 -0.003068051300942898 
0.028125327080488205 0.06477614492177963 0.06353055685758591 0.003860521363094449 0.030271347612142563 -0.011503544636070728 0.02910550870001316 0.025259748101234436 0.022365333512425423 
-0.05634426325559616 0.057454660534858704 -0.02453860640525818 -0.03876112028956413 0.026223735883831978 -0.0249392818659544 0.04351445659995079 0.012858576141297817 0.004202015697956085 
-0.06200870871543884 -0.06501803547143936 -0.04789292812347412 -0.06500741839408875 -0.044398482888936996 0.03462345525622368 -0.06711291521787643 -0.02261664904654026 0.01059243269264698 
