0.03385328873991966
-0.04441916197538376
0.011106655932962894
0.0316043384373188
-0.010488322004675865
0.04968734458088875
0.033637117594480515
0.025722816586494446
0.020838139578700066
0.043519578874111176
0.015117856673896313
-0.027247987687587738
-0.041408706456422806
0.03223426640033722
-0.03597727790474892
0.024898525327444077
0.022331714630126953
0.019722681492567062
0.0548296794295311
0.016341237351298332
-0.06254301220178604
-0.07488255202770233
0.05466533452272415
-0.025028634816408157
-0.047678861767053604
-0.026479549705982208
-0.058039117604494095
0.03051586262881756
-0.030706102028489113
0.022733518853783607
-0.05866015702486038
-0.020718030631542206
-0.039817798882722855
0.035566944628953934
0.04125957563519478
-0.04285159334540367
-0.03038022667169571
0.038279324769973755
0.05989765003323555
0.020151594653725624
-0.02880937047302723
-0.037040114402770996
0.05708036571741104
0.0017042513936758041
-0.018693268299102783
0.01288550067692995
-0.04786873981356621
-0.04284180328249931
0.03212268650531769
-0.06077398732304573
0.050193313509225845
0.0373445488512516
0.02708168886601925
0.01687283255159855
-0.016203520819544792
0.018705736845731735
-0.047315262258052826
-0.03106525167822838
0.0159341748803854
-0.030408106744289398
-0.027494216337800026
0.010453391820192337
-0.05979292094707489
0.020552733913064003
-0.07539180666208267
-0.054372839629650116
0.04421059787273407
0.04450343921780586
0.042284298688173294
0.010207154788076878
-0.044812195003032684
0.033568236976861954
0.014762270264327526
0.009470376186072826
0.018665656447410583
0.003400250803679228
0.06311595439910889
-0.014812816865742207
0.056382618844509125
0.07814662158489227
0.055871833115816116
-0.05857957527041435
-0.03808244690299034
-0.004719803109765053
0.030304603278636932
0.0136640639975667
-0.06684756278991699
0.011161415837705135
0.02340801991522312
-0.08030877262353897
0.020965496078133583
-0.009849866852164268
-0.021840348839759827
-0.019573498517274857
-0.025961829349398613
0.025234676897525787
