-0.0549486018717289 -0.02514277957379818 -0.03259013220667839 -0.05541536211967468 0.008420171216130257 -0.00207338179461658 0.05818537622690201 0.0714792013168335 -0.026205770671367645 
0.017625877633690834 -0.018927715718746185 0.0659259632229805 -0.05378927290439606 0.040167782455682755 0.05270097777247429 -0.04389600828289986 0.02953156642615795 -0.02197507955133915 
0.0013446209486573935 -0.02001582831144333 0.04860985279083252 0.05894708260893822 0.004416700452566147 -0.06093604862689972 0.05722872540354729 -0.01573222689330578 0.0005877798539586365 
0.01173096988350153 -0.026408646255731583 -0.06890881806612015 -0.029369130730628967 -0.045625437051057816 0.009594712406396866 -0.058503031730651855 -0.0065370528027415276 0.04052414745092392 
0.0009774325881153345 0.05819743126630783 -0.04104479402303696 0.016166117042303085 0.06145062670111656 -0.02011205069720745 -0.05886351317167282 0.05362784117460251 0.025420717895030975 
-0.0289307814091444 0.08382326364517212 -0.050553835928440094 -0.04048876091837883 0.07141868770122528 -0.04141373559832573 0.060548827052116394 0.0475008450448513 -0.06120312586426735 
-0.06908445060253143 0.04783458262681961 0.0049174013547599316 0.008419610559940338 0.04292569309473038 0.038157012313604355 0.038498517125844955 0.006617262493818998 0.0248469989746809 
-0.021338220685720444 -0.0075016869232058525 0.06409153342247009 -0.05627688392996788 -0.02178286761045456 0.0576675608754158 -0.031747691333293915 -0.020370032638311386 0.0057455264031887054 
0.023137526586651802 0.014126465655863285 0.037651561200618744 0.0485149547457695 -0.03331155702471733 -0.04054698348045349 -0.06954305619001389 0.06414016336202621 -0.049044810235500336 
0.03365776687860489 -0.01655775122344494 0.029627494513988495 -0.07016520202159882 0.037033189088106155 0.04955251142382622 0.034840360283851624 0.06838054955005646 -0.05676819011569023 
0.04476127400994301 -0.036898378282785416 0.027425900101661682 0.01110820658504963 0.03282982110977173 0.04488115757703781 0.06399530172348022 -0.0524706207215786 -0.002991305198520422 
-0.03020433336496353 -0.044834528118371964 -0.014665781520307064 -0.03600817918777466 0.06932631880044937 0.05509333312511444 -0.019148310646414757 0.020525727421045303 0.05879100412130356 
-0.047039736062288284 0.05733305215835571 0.012396779842674732 -0.03258694335818291 0.021137656643986702 -0.014782741665840149 -0.013012225739657879 -0.051066234707832336 0.06063621863722801 
-0.009827672503888607 -0.0008680871687829494 -0.06115052103996277 0.0002565695031080395 0.054755594581365585 -0.024924831464886665 -0.06327943503856659 -0.01367167104035616 0.046971455216407776 
0.06235887110233307 -0.051978494971990585 0.05548347905278206 -0.04218711331486702 -0.012006998062133789 -0.019070100039243698 -0.015082511119544506 -0.07216323167085648 0.05885090306401253 
0.06560898572206497 -0.05356036126613617 0.017991622909903526 0.021069929003715515 -0.04249146208167076 0.05166076123714447 0.013294965028762817 -0.04745478183031082 -0.00362830376252532 
-0.04522739723324776 0.07035091519355774 -0.01832658238708973 0.009475414641201496 -0.03726210817694664 0.03982539102435112 0.012508627027273178 0.05006643384695053 0.033376891165971756 
-0.06749448925256729 -0.04198643937706947 0.015668360516428947 0.045538678765296936 0.06593543291091919 0.020773619413375854 -0.018303876742720604 0.06551489233970642 -0.05398176610469818 
0.002697254763916135 -0.037646956741809845 -0.010755695402622223 -0.029644975438714027 -0.012918587774038315 0.03353973850607872 -0.021839270368218422 0.027317048981785774 -0.04687824100255966 
-0.006014297716319561 -0.027553269639611244 -0.05845797806978226 -0.0027442332357168198 0.018663035705685616 -0.039847955107688904 0.03198355808854103 1.018379316519713e-05 0.0563783198595047 
0.032729580998420715 -0.010719908401370049 0.007563481107354164 0.010558056645095348 -0.06113597750663757 -0.05897955596446991 -0.04225095361471176 -0.013364596292376518 0.015959106385707855 
0.033817730844020844 0.00562406936660409 -0.002731739543378353 0.04124118760228157 -0.022582849487662315 -0.002052587689831853 0.014867633581161499 0.01590101607143879 -0.007397811859846115 
-0.05585743486881256 -0.0015835115918889642 -0.02269349992275238 -0.06389167159795761 -0.008996360935270786 0.01730688288807869 0.03566591814160347 0.009879136458039284 0.04710593447089195 
-0.06433573365211487 0.016711261123418808 -0.0001234763622051105 0.06835754960775375 0.03035370074212551 -0.03732585534453392 0.04139047488570213 -0.053055793046951294 0.009781351312994957 
-0.03749474510550499 0.030836494639515877 0.03991690278053284 0.026763850823044777 0.01988321542739868 0.02386895939707756 0.06554117798805237 -0.011869304813444614 -0.0651312991976738 
0.022590041160583496 -0.06567040085792542 0.04794380068778992 -0.0021564550697803497 0.03595493733882904 -0.041473690420389175 -0.03840441629290581 0.005829346366226673 -0.03138856589794159 
0.032311324030160904 -0.08595024794340134 0.047529369592666626 -0.0453176349401474 0.05899357423186302 -0.04573681205511093 0.05593397095799446 -0.008519107475876808 -0.006846128962934017 
0.0781063660979271 -0.012393714860081673 0.025469254702329636 0.035271693021059036 0.008900240994989872 -0.022609276697039604 -0.01906506158411503 -0.012999376282095909 -0.042309924960136414 
0.03237650915980339 -0.03054678812623024 0.013046788051724434 -0.05840013176202774 -0.056864261627197266 -0.005898468662053347 0.011174471117556095 0.02543775923550129 -0.0016859403112903237 
-0.05924846604466438 -0.03560246527194977 0.04975198581814766 -0.0009457505657337606 -0.05669808387756348 0.006098432466387749 0.020188966765999794 -0.0004185564466752112 -0.02128807082772255 
0.013287335634231567 -0.081969253718853 -0.03609361872076988 -0.020462188869714737 -0.08743765205144882 -0.026941409334540367 0.01554467435926199 -0.050770070403814316 0.07009024173021317 
0.02565685845911503 0.0033037930261343718 0.0551966056227684 -0.0648857057094574 -0.010638286359608173 -0.0009447928750887513 -0.006996407173573971 -0.062647245824337 0.046497125178575516 
-0.03503478318452835 0.06883277744054794 0.008288313634693623 0.0012763688573613763 -0.041062794625759125 0.020228615030646324 -0.019376367330551147 0.037650249898433685 0.05538313835859299 
-0.046791356056928635 0.05000593513250351 0.030463241040706635 0.040287379175424576 0.008519317954778671 -0.018026895821094513 0.05591952055692673 -0.020195432007312775 -0.011681691743433475 
0.030214857310056686 -0.06201031059026718 -0.022741537541151047 -0.05895834416151047 -0.060858212411403656 -0.03248976171016693 -0.02053208462893963 -0.017319459468126297 0.04718797281384468 
-0.06281960010528564 -0.0496005043387413 -0.06860926747322083 0.041117820888757706 0.052225708961486816 0.052886851131916046 0.0200654249638319 -0.013317814096808434 -0.01879248395562172 
-0.04889828711748123 -0.02864883840084076 -0.0039236475713551044 -0.05962003394961357 0.015170681290328503 -0.06993988156318665 -0.00011942304263357073 0.004030139185488224 0.016326459124684334 
-0.057727277278900146 0.018201174214482307 -0.02254742570221424 -0.03450623154640198 0.0075486525893211365 0.023326240479946136 0.014340437948703766 0.04372599720954895 -0.06470247358083725 
0.0065568964928388596 -0.042841386049985886 0.008185913786292076 -0.013790289871394634 0.057246964424848557 0.048944320529699326 0.022385168820619583 0.01762438379228115 -0.02433774061501026 
-0.05732576176524162 -0.054781556129455566 -0.035918038338422775 -0.023508736863732338 -0.0047631110064685345 -0.0012978301383554935 0.007817492820322514 0.011358310468494892 -0.04610056057572365 
0.02689477615058422 -0.034179236739873886 0.05677705630660057 0.00854557566344738 0.06740774214267731 -0.014283516444265842 -0.007900065742433071 0.007209960371255875 -0.017606519162654877 
0.008149633184075356 0.025690730661153793 0.0015372742200270295 0.044304896146059036 0.06214050576090813 0.06018814072012901 -0.04595106467604637 -0.06278388202190399 0.01938510127365589 
-0.007020243443548679 -0.05653849616646767 -0.05375036224722862 -0.006830896250903606 -0.028470322489738464 -0.06782606989145279 -0.06758105754852295 0.025657303631305695 -0.03642894700169563 
0.05297766253352165 -0.0452503077685833 0.06153452768921852 0.010572561994194984 -0.022027507424354553 -0.03220423310995102 0.035743389278650284 -0.03911774232983589 -0.016743021085858345 
-0.010697201825678349 0.042632218450307846 -0.04621022194623947 -0.02447478659451008 -0.04327036812901497 -0.06668804585933685 -0.07046584039926529 0.050617482513189316 0.005402675364166498 
0.01713995449244976 -0.0015673349844291806 -0.016801366582512856 0.044373393058776855 -0.020962556824088097 -0.05153665319085121 0.0400826558470726 0.03382047638297081 -0.02095559798181057 
0.0038144844584167004 0.06594979763031006 0.025858711451292038 -0.0028178798966109753 0.03821742534637451 0.052140142768621445 -0.012185744009912014 -0.015951739624142647 0.043701186776161194 
-0.06815440207719803 -0.05522703006863594 0.046294644474983215 0.0011369292624294758 -0.03277251869440079 -0.022423559799790382 0.015954650938510895 0.06672430038452148 0.02858646772801876 
0.07116597890853882 0.0009333249763585627 -0.04390357807278633 -0.021471377462148666 -0.022152552381157875 -0.06989491730928421 -0.025022102519869804 -0.04210987314581871 0.0017655486008152366 
0.01766766421496868 -0.024426892399787903 0.015416199341416359 0.017970887944102287 0.013052741065621376 0.013697666116058826 -0.037908006459474564 0.03408972546458244 0.00109626236371696 
-0.0651155486702919 -0.04702674224972725 0.06746461987495422 0.023072920739650726 -0.06027038395404816 -0.015356208197772503 -0.03463001549243927 0.02933376282453537 -0.058426354080438614 
0.025444215163588524 -0.029396330937743187 0.008099605329334736 -0.04821263253688812 -0.04531538486480713 0.032681357115507126 0.0431557297706604 -0.025966918095946312 0.04146965965628624 
0.048715077340602875 -0.0008171119261533022 0.023860394954681396 0.008766673505306244 0.02613133192062378 0.04576001316308975 0.010558532550930977 0.016203967854380608 0.017185118049383163 
0.036426033824682236 -0.005340433679521084 -0.050612855702638626 -0.02449878118932247 -0.03149004280567169 -0.03529227524995804 0.0468004047870636 0.06517564505338669 0.011767161078751087 
-0.052155502140522 -0.06742697209119797 -0.0749029740691185 -0.002994106849655509 -0.016691157594323158 0.004407437052577734 -0.025270193815231323 0.02380790375173092 0.012419376522302628 
-0.002642619190737605 -0.01921781897544861 -0.008504216559231281 -0.04173671081662178 -0.011409481056034565 -0.04246172308921814 -0.06456852704286575 -0.04609378054738045 0.05616152659058571 
-0.036145009100437164 0.01547609455883503 -0.0006222325609996915 -0.022274600341916084 0.059307388961315155 -0.014128218404948711 -0.016179146245121956 -0.009260205551981926 0.025917259976267815 
0.07053239643573761 0.05385192856192589 0.0062879580073058605 -0.012309327721595764 -0.0703747570514679 0.01493657473474741 -0.017719611525535583 0.007319218013435602 0.018550125882029533 
-0.0038381614722311497 -0.0016440008766949177 -0.042823243886232376 -0.06122114509344101 0.029515134170651436 0.022806288674473763 -0.06080380082130432 -0.037597376853227615 0.04651826247572899 
0.04090340808033943 -0.03915052488446236 0.04309115186333656 0.04768023639917374 0.05896401405334473 -0.010834136046469212 -0.0509953610599041 0.039719484746456146 0.0007461510831490159 
-0.024659669026732445 0.001328364829532802 0.05779231712222099 -0.01616029627621174 -0.06873234361410141 -0.029564144089818 -0.023753361776471138 -0.03901049867272377 -0.04699846729636192 
0.03157828003168106 0.05060584098100662 -0.01763290911912918 0.06643451005220413 0.04876814782619476 -0.03866686671972275 -0.06436959654092789 -0.06948711723089218 0.043494291603565216 
0.06808698922395706 -0.03706476092338562 -0.005874778144061565 -0.023303763940930367 -0.004379854537546635 -0.06312702596187592 0.04102661460638046 0.013604984618723392 0.007198516745120287 
0.046241890639066696 0.04389762133359909 0.03752882033586502 0.059913814067840576 0.022381097078323364 0.04112718254327774 -0.06368313729763031 0.05942057445645332 -0.05127953365445137 
-0.0660744309425354 -0.02562425099313259 0.03985225409269333 -0.012536388821899891 -0.009468830190598965 0.013105479069054127 -0.04984355717897415 -0.00046393880620598793 0.05928105115890503 
-0.060490380972623825 0.06563404947519302 0.0596780963242054 0.0009907328058034182 0.022588245570659637 0.024528320878744125 0.01781350187957287 0.03153247758746147 -0.03892846405506134 
-0.022283853963017464 0.05380215123295784 -0.05725139379501343 -0.021156156435608864 0.02697915770113468 -0.0598781481385231 -0.06935698539018631 0.021456774324178696 0.03352025896310806 
0.008843708783388138 0.007396569941192865 -0.05542821064591408 -0.051399629563093185 -0.01099033560603857 0.0009689036523923278 0.04897068068385124 0.0397503599524498 -0.00042381390812806785 
0.03984307870268822 -0.06421839445829391 -0.04079239442944527 -0.02474185824394226 -0.043309520930051804 -0.057653725147247314 -0.05727284029126167 -0.03033464588224888 -0.009094803594052792 
-0.03228262811899185 0.03595995530486107 -0.0015900221187621355 0.03444254398345947 -0.030551614239811897 -0.04905464127659798 -0.04155832529067993 0.021833255887031555 -0.04761927202343941 
0.06832580268383026 0.008624617010354996 0.060927800834178925 -0.06950432807207108 -0.06722186505794525 -0.014724156819283962 -0.03224942833185196 0.041236840188503265 -0.06436078250408173 
-0.04822675511240959 -0.04505714029073715 0.01858208328485489 -0.014155932702124119 -0.035411812365055084 0.017433714121580124 0.00213846773840487 0.05044667050242424 0.030454499647021294 
0.009487861767411232 0.00488588260486722 0.009921054355800152 -0.05845503509044647 -0.0014048480661585927 0.034987907856702805 -0.031774163246154785 0.07114208489656448 0.042286522686481476 
-0.0013007308589294553 0.06388484686613083 -0.018853813409805298 -0.05672459676861763 -0.019818080589175224 0.01626606099307537 0.04951068386435509 -0.04181768000125885 0.00739258574321866 
-0.05282564088702202 -0.008197664283216 -0.02385859563946724 -0.034830547869205475 -0.06424543261528015 -0.04241912066936493 0.07035429775714874 -0.04014766961336136 -0.06163017079234123 
-0.03480416163802147 -0.059974703937768936 -0.038586948066949844 -0.05659104883670807 -0.030375594273209572 0.013578278943896294 -0.02197072096168995 -0.008101687766611576 0.007383338175714016 
0.015732022002339363 0.04518730565905571 0.059621699154376984 0.009944667108356953 0.05948346108198166 0.04435335472226143 -0.024262603372335434 -0.038661349564790726 -0.019759580492973328 
-0.00662890775129199 0.06700503826141357 0.020713238045573235 0.06325740367174149 -0.05595396086573601 -0.024754660204052925 -0.03293686732649803 0.04083867371082306 0.05313367024064064 
-0.0336245521903038 -0.008767749182879925 -0.0014532298082485795 0.016604123637080193 -0.034956056624650955 -0.04060560092329979 0.012987366877496243 -0.020909126847982407 -0.04705967754125595 
0.01953548565506935 0.03360268846154213 -0.05498421564698219 -0.027566028758883476 -0.02604403719305992 -0.05214248597621918 -0.03488770127296448 -0.04908766224980354 -0.027023833245038986 
0.020258380100131035 0.007222346030175686 -0.06601922959089279 -0.027249367907643318 0.05604800209403038 0.0018609471153467894 0.03604615107178688 0.05275215953588486 -0.02641146257519722 
0.049791909754276276 -0.03552475571632385 0.009669355116784573 -0.0694010928273201 0.05842346325516701 0.05682537704706192 -0.04370800405740738 0.021361520513892174 0.0011819511419162154 
-0.01768491417169571 -0.06734243035316467 0.032567139714956284 -0.07477877289056778 0.01714373379945755 0.049654293805360794 -0.004395132418721914 0.041250891983509064 -0.06329017132520676 
0.05177747458219528 -0.047096338123083115 0.03827871382236481 -0.0330033116042614 -0.028533443808555603 -0.0019470227416604757 -0.03603911027312279 0.043251123279333115 0.060768891125917435 
-0.02259000763297081 -0.042672887444496155 0.00436653895303607 -0.038504719734191895 -0.06222610920667648 0.05247771367430687 -0.028336022049188614 0.05931263417005539 0.01314915157854557 
0.05500644072890282 0.0455143004655838 0.04425937682390213 -0.015904847532510757 -0.039337508380413055 0.039878517389297485 0.033699750900268555 -0.04243488237261772 -0.05359167978167534 
-0.022155344486236572 -0.03589065000414848 0.049019280821084976 0.037887610495090485 0.07360438257455826 0.05771899223327637 -0.04872240126132965 0.0311844851821661 0.05152032896876335 
-0.025676121935248375 -0.0681682676076889 0.044034965336322784 0.05868658423423767 0.035831205546855927 0.010199165903031826 0.03728403151035309 0.03146040439605713 -0.04345042631030083 
0.03592945262789726 0.04662661254405975 0.01764407567679882 -0.02613779529929161 0.058887217193841934 0.02658398635685444 -0.037679243832826614 0.06462172418832779 0.011105131357908249 
0.05688192695379257 0.043430063873529434 0.05386064946651459 -0.03493460267782211 -0.05720166116952896 -0.053226880729198456 -0.030364643782377243 -0.04889243096113205 0.021397503092885017 
-0.02778947353363037 0.014045920222997665 -0.03170809522271156 0.040210872888565063 0.04601774737238884 -0.046957828104496 -0.007742311805486679 -0.055418211966753006 0.004211103543639183 
0.05615657940506935 0.053276486694812775 0.026925764977931976 0.03877725079655647 -0.024017885327339172 -0.01328270323574543 -0.039390742778778076 0.05252626910805702 0.0507335364818573 
-0.04446283355355263 0.05660074204206467 0.05310845375061035 0.029584845528006554 0.06491941958665848 -0.04954763874411583 0.0064526754431426525 -0.055790677666664124 0.06280648708343506 
0.002621618565171957 0.05776286497712135 0.017593402415513992 0.0655582994222641 -0.03030850552022457 -0.02126001939177513 0.05311281979084015 -0.05176645144820213 0.054928090423345566 
0.058103904128074646 -0.041924457997083664 0.04421220347285271 -0.034164998680353165 -0.0006211820291355252 0.019792838022112846 0.058597300201654434 -0.005050596781075001 -0.017129717394709587 
0.07669557631015778 0.04794376343488693 0.07286666333675385 -0.07109275460243225 0.04937005788087845 -0.005555181764066219 -0.0008735354640521109 -0.0306673813611269 0.06961232423782349 
0.01197085902094841 0.02637033350765705 0.03569398820400238 0.03932575136423111 -0.07227234542369843 -0.007586538791656494 0.04680319130420685 0.011778546497225761 -0.008844424970448017 
-0.035300951451063156 -0.008303169161081314 0.020662911236286163 -0.054058559238910675 0.062422316521406174 -0.012416535057127476 -0.0006058298167772591 0.0001017476970446296 0.036215320229530334 
-0.05436572805047035 0.05350266024470329 0.04071862995624542 0.01956651173532009 -0.031203731894493103 -0.06660210341215134 0.05051829293370247 -0.042563263326883316 -0.012662766501307487 
-0.03325440734624863 0.053395386785268784 0.03221863880753517 0.05844220891594887 0.0010239934781566262 -0.00695076072588563 -0.03178796172142029 -0.05494121089577675 0.06340599805116653 
0.040302544832229614 0.028180638328194618 0.014604693278670311 -0.047944676131010056 0.027633139863610268 -0.030855098739266396 0.0552927628159523 0.07591352611780167 -0.046892184764146805 
0.010779132135212421 0.0041550397872924805 -0.03580843657255173 0.0029670214280486107 -0.06356816738843918 0.05808743089437485 -0.044046346098184586 -0.03596631810069084 -0.026389818638563156 
-0.05666397139430046 0.028611965477466583 -0.0339120551943779 -0.034294918179512024 -0.061168570071458817 0.010619236156344414 0.04583375155925751 -0.0193292498588562 0.021086880937218666 
-0.010244321078062057 0.005080151837319136 0.03152401000261307 -0.023705920204520226 0.02212313935160637 -0.0058510797098279 0.059352945536375046 0.0002747173130046576 -0.05675335228443146 
0.016267765313386917 -0.009742124937474728 -0.061060987412929535 0.07159967720508575 0.011717763729393482 0.018154069781303406 -0.011060420423746109 -0.0351790189743042 -0.032179221510887146 
0.005805287044495344 -0.014505851082503796 0.006231443025171757 0.0054679070599377155 0.03918960317969322 -0.04138491302728653 -0.04537871852517128 -0.008939589373767376 0.002167162485420704 
-0.04300891235470772 0.019003311172127724 0.003292976412922144 0.0059751044027507305 -0.04577061906456947 -0.007350698579102755 0.012501516379415989 0.037519555538892746 -0.057075195014476776 
-0.027464739978313446 0.02540043368935585 -0.058160822838544846 0.031772028654813766 0.06770337373018265 -0.06319011002779007 0.013201921246945858 0.05637086555361748 -0.012145668268203735 
0.0473511703312397 -0.014176193624734879 0.028575636446475983 -0.043023549020290375 -0.055492088198661804 0.04502023383975029 -0.052718088030815125 0.006782589480280876 -0.035015810281038284 
0.023744957521557808 -0.04155325889587402 0.040234941989183426 0.024105411022901535 -0.030425135046243668 -0.0006748531595803797 -0.039537955075502396 0.012230324558913708 0.07042641937732697 
0.053424105048179626 -0.03360079601407051 0.06265393644571304 0.03410743549466133 0.059187039732933044 -0.022787246853113174 -0.04731462150812149 0.012827584519982338 -0.04180802404880524 
0.0346793606877327 -0.020558366551995277 0.032472435384988785 -0.05890769883990288 -0.038102179765701294 0.01921326294541359 0.03159688785672188 -0.015690524131059647 0.04545280337333679 
0.0667685717344284 -0.05078807473182678 -0.0072142593562603 0.041158560663461685 0.06908874213695526 -0.04958474263548851 0.07133350521326065 -0.05167717486619949 -0.04986755922436714 
-0.02229207754135132 0.0058024185709655285 -0.02293132245540619 0.05005794018507004 0.06386619806289673 0.012726573273539543 0.008536969311535358 -0.05085662752389908 -0.02792275883257389 
0.04194527491927147 -0.002785914344713092 -0.023530185222625732 -0.03364857658743858 0.0221206396818161 0.025627130642533302 -0.012353913858532906 0.04183359071612358 -0.04040835425257683 
0.04310847818851471 0.059437789022922516 -0.06695588678121567 -0.0535704605281353 -0.029551759362220764 0.018293920904397964 0.041510384529829025 0.014428308233618736 0.013825234957039356 
-0.07044880092144012 -0.06280656158924103 0.03328723832964897 0.04047422483563423 0.010269307531416416 0.03854748234152794 -0.02507617138326168 0.006547097582370043 0.020044170320034027 
0.04155651479959488 0.001799576566554606 0.04704689234495163 0.00035555908107198775 -0.043091632425785065 0.029430946335196495 0.010113749653100967 0.03551359474658966 -0.007487600669264793 
0.049201108515262604 -0.0015439739217981696 0.005697797052562237 0.012097702361643314 0.05759580805897713 -0.015975961461663246 0.04761672392487526 -0.05049512907862663 -0.0636860802769661 
-0.06577296555042267 0.04804287105798721 -0.03224760293960571 -0.0361638180911541 0.04387149587273598 -0.07314621657133102 -0.04129810631275177 0.0325753428041935 0.021529676392674446 
-0.032078683376312256 -0.007947679609060287 -0.07955228537321091 0.06944781541824341 0.051079053431749344 -0.044961098581552505 -0.027233457192778587 -0.035310231149196625 0.017413878813385963 
-0.0006783282733522356 -0.009630738757550716 0.014353610575199127 -0.04651694744825363 -0.07768622040748596 0.04020233824849129 -0.03387133777141571 0.006773538421839476 0.03178057447075844 
-0.0004111219313926995 -0.051922138780355453 0.05934109911322594 0.024663325399160385 0.06548452377319336 -0.0150199756026268 -0.050010863691568375 -0.027254199609160423 0.01370000559836626 
-0.00811842456459999 0.05686637759208679 -0.056769393384456635 0.0266873762011528 0.008372613228857517 0.0008547350880689919 -0.034384675323963165 -0.04099243879318237 0.05869545415043831 
-0.043063484132289886 0.026742272078990936 -0.06115308403968811 0.001551732886582613 0.007203246466815472 -0.017524240538477898 0.05956929177045822 -0.007598301861435175 -0.02505715936422348 
-0.03459293022751808 -0.03696724399924278 -0.05727367103099823 -0.07019585371017456 -0.02887587808072567 -0.06642607599496841 -0.044300638139247894 -0.008293808437883854 0.0648641288280487 
0.01191636361181736 -0.05644957721233368 -0.0008254819549620152 0.05139676481485367 0.01149565540254116 -0.09275694936513901 -0.03379511833190918 0.02015380933880806 -0.0489567406475544 
-0.03322209045290947 0.060813646763563156 -0.006349457427859306 -0.04585636779665947 -0.0497959740459919 -0.04456563666462898 0.019679682329297066 -0.019864052534103394 -0.051276225596666336 
-0.04715757071971893 0.03811659291386604 0.06157061457633972 0.01775607280433178 -0.005361686926335096 -0.02847711555659771 -0.03999273106455803 -0.0006588695687241852 0.051528818905353546 
0.06259048730134964 0.05921013653278351 -0.0692632645368576 0.03529224544763565 0.027472607791423798 -0.02668827585875988 -0.05913875624537468 0.04910800978541374 -0.04583948850631714 
-0.013548009097576141 -0.030894314870238304 0.05583113804459572 0.03426592797040939 -0.026191560551524162 -0.04320896416902542 -0.047951266169548035 0.0527542307972908 -0.01846059039235115 
0.016825690865516663 0.027339478954672813 0.027540583163499832 0.03860261291265488 0.006569052115082741 0.06950466334819794 0.06483909487724304 0.03897302597761154 -0.024183031171560287 
0.017913661897182465 -0.0271990317851305 -0.007016362156718969 0.015081055462360382 -0.010555789805948734 -0.07585267722606659 0.04648939147591591 0.0033708990085870028 -0.08267004042863846 
-0.03299207612872124 -0.04663301259279251 0.0021653997246176004 -0.024711783975362778 -0.0012310314923524857 -0.04659262299537659 0.012363597750663757 -0.009363028220832348 0.01661822572350502 
0.00034432238317094743 0.04631800204515457 0.06315239518880844 0.03610626608133316 -0.006729611195623875 0.013637018389999866 0.017181366682052612 0.005367638543248177 -0.025125939399003983 
-0.049661897122859955 -0.057080574333667755 0.010664219968020916 0.008296109735965729 -0.005429771728813648 -0.016046030446887016 0.051353201270103455 -0.07673371583223343 0.011396056972444057 
-0.0616568922996521 -0.03111300617456436 -0.00047195449587889016 -0.025177953764796257 -0.04385698586702347 0.025620484724640846 0.06397087126970291 -0.00851630698889494 0.016332613304257393 
-0.04827689006924629 -0.01625182293355465 -0.03483527526259422 -0.012650946155190468 0.0306392852216959 -0.012708187103271484 -0.013987574726343155 0.07175233215093613 0.032834336161613464 
0.054093874990940094 -0.01355599332600832 0.0018053357489407063 0.05542087182402611 -0.06799184530973434 -0.058427754789590836 -0.03412208706140518 -0.0499185286462307 -0.07539678364992142 
-0.02400762215256691 -0.027308616787195206 -0.05461626499891281 0.004424999002367258 0.03483176231384277 -0.019535325467586517 -0.06029931455850601 -0.026103738695383072 0.0628800019621849 
-0.010544230230152607 -5.4576248658122495e-05 -0.04885010048747063 -0.04051331430673599 0.0264301635324955 0.018715545535087585 -0.05488547682762146 0.04756961390376091 0.0015099304728209972 
0.043977223336696625 -0.017241492867469788 -0.04302890971302986 -0.017970280721783638 -0.07203499972820282 -0.034625861793756485 -0.012574722990393639 -0.05150830000638962 0.012866910547018051 
0.06265956908464432 -0.020670058205723763 0.011723374016582966 0.05764664337038994 0.051198333501815796 0.048210155218839645 0.018007483333349228 -0.06655924022197723 -0.03784925118088722 
0.021905338391661644 -0.03394518792629242 -0.009182278998196125 -0.03161849454045296 -0.06741758435964584 -0.07283736020326614 0.026319125667214394 0.05411101132631302 0.024751517921686172 
0.052032310515642166 -0.035659998655319214 0.010633443482220173 0.03392266854643822 0.04078015685081482 0.017406785860657692 -0.06702623516321182 -0.05456428602337837 0.001051811850629747 
-0.010149436071515083 -0.0017773191211745143 -0.0049914103001356125 0.06318450719118118 0.04274767264723778 -0.05739091709256172 -0.019447414204478264 -0.0461014099419117 0.013708989135921001 
0.038077160716056824 0.04018225893378258 -0.06746769696474075 -0.0036874886136502028 -0.03919323533773422 0.027494609355926514 -0.03584492206573486 -0.04779333621263504 0.048994045704603195 
0.03872479125857353 -0.03701172024011612 -0.050166208297014236 0.05331321060657501 -0.011300540529191494 -0.042142752557992935 0.04286300390958786 0.05914176627993584 0.0270304586738348 
0.028874458745121956 0.025240231305360794 -0.0033105178736150265 0.045192327350378036 -0.012706310488283634 -0.05593367666006088 0.06414814293384552 -0.018901342526078224 0.0006688483990728855 
-0.008092476986348629 -0.03513236343860626 -0.02519533783197403 0.012011819519102573 0.01627923920750618 -0.015755606815218925 -0.0346590131521225 0.0711323693394661 -0.022421138361096382 
-0.014068429358303547 -0.07991383969783783 -0.0023887446150183678 0.06595892459154129 -0.008636204525828362 -0.057876311242580414 0.033242303878068924 -0.04102412983775139 0.00019281997811049223 
-0.0415952168405056 -0.005331214517354965 -0.021906603127717972 0.033430539071559906 0.05849622189998627 -0.025864465162158012 0.009099419228732586 0.020404912531375885 -0.011020033620297909 
-0.036570895463228226 0.0535816065967083 0.028749315068125725 -0.05814526602625847 -0.008216760121285915 -0.034176506102085114 -0.048965934664011 0.04814606159925461 0.03398406133055687 
0.026011066511273384 0.059437014162540436 -0.05357440561056137 -0.01689142920076847 0.06065681576728821 0.06704131513834 0.06253615021705627 0.0446750707924366 -0.03596960008144379 
0.04497585445642471 0.027838770300149918 -0.024685095995664597 0.00961913913488388 0.06477262079715729 -0.01048158947378397 -0.06313871592283249 -0.04151877015829086 0.0009315459756180644 
-0.02687305212020874 0.06243637204170227 -0.0444335900247097 -0.03937197104096413 -0.02737400494515896 -0.05932552367448807 0.05371195450425148 -0.04936971142888069 -0.0599859319627285 
-0.0554451048374176 0.030580731108784676 -0.02346050553023815 -0.015073665417730808 -0.03970549255609512 0.061479657888412476 -0.062097758054733276 0.06569765508174896 0.04463697224855423 
0.006320019718259573 0.048896465450525284 0.03790442645549774 0.014449713751673698 0.024179557338356972 0.06013686582446098 0.05045293644070625 -0.06735046207904816 -0.04091539978981018 
-0.03728695958852768 0.013739035464823246 0.02782614715397358 -0.028978673741221428 -0.03449922800064087 -0.011041146703064442 -0.030427228659391403 -0.03025168366730213 -0.004813699517399073 
-0.006638898514211178 0.020739056169986725 -0.000344682892318815 0.008658183738589287 0.052957188338041306 0.043111879378557205 -0.0035990385804325342 -0.00972176156938076 -0.022647883743047714 
0.048470646142959595 -0.06000847741961479 0.026044487953186035 0.03301381319761276 -0.027563724666833878 -0.0035369812976568937 0.05551394075155258 -0.0005795542383566499 0.017617611214518547 
0.050679270178079605 -0.03204437717795372 0.028682494536042213 0.023913869634270668 -0.05855921283364296 -0.001880199066363275 0.05818565934896469 0.0507882796227932 0.0016263510333374143 
-0.0609675832092762 -0.055702053010463715 -0.05148503556847572 -0.01687178760766983 -0.03570538014173508 -0.011344823986291885 -0.017839277163147926 -0.015704307705163956 -0.02265852689743042 
-0.05095053091645241 -0.06396497786045074 0.020714370533823967 0.03317142650485039 0.0209684856235981 -0.018333276733756065 -0.007614829111844301 -0.06591188907623291 0.05988737568259239 
0.00895577110350132 0.06392558664083481 -0.03930934891104698 -0.024319501593708992 -0.06278068572282791 -0.05863684415817261 -0.004399111494421959 0.017138097435235977 0.06663286685943604 
-0.036402612924575806 -0.00835068617016077 -0.0029491211753338575 0.006464548408985138 -0.01194207463413477 0.035223253071308136 -0.04043620079755783 0.03319782763719559 -0.0067804851569235325 
0.00889058131724596 -0.0015468779020011425 -0.01117629837244749 0.03197304531931877 -0.014910802245140076 -0.05239354074001312 -0.01717107929289341 -0.043422818183898926 0.0015560152241960168 
-0.022977745160460472 0.006826963275671005 0.030994413420557976 0.0188213549554348 0.020853113383054733 0.020975926890969276 -0.017958011478185654 -0.01018137950450182 0.07683336734771729 
-0.038269564509391785 0.05007201433181763 -0.00756046874448657 0.027181413024663925 -0.07222868502140045 0.03796720504760742 0.056023869663476944 0.009143831208348274 -0.06063792482018471 
-0.008128011599183083 -0.02270830236375332 -0.06561155617237091 -0.015820806846022606 0.042446184903383255 -0.0016068154945969582 0.033221010118722916 0.054713357239961624 0.05895169824361801 
-0.032950740307569504 0.027803871780633926 -0.030252138152718544 0.008722998201847076 -0.02175893634557724 -0.011058256961405277 0.06617298722267151 -0.002914886688813567 -0.03605697676539421 
-0.04384492710232735 -0.04424534738063812 0.04503843933343887 0.014348151162266731 -0.033629849553108215 0.003988383337855339 0.07339294254779816 -0.02000877633690834 0.01806413196027279 
0.056180790066719055 -0.010326639749109745 -0.011317265219986439 -0.06373091042041779 -0.016876056790351868 0.026428567245602608 -0.0005333705921657383 -0.0058225360698997974 -0.003271108493208885 
0.046500314027071 0.012817845679819584 -0.05333195626735687 -0.05374516174197197 -0.0337538868188858 -0.05818647891283035 -0.026682507246732712 0.05647546425461769 -0.03677292913198471 
0.021896665915846825 0.04939638823270798 -0.03168691694736481 0.005167069844901562 0.03800435736775398 0.08138436824083328 -0.05639496073126793 -0.052205219864845276 0.02595827914774418 
-0.054284486919641495 0.0381656177341938 -0.052990153431892395 -0.04568830505013466 0.009316720068454742 -0.06925149261951447 0.05226617678999901 -0.04527197405695915 -0.06443071365356445 
-0.012325442396104336 -0.01947695203125477 0.013616438023746014 -0.027889855206012726 0.02987084724009037 0.03128005936741829 -0.008518725633621216 -0.06806384027004242 -0.039067454636096954 
-0.05911196768283844 0.0442119725048542 -0.006168714724481106 0.0689331516623497 -0.07293765991926193 -0.059313707053661346 -0.019353747367858887 0.011061974801123142 -0.0499674491584301 
0.03201451152563095 0.016934165731072426 -0.055492378771305084 -0.019123105332255363 0.0485367551445961 0.02520458586513996 0.013203420676290989 0.02794819138944149 -0.027687806636095047 
-0.03280773013830185 0.044581085443496704 0.024633239954710007 -0.0471271350979805 0.04555009305477142 0.02936406247317791 0.043821223080158234 -0.0304692555218935 0.007110000587999821 
0.06413603574037552 0.01355228666216135 -0.03094475157558918 -0.038308285176754 -0.04412723332643509 0.005805107764899731 -0.024603677913546562 -0.0418916679918766 0.015330447815358639 
0.05338045582175255 -0.058207977563142776 -0.02922808565199375 0.050374507904052734 -0.015147426165640354 -0.04505075886845589 0.04792633280158043 0.05490979179739952 0.005901689641177654 
-0.0705266073346138 0.008258406072854996 -0.004120757337659597 -0.08166441321372986 -0.04452263191342354 -0.03737473487854004 -0.02174568735063076 0.01794653758406639 -0.05263841524720192 
-0.024153340607881546 0.008358804509043694 0.07007398456335068 0.008677108213305473 -0.05986778438091278 0.04718051478266716 0.048738233745098114 -0.026714881882071495 -0.02002101205289364 
-0.006971923168748617 0.054528988897800446 -0.009780141524970531 0.044631775468587875 -0.0025091504212468863 -0.01121719554066658 -0.05743247643113136 -0.003142483765259385 0.04333849251270294 
-0.04313799366354942 0.04282866045832634 0.041672125458717346 -0.03568526357412338 0.05834661051630974 -0.043953388929367065 -0.0623258613049984 -0.04860119894146919 -0.035684309899806976 
-0.05057186633348465 -0.03341469541192055 0.03909647837281227 0.028032425791025162 -0.016059067100286484 -0.056939877569675446 0.01079499814659357 -0.018255364149808884 0.053253091871738434 
0.024167655035853386 0.030164508149027824 0.003757983213290572 -0.018084893003106117 -0.03584069386124611 0.06413502991199493 -0.058459263294935226 -0.022737642750144005 0.02176595665514469 
-0.060466885566711426 0.04869437217712402 0.040628619492053986 -0.047392889857292175 -0.06299903988838196 -0.03632918372750282 -0.036300938576459885 -0.045381009578704834 -0.04386741295456886 
-0.010949104093015194 0.037235211580991745 -0.03719348460435867 -0.0035118763335049152 -0.027231212705373764 -0.032188937067985535 -0.029821498319506645 0.030519668012857437 0.0284016951918602 
-0.057259198278188705 0.07052933424711227 -0.003790915245190263 -0.03902183845639229 0.047918230295181274 0.03720848262310028 -0.0146094411611557 -0.0468619167804718 0.07213463634252548 
-0.07071530818939209 -0.07428321242332458 0.026709919795393944 0.02569037303328514 -0.014448977075517178 -0.012573212385177612 0.04348229244351387 0.059546858072280884 0.047794606536626816 
0.007145717740058899 0.03393316641449928 -0.015987902879714966 0.05509050562977791 -0.03331549093127251 -0.05847308412194252 -0.052754420787096024 0.0007990838494151831 0.06273231655359268 
-0.021236468106508255 0.026433922350406647 0.02950943447649479 0.038918815553188324 -0.012858468107879162 0.04040775075554848 -0.030026918277144432 -0.001501930644735694 -0.06181897968053818 
0.048245061188936234 0.006954415235668421 -0.04079229012131691 -0.04470577463507652 0.06512925773859024 0.05052121356129646 0.005444165784865618 -0.03454776108264923 0.013186153024435043 
0.03992162644863129 0.05232042446732521 0.012370548211038113 0.013044200837612152 -0.0030017236713320017 0.03720572963356972 -0.02814885787665844 0.006393284071236849 -0.03266725316643715 
-0.022042784839868546 -0.028053583577275276 0.028348686173558235 -0.03609095886349678 0.04386475682258606 -0.02274673618376255 -0.020638588815927505 0.05674108862876892 0.058341626077890396 
-0.01917542703449726 0.011462653055787086 0.06219864264130592 0.010615816339850426 -0.021357757970690727 0.07281865179538727 -0.00024127363576553762 -0.05140179395675659 0.021742425858974457 
-0.006077384110540152 -0.015504581853747368 -0.01731407642364502 0.0357038639485836 -0.01796523481607437 -0.0360872745513916 -0.04732431843876839 -0.024798013269901276 -0.003800136037170887 
-0.02447769045829773 -0.04964723065495491 0.048511069267988205 0.0006729203159920871 -0.06426101177930832 -0.021315600723028183 0.033616937696933746 -0.05553388223052025 -0.006827056873589754 
-0.047930650413036346 0.03869180381298065 0.04798152670264244 0.05959663540124893 -0.005422904156148434 0.035105396062135696 0.04964939132332802 0.05448510870337486 -0.03760548681020737 
-0.07071612030267715 -0.070424884557724 0.025874795392155647 -0.025233561173081398 0.04815796762704849 -0.020751159638166428 0.047388866543769836 -0.039925578981637955 0.056705042719841 
0.025960877537727356 -0.045155979692935944 0.057201169431209564 -0.06505798548460007 0.05715087801218033 -0.06216264143586159 0.0659603402018547 -0.034097228199243546 0.047729793936014175 
-0.01186071801930666 0.03762582316994667 -0.04092416539788246 0.016934305429458618 -0.0717962384223938 0.019949471578001976 0.006270248908549547 -0.0055376808159053326 0.05802054703235626 
-0.019100463017821312 0.0286262147128582 0.06726551800966263 -0.05339102819561958 -0.030613599345088005 0.0561821386218071 -0.014266053214669228 0.03574453666806221 -0.014343220740556717 
-0.00437456090003252 -0.022803211584687233 -0.07080461829900742 -0.012883384712040424 0.0020374285522848368 -0.03385617956519127 0.020947232842445374 0.04406708478927612 -0.0635872408747673 
0.011722037568688393 0.06261719763278961 0.015551840886473656 0.025818370282649994 -0.04450961574912071 0.030003173276782036 0.04283718764781952 -0.019041264429688454 -0.06291960924863815 
-0.004222567193210125 -0.05960962921380997 0.03376667574048042 0.07096067070960999 -0.03070692904293537 0.05715877190232277 0.05392551049590111 0.018649060279130936 -0.03297970071434975 
0.04834279045462608 0.05509370192885399 -0.02589341253042221 -0.03977415710687637 0.0013006358640268445 -0.04920079559087753 -0.01620466820895672 0.01599682867527008 -0.016985436901450157 
0.026953838765621185 -0.015330551192164421 -0.06240106001496315 0.007473205681890249 0.056781377643346786 0.05289415270090103 0.05679120868444443 0.04710334539413452 0.04377655312418938 
0.03352498635649681 0.06758389621973038 -0.0006889909273013473 0.07249478995800018 -0.03355008736252785 -0.03417202830314636 0.06968174129724503 -0.0492304228246212 0.015842745080590248 
-0.049543678760528564 -0.013371252454817295 0.0607144869863987 -0.012844451703131199 0.06350119411945343 -0.03134575113654137 0.041582245379686356 0.0032437739428132772 -0.05786396563053131 
-0.04611020162701607 0.05906824767589569 -0.0574936717748642 -0.04260670393705368 0.06285293400287628 0.023258555680513382 -0.01834416575729847 -0.04837963357567787 -0.05127137526869774 
0.012383288703858852 -0.004723336081951857 0.063115693628788 0.07210389524698257 0.030107848346233368 0.0017610568320378661 -0.0010421187616884708 -0.027225976809859276 -0.06079932302236557 
-0.052680883556604385 -0.0486600361764431 0.032395459711551666 -0.0017738427268341184 -0.05989411473274231 -0.0525411032140255 0.005995059851557016 0.05766252428293228 0.0006751404725946486 
0.031615402549505234 -0.04204430803656578 -0.01854478381574154 0.02361629344522953 -0.004227780271321535 -0.007702644914388657 -0.03820936754345894 0.03461073711514473 0.016733990982174873 
-0.019076498225331306 -0.06682966649532318 -0.006430951878428459 0.06657737493515015 -0.007068817038089037 0.04660092666745186 0.04484419524669647 -0.015287792310118675 -0.05712501332163811 
0.0500846803188324 -0.04670236259698868 -0.035071734338998795 0.005733695812523365 0.005521521903574467 -0.0016844605561345816 0.043807949870824814 -0.032883502542972565 0.01836777850985527 
-0.060290683060884476 0.041083924472332 0.05836264416575432 0.009005101397633553 0.05104467645287514 0.04223567619919777 0.05549319088459015 0.021843833848834038 -0.012105884961783886 
0.003992053680121899 0.011715584434568882 0.05676788464188576 0.018990447744727135 -0.020562419667840004 0.024897336959838867 -0.03316805511713028 -0.043581523001194 -0.0197055134922266 
-0.007100764662027359 -0.0209139846265316 -0.04962773993611336 0.05484111234545708 -0.045306868851184845 0.026867425069212914 -0.05640792474150658 0.04948659613728523 0.0193782988935709 
0.023681631311774254 -0.0424673967063427 0.017765186727046967 0.01804562844336033 0.056743208318948746 -0.027129177004098892 0.005224050022661686 -0.020290885120630264 -0.04272937774658203 
0.014316576533019543 -0.03958466276526451 0.03333500400185585 -0.07256893813610077 0.03727889806032181 0.07420335710048676 0.06255947798490524 0.01390140876173973 0.0013109386200085282 
-0.0371423214673996 0.05925874784588814 -0.04662366211414337 0.048642322421073914 -0.058335334062576294 0.012989640235900879 -0.026224873960018158 -0.009139884263277054 0.00963644776493311 
-0.05757619068026543 -0.012476157397031784 -0.06042906269431114 0.04868795722723007 0.020655661821365356 -0.04473602771759033 0.015173537656664848 -0.08015873283147812 -0.07066991180181503 
0.048233307898044586 -0.0005612483364529908 0.04328965023159981 -0.04116087406873703 -0.061782948672771454 0.029476210474967957 -0.0023703824263066053 -0.040075451135635376 -0.024161580950021744 
0.004697360098361969 -0.05620642751455307 -0.021185623481869698 0.05764998123049736 -0.06713752448558807 0.004786584060639143 -0.04208827018737793 -0.01843809336423874 -0.060266755521297455 
0.032126571983098984 -0.060585878789424896 -0.028301523998379707 -0.04796058312058449 -0.029568355530500412 0.012265518307685852 0.03952156752347946 -0.03148976340889931 -0.015598169527947903 
0.028413141146302223 0.03112631104886532 0.02125115506350994 -0.021296963095664978 -0.05533835291862488 0.06569786369800568 0.054331451654434204 -0.0558345802128315 0.061702415347099304 
-0.030383173376321793 -0.054567188024520874 -0.033845797181129456 -0.05876493081450462 0.031284160912036896 -0.043029509484767914 0.04131088778376579 -0.001658152206800878 0.042660512030124664 
-0.005356297362595797 -0.04987476393580437 -0.021575061604380608 0.048216380178928375 -0.00424836715683341 -0.040687281638383865 -0.029245788231492043 -0.02784251607954502 -0.00021594137069769204 
0.012342821806669235 -0.016790419816970825 -0.029541384428739548 0.05271412804722786 0.05481106415390968 0.047570325434207916 0.02662944793701172 -0.002628225600346923 0.05847201123833656 
0.04573113098740578 -0.008271838538348675 0.035208724439144135 -0.05043254420161247 0.010935749858617783 0.006429736502468586 -0.07247176021337509 0.03591524064540863 0.05851214379072189 
0.03328830003738403 -0.0028658618684858084 -0.005323230288922787 0.036104220896959305 0.026105530560016632 0.01747247762978077 0.027680344879627228 -0.04374108836054802 -0.021640818566083908 
-0.03311174362897873 -0.026226012036204338 -0.006973307114094496 0.033982038497924805 -0.045741964131593704 -0.02866745926439762 -0.05425513908267021 -0.01647374778985977 -0.04436398297548294 
0.03576399013400078 0.06033595651388168 0.02807753160595894 0.020028425380587578 0.03514907881617546 -0.025618648156523705 0.020285213366150856 0.08062868565320969 -0.06155182793736458 
-0.059882067143917084 0.0001776891585905105 0.0676364153623581 -0.03465936705470085 0.029956264421343803 0.01771918311715126 0.06512489169836044 -0.033985015004873276 -0.054997578263282776 
0.020263006910681725 -0.03453720360994339 0.01110713928937912 -0.019045254215598106 0.048741672188043594 0.007577102165669203 -0.007474980317056179 -0.030275315046310425 0.011930775828659534 
-0.0033293552696704865 0.039329737424850464 -0.04310484975576401 0.017754659056663513 0.01673131249845028 -0.0501398965716362 0.01056872121989727 -0.006735322996973991 -0.025150546804070473 
-0.03639620542526245 -0.06396620720624924 0.03498468175530434 0.05647845193743706 0.07171531766653061 0.0019702331628650427 0.08761708438396454 0.04153623431921005 -0.03927680477499962 
-0.027133280411362648 0.006027097348123789 0.058874890208244324 0.0637851357460022 -0.010209696367383003 0.04395483434200287 -0.04487110674381256 0.01642194762825966 0.055168017745018005 
0.023258859291672707 -0.0470435656607151 0.03752949461340904 0.04662292078137398 -0.054448239505290985 0.013994572684168816 -0.04052062705159187 -0.0607052706182003 0.047884147614240646 
0.04769076034426689 -0.006427791900932789 -0.05613868311047554 -0.06289974600076675 0.052253544330596924 -0.008978894911706448 0.06637406349182129 0.07713859528303146 0.03112873248755932 
-0.035064227879047394 0.022368595004081726 -0.05050003528594971 -0.06161721050739288 0.06584962457418442 -0.047989729791879654 0.03242581710219383 -0.035564668476581573 -0.027200160548090935 
0.0029694712720811367 0.0017004659166559577 0.01716400496661663 0.052215829491615295 -0.04159851744771004 0.038689907640218735 -0.007265201769769192 0.01573394238948822 0.009619293734431267 
0.044494014233350754 -0.06977095454931259 -0.01333444844931364 0.005436468403786421 -0.06330441683530807 -0.03557303920388222 -0.019243581220507622 -0.04689950868487358 -0.06483133882284164 
0.053646206855773926 -0.008452598005533218 -0.00362291163764894 -0.060867827385663986 0.04698505997657776 0.015403748489916325 -0.04524603858590126 -0.0054898555390536785 0.009640539065003395 
0.018533583730459213 -0.035889945924282074 0.020566243678331375 0.057250939309597015 -0.02667575515806675 -0.03591631352901459 0.0020918368827551603 0.03783984109759331 -0.050053149461746216 
-0.03688172250986099 -0.03617408499121666 0.015870878472924232 0.059207260608673096 -0.05422460660338402 0.04102082550525665 0.03892720118165016 -0.036138612776994705 0.055888619273900986 
0.03524772822856903 0.0495990589261055 -0.04967089742422104 -0.021937455981969833 -0.007341418415307999 0.055737726390361786 0.06273153424263 0.03872913122177124 0.03637026995420456 
-0.03309926763176918 0.002411006484180689 0.06557834893465042 0.0031376497354358435 -0.04807711020112038 0.018292125314474106 -0.04594626650214195 0.055906884372234344 -0.026899024844169617 
-0.06321648508310318 1.0954887557090842e-06 0.016790421679615974 -0.04795513674616814 -0.02363011986017227 -0.03274614363908768 -0.04213835671544075 0.0034160432405769825 0.016672605648636818 
-0.06674957275390625 -0.057193025946617126 0.03267689794301987 0.013006569817662239 0.06639514118432999 -0.048400815576314926 -0.010306288488209248 -0.023692572489380836 -0.013772455044090748 
0.03375838324427605 -0.04592842608690262 -0.06896940618753433 0.016086146235466003 0.02204417623579502 -0.05834197625517845 0.040180888026952744 0.05534404516220093 0.011792243458330631 
0.05262111872434616 0.05458812415599823 0.0513419471681118 -0.025194918736815453 -0.004740404896438122 -0.03404836356639862 0.04781836271286011 -0.06085911765694618 0.017281504347920418 
0.06109215319156647 0.04290864244103432 0.024427449330687523 0.0165528804063797 -0.014882794581353664 -0.010357239283621311 -0.052155300974845886 0.0014693044358864427 0.04693996161222458 
0.007792607415467501 0.013395973481237888 0.00882059894502163 0.025648655369877815 -0.011058666743338108 0.02144327387213707 0.025919554755091667 -0.0030416755471378565 0.012174228206276894 
-0.061128322035074234 0.049717869609594345 0.001247085747309029 0.04590531438589096 0.05232784524559975 -0.01939450576901436 -0.01564265415072441 0.03854605183005333 0.020270822569727898 
0.043659791350364685 0.06287704408168793 -0.013884487561881542 0.024926211684942245 -0.06408171355724335 -0.007634125184267759 -0.00541426008567214 -0.04388594254851341 -0.007509813643991947 
-0.02549244463443756 -0.06148058921098709 0.02214151620864868 -0.0633939802646637 -0.017952656373381615 -0.05831405520439148 -0.008983243256807327 -0.009700660593807697 -0.059483181685209274 
0.02112065628170967 -0.049536723643541336 0.0011645923368632793 0.04611225426197052 0.013836556114256382 0.05281060189008713 0.03731785714626312 0.03854071721434593 0.05552525818347931 
-0.06527753919363022 0.04174404963850975 -0.06278937309980392 0.042894259095191956 -0.03458248823881149 0.02733883075416088 0.01986200548708439 0.05017513036727905 0.005844233091920614 
0.03632098063826561 0.021711915731430054 -0.024031657725572586 -0.015978394076228142 0.04399259388446808 -0.025243466719985008 0.058312635868787766 0.04097742214798927 -0.04267525300383568 
0.06721890717744827 0.0626436173915863 -0.029036708176136017 -0.0528176985681057 0.053927697241306305 0.040215712040662766 0.046407196670770645 -0.025430338457226753 0.019926223903894424 
-0.0011166788171976805 -0.009172986261546612 -0.041205719113349915 0.03620925173163414 0.07222900539636612 -0.06283975392580032 0.035104647278785706 0.04314757511019707 0.03363634645938873 
0.010492946952581406 -0.05116625875234604 -0.06915593147277832 0.023857127875089645 0.021398276090621948 0.023922955617308617 0.070711649954319 -0.0577373243868351 0.04788605123758316 
-0.024212298914790154 -0.004383929539471865 -0.01990913785994053 0.03440815955400467 -0.041133541613817215 0.026235267519950867 0.0575048066675663 0.047121040523052216 -0.021652396768331528 
-0.0446460023522377 -0.011165894567966461 0.0033861815463751554 -0.014019337482750416 0.047969114035367966 -0.024070169776678085 0.000944951199926436 -0.012173118069767952 -0.05159914866089821 
-0.06598208099603653 0.05364006385207176 -0.05243717506527901 0.01202582661062479 0.005909470375627279 0.0038611935451626778 -0.003096095286309719 0.038469552993774414 -0.008298689499497414 
-0.04663132131099701 0.0071847219951450825 0.007038246840238571 -0.03681257739663124 0.05111754685640335 -0.024062108248472214 0.06417237222194672 -0.04352317377924919 -0.013349559158086777 
-0.023616624996066093 0.0022717956453561783 0.03499825298786163 -0.059763044118881226 -0.022132160142064095 -0.008816855028271675 0.059297576546669006 0.006335111800581217 0.05452781170606613 
-0.013394290581345558 -0.051422372460365295 0.05132359638810158 0.05172662436962128 0.026482466608285904 0.016211915761232376 -0.044858939945697784 0.06290125101804733 -0.06628753989934921 
-0.06296256929636002 0.002307882532477379 0.0360906645655632 -0.025414591655135155 -0.05391133949160576 -0.005241848528385162 0.009418530389666557 0.06544939428567886 0.022304998710751534 
-0.05452404543757439 -0.022295307368040085 0.037617772817611694 0.019542237743735313 0.03209798410534859 0.010426756925880909 -0.010409427806735039 -0.06960482895374298 -0.038308680057525635 
0.030170561745762825 -0.003322269767522812 -0.06793524324893951 0.0465959794819355 0.020013146102428436 -0.0556873083114624 0.06684760004281998 -0.012457432225346565 0.02627480775117874 
0.056214116513729095 -0.014755016192793846 -0.02420816197991371 -0.03106602281332016 0.02374139241874218 0.053692836314439774 0.005864408798515797 -0.012533779256045818 -0.009055575355887413 
-0.0008885193965397775 0.04722447320818901 -0.04549160227179527 0.012030196376144886 -0.06438235938549042 -0.009368624538183212 0.03525025397539139 -0.012677417136728764 -0.05057064816355705 
-0.06643887609243393 0.03400341793894768 -0.023975297808647156 0.009483285248279572 0.03489585965871811 -0.024318421259522438 0.017117459326982498 0.04156872257590294 0.05486844480037689 
-0.0446883887052536 0.010866709984838963 0.0790356770157814 -0.051463350653648376 -0.04202992096543312 -0.0349799245595932 -0.04123338311910629 -0.06585821509361267 0.07940018177032471 
-0.04534168913960457 0.023969214409589767 0.006229591555893421 0.04711201414465904 0.05137787014245987 -0.02973305992782116 0.04751744493842125 -0.037668853998184204 -0.02996732108294964 
0.010520050302147865 -0.0683363676071167 -0.024628030136227608 0.024330325424671173 0.04821324348449707 -0.04199231043457985 -0.01151086576282978 -0.04132213816046715 -0.03181801363825798 
0.029305553063750267 0.013586166314780712 -0.04674956202507019 -0.007207340560853481 0.018361665308475494 -0.04299241304397583 0.03226019814610481 -0.05478046461939812 -0.030152661725878716 
0.022170236334204674 -0.06006615608930588 -0.03319162130355835 0.026590796187520027 -0.06504718214273453 0.017593413591384888 -0.058457985520362854 0.024680353701114655 0.01834128051996231 
0.0699053406715393 -0.06184227019548416 0.01752149686217308 -0.06316612660884857 0.03910241648554802 0.028843795880675316 0.018979255110025406 0.03542855754494667 0.05440618842840195 
0.07007773965597153 0.07261522114276886 0.04051490128040314 -0.015863878652453423 -0.03577382117509842 0.008090360090136528 0.020213533192873 0.04951369762420654 -0.03160242363810539 
-0.03970026224851608 -0.05235299468040466 -0.05507057160139084 0.05708259716629982 0.011723280884325504 0.006461692042648792 -0.05462411046028137 0.002110534580424428 0.04491925239562988 
0.014068517833948135 0.06369683891534805 -0.014660758897662163 0.020344404503703117 0.0268428772687912 -0.03564585745334625 -0.01656375266611576 0.015158736146986485 0.03386242687702179 
0.009619989432394505 -0.01889607682824135 0.015267501585185528 -0.044883571565151215 -0.03234926238656044 -0.03722558915615082 -0.03557194396853447 -0.05761627107858658 -0.0374123714864254 
-0.06437911093235016 0.043000031262636185 0.04752190411090851 -0.025969836860895157 0.03690873086452484 0.048880670219659805 0.07366445660591125 -0.037305284291505814 -0.024947214871644974 
0.018196076154708862 0.03523344174027443 -0.034526921808719635 0.05674848333001137 -0.011112461797893047 0.04320358857512474 -0.030137887224555016 0.031734682619571686 -0.016566000878810883 
-0.08571275323629379 -0.007993602193892002 -0.09703028202056885 -0.0537593737244606 -0.0207056924700737 -0.04287531599402428 0.06485254317522049 -0.024528536945581436 -0.0655379593372345 
0.056691430509090424 -0.049608513712882996 -0.004086445085704327 -0.0033024903386831284 -0.009562872350215912 0.015492814593017101 0.05853290855884552 -0.02459881082177162 0.04334164038300514 
0.03561299666762352 0.042961835861206055 -0.05135965719819069 0.05898059159517288 -0.05074624344706535 0.03566587343811989 -0.04808623716235161 -0.05426995828747749 -0.00787717942148447 
0.039842281490564346 0.04385264590382576 0.06252522766590118 -0.03087744303047657 0.007565251551568508 -0.05800091102719307 0.002141001634299755 -0.06182364746928215 -0.07133840024471283 
0.0034546677488833666 -0.02425457537174225 -0.05190964415669441 -0.03949085995554924 -0.050424378365278244 -0.014968656934797764 0.0316384918987751 0.016178635880351067 0.019702386111021042 
0.08082091063261032 0.09235241264104843 -0.014217287302017212 -0.031167645007371902 -0.004757176153361797 0.0007392567349597812 -0.06696414947509766 0.01981389708817005 -0.013655003160238266 
-0.015164252370595932 0.028921304270625114 0.05837685987353325 -0.0685863047838211 -0.05416090413928032 0.04583350569009781 -0.046380676329135895 -0.04099128767848015 -0.03946268558502197 
0.055043093860149384 -0.03403710946440697 -0.025514867156744003 0.01670142263174057 -0.08723624050617218 -0.06239147484302521 -0.05602443218231201 -0.012356406077742577 0.0006997841992415488 
0.05063790827989578 0.02406405843794346 0.0334756001830101 0.021072400733828545 0.029211733490228653 -0.03934865444898605 -0.07162005454301834 -0.057945333421230316 0.02677144855260849 
-0.06043143942952156 0.06425432860851288 0.04959261044859886 0.02924087457358837 0.06119569018483162 -0.04238966852426529 0.05573967099189758 0.04640625789761543 0.04053729027509689 
0.01862877421081066 0.06657736003398895 -0.0007940760115161538 0.004959281533956528 -0.05488390475511551 0.008141874335706234 -0.040768228471279144 -0.025211531668901443 0.04386724531650543 
-0.04371919482946396 -0.034704871475696564 -0.06958925724029541 -0.03968244045972824 0.025505123659968376 0.021375242620706558 0.02224430814385414 -0.02494107186794281 0.062241554260253906 
0.03290819749236107 -0.022398773580789566 -0.01812635362148285 0.10403605550527573 0.038952019065618515 -0.029037639498710632 0.014930150471627712 -0.0003312068583909422 0.011417221277952194 
-0.009811628609895706 -0.032724685966968536 -0.012241143733263016 -0.07261989265680313 -0.05123233422636986 -0.07025210559368134 0.0034002207685261965 -0.047136444598436356 -0.06594222038984299 
-0.0038167790044099092 -0.02087436430156231 -0.043079111725091934 -0.0214341152459383 -0.01924394629895687 0.04589306190609932 0.006690181326121092 -0.04471968486905098 0.004623770713806152 
-0.020095983520150185 0.01679551601409912 -0.04665924981236458 0.008651199750602245 -0.023751715198159218 -0.01632968708872795 0.04072067514061928 -0.04847042262554169 -0.027824642136693 
0.03603661432862282 -0.009279266931116581 0.0634460300207138 -0.008720428682863712 -0.012346291914582253 -0.042576733976602554 -0.011840748600661755 -0.013573131524026394 0.012806858867406845 
0.06421434879302979 0.0025413953699171543 0.048234835267066956 -0.008653710596263409 0.030170094221830368 0.024285925552248955 -0.009439561516046524 -0.07470814883708954 1.0643994755810127e-05 
-0.02680995501577854 0.044052693992853165 -0.011607324704527855 -0.014793967828154564 0.0734650120139122 -0.002047067740932107 0.054147955030202866 -0.014573217369616032 -0.026400277391076088 
-0.08512946218252182 -0.006497889291495085 -0.003271794645115733 0.021827716380357742 0.03930215165019035 -0.0013309901114553213 0.010036857798695564 0.009959745220839977 0.05621093511581421 
-0.06445399671792984 0.016247060149908066 -0.013256477192044258 -0.03845955803990364 0.07805316895246506 0.06134404242038727 -0.040765777230262756 0.02221006341278553 -0.029904566705226898 
-0.009801888838410378 -0.04467444494366646 -0.023359764367341995 -0.09179461002349854 -0.09481851011514664 0.008372168987989426 0.0060511366464197636 -0.09085732698440552 -0.062086328864097595 
-0.020289385691285133 -0.04469653218984604 -0.026364149525761604 0.04189516231417656 0.009747736155986786 0.03624330833554268 -0.03774324804544449 -0.028280742466449738 -0.02557181380689144 
0.019966650754213333 0.058141306042671204 0.03865349292755127 0.005460415501147509 0.00815182738006115 0.005388932768255472 -0.04220164939761162 -0.03359342738986015 0.03761913254857063 
-0.04546426236629486 -0.008845417760312557 0.04474838823080063 0.006415340583771467 0.0694572925567627 0.0033646055962890387 -0.039514895528554916 -0.019747823476791382 -0.012449516914784908 
0.02021639235317707 0.006075952667742968 0.035247575491666794 0.05310547351837158 0.06198911741375923 -0.06300332397222519 0.04946142062544823 -0.02693338319659233 -0.018329741433262825 
-0.0320785790681839 -0.01691979356110096 -0.05010368674993515 -0.06326153129339218 0.05743194371461868 -0.049576129764318466 -0.03035731241106987 -0.023441031575202942 0.05570695549249649 
-0.04866117611527443 -0.055383458733558655 -0.035352762788534164 0.05269710347056389 -0.013234655372798443 0.0007424564100801945 0.0054453276097774506 0.07063638418912888 0.01057173777371645 
-0.019096557050943375 0.005244823172688484 -0.03384632244706154 0.012608225457370281 0.006511639337986708 -0.06157093122601509 -0.029704075306653976 0.03291235491633415 0.08058657497167587 
-0.05267293378710747 -0.06483273953199387 -0.002061166800558567 -0.05816508084535599 0.007137691136449575 -0.034046076238155365 0.022347262129187584 0.03135398402810097 -0.038066666573286057 
0.010109949856996536 0.027831368148326874 0.05770553648471832 -0.02030807174742222 -0.01616445742547512 0.06014139577746391 -0.033657971769571304 0.04136979952454567 -0.004129735752940178 
-0.02396135963499546 0.038815997540950775 0.0414431169629097 -0.014642833732068539 0.011416727676987648 0.044178467243909836 -0.02603236213326454 -0.050592076033353806 -0.03815905749797821 
-0.008526694029569626 0.004969234112650156 -0.06173447519540787 0.058318544179201126 -0.01520136184990406 -0.029925214126706123 0.013577197678387165 -0.0055970498360693455 0.04280576482415199 
-0.03686125576496124 0.00822805892676115 -0.009848050773143768 0.04080983251333237 0.05061058700084686 -0.011895257979631424 -0.0001464695087634027 0.057485856115818024 -0.018077915534377098 
-0.035343803465366364 -0.03642125055193901 0.0383199118077755 0.05033278837800026 -0.031749386340379715 0.058485012501478195 -0.0008078627870418131 0.018972808495163918 -0.044291380792856216 
0.05948883295059204 0.06674095243215561 -0.011509252712130547 0.0363866426050663 -0.06329157948493958 -0.04705100506544113 -0.04765073582530022 0.051762353628873825 0.02534809708595276 
-0.006762082222849131 -0.035641640424728394 0.015793180093169212 0.058938540518283844 0.06310143321752548 0.040474776178598404 -0.03697614744305611 -0.04277105629444122 -0.009331081993877888 
-0.02161596342921257 0.05948096886277199 -0.0019096300238743424 0.05224894732236862 -0.04758467897772789 -0.03504664823412895 -0.015318016521632671 0.04760599136352539 -0.07434521615505219 
-0.0009075329289771616 0.0006974471034482121 0.021283036097884178 -0.0027774774935096502 0.03686228767037392 -0.018953943625092506 0.004623226821422577 0.02307218313217163 -0.06050123646855354 
-0.026135005056858063 0.040468163788318634 -0.06094710901379585 0.0690855011343956 -0.03848711773753166 0.009974987246096134 0.018718896433711052 0.07487271726131439 0.033049918711185455 
0.03780893608927727 -0.03264118731021881 -0.03542129322886467 0.007867193780839443 -0.03938234969973564 -0.05150131508708 -0.051121462136507034 -0.053955186158418655 -0.02624681405723095 
0.06369614601135254 -0.01583053357899189 0.024410266429185867 -0.04357315972447395 0.03692904859781265 -0.026349958032369614 0.06268677115440369 -0.05210573226213455 0.03766150772571564 
-0.03916434571146965 0.05695667117834091 -0.0414537638425827 0.011507176794111729 0.010433477349579334 -0.00545115303248167 0.04311787709593773 0.01749296300113201 -0.06757612526416779 
0.045840244740247726 0.05668771266937256 0.057293850928545 -0.0645255520939827 0.038321804255247116 0.03311172500252724 -0.059478551149368286 -0.0640425756573677 0.0008713644347153604 
0.03961249440908432 -0.036663513630628586 0.04516055807471275 -0.05510074272751808 -0.0013964574318379164 -0.042135193943977356 -0.05524129047989845 -0.06553675979375839 -0.06359792500734329 
-0.020088233053684235 -0.08184380829334259 -0.06503027677536011 0.04840879142284393 0.022753072902560234 0.019495466724038124 0.04630813002586365 0.02652299962937832 0.04133768379688263 
0.045031242072582245 -0.041595615446567535 0.02613166905939579 0.06828799843788147 0.031309884041547775 0.04929458722472191 0.029762228950858116 0.07140400260686874 0.046707503497600555 
0.050100136548280716 0.030114145949482918 -0.04488401859998703 -0.011934810318052769 -0.019121233373880386 -0.02188524417579174 -0.024549301713705063 -0.024260399863123894 -0.07762032747268677 
-0.029819827526807785 0.03262685239315033 0.04672464728355408 -0.05249045416712761 0.044144291430711746 0.020459787920117378 0.05244195833802223 -0.0528450533747673 -0.016742128878831863 
0.02613585814833641 -0.00048654008423909545 0.012758214958012104 0.023067399859428406 -0.0546485111117363 0.00515610259026289 -0.050773728638887405 -0.05815974622964859 0.02687310054898262 
0.05386693403124809 -0.02765539474785328 0.017509402707219124 -0.05010778456926346 -0.048366524279117584 0.01367765199393034 -0.023205958306789398 -0.03550103306770325 -0.03874833136796951 
0.037810225039720535 0.008294157683849335 0.056166794151067734 0.05796464905142784 -0.06723125278949738 -0.016853993758559227 -0.029471492394804955 -0.0628814697265625 -0.04111414775252342 
-0.03122393600642681 0.03833695128560066 -0.024772794917225838 0.032938431948423386 0.06847275793552399 -0.003539675148203969 -0.05655398219823837 0.034725435078144073 0.04692903161048889 
0.03077078051865101 0.060136277228593826 -0.014376516453921795 0.020634213462471962 0.014495804905891418 0.0653587058186531 -0.053009673953056335 -0.03466755896806717 -0.053495075553655624 
-0.012839349918067455 -0.03173727169632912 0.0637437254190445 0.007314326241612434 -0.008704563602805138 0.0661468580365181 0.02067679725587368 -0.04829131439328194 0.049931325018405914 
0.04786095768213272 0.05327316373586655 0.05333421379327774 0.02351371757686138 -0.00807363260537386 -0.046898253262043 0.046957988291978836 -0.01270993147045374 0.04631494730710983 
-0.06504681706428528 0.06481805443763733 -0.05438659340143204 -0.06085414066910744 -0.05009292811155319 0.010382541455328465 0.0540960319340229 0.048035237938165665 0.044977299869060516 
0.04608440026640892 0.010767743922770023 -0.020628444850444794 -0.04269104078412056 0.04259199649095535 -0.04703986644744873 0.03465275466442108 0.051232725381851196 0.025683609768748283 
-0.01341970730572939 -0.03215785324573517 0.03693830966949463 0.0158673245459795 0.04558185487985611 0.027766762301325798 0.009930535219609737 0.041322194039821625 -0.002359960461035371 
0.055506106466054916 -0.011051926761865616 0.006742369849234819 -0.008692081086337566 0.014006853103637695 0.016383040696382523 0.05955410376191139 -0.05808142200112343 -0.0005503477877937257 
-0.037941060960292816 -0.048952896147966385 -0.014247408136725426 -0.030070051550865173 0.027369661256670952 0.020177407190203667 -0.07003989815711975 0.047049809247255325 0.00017389204003848135 
0.04519730433821678 -0.003471899079158902 -0.03738444298505783 -0.03512547165155411 -0.06250817328691483 0.06799652427434921 -0.008064755238592625 0.0015476093394681811 0.042429160326719284 
-0.03558085858821869 -0.06136274337768555 0.0060693370178341866 -0.03309651464223862 0.034910377115011215 0.0011589410714805126 -0.057420190423727036 -0.03146141767501831 0.000629073241725564 
0.06407967209815979 -0.015306943096220493 0.05324133113026619 0.027021925896406174 -0.017552543431520462 0.0800006091594696 0.02398538962006569 0.05129444599151611 -0.009325959719717503 
-0.02287254109978676 0.06848999112844467 0.018561415374279022 0.03715124353766441 0.009905778802931309 -0.02083454467356205 -0.02182452194392681 0.05189189687371254 0.04595527425408363 
0.022094136103987694 -0.04574384540319443 -0.04552408307790756 0.034964196383953094 -0.061821095645427704 -0.07122790813446045 0.03860921785235405 -0.0614265613257885 -0.06547918170690536 
-0.05598586052656174 0.06316160410642624 0.0037885447964072227 0.042175814509391785 0.04900767654180527 -0.05736001953482628 0.034606631845235825 0.01761431060731411 -0.0597037672996521 
0.0012528820661827922 -0.03702457249164581 -0.006328626535832882 -0.005187971983104944 -0.008695860393345356 0.0497734360396862 -0.06046415865421295 0.025648273527622223 -0.03771444782614708 
0.05222846940159798 -0.03353334218263626 -0.06248604506254196 0.01729331538081169 -0.01697433553636074 0.009804939851164818 -0.01990404911339283 -0.06602204591035843 0.0012721839593723416 
-0.06342293322086334 -0.006076144054532051 0.04417426884174347 0.03974450007081032 -0.053884342312812805 0.053309474140405655 0.06459730863571167 -0.003300234442576766 0.08270509541034698 
0.014850505627691746 0.00624249828979373 0.016350412741303444 -0.017058666795492172 0.06717149168252945 -0.011986687779426575 -0.03469698876142502 0.05941314995288849 0.01238320767879486 
-0.018048973754048347 0.04749931022524834 0.0516999289393425 0.049890220165252686 -0.05072971060872078 -0.031906694173812866 0.06225429102778435 -0.03418084979057312 0.044016845524311066 
0.0009375493391416967 0.044633813202381134 -0.05845147743821144 -0.03187146410346031 0.008186278864741325 -0.02817002683877945 0.024567129090428352 -0.05385534092783928 -0.028877248987555504 
-0.05429224669933319 -0.057383254170417786 -0.05070076510310173 0.007449355907738209 0.00207501370459795 -0.03596840053796768 0.029278500005602837 -0.028251588344573975 -0.0554344616830349 
0.03155093267560005 0.06863558292388916 0.03315441682934761 -0.052101172506809235 0.029008420184254646 0.018413163721561432 -0.017761677503585815 0.007536748424172401 0.022658979520201683 
0.07310166954994202 0.006020213942974806 0.03532172366976738 0.0032048551365733147 0.07542142271995544 0.00829516351222992 -0.021409424021840096 -0.01645539328455925 -0.01097166072577238 
0.06313550472259521 -0.05067932978272438 0.03167734295129776 0.062211040407419205 -0.0446743369102478 0.003463180037215352 -0.04257482290267944 -0.05463721230626106 -0.05870117247104645 
-0.0414055697619915 0.037750452756881714 -0.03113037720322609 -0.005080508999526501 -0.0346977561712265 -0.03926702216267586 0.0324099063873291 -0.06166401505470276 0.013777134008705616 
0.0033304416574537754 0.02962186187505722 -0.059406086802482605 0.0011693445267155766 -0.06037898734211922 -0.06304623931646347 -0.03114606812596321 -0.032238394021987915 -0.03140450641512871 
0.012337267398834229 -0.037413716316223145 -0.06244312971830368 0.018323048949241638 0.04445178434252739 -0.03496295586228371 0.016697227954864502 0.056594714522361755 0.06965438276529312 
0.023767823353409767 0.031054995954036713 -0.007084473967552185 -0.016940005123615265 -0.007986019365489483 0.036443792283535004 0.02397005446255207 -0.010929048992693424 -0.009165627881884575 
-0.0370500348508358 -0.04361015185713768 -0.05499020218849182 0.03655901923775673 0.02121521346271038 0.051016900688409805 -0.02032102271914482 -0.06361483037471771 0.008234381675720215 
-0.05580439418554306 -0.027318574488162994 0.05359848961234093 0.036205995827913284 0.02755035273730755 -0.061355773359537125 -0.02273295447230339 0.02152918092906475 -0.06913802772760391 
-0.0279398150742054 0.005812689661979675 -0.0011749049881473184 0.019803915172815323 0.02897832728922367 -0.003427583957090974 0.06851226091384888 -0.04044528305530548 0.03403450921177864 
0.0033724356908351183 0.043608542531728745 0.051906272768974304 -0.06517388671636581 0.008494637906551361 -0.05207425355911255 0.040185969322919846 -0.008386431261897087 0.01954953558743 
0.0015624223742634058 0.05234161764383316 0.03950391337275505 0.03871385008096695 0.003647314850240946 0.04262916371226311 -0.007105427328497171 0.0045279087498784065 0.04952794313430786 
-0.001858983770944178 0.0299095306545496 -0.03612411767244339 -0.016299480572342873 0.029927590861916542 -0.02412131428718567 0.05145997926592827 0.05171925202012062 -0.050811439752578735 
0.03981178253889084 0.003896638983860612 0.05173870548605919 -0.01984245516359806 0.056175898760557175 -0.0004772866377606988 -0.022815745323896408 0.0699368268251419 0.06436797231435776 
-0.07016192376613617 0.05608248710632324 -0.04167846962809563 -0.0693543553352356 -0.0035503683611750603 0.02807002328336239 -0.06729810684919357 0.04693279787898064 0.025228289887309074 
-0.043770767748355865 -0.05142572894692421 0.047566939145326614 -0.03766971081495285 -0.009696606546640396 0.03811186924576759 -0.03256341814994812 -0.03771687671542168 -0.036676354706287384 
0.06423134356737137 -0.01163942739367485 -0.057955533266067505 -0.009277066215872765 -0.013804866932332516 -0.026686836034059525 -0.0028424442280083895 0.00019692139176186174 -0.06628621369600296 
-0.015512597747147083 -0.01994520053267479 -0.008790180087089539 0.04780719056725502 0.05806241184473038 -0.029361668974161148 0.032411739230155945 -0.00423470651730895 0.007208147086203098 
-0.05403407663106918 -0.03198804333806038 -0.055125556886196136 -0.0022195186465978622 -0.02203504927456379 -0.04006052762269974 0.05637253820896149 0.0009978839661926031 -0.05711517482995987 
0.03928636014461517 -0.07276257872581482 -0.053614646196365356 -0.031287651509046555 -0.03957873582839966 0.012537021189928055 -0.027157986536622047 -0.03896716237068176 0.037783801555633545 
-0.004748792853206396 0.022175978869199753 0.05480490252375603 0.05056676268577576 0.057617027312517166 0.014222498051822186 0.0027238805778324604 -0.041646022349596024 0.05300494283437729 
0.04314354434609413 0.01174152921885252 0.0486312098801136 -0.005563847254961729 0.03856543079018593 -0.0277662742882967 0.0631258562207222 -0.018183231353759766 0.0568075105547905 
-0.017255686223506927 -0.048246484249830246 0.027282390743494034 0.0071445005014538765 -0.04849175736308098 -0.03345601260662079 0.03409723564982414 -0.03912008926272392 0.03619088605046272 
-0.029442794620990753 0.010040858760476112 0.0639226958155632 0.016680626198649406 0.03790395334362984 -0.01313226018100977 -0.018420150503516197 -0.023382822051644325 0.06834317743778229 
-0.000374935771105811 -0.07055085152387619 -0.01697886921465397 -0.0009868278866633773 0.05504290759563446 -0.02307169884443283 -0.061835888773202896 0.017013493925333023 0.050513580441474915 
-0.04259800910949707 -0.03229614719748497 0.03558244928717613 0.031680796295404434 -0.004290439188480377 -0.06049327179789543 0.05112781748175621 0.030673401430249214 0.0032514864578843117 
0.05277393385767937 -0.04040266200900078 -0.02304121106863022 -0.02230985276401043 -0.03985148295760155 0.023628322407603264 0.0810176432132721 0.07956545799970627 -0.011779633350670338 
-0.04807659983634949 0.062499210238456726 0.030281497165560722 0.035949286073446274 0.03225763887166977 0.04130785912275314 -0.004749283194541931 0.030906012281775475 -0.02875087410211563 
-0.0025682682171463966 -0.052028216421604156 0.025819778442382812 0.04402458667755127 0.037031520158052444 0.034745752811431885 -0.0718148872256279 -0.01440785825252533 0.036633603274822235 
0.024647587910294533 -0.03471376374363899 0.0005917034577578306 0.027413982897996902 0.00693650683388114 0.0400431789457798 0.0604337677359581 0.022484920918941498 -0.0453905425965786 
-0.014171695336699486 0.02163962461054325 0.014918425120413303 0.03426438197493553 0.061025410890579224 0.05542711541056633 0.02559318020939827 -0.06679125875234604 -0.020050188526511192 
-0.021939042955636978 -0.04433813691139221 -0.010381109081208706 0.02985309064388275 -0.04965667426586151 -0.006684832274913788 -0.036027148365974426 -0.03337893635034561 0.06984957307577133 
-0.04404149204492569 -0.029664915055036545 0.0071806409396231174 -0.061623670160770416 0.016807973384857178 0.04483943060040474 0.05324956402182579 -0.029783736914396286 0.015667224302887917 
0.02012152411043644 -0.06736280024051666 0.04820939525961876 0.06525767594575882 0.05245596170425415 0.027768336236476898 -0.03680173680186272 -0.03964438661932945 -0.025303229689598083 
-0.05286772921681404 0.024515502154827118 -0.023061905056238174 -0.025194775313138962 0.013383939862251282 -0.02686750888824463 0.02901284769177437 0.060735661536455154 0.04424535855650902 
-0.03815699368715286 -0.04068063572049141 -0.02229677326977253 0.0005907336599193513 0.05955751985311508 -0.014594290405511856 -0.06488253176212311 0.0065712351351976395 -0.028622249141335487 
0.03765835985541344 0.0009693811880424619 -0.02850850112736225 -0.05842684581875801 -0.02126210182905197 0.010660775937139988 -0.03460041061043739 0.004256382584571838 0.0012291388120502234 
-0.06146327033638954 0.022901928052306175 -0.045938827097415924 -0.06835398077964783 0.022014128044247627 -0.04347027838230133 -0.056008193641901016 -0.035395484417676926 0.014185762964189053 
-0.04083433002233505 -0.017421681433916092 -0.04246315732598305 -0.03578859567642212 -0.046693649142980576 0.03974880278110504 -0.044617462903261185 0.06148315221071243 0.021274693310260773 
-0.07039923220872879 -0.0034988767001777887 -0.011087363585829735 -0.011114821769297123 -0.00922049768269062 -0.010709795169532299 -0.033253416419029236 -0.01301136426627636 0.03903810307383537 
0.07263325899839401 -0.037057939916849136 -0.035774827003479004 0.029648832976818085 0.0004644515283871442 -0.013927675783634186 -0.055028777569532394 0.06296084076166153 -0.011436620727181435 
0.029732897877693176 0.018644463270902634 0.01103221531957388 -0.03667609766125679 0.02212768979370594 -0.009027558378875256 -0.043971579521894455 0.026645993813872337 0.014339770190417767 
-0.01682104542851448 0.0322473868727684 0.052622511982917786 0.043946415185928345 -0.03177023306488991 -0.022959712892770767 -0.0443061999976635 -0.06148238480091095 0.014647235162556171 
0.00851184781640768 -0.0570150688290596 -0.029625244438648224 -0.060389984399080276 -0.013266409747302532 0.014065848663449287 0.020343339070677757 -0.004265910014510155 -0.029798032715916634 
0.05876749008893967 0.026246432214975357 -0.053587932139635086 0.005277731921523809 0.005308674182742834 -0.033379778265953064 -0.057057082653045654 -0.0013992530293762684 -0.06096751242876053 
-0.015644390136003494 0.03940293937921524 0.034756749868392944 0.038877248764038086 0.04135085642337799 0.042337577790021896 0.0416681207716465 0.04132463037967682 -0.032652292400598526 
0.039708465337753296 0.043999459594488144 0.05234040319919586 -0.03094484470784664 -0.005306973122060299 0.06726236641407013 0.05058234557509422 0.028464678674936295 -0.0012290310114622116 
-0.016140779480338097 -0.032413382083177567 0.05098689720034599 0.007417048327624798 -0.04729743301868439 -0.016054030507802963 -0.02211802266538143 0.03369913622736931 0.03902312368154526 
-0.025917891412973404 -0.06366373598575592 0.014072620309889317 -0.0669766217470169 -0.027057388797402382 -0.006627984810620546 0.022668438032269478 0.0011373901506885886 0.03041425347328186 
-0.011833466589450836 -0.01920928992331028 0.049818091094493866 0.013468555174767971 -0.014732472598552704 0.05244167894124985 0.005071559455245733 0.06506659835577011 -0.04014993831515312 
-0.05775117501616478 -0.03493577986955643 -0.031775448471307755 0.012494293972849846 0.059327416121959686 0.04807887226343155 -0.02721540816128254 -0.04158404842019081 0.017976373434066772 
0.005716617219150066 -0.024718008935451508 -0.05405910685658455 0.0555645115673542 0.00587514229118824 0.020350147038698196 0.02247859351336956 0.048330627381801605 0.00555043201893568 
0.011786284856498241 0.040736835449934006 0.02060697413980961 -0.06384582072496414 0.03764256462454796 -0.03482730686664581 0.004037650767713785 0.019314289093017578 -0.027038587257266045 
0.044368546456098557 -0.03685516491532326 0.06701415032148361 0.06422600150108337 0.041537120938301086 0.013081991113722324 -0.013902363367378712 0.015496025793254375 0.04638104885816574 
-0.046027619391679764 -0.03657795488834381 -0.06815863400697708 -0.0683179646730423 0.039831243455410004 -0.009044395759701729 0.04290911182761192 -0.03574707359075546 0.01225962769240141 
0.0628059133887291 -0.01583682931959629 -0.03212697058916092 -0.028077954426407814 -0.002097110729664564 -0.018142255023121834 0.03398975357413292 -0.057878971099853516 -0.00974880438297987 
0.06312155723571777 -0.03465918451547623 0.0165079515427351 0.015269901603460312 -0.016734162345528603 -0.028407886624336243 -0.009520267136394978 -0.019812216982245445 -0.07297152280807495 
0.030969221144914627 -0.05416130647063255 0.0646691843867302 -0.03600388020277023 -0.008033988066017628 -0.04272151738405228 0.05030146613717079 -0.012057038955390453 -0.027031371369957924 
-0.04402010515332222 -0.06212526932358742 0.04891541972756386 0.037222739309072495 0.008614497259259224 0.0635422095656395 0.015482090413570404 -0.02957814559340477 0.020192492753267288 
-0.03994882479310036 0.031318821012973785 0.04030850529670715 0.0436808280646801 -0.046362701803445816 0.009340054355561733 -0.0010390363167971373 -0.06514229625463486 -0.05345572531223297 
0.00957823172211647 0.019421640783548355 -0.017633622512221336 -0.020321741700172424 0.06636844575405121 -0.0440031923353672 -0.06015846133232117 -0.04834609478712082 0.04954608902335167 
-0.05634184181690216 0.046128369867801666 0.0035712835378944874 -0.06002040207386017 0.07411760836839676 0.005363709293305874 0.06775093823671341 0.062329888343811035 0.015967339277267456 
-0.0700363963842392 -0.024554045870900154 -0.04079286381602287 -0.036660775542259216 0.015046908520162106 0.010496838949620724 -0.040837887674570084 -0.02774258702993393 0.007436719257384539 
-0.06291090697050095 0.05859653279185295 0.058596622198820114 -0.011106609366834164 0.01749175414443016 -0.013398510403931141 -0.03850869461894035 -0.009424073621630669 0.025872331112623215 
0.01956397294998169 0.05632832273840904 0.04390747472643852 0.06946094334125519 -0.03224474936723709 -0.017593637108802795 0.0014480423415079713 -0.0120872613042593 0.018316922709345818 
-0.03208417072892189 -0.07939407229423523 0.00170420843642205 0.011454969644546509 -0.00973415281623602 0.04230137914419174 0.043018560856580734 0.018791643902659416 -0.006654411554336548 
0.010045405477285385 0.02579987421631813 0.05575604736804962 0.04738343134522438 -0.03196030110120773 -0.057733483612537384 -0.025106025859713554 0.041456062346696854 0.03542367368936539 
0.045079756528139114 0.004987971857190132 -0.00035840878263115883 0.06804923713207245 -0.04816972464323044 0.017748823389410973 0.003280883887782693 -0.016532473266124725 -0.06359466165304184 
-0.02480398304760456 -0.017359958961606026 0.04099049046635628 -0.0407707542181015 -0.04061296954751015 0.015203925780951977 0.002137377392500639 0.06374991685152054 0.04636077582836151 
-0.05960691347718239 -0.053567323833703995 0.0631420910358429 -0.03423985466361046 0.018225831910967827 -0.008251044899225235 -0.02238895371556282 0.003536444390192628 0.03297644853591919 
-0.03863352909684181 0.007581597659736872 0.008774744346737862 0.06043391674757004 -0.03862376883625984 -0.007470270153135061 0.02738347090780735 0.03217202052474022 -0.0009845776949077845 
-0.0032415997702628374 0.017280779778957367 0.019460786134004593 -0.050852153450250626 -0.05591333284974098 -0.01371530257165432 -0.030214685946702957 0.056141197681427 0.010969068855047226 
0.03443639352917671 0.03561125695705414 0.028518307954072952 0.027561882510781288 0.019648948684334755 0.005601349286735058 -0.01305895484983921 0.05680633708834648 -0.05689670890569687 
0.019374484196305275 -0.0040501258336007595 0.04061981663107872 -0.03772119805216789 -0.047064345329999924 0.026448344811797142 -0.06020661070942879 -0.024525059387087822 0.03832942247390747 
-0.0686752200126648 -0.012759299017488956 -0.04710039123892784 -0.05506019666790962 0.0333438515663147 -0.04736201837658882 -0.02456546202301979 -0.04847841337323189 -0.02707095444202423 
0.03448960557579994 0.02982032112777233 -0.02544580213725567 -0.06658992171287537 0.04389190301299095 -0.029027553275227547 0.05905890092253685 -0.0004179966344963759 -0.011768078431487083 
-0.06570202112197876 0.001810022396966815 -0.048223864287137985 0.0320918969810009 -0.0370827317237854 -0.03983249515295029 0.026800837367773056 0.025193022564053535 -0.014917445369064808 
0.024369817227125168 -0.04317161440849304 -0.05020364746451378 0.033530786633491516 0.019449738785624504 0.041878391057252884 0.04321519657969475 -0.02378896065056324 -0.01041285041719675 
-0.04402974992990494 -0.00771066639572382 0.023512639105319977 0.00025785883190110326 -0.04825229570269585 0.03111194632947445 -0.02261342667043209 -0.06602954119443893 0.061346326023340225 
0.006865540519356728 0.054402679204940796 0.03143993020057678 -0.05309687554836273 -0.03461615741252899 -0.0003196989418938756 0.06111197918653488 -0.018587270751595497 -0.040258850902318954 
0.019095858559012413 0.06005149707198143 0.054062023758888245 -0.04402856156229973 -0.005553555209189653 0.05456823483109474 0.01326086837798357 -0.020237792283296585 -0.053819961845874786 
0.06236162409186363 -0.03926295414566994 -0.049896348267793655 -0.024467719718813896 0.007548919413238764 0.048355791717767715 -0.02985474281013012 0.052813608199357986 0.00431319372728467 
0.046209290623664856 -0.042564116418361664 0.0052886661142110825 0.05315491557121277 -0.021127084270119667 0.042800769209861755 -0.03875374794006348 -0.020583175122737885 -0.02805626578629017 
0.05647758021950722 -0.06389275193214417 -0.0015323370462283492 0.03415924683213234 -0.010215288028120995 -0.0022209249436855316 -0.044667620211839676 -0.06391602009534836 -0.05494259297847748 
0.043323010206222534 -0.034569911658763885 0.01807411015033722 -0.007796970661729574 -0.024380361661314964 0.021410955116152763 -0.024341164156794548 -0.05541412532329559 -0.05515045300126076 
0.03919334337115288 0.04228392615914345 0.029010381549596786 0.017313828691840172 0.05047572776675224 -0.055085666477680206 -0.04528453201055527 -0.03854518383741379 0.05683780461549759 
0.02780485525727272 -0.016938069835305214 -0.0444512739777565 -0.00027534589753486216 -0.0658986046910286 0.002342388965189457 -0.031873755156993866 0.060079168528318405 0.05752406269311905 
-0.05083261802792549 0.03651589900255203 -0.0032216229010373354 0.06179204210639 0.0654839500784874 -0.04100287705659866 -0.034084662795066833 -0.01721441186964512 -0.06154201179742813 
0.059172261506319046 -0.060515157878398895 -0.00502827437594533 0.007198235020041466 -0.04366229847073555 -0.04123854637145996 0.04171183332800865 -0.059000786393880844 0.0026376640889793634 
-0.06459856778383255 -0.05457034707069397 -0.04181438311934471 -0.0034219741355627775 0.015035569667816162 0.026012543588876724 0.02639496885240078 -0.05029882490634918 -0.00689473282545805 
-0.028666889294981956 0.04707397520542145 -0.026668941602110863 -0.02018377184867859 0.026758478954434395 0.029559552669525146 0.04247266799211502 0.057083021849393845 0.06632727384567261 
0.04872644320130348 -0.040964897722005844 0.02804609201848507 -0.01753377728164196 0.017160877585411072 -0.05391540750861168 0.04142127186059952 0.004079634323716164 0.029560111463069916 
-0.03650447353720665 0.04375925660133362 -0.03421349078416824 -0.008140262216329575 0.05492377281188965 -0.07698424160480499 -0.026490850374102592 0.02156233787536621 -0.06819231808185577 
-0.06331009417772293 -0.013197214342653751 0.08078224211931229 -0.05527764931321144 0.041613150388002396 0.034666333347558975 0.009794441051781178 0.00492071220651269 -0.01075523067265749 
0.041126400232315063 -0.05821185186505318 0.029886266216635704 0.014589222148060799 -0.05814894661307335 0.02634590119123459 0.02190117910504341 -0.061685673892498016 -0.010698950849473476 
-0.05277784541249275 -0.008000444620847702 -0.0009982893243432045 0.02470463141798973 -0.02022205851972103 -0.03887457400560379 -0.026095496490597725 0.008944245055317879 0.07710704207420349 
-0.0006986351800151169 0.04511716961860657 0.013416825793683529 -0.03496493399143219 -0.032840173691511154 0.0460534542798996 -0.0020105692092329264 -0.0012075160630047321 0.0652771145105362 
0.04295103996992111 0.03207961097359657 -0.006798515561968088 0.037227701395750046 0.09564603120088577 0.0827549621462822 0.056729115545749664 -0.006111522670835257 -0.019745633006095886 
0.04560532793402672 -0.06935678422451019 0.06764902174472809 -0.06206066533923149 0.02006971649825573 0.03958132863044739 0.01240792777389288 -0.040439341217279434 0.023734286427497864 
-0.03787469118833542 0.05109325423836708 -0.02570488303899765 -0.02546624280512333 -0.04027939587831497 0.004483052063733339 -0.018299590796232224 0.06597038358449936 -0.005896462593227625 
-0.0631163939833641 -0.03267667815089226 0.09171915054321289 -0.048797160387039185 -0.0007808834197930992 -0.01910283789038658 0.042900845408439636 -0.005274548195302486 0.026815837249159813 
0.04570499062538147 -0.033163029700517654 0.03629889339208603 0.03922121226787567 0.01608787290751934 -0.03278698772192001 0.027027834206819534 -0.0006611874559894204 -0.038321319967508316 
-0.06870555877685547 0.01585915870964527 0.07714088261127472 -0.03284252807497978 0.035793762654066086 0.027756929397583008 0.014263457618653774 -0.05655904486775398 -0.03174006938934326 
-0.038350094109773636 0.05853215605020523 -0.07043064385652542 0.06653518229722977 -0.051199816167354584 0.027117887511849403 0.05014074221253395 -0.034561242908239365 0.04174891859292984 
0.043178804218769073 -0.025391610339283943 0.008771335706114769 -0.020894920453429222 -0.01982802525162697 -0.01197617407888174 0.008241889998316765 0.008543167263269424 -0.037041790783405304 
-0.06107092276215553 0.05342508852481842 0.009527965448796749 -0.018770607188344002 0.001965935807675123 -0.017408547922968864 0.0038998068775981665 -0.015189342200756073 -0.05315616726875305 
-0.040654052048921585 0.00024477372062392533 -0.04294123500585556 0.04494961351156235 0.04507377743721008 -0.0200278889387846 -0.05424055457115173 0.008537761867046356 -0.004844441078603268 
-0.04436632990837097 0.034617017954587936 -0.044908035546541214 -0.010939500294625759 0.016122039407491684 0.04258062690496445 -0.054923154413700104 -0.07155618816614151 0.06898534297943115 
0.024309009313583374 -0.018523408100008965 -0.029960282146930695 -0.05077637359499931 0.010267449542880058 -0.04553749039769173 0.0536767803132534 0.0515349879860878 -0.0019210526952520013 
-0.04156224802136421 0.03543860837817192 -0.04286232218146324 0.0059831226244568825 -0.07122811675071716 -0.05682477355003357 -0.01106263231486082 -0.015595990233123302 -0.03287050873041153 
0.05532776936888695 -0.04715581610798836 -0.03871786594390869 -0.048261094838380814 0.038253478705883026 -0.00850619561970234 0.04746226593852043 0.025254033505916595 -0.016230981796979904 
0.02482249028980732 -0.0424833744764328 0.06367164850234985 0.05175468698143959 0.04024678096175194 0.04440112039446831 -0.0544760525226593 -0.053970713168382645 0.008552800863981247 
-0.044752299785614014 0.028449401259422302 0.03850184753537178 0.003584793070331216 -0.05730888247489929 -0.03910285234451294 0.04345506802201271 -0.02394808828830719 -0.000916674907784909 
-0.028683893382549286 -0.03287845477461815 0.06268269568681717 0.04291202500462532 0.05883036553859711 0.054174426943063736 -0.05341438949108124 0.06274645030498505 -0.019670849665999413 
0.02052181400358677 -0.028473885729908943 0.0496065579354763 -0.060867540538311005 -0.05583355575799942 -0.021737974137067795 0.05053771287202835 0.01496188621968031 0.06120834872126579 
0.05211310088634491 0.051268063485622406 -0.018499216064810753 -0.06524013727903366 0.017901897430419922 -0.02601688914000988 -0.01529060211032629 0.11201026290655136 -0.024713842198252678 
0.028123587369918823 -0.03821997344493866 0.027904074639081955 -0.05389338731765747 -0.023895058780908585 0.06736838072538376 0.04432396963238716 0.01946398615837097 0.022604133933782578 
0.05984092876315117 -0.05201849713921547 -0.06695539504289627 0.06004929915070534 -0.03319096565246582 0.022969374433159828 -0.044141341000795364 0.04420066997408867 -0.06297614425420761 
0.04797260835766792 0.0020305339712649584 -0.06248696520924568 0.011874035000801086 -0.059919070452451706 -0.042245227843523026 0.0049330140464007854 0.010515722446143627 -0.023091768845915794 
0.010805008932948112 -0.02064208686351776 -0.02102557383477688 0.016649652272462845 0.0539364218711853 0.036365434527397156 0.055561743676662445 -0.06328227370977402 0.05708925426006317 
0.03567124903202057 0.05141102150082588 -0.06442911922931671 -0.014450600370764732 -0.010488406755030155 -0.03696955367922783 -0.008716193027794361 -0.042748864740133286 0.04431203752756119 
0.050518784672021866 -0.07981360703706741 -0.0864407867193222 0.04106409102678299 0.0010925858514383435 0.029083359986543655 0.056657154113054276 0.04113238304853439 0.030196193605661392 
-0.06028598174452782 -0.07722339034080505 -0.05422545224428177 0.06466186046600342 -0.06017353758215904 0.062779001891613 -0.016534315422177315 -0.07139808684587479 -0.02994469553232193 
0.06719977408647537 0.016159825026988983 -0.04671379178762436 0.06909791380167007 0.04315760359168053 0.003882151562720537 -0.01926346868276596 -0.00912002008408308 0.05884569510817528 
-0.02797640673816204 0.02333788014948368 0.015531052835285664 -0.042408496141433716 0.043631549924612045 -0.04027101397514343 0.054194916039705276 0.05417744070291519 0.04902178794145584 
0.05941261351108551 0.031960971653461456 0.06391812115907669 -0.025449303910136223 -0.0019545778632164 -0.0010970239527523518 -0.06365698575973511 -0.0028916937299072742 -0.03355493023991585 
0.06155092269182205 0.04645812511444092 0.015512708574533463 0.060695718973875046 0.053818825632333755 0.03209465742111206 -0.022824129089713097 -0.03587568923830986 -0.0412767268717289 
0.06721463799476624 -0.04051094129681587 -0.05076403543353081 0.04680969566106796 0.008410402573645115 -0.03415727615356445 0.03740079328417778 -0.039929892867803574 0.015931248664855957 
0.06516942381858826 0.043175674974918365 0.026048244908452034 -0.06357531994581223 -0.007768512237817049 -0.008357400074601173 -0.00446897791698575 -0.04003351926803589 0.03459637239575386 
0.005981662776321173 -0.01563394069671631 -0.03620171546936035 -0.007613173220306635 0.023562036454677582 -0.0435357466340065 0.03341979533433914 0.039851509034633636 -0.02653203159570694 
0.014349199831485748 -0.01363592129200697 0.05370635911822319 -0.03904550522565842 0.033332791179418564 0.01907973177731037 -0.013022863306105137 -0.05817604437470436 0.0206083282828331 
-0.03966348618268967 -0.06341712176799774 -0.0660177618265152 0.04098556935787201 -0.01289785373955965 -0.05038335919380188 -0.02179696224629879 -0.041837044060230255 0.032383594661951065 
-0.03812943026423454 -0.01055153552442789 -0.010063892230391502 0.0016678442480042577 0.0016770779620856047 0.05259121581912041 -0.034732524305582047 0.058371152728796005 0.035940755158662796 
0.016199631616473198 -0.03279678523540497 0.06937726587057114 0.03581124544143677 0.02988528087735176 -0.024677041918039322 -0.05131634324789047 0.03358875960111618 -0.006806845311075449 
0.05328255519270897 -0.0002560546563472599 -0.03663802519440651 0.02169318124651909 0.052640754729509354 -0.011366887018084526 0.042419303208589554 0.056138623505830765 0.06091805920004845 
-0.037760455161333084 0.045035213232040405 0.01129195187240839 0.026910701766610146 -0.05238385125994682 -0.019255883991718292 0.07038480788469315 0.031018974259495735 0.03712014853954315 
0.022507090121507645 -0.04731496796011925 -0.042829785495996475 0.046492572873830795 0.04125094786286354 -0.058209046721458435 -0.04082303121685982 -0.011721133254468441 -0.0012643918162211776 
-0.017559310421347618 -0.0700935497879982 -0.06051357463002205 -0.06961827725172043 -0.02561798132956028 -0.061679065227508545 0.030132560059428215 0.056697070598602295 -0.030993811786174774 
0.050055716186761856 -0.008942117914557457 0.024625340476632118 0.0372893363237381 -0.056353770196437836 -0.04260970652103424 0.06837797164916992 0.05512630566954613 0.05872555822134018 
0.02131645195186138 0.02400413155555725 -0.05290086194872856 0.003515219781547785 0.04251245781779289 0.06183134391903877 0.03718654438853264 0.04142550006508827 0.051340252161026 
-0.048794936388731 -0.02462088130414486 0.05660135671496391 0.02299289032816887 0.03525029867887497 -0.06283694505691528 0.05244868993759155 0.049248628318309784 0.052830036729574203 
0.0136547377333045 0.030645260587334633 -0.032469041645526886 -0.06849605590105057 -0.05688159540295601 -0.003544045379385352 -0.061160434037446976 -0.01792873814702034 0.036128297448158264 
-0.007429176941514015 0.052267055958509445 -0.01768132485449314 0.043240807950496674 -0.031193707138299942 -0.031058207154273987 -0.022707805037498474 -0.021283118054270744 -0.002657565986737609 
-0.06140487641096115 0.03631649911403656 -0.0512436106801033 -0.038428254425525665 -0.0543888695538044 -0.04606317728757858 -0.03133264183998108 0.03590695932507515 0.01259307935833931 
0.07022351771593094 0.01917620375752449 0.04274004325270653 -0.057332515716552734 -0.03410039097070694 -0.00789780355989933 -0.014774547889828682 -0.038352396339178085 0.03744840994477272 
0.02413024753332138 -0.0018930628430098295 -0.01382129080593586 0.007097375113517046 -0.05673542991280556 0.025611454620957375 -0.014500899240374565 -0.03396742790937424 0.04672016575932503 
-0.05622849613428116 -0.056346144527196884 -0.0024694413878023624 0.011489290744066238 -0.022334685549139977 0.06726494431495667 -0.01727110520005226 -0.004112066235393286 -0.04246264323592186 
-0.029612082988023758 -0.01879129931330681 0.014511195942759514 -0.04356955364346504 0.021613195538520813 0.0611204169690609 -0.01802663318812847 -0.046813711524009705 0.02961629442870617 
-0.02187279798090458 0.04039999097585678 0.03869500383734703 0.03618856891989708 0.0015352086629718542 0.040321022272109985 -0.03239179030060768 -0.034853704273700714 0.020499957725405693 
-0.025751231238245964 0.023059135302901268 -0.05239277705550194 0.0035271390806883574 -0.018065055832266808 0.01710997335612774 0.05384666472673416 0.022360190749168396 0.04033141955733299 
-0.0033856630325317383 0.04253039509057999 -0.03813488036394119 0.002256455598399043 0.008514080196619034 -0.06563059240579605 -0.005600816570222378 -0.012931184843182564 0.0035793986171483994 
-0.008072460070252419 0.0546845979988575 -0.03482286259531975 0.01897589862346649 0.03505437821149826 -0.057207830250263214 -0.05730457231402397 0.06614109873771667 0.013831637799739838 
-0.06557213515043259 -0.04188386723399162 0.03768664225935936 0.02163684368133545 -0.01450822688639164 -0.04458571970462799 0.04154117405414581 0.03228249400854111 -0.06009741500020027 
-0.021853189915418625 -0.007063355762511492 -0.030244629830121994 -0.008522040210664272 0.00516326492652297 -0.06325343251228333 -0.03099902719259262 0.06221060827374458 -0.020184746012091637 
-0.06919732689857483 0.03291920945048332 0.013556469231843948 0.05322328954935074 0.05740275979042053 0.011660727672278881 -0.07624436169862747 -0.04197121784090996 0.06520996987819672 
-0.006055466365069151 -0.0607001855969429 -0.018859626725316048 0.01049608364701271 -0.07059776782989502 0.04984135553240776 -0.06674876064062119 -0.004495550878345966 -0.048774510622024536 
-0.039743971079587936 -0.03641125187277794 0.013532114215195179 0.036609094589948654 -0.048199839890003204 -0.0006357571692205966 -0.02134152501821518 -0.0023143126163631678 -0.007803935557603836 
-0.0018438580445945263 0.011038977652788162 -0.04183647409081459 -0.04781094938516617 -0.037162963300943375 -0.00842016376554966 -0.04783260449767113 -0.04774044081568718 -0.02916092425584793 
-0.039731379598379135 -0.03478771820664406 -0.07014540582895279 -0.013794118538498878 -0.017136914655566216 -0.014417019672691822 0.020692745223641396 0.00678004277870059 -0.005850671324878931 
0.03245127946138382 0.015094109810888767 -0.02066628262400627 0.01356571726500988 -0.01956416666507721 -0.027705436572432518 -0.018863368779420853 -0.06255386769771576 -0.03461333364248276 
0.01859838329255581 -0.02321689762175083 0.0062821852043271065 -0.056397225707769394 0.028590895235538483 0.055392734706401825 -0.05341096594929695 -0.0010138389188796282 0.04690896347165108 
-0.04642152041196823 -0.03918330743908882 0.0403754785656929 0.04354295879602432 0.04792710021138191 -0.042910028249025345 -0.05758346989750862 0.03620665520429611 0.03133068233728409 
