0.03880779445171356 0.07353803515434265 0.03607357293367386 -0.005848567932844162 0.051143746823072433 -0.0042192889377474785 -0.03920748457312584 0.04839008301496506 0.025332089513540268 
0.04097616672515869 0.03122340515255928 -0.06834777444601059 -0.034308381378650665 0.028310177847743034 -0.0035168095491826534 0.04920561984181404 -0.01058525126427412 -0.019155817106366158 
0.053079862147569656 0.005516914185136557 0.0076058306731283665 0.06614547222852707 0.057070694863796234 0.02828039415180683 -0.04573440179228783 -0.06090279296040535 -0.03091001696884632 
-0.06535201519727707 -0.05851924419403076 0.03788171336054802 0.017175545915961266 -0.0619548037648201 -0.06133388727903366 -0.02072986774146557 -0.04748432710766792 0.05503963679075241 
0.002396006602793932 0.033710528165102005 0.021488109603524208 0.03397693857550621 0.026550715789198875 0.003566823899745941 0.05915115028619766 -0.031457528471946716 -0.048119187355041504 
0.02200915478169918 0.02840358577668667 -0.03899543732404709 0.016389425843954086 0.009828934445977211 -0.03847167640924454 0.02417849935591221 -0.03345984220504761 0.040901608765125275 
0.0022452769335359335 -0.02175493910908699 0.05316927656531334 -0.013744931668043137 0.025032881647348404 0.06237979233264923 0.01201432291418314 0.053128112107515335 0.004272892605513334 
0.03992747515439987 -0.017824536189436913 -0.04373004660010338 -0.024073844775557518 0.11361847072839737 -0.03447239473462105 -0.08515935391187668 0.08068767189979553 -0.008884022943675518 
-0.035721566528081894 0.061386872082948685 0.060754284262657166 -0.01232223678380251 0.027160540223121643 0.05690557137131691 -0.006973716430366039 0.007563108578324318 -0.06189756095409393 
-0.06445609778165817 -0.01601514220237732 0.018437424674630165 0.007902477867901325 0.04213268682360649 -0.008233651518821716 0.034518271684646606 0.06219646334648132 -0.03495362028479576 
0.013005567714571953 0.008360208943486214 -0.06299422681331635 0.05648932233452797 0.06801634281873703 0.05865064635872841 0.05122179910540581 0.01405362505465746 0.0017499183304607868 
0.056639913469552994 -0.06330742686986923 0.0290461964905262 -0.03704177588224411 0.02790203131735325 0.033344242721796036 -0.016077734529972076 0.03846139460802078 0.005272292532026768 
0.025134747847914696 -0.020345835015177727 0.05005526542663574 0.030318859964609146 0.007083242759108543 0.05047788470983505 -0.00048493905342184007 0.0764770582318306 0.02121715247631073 
-0.07955937087535858 -0.021226782351732254 -0.12724155187606812 -0.026166241616010666 0.062417518347501755 -0.038202326744794846 -0.059120893478393555 0.08766471594572067 -0.07556140422821045 
-0.0523458793759346 0.012428434565663338 0.048417720943689346 0.05903447046875954 -0.0008337359759025276 0.06950560212135315 -0.04556279629468918 -0.013039333745837212 -0.009704172611236572 
0.015640148892998695 0.010691225528717041 -0.028869226574897766 0.06292383372783661 -0.005372676067054272 -0.05490026995539665 -0.011203317902982235 -0.0368485264480114 -0.006461228244006634 
0.005027830600738525 0.029657425358891487 -0.006884468719363213 0.057777244597673416 0.10350736230611801 0.013410133309662342 0.036615993827581406 0.09385845065116882 -0.04040798172354698 
0.03269641473889351 0.06327653676271439 -0.03846907615661621 -0.05454154685139656 -0.019771898165345192 0.04150252789258957 0.058227237313985825 0.006941124331206083 0.013260065577924252 
-0.0011762731010094285 -0.056336380541324615 0.023895462974905968 -0.04794394597411156 0.03387591242790222 -0.0009784012800082564 -0.05323728173971176 0.0460239052772522 0.03684525936841965 
-0.055763423442840576 0.059317417442798615 0.015153579413890839 0.012520607560873032 0.04465687274932861 -0.01969662867486477 0.020858189091086388 -0.045848775655031204 -0.06274750083684921 
0.10456816852092743 -0.011655055917799473 0.025355324149131775 0.03804091364145279 0.08636853098869324 -0.0019436357542872429 0.02365347370505333 0.02329159900546074 0.04795378819108009 
-0.01876373216509819 -0.015184164047241211 -0.04021720215678215 -0.0453510507941246 0.015897072851657867 0.07807084172964096 0.0670473501086235 0.018723154440522194 0.07864000648260117 
-0.026754925027489662 0.07225688546895981 -0.019290465861558914 0.03861143812537193 0.06502232700586319 0.061964038759469986 -0.03062894009053707 0.04870303347706795 -0.031859178096055984 
-0.04098428785800934 -0.0339396595954895 -0.03622883930802345 0.05472029745578766 -0.059061840176582336 -0.0028378560673445463 0.02617015317082405 0.008615409024059772 -0.04697030037641525 
-0.022838640958070755 -0.05793750286102295 0.03022928349673748 -0.06025342270731926 0.05284751579165459 0.06198013946413994 -0.000486175122205168 -0.04859056696295738 0.020007137209177017 
0.027359945699572563 0.044161077588796616 -0.05117809772491455 -0.025293702259659767 0.013606833294034004 -0.06347391754388809 -0.04342792183160782 0.01770096831023693 0.003629171522334218 
0.008253208361566067 -0.06413581222295761 -0.023526279255747795 -0.011250371113419533 -0.024467190727591515 0.04286755621433258 -0.05352143198251724 0.015296509489417076 0.04111874848604202 
-0.04976329952478409 0.015209800563752651 0.008080965839326382 -0.04801381006836891 -0.011146371252834797 -0.01940845511853695 0.02873280830681324 0.016827765852212906 -0.03713411092758179 
-0.04308955743908882 -0.038126140832901 -0.05832574516534805 -0.06190742552280426 0.019852789118885994 0.00022141565568745136 -0.04751221835613251 0.011539044789969921 0.03338497132062912 
0.03469708934426308 0.046365946531295776 -0.04468024522066116 0.02524123713374138 -0.027140550315380096 -0.06285501271486282 -0.06642471998929977 -0.06310144811868668 -0.0026503782719373703 
0.004749988671392202 -0.05097642168402672 0.00849328562617302 0.06466410309076309 0.03856752812862396 0.012927309609949589 0.015452325344085693 -0.03485637158155441 -0.010034746490418911 
-0.040437761694192886 0.045372407883405685 0.04409818723797798 0.04078540951013565 -0.035982463508844376 -0.041081562638282776 -0.03992656245827675 0.02317182905972004 0.042281053960323334 
0.02219589240849018 0.036335770040750504 0.030515341088175774 0.02513800747692585 0.0192951001226902 -0.05882398411631584 0.053827475756406784 -0.04733756184577942 0.04051760211586952 
0.000680742203257978 0.012752133421599865 -0.007395554333925247 -0.0210000928491354 0.04431883618235588 -0.05758235231041908 -0.007727632764726877 0.049232367426157 -0.015558874234557152 
0.033437278121709824 0.0045751235447824 0.04282965883612633 0.024434547871351242 0.03138115257024765 -0.04681968316435814 -0.03280740603804588 0.011800071224570274 -0.05178132280707359 
0.009887450374662876 -0.04802338406443596 0.025512676686048508 0.00634002173319459 0.04264146089553833 0.017751358449459076 -0.024258103221654892 0.020958928391337395 -0.05392433702945709 
-0.05296308547258377 0.019206849858164787 -0.016624996438622475 -0.019522586837410927 -0.01669018715620041 -0.002027827315032482 -0.09995708614587784 -0.08807025104761124 -0.052781518548727036 
-0.025215117260813713 0.07015138864517212 -0.022517383098602295 -0.05550915375351906 0.07364089787006378 0.056804317981004715 -0.0327228382229805 -0.004854121245443821 0.06522230058908463 
-0.04279433935880661 -0.02466469816863537 -0.026364946737885475 -0.04876371845602989 -0.06119069084525108 -0.04060602933168411 0.061455003917217255 0.024669626727700233 -0.01630302518606186 
-0.005432965699583292 -0.003410631325095892 0.00857161357998848 0.043212708085775375 0.03235582634806633 -0.0536276251077652 -0.046445127576589584 0.026423005387187004 -0.02535419724881649 
0.025757644325494766 0.05212390050292015 -0.039456501603126526 0.02916436828672886 0.027844732627272606 0.004756133072078228 -0.0001921008515637368 -0.022646663710474968 0.029577098786830902 
-0.044984329491853714 0.018728939816355705 -0.0015415202360600233 -0.005064670462161303 -0.01271029096096754 -0.02096366323530674 -0.06377586722373962 -0.052542250603437424 0.012191697023808956 
-0.011606778018176556 0.03324431926012039 -0.052845295518636703 0.0060826498083770275 -0.055473607033491135 0.06181281432509422 -0.03367684409022331 0.01881745271384716 0.011220625601708889 
-0.03771389648318291 -0.034424688667058945 -0.01793764904141426 0.015415232628583908 0.008317545056343079 -0.060674071311950684 0.014188744127750397 -0.011995460838079453 -0.04210750386118889 
0.043582070618867874 0.0363498255610466 -0.06075669080018997 0.02312084101140499 -0.022557150572538376 -0.060718461871147156 0.06211104989051819 -0.009606722742319107 0.02426217868924141 
0.027523603290319443 0.011139771901071072 0.03958573937416077 -0.04930219426751137 -0.04795030504465103 -0.009947084821760654 0.05041627958416939 0.052101317793130875 0.04584906995296478 
0.011756064370274544 0.03417577967047691 0.016941897571086884 0.03321070224046707 -0.04533002898097038 -0.002877267776057124 0.010096665471792221 0.03810765966773033 0.0595506951212883 
0.06317036598920822 -0.008463595993816853 -0.01909647509455681 -0.05085928738117218 -0.0034939837642014027 -0.0011030881432816386 -0.052640434354543686 -0.05788106471300125 0.025822533294558525 
0.006902238354086876 0.02202455699443817 -0.03641572967171669 0.006642539985477924 -0.030727723613381386 0.02202082984149456 0.03234298154711723 0.061030443757772446 0.0373503752052784 
0.0009548033121973276 -0.021383611485362053 0.04148949682712555 0.03058744966983795 -0.0054627396166324615 -0.016220731660723686 0.009149878285825253 0.03128495439887047 0.011501549743115902 
0.016774384304881096 0.06511767208576202 0.06510737538337708 0.0013042425271123648 0.03814740851521492 -0.060089919716119766 -0.05706463381648064 -0.009320716373622417 -0.007675278000533581 
0.0023155391681939363 -0.008951626718044281 -0.006845460273325443 -0.053099364042282104 -0.053727131336927414 -0.06391849368810654 0.03513255715370178 0.052971720695495605 -0.040354251861572266 
0.016010813415050507 -0.04192865267395973 0.0040908451192080975 0.0020645083859562874 -0.03600499778985977 -0.00251390365883708 0.008838677778840065 -0.004822481889277697 0.0018536231946200132 
-0.024360692128539085 -0.03719710558652878 -0.023311883211135864 0.01573326252400875 0.020724978297948837 0.029624750837683678 0.04055792838335037 -0.012967381626367569 -0.05529423803091049 
0.05930250510573387 0.01133017148822546 -0.02959870919585228 -0.025956787168979645 0.031614985316991806 -0.025435758754611015 -0.020127400755882263 0.05515628308057785 -0.049307532608509064 
-0.045995451509952545 -0.058124180883169174 -0.012553521431982517 0.08800322562456131 0.007794308941811323 0.02589738927781582 -0.05479298159480095 0.04030928015708923 -0.0204062070697546 
0.04416435956954956 0.013130136765539646 -0.00863279215991497 0.02263128012418747 0.06470054388046265 -0.017095858231186867 -0.06125127151608467 0.0031121419742703438 0.004758408293128014 
0.0585671104490757 0.012485060840845108 -0.04511077329516411 0.047484830021858215 -0.04220675304532051 0.0436897911131382 0.05319390818476677 -0.016416896134614944 0.07095041126012802 
-0.04647744446992874 0.0655033066868782 0.05074036121368408 0.029124639928340912 0.015114687383174896 -0.05631411075592041 -0.031647440046072006 0.05487017333507538 -0.04478698596358299 
0.03170730918645859 0.03138063848018646 0.009167528711259365 0.05000060051679611 0.011816347017884254 -0.05608556047081947 0.05443292856216431 0.007673595566302538 -0.0020091035403311253 
0.014563022181391716 0.11427153646945953 0.02844182215631008 0.06972861289978027 0.04707539826631546 0.07083304226398468 0.09986288845539093 -0.003001199336722493 0.017129195854067802 
-0.0021052234806120396 0.07023937255144119 -0.08074464648962021 -0.004369827453047037 -0.006154931150376797 0.008560285903513432 -0.018539002165198326 -0.03365052491426468 -0.02344457060098648 
-0.0525520034134388 0.007992041297256947 0.01057565025985241 -0.016777807846665382 0.04051841422915459 -0.05465889722108841 -0.021007763221859932 -0.00435118330642581 0.02199803851544857 
0.0381431058049202 -0.06458111107349396 0.04222525656223297 -0.0332418791949749 -0.006953686010092497 -0.047881051898002625 -0.06119653210043907 0.02578153647482395 -0.043100155889987946 
-0.013436544686555862 -0.10762325674295425 -0.0226742010563612 0.03671427443623543 -0.10160328447818756 -0.007722917012870312 0.08075276017189026 -0.05143360421061516 -0.0620647668838501 
0.06276613473892212 0.006989010609686375 0.024598846212029457 -0.045504625886678696 0.05094011127948761 -0.018607690930366516 -0.025143306702375412 0.041359659284353256 -0.0007792558171786368 
-0.011512705124914646 -0.012785672210156918 0.04138834401965141 -0.01444979477673769 0.0002866926952265203 0.06679078191518784 0.026951786130666733 -0.03219703957438469 0.03896188735961914 
-0.020009784027934074 0.05356612429022789 -0.012858242727816105 0.030392946675419807 -0.025614570826292038 -0.017134804278612137 -0.06328374892473221 -0.06956708431243896 0.02428191527724266 
0.025465548038482666 0.04539798945188522 0.07485878467559814 -0.030355341732501984 -0.05895537510514259 -0.015692420303821564 0.02133318781852722 0.03812175989151001 0.011816601268947124 
0.007695120293647051 -0.001749265007674694 0.016575224697589874 0.049566350877285004 0.06290145218372345 -0.009358498267829418 -0.00428197905421257 0.07584308087825775 0.06550465524196625 
-0.06850381940603256 0.02329138107597828 -0.02293844148516655 0.004465435165911913 -0.048460982739925385 -0.043119464069604874 0.04134885594248772 -0.05065607652068138 -0.025574199855327606 
0.05488999933004379 0.031448815017938614 0.017299270257353783 0.013327743858098984 -0.00440032547339797 0.01880381815135479 -0.03691478073596954 0.0038078927900642157 0.017585493624210358 
-0.05032890662550926 -0.05107743665575981 -0.025571562349796295 -0.04837660491466522 0.052995871752500534 0.04761344939470291 -0.023389583453536034 0.0223233662545681 0.058424919843673706 
-0.045811425894498825 0.01663496345281601 -0.06361393630504608 -0.004844273440539837 0.011510340496897697 0.06331084668636322 0.019410911947488785 -0.009679991751909256 -0.04403115063905716 
-0.007979454472661018 -0.031727384775877 -0.0567181371152401 0.027301544323563576 -0.059689778834581375 0.01715017855167389 0.040014952421188354 -0.026360243558883667 -0.020004523918032646 
-0.01908416487276554 -0.03299975022673607 -0.018266327679157257 -0.047035057097673416 0.048745669424533844 0.0246217530220747 -0.013619921170175076 -0.03266707807779312 -0.033660631626844406 
0.018231049180030823 0.024450192227959633 -0.021150866523385048 -0.03039889596402645 0.051676079630851746 -0.013425112701952457 -0.020105188712477684 -0.026566069573163986 0.03945343941450119 
0.0015997797017917037 -0.014238694682717323 -0.02894921600818634 -0.0569755919277668 -0.0037630198057740927 0.006213732995092869 0.04593556746840477 0.0072152502834796906 0.0664081797003746 
-0.004909586627036333 0.002790159545838833 -0.038121629506349564 -0.018606994301080704 0.061749327927827835 -0.04188232868909836 0.037495166063308716 -0.03390207886695862 -0.01867102086544037 
0.05144276097416878 0.02336847223341465 0.06789290904998779 -0.025024868547916412 -0.040351126343011856 -0.009407379664480686 -0.0028737285174429417 -0.047079574316740036 0.04712764546275139 
0.019879475235939026 -0.06719908118247986 -0.047493040561676025 0.031064743176102638 -0.06071680784225464 -0.06290031969547272 -0.018329421058297157 -0.0634036511182785 0.04056364297866821 
-0.03305431082844734 0.012346205301582813 0.059989240020513535 -0.041349366307258606 -0.04612632095813751 -0.03445710241794586 0.04726523160934448 -0.06607367098331451 0.029414473101496696 
0.03375445678830147 -0.004282414447516203 -0.012796099297702312 -0.059560470283031464 -0.017521614208817482 -0.05378442630171776 -0.05050306022167206 -0.048623520880937576 -0.014378687366843224 
-0.02199055440723896 -0.06773153692483902 -0.017319975420832634 0.021470312029123306 0.03702767938375473 0.05750637874007225 0.020556893199682236 0.05793258920311928 -0.007523259148001671 
0.00664119329303503 0.03265894576907158 -0.09270080924034119 0.046581193804740906 -0.023670481517910957 0.023730028420686722 0.061218488961458206 -0.026205290108919144 -0.013031627051532269 
-0.031624410301446915 -0.06025921553373337 -0.023631608113646507 -0.0389694906771183 -0.061337847262620926 -0.013380705378949642 0.040208667516708374 0.00883004255592823 -0.03181418776512146 
0.03959881141781807 -0.02377951145172119 0.030643966048955917 0.03433503955602646 -0.018414266407489777 0.01313327718526125 0.027702072635293007 -0.061456192284822464 0.04047225043177605 
-0.058865245431661606 0.031095288693904877 0.057513777166604996 0.0003550532564986497 0.017208751291036606 0.031157035380601883 0.043100301176309586 -0.00305937509983778 -0.02698606625199318 
-0.013111925683915615 0.049114543944597244 -0.04162280261516571 -0.005079107359051704 0.07208370417356491 -0.0010456020245328546 0.049846868962049484 0.10689300298690796 -0.005528348032385111 
-0.037744272500276566 0.038736939430236816 -0.026944296434521675 -0.0033039182890206575 -0.039830684661865234 0.06101362407207489 0.03229808062314987 0.023638252168893814 0.02668696828186512 
-0.05871967971324921 -0.05055854097008705 0.038857150822877884 -0.05276675522327423 -0.04697131738066673 -0.03740040957927704 0.00677971076220274 -0.052832625806331635 0.036576054990291595 
-0.051784444600343704 0.060520902276039124 -0.027386296540498734 -0.010290825739502907 0.05943918973207474 -0.04729848355054855 -0.04328703507781029 -0.04097003862261772 -0.0660678818821907 
0.04915110766887665 -0.05686267837882042 0.03581005707383156 0.058079205453395844 0.002957709599286318 -0.007034447509795427 -0.009110561572015285 0.00875686015933752 -0.03952125087380409 
0.050259195268154144 0.03524033725261688 -0.05459078028798103 0.05154756084084511 0.012005861848592758 -0.009126304648816586 -0.0205738116055727 -0.07414032518863678 0.03854609653353691 
-0.03713579103350639 0.04019973799586296 -0.035136930644512177 0.05039868876338005 0.030082445591688156 0.07447037100791931 -0.017832349985837936 0.046518851071596146 0.027289319783449173 
-0.008098764345049858 -0.05550483986735344 -0.041039902716875076 -0.05279507115483284 -0.041993655264377594 -0.025234922766685486 -0.03399287164211273 0.05386325344443321 -0.0432707853615284 
0.019529322162270546 -0.022711368277668953 -0.07898568361997604 0.025595925748348236 -0.0033766867127269506 0.0008098519174382091 -0.02824142761528492 -0.043864671140909195 -0.0017754628788679838 
0.05373169854283333 0.057128261774778366 0.019342178478837013 -0.02048550732433796 0.02135777473449707 0.055215440690517426 -0.006755312904715538 0.06398877501487732 0.015247784554958344 
0.038964688777923584 0.026038827374577522 -0.03177869692444801 0.002234985353425145 0.010086092166602612 -0.03235979378223419 -0.008089014329016209 0.06477378308773041 0.029360419139266014 
-0.04705100879073143 0.05097009241580963 0.02273417077958584 0.02182110585272312 -0.0021759900264441967 0.05190208554267883 0.03044123947620392 -0.045110635459423065 0.008861229754984379 
0.056342288851737976 0.028651457279920578 0.048808880150318146 -0.06762140989303589 0.03427619859576225 -0.02698107250034809 0.010287562385201454 0.04403701797127724 -0.04064785689115524 
0.055091679096221924 -0.03576741740107536 -0.0029361455235630274 -0.0463910810649395 -0.010115377604961395 0.04534314572811127 0.007254358846694231 -0.03328147903084755 -0.00020169529307167977 
-0.034484174102544785 -0.03504776582121849 -0.04098353534936905 -0.03614756837487221 -0.006901302374899387 0.019094320014119148 -0.05284789577126503 0.01882876828312874 -0.011593670584261417 
-0.023552382364869118 0.053603701293468475 -0.021339982748031616 -0.039367903023958206 0.025093093514442444 0.0181698277592659 0.01723858341574669 0.005800722632557154 -0.06028101220726967 
-0.05393180623650551 -0.04446389526128769 -0.03121437318623066 -0.0117720328271389 0.03057747893035412 -0.013137121684849262 -0.05664777755737305 0.06396368891000748 -0.005334401037544012 
-0.040419623255729675 -0.06486926227807999 0.02765200100839138 0.015719208866357803 0.03122224658727646 -0.017177950590848923 -0.05248560011386871 -0.03447062522172928 -0.03782074898481369 
-0.013505355454981327 0.05002123489975929 -0.04658082500100136 0.017490364611148834 0.0629052147269249 0.05794140323996544 0.01824682205915451 -0.055011678487062454 -0.03867558762431145 
-0.0477900505065918 -0.06077287346124649 0.02783992327749729 -0.05143149942159653 -0.051876138895750046 -0.024017252027988434 0.04696991667151451 -0.042580269277095795 0.021768974140286446 
0.0196383036673069 0.030029959976673126 -0.06229168549180031 -0.06914734840393066 0.08192291855812073 -0.06415396183729172 0.07277136296033859 0.06679326295852661 0.008807819336652756 
0.0288207046687603 -0.007051466032862663 -0.08984527736902237 -0.009174718521535397 -0.03501732647418976 0.0035049307625740767 -0.06114635616540909 -0.02782895602285862 -0.06751038879156113 
-0.04042079672217369 0.04071705415844917 0.026705708354711533 0.0012370954500511289 -0.03358665108680725 -0.04481292515993118 0.06211656332015991 -0.013526007533073425 0.026755470782518387 
-0.008312411606311798 0.03920523822307587 -0.0318547785282135 -0.06634075194597244 0.0527162030339241 0.006602691952139139 -0.06591379642486572 0.0014407194685190916 -0.009784042835235596 
-0.016723060980439186 0.04791607707738876 -0.05761544406414032 0.040285542607307434 -0.018421005457639694 -0.02611946500837803 -0.014832310378551483 0.0324600450694561 -0.01694202795624733 
-0.0378456711769104 0.04711908474564552 0.03342074528336525 -0.025492724031209946 0.017272107303142548 0.018106205388903618 0.05258575454354286 -0.05628744140267372 -0.06307069957256317 
-0.059312138706445694 0.036501117050647736 0.05073592811822891 -0.02783142402768135 0.050013042986392975 0.008055445738136768 0.023539448156952858 -0.021510470658540726 0.006658516824245453 
0.00534275034442544 -0.04645364359021187 0.04823727533221245 0.046225666999816895 0.0036359638907015324 -0.05552409961819649 0.046757251024246216 0.004764249082654715 0.03812047466635704 
0.038786426186561584 0.09698688238859177 -0.0421895831823349 0.020457608625292778 -0.0356898307800293 0.058513712137937546 0.04932874068617821 -0.03965307027101517 0.04795515537261963 
-0.07853944599628448 -0.024849003180861473 0.005749056581407785 -0.015413565561175346 0.06700357049703598 0.05915221571922302 0.04445923864841461 0.025520633906126022 -0.04964083060622215 
-0.016324223950505257 -0.008439607918262482 -0.0031026662327349186 0.01569223217666149 0.01044874731451273 -0.005782038439065218 0.024193093180656433 0.07343707978725433 -0.027832020074129105 
0.06160147115588188 0.0463886596262455 -0.027845006436109543 -0.05295350030064583 0.04449446126818657 -0.04080694168806076 -0.0527784526348114 0.005824556574225426 -0.0628606528043747 
-0.057053130120038986 0.024475105106830597 0.021076474338769913 0.045563653111457825 -0.04413163661956787 -0.061642732471227646 0.04608571529388428 0.026076018810272217 -0.03405949845910072 
0.0648709237575531 -0.0022181535605341196 0.0597660131752491 -0.0686701089143753 0.03492160513997078 0.04357562214136124 0.022984648123383522 -0.010986131615936756 0.04415843263268471 
0.06587972491979599 0.042675744742155075 -0.03930653631687164 -0.05990709364414215 -0.007069908548146486 -0.007120964117348194 -0.06364154815673828 -0.04872123524546623 0.026179956272244453 
-0.006849487312138081 -0.05740462616086006 0.03082430176436901 -0.019176561385393143 -0.015606148168444633 -0.004085643216967583 0.03108043409883976 0.04406540468335152 -0.04829355329275131 
0.06055331230163574 0.0405571423470974 -0.02399957925081253 -0.0362679623067379 0.02282211370766163 0.024459540843963623 0.06053420901298523 0.029339078813791275 -0.035463470965623856 
0.0420609787106514 -0.033640243113040924 -0.06182241067290306 0.009943204931914806 -0.03965090960264206 -0.0389767587184906 0.05814334750175476 0.04458482936024666 0.06722843647003174 
0.05650855973362923 -0.03498516604304314 -0.012163031846284866 0.02795838937163353 -0.052265506237745285 0.006908626761287451 -0.06560271978378296 -0.014399650506675243 -0.007767317816615105 
-0.03399273380637169 -0.04969900846481323 -0.07125210016965866 -0.0031635307241231203 0.05353456363081932 0.018453335389494896 -0.003939772956073284 0.07364192605018616 0.028913773596286774 
0.06449493020772934 -0.03174576908349991 0.025330035015940666 -0.022713059559464455 -0.004087979439646006 0.024035075679421425 0.00748411612585187 0.013751767575740814 -0.06683580577373505 
0.0060941255651414394 0.06054103747010231 0.04382381588220596 0.0010912822326645255 0.029110578820109367 0.03472813218832016 -0.0423668771982193 -0.05465831980109215 -0.06166364252567291 
-0.05854536220431328 -0.007321603130549192 0.010548078455030918 -0.045953165739774704 0.061960890889167786 0.06385108828544617 -0.0010340330190956593 0.025919992476701736 0.02640526182949543 
0.06475647538900375 -0.030890192836523056 -0.01618826948106289 -0.03377744182944298 -0.003757562255486846 -0.02392820455133915 -0.015204694122076035 0.039441369473934174 -0.0062789893709123135 
0.03142822906374931 -0.08428101986646652 -0.04612310603260994 0.04814871773123741 0.017549827694892883 -0.07659009099006653 0.040890127420425415 -0.0867375060915947 -0.06315610557794571 
-0.09563010185956955 0.018148163333535194 -0.08278760313987732 -0.05235633626580238 0.12167499214410782 -0.017412172630429268 -0.02759265899658203 0.08400131016969681 -0.0966619923710823 
0.06024547293782234 -0.0053337253630161285 0.009708989411592484 0.061435338109731674 0.013236746191978455 0.003255826886743307 -0.03380811586976051 0.040468182414770126 -0.056267816573381424 
-0.011695558205246925 0.006291976664215326 0.038809292018413544 0.0405321903526783 -0.06570390611886978 0.060617972165346146 -0.05976012349128723 -0.029316792264580727 -0.064959317445755 
-0.058673497289419174 0.01320930290967226 0.06592635065317154 -0.0131750563159585 0.06114978715777397 -0.01703847385942936 0.021619444712996483 -0.01177450455725193 -0.01577632687985897 
0.05292762443423271 -0.0455530621111393 -0.045582499355077744 0.02280706726014614 0.00788777694106102 -0.017803724855184555 -0.03373878821730614 0.04948100447654724 -0.01007934845983982 
0.025402139872312546 0.03332754969596863 -0.016102038323879242 -0.025555383414030075 0.06560687720775604 0.02521231397986412 -0.0003518377197906375 0.0348212756216526 0.030201511457562447 
0.030132748186588287 0.023151246830821037 0.006889683660119772 -0.036694083362817764 -0.007405193988233805 0.07068753242492676 -0.04506418853998184 0.044537175446748734 -0.02145915850996971 
0.03373589366674423 0.040132325142621994 -0.029474563896656036 0.029769686982035637 0.0386977382004261 0.021986931562423706 0.030925486236810684 -0.012541955336928368 -0.07447090744972229 
-0.015729006379842758 0.06118972972035408 -0.033382613211870193 0.012643029913306236 0.020037595182657242 0.04521095007658005 0.06151973828673363 0.06345484405755997 0.008014091290533543 
-0.008587121032178402 0.017826884984970093 0.07537317276000977 -0.06520234793424606 -0.035115182399749756 -0.07084546238183975 -0.024032069370150566 0.007906835526227951 0.020970601588487625 
-0.038300521671772 -0.034892063587903976 -0.005045656114816666 -0.04820878803730011 0.03672526404261589 -0.009702152572572231 -0.005522528663277626 0.06322335451841354 -0.06620604544878006 
0.008214699104428291 0.04067362844944 -0.049108538776636124 -0.0191841758787632 0.014470452442765236 0.05298962444067001 -0.04493263363838196 -0.061871059238910675 0.016030749306082726 
-0.04462970420718193 0.040247999131679535 0.054680828005075455 0.010536999441683292 0.04564645141363144 -0.04330695420503616 -0.052095938473939896 0.016121549531817436 -0.07070409506559372 
-0.05425993725657463 0.07219778746366501 0.024287790060043335 -0.0016042435308918357 -0.05148892477154732 -0.03093584254384041 0.03949539363384247 0.05677726864814758 0.04518558457493782 
-0.03440004214644432 0.015842672437429428 -0.06168775260448456 -0.044560614973306656 0.06443565338850021 0.028099652379751205 0.030350470915436745 -0.059152062982320786 0.02105659805238247 
-0.039832279086112976 -0.03922497108578682 0.01244267262518406 -0.005718772765249014 -0.05409637466073036 -0.0317113921046257 -0.052894894033670425 -0.05207790061831474 -0.02999289333820343 
0.051741067320108414 0.04901233687996864 -0.017787523567676544 0.006611847318708897 0.010243197903037071 -0.012181035242974758 -0.036144472658634186 -0.054541271179914474 0.007726199459284544 
0.012009959667921066 -0.02407834865152836 0.020419936627149582 0.014122557826340199 -0.023540835827589035 -0.028824355453252792 0.009705191478133202 -0.06771396100521088 -0.062391337007284164 
0.04265422746539116 -0.08104537427425385 0.03580016270279884 0.05207981914281845 -0.06988124549388885 -0.06276639550924301 -0.009408761747181416 -0.07529912143945694 -0.0711943581700325 
-0.07201772928237915 -0.03704141452908516 -0.0033657264430075884 0.0173477865755558 0.018962649628520012 0.004097983241081238 -0.07707901298999786 -0.0748785063624382 -0.018701333552598953 
-0.018289407715201378 0.05651610717177391 -0.003840151708573103 0.02928859554231167 -0.012728539295494556 0.014552819542586803 0.059080205857753754 0.041613027453422546 -0.006306748371571302 
-0.06156565248966217 -0.03386051952838898 0.048366282135248184 -0.0016828668303787708 0.02482105791568756 0.022829676046967506 -0.043813712894916534 0.0497850626707077 -0.012392102740705013 
-0.0348062627017498 -0.03443266078829765 0.003966853488236666 -0.01696048676967621 0.06928583979606628 0.06575669348239899 0.05714159086346626 -0.016605310142040253 -0.04380842670798302 
-0.05391744524240494 -0.02329115942120552 0.052333954721689224 -0.0014294283464550972 0.03759259358048439 0.09134574234485626 -0.038262829184532166 -0.02963320165872574 -0.013351665809750557 
0.026825953274965286 -0.047746602445840836 0.07594484090805054 0.10538545995950699 0.03585623577237129 0.09935980290174484 0.009257017634809017 -0.07817060500383377 0.011733219027519226 
-0.012142234481871128 0.0005221819737926126 -0.0492762066423893 -0.013256851583719254 0.014386468566954136 0.03174946457147598 -0.05463109165430069 0.06355686485767365 -0.04977946728467941 
0.027043813839554787 0.009590625762939453 -0.06010933220386505 -0.01109139621257782 -0.03406977653503418 0.04112685099244118 -0.048633236438035965 0.059496134519577026 0.05610842630267143 
-0.007945734076201916 0.033883050084114075 -0.042414307594299316 0.07221469283103943 0.05686846747994423 0.02112716995179653 -0.01971476711332798 0.06637073308229446 0.02341460809111595 
-0.015079934149980545 -0.01729871891438961 -0.022525381296873093 0.06075240299105644 0.017906319350004196 -0.012649680487811565 0.04675506055355072 0.037073805928230286 0.00560073833912611 
-0.015447801910340786 0.004064776469022036 0.012800226919353008 0.01827063225209713 -0.05315348505973816 0.01995064690709114 0.043651822954416275 -0.06189975142478943 -0.05547042936086655 
-0.0006387719768099487 -0.009037340059876442 -0.047419626265764236 -0.04478868469595909 0.047985535115003586 0.03257273882627487 0.05380239710211754 0.01535764429718256 -0.017517725005745888 
-0.055972035974264145 -0.009683485142886639 0.05514055863022804 -0.028639277443289757 0.0036169395316392183 -0.015509704127907753 0.0039700972847640514 0.053385138511657715 -0.0008618267602287233 
-0.023027189075946808 -0.02008807845413685 0.010510526597499847 -0.034268416464328766 -0.01260545663535595 0.007201119791716337 0.025189610198140144 -0.02842072583734989 -0.05102281644940376 
0.014141937717795372 0.04583512991666794 0.043411705642938614 0.03600204735994339 -0.03177034109830856 0.02654154598712921 0.06339027732610703 0.07972540706396103 0.06899932771921158 
-0.041584283113479614 -0.014287752099335194 -0.031057311221957207 -0.03490005433559418 0.002010120078921318 0.03405221179127693 -0.017056316137313843 0.03387277200818062 -0.010111928917467594 
-0.003152838908135891 0.0710182785987854 -0.07429592311382294 -0.037539999932050705 -0.000990277505479753 0.03223404288291931 -0.014673927798867226 -0.02712707221508026 0.020149921998381615 
-0.04396086558699608 -0.0013307847548276186 0.013442094437777996 -0.05885147303342819 0.04325491189956665 0.05780680850148201 0.014646378345787525 0.025971898809075356 -0.03404010832309723 
-0.015226731076836586 0.01986856944859028 0.003517345990985632 0.02446618862450123 -0.019940711557865143 0.02845350094139576 -0.04190952330827713 0.035895027220249176 0.05043276026844978 
-0.03824104741215706 -0.05661999061703682 0.03443056344985962 -0.022774746641516685 0.03493823483586311 0.05745319277048111 -0.06858810782432556 0.002035387558862567 -0.06117335706949234 
-0.0025528157129883766 -0.02752852998673916 0.012121210806071758 -0.059930380433797836 -0.016449211165308952 -0.0641845315694809 -0.021200818940997124 0.06338184326887131 0.038358770310878754 
0.059171952307224274 0.0030772320460528135 -0.05726780369877815 -0.07136080414056778 -0.03294464573264122 -0.060320064425468445 -0.02282111719250679 0.05243125557899475 0.06393324583768845 
-0.019841164350509644 -0.03214697912335396 -0.030426984652876854 0.024758899584412575 -0.06404795497655869 0.03627932816743851 -0.028440067544579506 0.003361548064276576 -0.018661072477698326 
-0.038540080189704895 -0.03309820592403412 -0.06167144700884819 0.047682926058769226 0.0003138405445497483 -0.06046079471707344 -0.04968664050102234 0.008371362462639809 -0.08446139097213745 
0.06244245171546936 0.07005846500396729 -0.05291605368256569 -0.015931343659758568 -0.029079146683216095 -0.032820649445056915 0.037864964455366135 -0.015933988615870476 0.05949891358613968 
-0.03401977941393852 0.026444021612405777 -0.03316369652748108 -0.03866365924477577 -0.03723302111029625 0.04173049330711365 -0.04709644988179207 -0.02371264435350895 0.05175246670842171 
-0.03129957243800163 -0.024002110585570335 0.03412608429789543 -0.026665551587939262 0.04144054278731346 0.03586420789361 0.060195259749889374 -0.01588442176580429 -0.006566196214407682 
0.032632015645504 -0.047471340745687485 0.05631888285279274 0.033055853098630905 -0.017866965383291245 0.019009103998541832 -0.021319730207324028 -0.012691815383732319 0.02882092073559761 
0.04937053099274635 0.016694676131010056 -0.03694447875022888 0.0014800630742684007 0.04797808825969696 -0.06714683026075363 0.058393653482198715 0.041256461292505264 -0.006308046635240316 
0.024899935349822044 0.0066731213591992855 -0.0569569431245327 -0.030524227768182755 -0.007255055475980043 -0.09919653087854385 -0.03206656873226166 -0.02367180958390236 -0.08736002445220947 
-0.06569229811429977 0.02018408291041851 -0.045435696840286255 0.03274901583790779 -0.03646928444504738 0.028444189578294754 0.04008743166923523 -0.05923737958073616 0.029194941744208336 
-0.04399316757917404 -0.015121722593903542 -0.008335811085999012 0.030034594237804413 0.009950889274477959 0.026554955169558525 -0.05843790993094444 -0.06476214528083801 0.010671368800103664 
-0.080854631960392 0.015374409966170788 -0.03234783932566643 -0.01411796361207962 -0.04584828391671181 -0.0820099413394928 0.018212459981441498 0.020406169816851616 -0.01727449893951416 
-0.055023230612277985 0.05076158046722412 0.021498795598745346 -0.046935245394706726 0.03791875019669533 -0.048741698265075684 -0.0020737347658723593 0.01806790754199028 0.022950053215026855 
-0.017828714102506638 -0.06647327542304993 -0.06594694405794144 -0.043622277677059174 -0.020412323996424675 0.037919025868177414 0.018287908285856247 0.06033221259713173 0.03789801150560379 
0.03816783428192139 -0.030288100242614746 0.05560778081417084 0.025440433993935585 0.02996590919792652 -0.03174777701497078 -0.05539599061012268 0.01637783646583557 -0.01256682351231575 
0.005836837459355593 0.05835487321019173 -0.009546065703034401 -0.004264441318809986 -0.009220285341143608 -0.02010788954794407 -0.07067625969648361 0.027992894873023033 -0.064456507563591 
-0.08593594282865524 0.010308386757969856 0.033614929765462875 0.042233679443597794 0.031125476583838463 -0.06672032177448273 -0.06949105858802795 -0.000885221001226455 0.005795566365122795 
-0.07725980877876282 0.06378665566444397 0.03285648301243782 0.04897204786539078 0.05516141280531883 -0.016704771667718887 -0.007232451345771551 -0.048824965953826904 -0.010834118351340294 
-0.01418986264616251 -0.05733721703290939 0.0512724444270134 0.03582850471138954 -0.04083733633160591 -0.03825126588344574 -0.0034315502271056175 0.05072583258152008 -0.002674452494829893 
0.034362275153398514 -0.053949642926454544 0.03214341402053833 0.023832587525248528 -0.02316930890083313 -0.03417652100324631 -0.005220710765570402 -0.009835009463131428 -0.059797510504722595 
0.0206613652408123 0.03855816647410393 -0.030475884675979614 0.010678608901798725 -0.04363890364766121 0.025598153471946716 -0.004713113885372877 0.0551934652030468 0.02915119007229805 
-0.04572204872965813 0.06779255717992783 -0.004584018141031265 -0.008281795307993889 -0.0638670027256012 0.023775262758135796 0.022023728117346764 0.006102376617491245 -0.0086485855281353 
0.007141332142055035 0.04200638085603714 -0.040920190513134 -0.04834950715303421 0.025768619030714035 -0.029510540887713432 0.01060068141669035 0.049319613724946976 0.06526340544223785 
0.027639305219054222 0.00460459478199482 -0.02311263419687748 -0.059719983488321304 -0.04678802937269211 -0.0017321344930678606 -0.03083822689950466 0.0650799497961998 -0.0018914808752015233 
-0.05506030097603798 0.045085325837135315 0.014155416749417782 -0.04483900964260101 -0.016064340248703957 -0.03115738555788994 0.05977196246385574 -0.04376404359936714 0.0260847806930542 
-0.03841986134648323 0.04136358201503754 -0.026208454743027687 -0.012678124941885471 -0.06258558481931686 -0.04308651015162468 -0.009667428210377693 0.012237259186804295 -0.015607140958309174 
0.051259659230709076 0.06462868303060532 -0.012124055065214634 -0.020010821521282196 -0.01036442443728447 -0.03219153359532356 -0.05569838732481003 0.03586979955434799 -0.04373076558113098 
0.059197623282670975 0.019008198752999306 0.0036299112252891064 -0.039117246866226196 0.06860075145959854 0.05441625788807869 0.010985312052071095 0.07170558720827103 0.050957091152668 
0.07100649178028107 -0.008008754812180996 -0.03074202500283718 0.0638594701886177 -0.037016887217760086 0.038808055222034454 -0.04755158722400665 0.002215363085269928 -0.027298850938677788 
-0.007885170169174671 -0.05695967376232147 0.003513192990794778 0.008836556226015091 0.018044255673885345 -0.023668451234698296 -0.03502226620912552 -0.002929712412878871 -0.05588413402438164 
0.01317688263952732 0.026051761582493782 0.04312819242477417 0.0028881460893899202 0.07113068550825119 -0.015734359622001648 -0.039953310042619705 0.04901420697569847 -0.03992673009634018 
0.05663235858082771 -0.041255343705415726 -0.05728823319077492 0.06319735944271088 0.024747038260102272 -0.04727799817919731 -0.022311033681035042 0.019241362810134888 0.04384179040789604 
-0.03299788758158684 -0.010843380354344845 -0.04440908133983612 -0.030936913564801216 0.054387032985687256 -0.048634324222803116 -0.0018555144779384136 0.09715170413255692 -0.06472048908472061 
0.045010045170784 0.06275150179862976 0.04009793698787689 -0.0018744932021945715 0.05479715019464493 0.052973248064517975 -0.02518080174922943 0.02957858331501484 0.06925611197948456 
0.03170677274465561 -0.06732682138681412 0.057727351784706116 -0.015098661184310913 -0.049596525728702545 -0.01913720928132534 0.06145130470395088 -0.006146131549030542 -0.06468523293733597 
-0.011590488255023956 -0.013655179180204868 -0.05623571202158928 0.060892634093761444 0.046854168176651 -0.062291041016578674 -0.008924547582864761 0.077374167740345 -0.034191783517599106 
-0.025172129273414612 -0.028481170535087585 -0.06265419721603394 -0.011135831475257874 -0.017450349405407906 0.06716393679380417 -0.026643997058272362 -0.026346823200583458 0.04726586118340492 
0.05191263183951378 -0.04242922365665436 0.020752577111124992 0.026236506178975105 0.024448074400424957 -0.05393693596124649 0.05381733924150467 -0.05682820826768875 -0.004400116391479969 
0.06386157870292664 -0.009740849025547504 0.008028930984437466 0.04572082683444023 0.0754290372133255 0.009225282818078995 -0.043235018849372864 -0.014538637362420559 -0.055862314999103546 
0.04905074089765549 0.08746182918548584 -0.03402354195713997 0.06966348737478256 0.009880873374640942 0.06048032268881798 -0.056542590260505676 0.03047139197587967 -0.044042281806468964 
0.05118253082036972 0.037173792719841 0.01716986857354641 -0.027839425951242447 0.04988280311226845 -0.02915792539715767 -0.06022021546959877 0.07932742685079575 -0.025410456582903862 
0.03744450956583023 0.03472587838768959 0.013225655071437359 -0.021644234657287598 0.07313330471515656 0.059018902480602264 -0.04798683896660805 0.04923224449157715 0.017246339470148087 
-0.0533064566552639 0.038506731390953064 0.061127886176109314 -0.038883499801158905 0.03352006524801254 -0.02659671939909458 -0.03913680091500282 0.04455598071217537 0.016760261729359627 
-0.04406242072582245 0.0061676413752138615 0.009562412276864052 0.07986915856599808 -0.01980406790971756 0.014552191831171513 -0.05185840278863907 0.0519583486020565 -0.0022889436222612858 
0.004474794492125511 0.05342087894678116 -0.06111558899283409 0.06447073817253113 0.06314758956432343 0.043831031769514084 -0.00011264408385613933 -0.011743638664484024 -0.051129698753356934 
-0.03907199203968048 -0.023928241804242134 0.014743365347385406 -0.032376136630773544 -0.004242704249918461 -0.06243889778852463 -0.03583052009344101 0.04299846291542053 0.04678788036108017 
0.0038403894286602736 0.05272660404443741 -0.003535374766215682 0.06672073900699615 0.056250620633363724 -0.06069974973797798 0.04992659017443657 0.0380503349006176 -0.05817895755171776 
-0.050001587718725204 -0.04481980577111244 -0.0015459951246157289 0.05605333670973778 0.020862318575382233 0.027855366468429565 0.001308801700361073 0.03749997541308403 0.049165986478328705 
0.009408351965248585 -0.007398783694952726 -0.029959481209516525 -0.04706880450248718 -0.055071502923965454 -0.016885079443454742 -0.06992720067501068 0.04279864951968193 -0.014543771743774414 
-0.0004391850670799613 -0.046970218420028687 0.059357356280088425 -0.022172851487994194 0.013251163065433502 -0.01016927883028984 -0.030793746933341026 0.0148809514939785 -0.005992596037685871 
0.03064332902431488 -0.006426304113119841 0.027197785675525665 -0.007394462823867798 0.10864551365375519 0.02193627320230007 -0.01676497980952263 0.027711499482393265 -0.03669333830475807 
0.073567695915699 -0.0027788213919848204 -0.06388650834560394 -0.018207533285021782 0.05640961229801178 -0.060914747416973114 0.011326019652187824 -0.010891328565776348 0.03544383868575096 
0.011687510646879673 0.008399777114391327 -0.05058341473340988 -0.04219455644488335 -0.04894550144672394 -0.006936380639672279 -0.03531702607870102 -0.014232376590371132 0.060569439083337784 
-0.04272729158401489 0.013245359994471073 -0.053977251052856445 -0.04936380311846733 0.03806375339627266 -0.02018674463033676 0.05875573307275772 -0.026355944573879242 0.05610434710979462 
-0.0438823401927948 -0.037915848195552826 0.04639489948749542 0.037080127745866776 0.051472730934619904 -0.0625038892030716 0.02259463258087635 0.04443055018782616 0.059302400797605515 
0.05139126256108284 0.09732815623283386 -0.017731793224811554 0.04416539892554283 0.13008487224578857 -0.05815005674958229 0.06838119775056839 0.09315900504589081 0.008567368611693382 
-0.028709137812256813 -0.0761534571647644 -0.0524076484143734 -0.03262742981314659 0.04774710163474083 -0.08645694702863693 -0.03818520903587341 -0.05376627668738365 -0.11863560974597931 
-0.05680481344461441 -0.05984797328710556 0.015131454914808273 -0.021202649921178818 0.06362449377775192 -0.016184817999601364 -0.04881872609257698 -0.03329094871878624 -0.005267317872494459 
-0.058268073946237564 0.041036948561668396 0.04886331409215927 -0.040522199124097824 -0.007822853513062 0.06505977362394333 -0.03757692500948906 -0.02921968325972557 0.04738573729991913 
-0.00874372012913227 0.045314520597457886 -0.010597503744065762 -0.10185607522726059 0.06879109889268875 -0.059190526604652405 0.023295652121305466 -0.025633275508880615 -0.10606145113706589 
0.06961032748222351 0.029841963201761246 0.004832226783037186 -0.0659954845905304 0.04631034657359123 -0.022914402186870575 0.04055064171552658 0.018886882811784744 -0.008464490994811058 
-0.02169770561158657 0.06155579164624214 0.05458633601665497 0.05074017867445946 -0.006306763272732496 0.018707426264882088 0.060850679874420166 -0.043305158615112305 0.027322465553879738 
-0.04599928483366966 0.012158559635281563 -0.025161532685160637 -0.02211279422044754 0.029540367424488068 -0.06291328370571136 -0.012060861103236675 0.0023658659774810076 -0.009139318019151688 
0.057860735803842545 0.012013133615255356 0.06855453550815582 0.08729153126478195 0.01009927224367857 -0.04236147552728653 -0.03710920363664627 0.03531048819422722 0.027142049744725227 
0.02328363060951233 -0.009870670735836029 0.036495599895715714 -0.013075706548988819 -0.004794152453541756 0.021023591980338097 -0.0583246573805809 0.018796266987919807 -0.048732247203588486 
-0.06627479195594788 -0.019442306831479073 -0.07796304672956467 -0.05803695693612099 0.029602553695440292 -0.0853046327829361 0.0465216301381588 -0.04953322187066078 -0.07773257791996002 
0.036854829639196396 0.05802860110998154 0.009902545250952244 -0.06092841923236847 0.01856440119445324 0.012330986559391022 -0.01868719980120659 -0.03153693303465843 -0.05592988803982735 
0.04926753416657448 0.035511843860149384 0.04184883460402489 -0.052850835025310516 0.002234086627140641 -0.03637507185339928 0.002555371029302478 -0.027701282873749733 0.030552038922905922 
-0.00926254689693451 0.04870115593075752 0.04846808314323425 -0.016603384166955948 -0.06682976335287094 -0.053720854222774506 -0.012184704653918743 -0.014921991154551506 0.03969452530145645 
0.03611825406551361 -0.05389495566487312 -0.024824172258377075 0.0630645900964737 0.014321403577923775 -0.06311813741922379 -0.026681486517190933 -0.05151286721229553 0.022624453529715538 
-0.038424454629421234 0.06793307512998581 0.0140754459425807 -0.029306970536708832 -0.06612365692853928 0.0345291942358017 -0.04226626455783844 -0.044594377279281616 0.020144769921898842 
-0.061076171696186066 0.02219361625611782 -0.0230314489454031 -0.04813903570175171 0.005653867963701487 -0.03438551351428032 0.030156999826431274 -0.06512623280286789 0.024664388969540596 
-0.056707244366407394 -0.019137371331453323 0.041471924632787704 0.0408196896314621 0.01192321628332138 -0.04934954270720482 -0.012543350458145142 -0.03337378799915314 -0.037708502262830734 
0.04347241669893265 0.038989122956991196 -0.025722630321979523 -0.026915617287158966 0.05243365094065666 -0.02124633640050888 -0.05574379116296768 -0.0001275910035474226 0.05793767422437668 
-0.02695864997804165 0.02851761318743229 -0.012027149088680744 -0.05971245467662811 0.010182670317590237 -0.009212292730808258 -0.06625428795814514 -0.06338279694318771 -0.04833002761006355 
0.0024030287750065327 -0.02723030000925064 -0.06899205595254898 0.04307839646935463 0.024112258106470108 0.004968957509845495 0.017832735553383827 0.026742221787571907 5.073012289358303e-05 
-0.029664888978004456 -0.008216305635869503 -0.013494345359504223 -0.022246968001127243 -0.05031875520944595 -0.05459326133131981 -0.022394781932234764 -0.04049793258309364 0.017708562314510345 
-0.03354312479496002 0.04338070750236511 -0.016766076907515526 -0.001308009959757328 -0.0599459744989872 0.047014765441417694 0.03631649538874626 -0.03671303391456604 -0.019530953839421272 
0.0583777092397213 -0.01259371917694807 0.030433163046836853 0.0070049515925347805 -0.06601841002702713 0.05032480135560036 -0.031026462092995644 0.012272315099835396 -0.008542964234948158 
-0.0107423709705472 -0.03942618891596794 -0.04220689460635185 -0.03942049667239189 0.009543820284307003 -0.06502248346805573 0.002817461732774973 0.025042429566383362 -0.018812324851751328 
0.017878124490380287 0.019313452765345573 0.0028735408559441566 -0.05244128778576851 -0.01103150099515915 -0.050145599991083145 -0.02622075006365776 -0.009654711931943893 0.025333644822239876 
-0.04954179376363754 -0.01991180144250393 -0.04706114903092384 0.019698884338140488 -0.02628719061613083 0.02277112565934658 0.03811768442392349 0.05846630036830902 -0.009858121164143085 
0.06270230561494827 0.03352262079715729 -0.0073772394098341465 0.05996143817901611 -0.018920281901955605 -0.05404983088374138 0.02911234274506569 0.05022786185145378 -0.005452815908938646 
-0.024038182571530342 -0.03448529914021492 0.009021189995110035 0.04959750920534134 0.011451944708824158 -0.0630408525466919 0.01569138467311859 0.06655297428369522 -0.058278921991586685 
0.06571044772863388 -0.0012633592123165727 0.0565783753991127 0.01304516289383173 0.013819441199302673 -0.0018334193155169487 0.03715819865465164 0.006439162418246269 0.05502575263381004 
-0.041275203227996826 0.05073493719100952 0.009561869315803051 0.05603710934519768 0.040938425809144974 0.03493485972285271 0.013593841344118118 -0.043088149279356 0.061474401503801346 
0.061270568519830704 -0.024844834581017494 0.05165555700659752 0.03666579723358154 -0.01947256550192833 0.023399945348501205 -0.007314285729080439 0.03204057738184929 0.024812743067741394 
-0.011080986820161343 -0.025393882766366005 -0.02070007473230362 0.05118450149893761 0.0627422109246254 0.00847602915018797 0.016219958662986755 0.029409410431981087 0.008192320354282856 
-0.04370132461190224 0.03547241538763046 -0.03008771315217018 0.039916690438985825 -0.03668127581477165 -0.008947147987782955 0.011290418915450573 0.0021383720450103283 0.0023802181240171194 
0.05092635750770569 -0.041933488100767136 -0.04429185763001442 0.008790495805442333 -0.0013046637177467346 0.02611469104886055 -0.060077302157878876 0.01578322984278202 -0.06533204764127731 
0.05553458631038666 -0.0370965376496315 -0.009063578210771084 0.06544065475463867 0.02544974349439144 0.03334584832191467 0.002379117300733924 -0.014329745434224606 -0.02638101577758789 
0.0042288824915885925 0.023701179772615433 -0.06459974497556686 0.0067270067520439625 -0.032081060111522675 -0.05489472672343254 0.0732845887541771 -0.03823891654610634 0.046600136905908585 
0.021971173584461212 -0.0013533516321331263 0.044663358479738235 -0.01559577789157629 0.016917772591114044 -0.06152050569653511 -0.033843666315078735 -0.006633825600147247 0.04859029874205589 
0.047633759677410126 -0.030753979459404945 0.04030851647257805 0.057004522532224655 -0.015601546503603458 -0.031127816066145897 -0.025628382340073586 0.05508579686284065 -0.020640574395656586 
0.06544100493192673 -0.05374035984277725 0.04904256761074066 -0.06077636405825615 0.061698611825704575 -0.04707907512784004 0.04561328887939453 -0.016165509819984436 0.04345226287841797 
0.06062674894928932 -0.06766904145479202 -0.018708666786551476 -0.056097060441970825 -0.012633046135306358 0.010180607438087463 -0.06465417146682739 0.0010480111232027411 -0.031288303434848785 
0.06436357647180557 0.015142933465540409 -0.021116362884640694 -0.03652592748403549 -0.03354915603995323 0.0319061242043972 -0.0007409807294607162 0.039364252239465714 -0.04766452684998512 
0.03347150981426239 0.05282556265592575 -0.005912036169320345 -0.025319281965494156 0.04671574756503105 -0.010105878114700317 -1.5012837138783652e-05 -0.03899921104311943 0.0296266358345747 
0.015599632635712624 0.031026428565382957 -0.01290452666580677 0.0004414804861880839 0.0643395334482193 -0.0562932975590229 0.03664158284664154 0.04997657611966133 -0.023834744468331337 
-0.0019414129201322794 -0.049772631376981735 0.062360603362321854 -0.013785495422780514 -0.002696096897125244 -0.04870695620775223 0.017000528052449226 0.01475064642727375 0.002523658564314246 
-0.05099194869399071 -0.031006567180156708 0.06186952069401741 0.017805717885494232 0.05529863387346268 -0.02119091898202896 0.04337369278073311 -0.04354819655418396 -0.008911999873816967 
-0.021691909059882164 -0.06356821209192276 -0.06586336344480515 0.01272988598793745 0.035657692700624466 -0.020380031317472458 -0.06333668529987335 -0.039713501930236816 -0.011685017496347427 
-0.04024699702858925 -0.036205586045980453 -0.008259007707238197 0.02284375950694084 0.06972350925207138 -0.05353323370218277 0.03571851924061775 0.026285145431756973 0.05580219253897667 
-0.03553813323378563 0.08876923471689224 -0.018775520846247673 0.07461926341056824 0.03211288899183273 -0.031550414860248566 0.053179848939180374 0.05759016051888466 0.013063103891909122 
0.06997694075107574 0.06590420752763748 0.011605202220380306 0.070744089782238 0.10559101402759552 -0.02144535630941391 0.02653554640710354 0.040559377521276474 -0.02324632741510868 
-0.05586613342165947 -0.02805398590862751 0.0432855449616909 -0.04095182567834854 0.029969222843647003 -0.007656453177332878 0.04358632117509842 0.010197704657912254 0.04704244062304497 
0.06326735019683838 -0.005811308976262808 -0.031238263472914696 -0.05997678264975548 -0.0018236582400277257 0.007891768589615822 -0.062272947281599045 -0.011635443195700645 0.029500825330615044 
-0.013390795327723026 -0.04032767936587334 0.04346452280879021 -0.08886005729436874 0.017786821350455284 -0.024544304236769676 -0.008031060919165611 -0.009757084771990776 -0.04963456839323044 
-0.04199960082769394 0.03637431561946869 0.02466505765914917 0.007022850681096315 -0.053118009120225906 0.007294479291886091 -0.06015481427311897 -0.0415506474673748 0.050555016845464706 
0.036712974309921265 0.06932129710912704 0.012380137108266354 -0.06469972431659698 0.012768086045980453 -0.011195802129805088 -0.02436605840921402 -0.01862354949116707 0.058332834392786026 
0.04956911504268646 -0.0491584837436676 -0.0485854372382164 -0.052851490676403046 -0.02841423824429512 -0.015904784202575684 0.02230752632021904 0.00671436358243227 -0.035683948546648026 
0.02015729993581772 -0.03032332845032215 -0.009006976149976254 -0.015106158331036568 0.027050988748669624 0.0148007208481431 0.004002758767455816 0.02179393544793129 0.028496423736214638 
-0.06371641159057617 0.05491562932729721 0.00968887098133564 -0.050490058958530426 -0.052680160850286484 0.04414224624633789 0.02251523733139038 0.02598406746983528 0.04824407771229744 
0.04115496948361397 -0.002655786694958806 -0.035690028220415115 0.057274229824543 0.044429369270801544 -0.05132204294204712 -0.05761009827256203 -0.060639139264822006 0.030769869685173035 
0.03271787613630295 0.04702671989798546 0.055633287876844406 0.015206154435873032 0.0150150740519166 0.028293104842305183 -0.008505278266966343 -0.034794848412275314 -0.038134850561618805 
-0.057299524545669556 0.06801006197929382 0.038978781551122665 0.018445635214447975 -0.03859487548470497 0.01914297416806221 -0.04640399292111397 -0.012139672413468361 -0.0064578792080283165 
-0.010795965790748596 -0.029434282332658768 0.008694233372807503 0.02542809769511223 -0.0323406383395195 -0.053467750549316406 0.05405816808342934 -0.008295991457998753 -0.031800538301467896 
-0.03720055893063545 -0.04421818628907204 -0.0571308359503746 0.017680078744888306 0.05571851134300232 -0.007426620926707983 0.013925198465585709 -0.05950569733977318 -0.06159492954611778 
0.0444621704518795 0.011454436928033829 0.0438188761472702 0.05456947535276413 -0.0004625562287401408 -0.06233154609799385 0.03053293563425541 0.045037783682346344 0.004523518495261669 
0.06134384125471115 -0.05572104454040527 0.06548330187797546 0.045536305755376816 0.013908046297729015 0.06472556293010712 0.058360569179058075 -0.008873994462192059 -0.02238568849861622 
-0.0524105429649353 -0.04371080547571182 0.021507177501916885 -0.006422907114028931 -0.009457825683057308 -0.0005745552480220795 -0.0004126280837226659 -0.01745791547000408 -0.03241819515824318 
0.02132282219827175 0.05479351058602333 0.043742742389440536 0.058182597160339355 0.012067675590515137 0.04507773369550705 -0.05738368630409241 -0.013765762560069561 -0.03656354174017906 
0.015197016298770905 0.020789748057723045 0.05107751488685608 -0.023223932832479477 -0.03612009435892105 -0.028907831758260727 -0.01582460105419159 -0.02772517316043377 0.06583267450332642 
0.025014104321599007 -0.04583907127380371 0.053389232605695724 -0.03875395655632019 -0.032010518014431 0.022896407172083855 0.030060188844799995 0.017819678410887718 -0.036338090896606445 
0.03918922320008278 -0.05278557538986206 -0.04130103439092636 -0.026235563680529594 0.0668579488992691 -0.04716955125331879 -0.010913532227277756 0.005847778171300888 0.04394092783331871 
-0.047475334256887436 0.06370473653078079 0.05415632575750351 0.0191136933863163 0.031203465536236763 -0.024978458881378174 -0.06573014706373215 -0.018531763926148415 0.017259499058127403 
0.06370304524898529 -0.056553348898887634 0.035219915211200714 -0.06511358171701431 -0.06768698245286942 0.009821003302931786 0.06245049089193344 0.007576116360723972 0.020621459931135178 
-0.043753210455179214 -0.039667628705501556 0.02791362628340721 0.04282056912779808 0.029085662215948105 -0.004199338145554066 0.02121754176914692 -0.06351365894079208 -0.03858448192477226 
-0.031439270824193954 -0.07650943100452423 0.05020955577492714 0.0326656736433506 -0.025284286588430405 -0.03766980394721031 0.02283734641969204 -0.08080977201461792 0.012619269080460072 
-0.03675660118460655 0.06090030074119568 -0.057375144213438034 -0.049842193722724915 -0.032911282032728195 -0.03159942105412483 0.010891168378293514 -0.012513632886111736 -0.036566201597452164 
0.05168968066573143 0.052843187004327774 0.05354854464530945 -0.014137262478470802 -0.0012645026436075568 -0.05591398477554321 -0.03414631634950638 0.04589558765292168 0.053946539759635925 
0.057728029787540436 0.07854488492012024 0.05032103881239891 0.07239937037229538 -0.005914642941206694 0.0479818657040596 0.028393732383847237 0.025211522355675697 0.00872309785336256 
-0.02418709173798561 -0.05939111113548279 -0.04908826947212219 0.03988173231482506 -0.05845468491315842 -0.020913269370794296 0.056506551802158356 -0.03295406699180603 -0.06343242526054382 
0.047502193599939346 -0.0008173655951395631 -0.053847819566726685 -0.04955548793077469 -0.04836226627230644 0.019038867205381393 0.010100659914314747 -0.004854846745729446 -0.026708729565143585 
0.0293788593262434 -0.06353960931301117 0.0004560294619295746 -0.011221345514059067 0.044781915843486786 0.05465079843997955 -0.05005403235554695 -0.005079319234937429 -0.03784042224287987 
0.003398408181965351 -0.04206492751836777 -0.00562273757532239 -0.0006975267315283418 0.010153363458812237 0.04806848242878914 -0.01774357259273529 0.040014155209064484 0.056297417730093 
-0.051892101764678955 -0.038661450147628784 -0.06743555516004562 -0.003346215933561325 0.034247126430273056 0.0008089093025773764 -0.05727781355381012 -0.042803797870874405 -0.038324158638715744 
-0.036152806133031845 -0.06668294966220856 0.017105000093579292 -0.025936564430594444 -0.031064163893461227 0.023449255153536797 0.02507145330309868 -0.00828999187797308 -0.04773624986410141 
0.06186800077557564 0.009642216376960278 -0.019439348950982094 0.0005366621189750731 -0.04517741873860359 0.006961946841329336 -0.006201182957738638 -0.006058594211935997 -0.044640470296144485 
-0.044102828949689865 -0.05502063035964966 0.017735671252012253 -0.05322498455643654 0.044426329433918 0.0022591485176235437 -0.009528225287795067 -0.05904749408364296 -0.03933363035321236 
0.014427942223846912 -0.044733963906764984 -0.06925780326128006 0.041966892778873444 -0.06454054266214371 0.05128837376832962 -0.004912445321679115 0.05972740799188614 0.04996277391910553 
-0.05897138640284538 0.07170360535383224 0.05504186078906059 -0.00859624519944191 -0.050134383141994476 0.015357479453086853 0.023858455941081047 -0.05092531070113182 -0.017066817730665207 
0.05025419220328331 -0.05017847567796707 0.06427391618490219 0.008791239932179451 -0.06613662093877792 -0.03452359512448311 -0.050157587975263596 0.03387678414583206 -0.055227506905794144 
0.01058211736381054 0.0017684099730104208 0.060467205941677094 -0.00917209405452013 0.04409494623541832 -0.00889788381755352 0.049192577600479126 -0.021584827452898026 -0.013049056753516197 
-0.04941890388727188 0.055632803589105606 -0.05262790620326996 0.04177835211157799 0.0037300987169146538 -0.009375973604619503 -0.036034513264894485 -0.06418813019990921 -0.059004735201597214 
0.011267575435340405 0.006836948916316032 -0.053552914410829544 -0.06105899065732956 0.06392388045787811 0.02934448793530464 0.012574857100844383 0.053904563188552856 -0.061697449535131454 
-0.01053591538220644 0.008752969093620777 0.000982592231594026 0.05026672035455704 0.014960653148591518 0.062099725008010864 -0.017529578879475594 0.043114837259054184 0.02137836068868637 
-0.035921622067689896 0.002181037561967969 0.049928389489650726 0.029072696343064308 0.08256807178258896 -0.04107925668358803 0.01804693229496479 0.05093710497021675 -0.017081404104828835 
0.05227535590529442 -0.06079466640949249 0.06033219397068024 0.043997664004564285 0.004062883090227842 -0.012006971053779125 0.028570538386702538 0.039349183440208435 -0.051106974482536316 
-0.05120360478758812 -0.04335805028676987 0.030356790870428085 0.016103476285934448 -0.034353554248809814 0.0013247054303064942 0.010168768465518951 -0.02137593924999237 -0.05612776055932045 
-0.06420834362506866 0.004853955470025539 0.017364274710416794 -0.036860451102256775 -0.04714444652199745 0.05075734481215477 -0.0011327743995934725 -0.06535115092992783 -0.05920207500457764 
0.004826153628528118 0.06207729130983353 0.03246776759624481 0.05645435303449631 0.07599809765815735 -0.06424156576395035 0.07738113403320312 0.030738195404410362 0.006453214678913355 
0.00981614924967289 -0.008226030506193638 -0.06751852482557297 0.033868834376335144 0.0028237109072506428 0.01623576693236828 0.02251446060836315 -0.024427570402622223 -0.01576864719390869 
-0.022176360711455345 -0.03606514260172844 0.0194599200040102 -0.05655062571167946 -0.008141973055899143 -0.018139394000172615 -0.06457215547561646 -0.025386633351445198 -0.05997806042432785 
-0.022740928456187248 0.047419868409633636 0.05798160284757614 -0.0037158066406846046 0.01528110634535551 0.013155563734471798 0.047238271683454514 0.044768162071704865 0.041912175714969635 
-0.03624559938907623 0.0576590932905674 0.07064732164144516 0.01053194236010313 0.03848407045006752 0.026741892099380493 -0.0689418688416481 -0.031107338145375252 -0.001664547948166728 
0.009515376761555672 -0.0329318568110466 -0.021245812997221947 -0.00795368105173111 -0.0318143405020237 0.05246030166745186 -0.020614944398403168 0.03743936866521835 0.06418561190366745 
-0.05655655264854431 -0.05484801158308983 0.06186258792877197 0.05998355522751808 -0.05416927486658096 -0.04661458358168602 0.05177712440490723 0.0015823554713279009 -0.00439318735152483 
0.04797009378671646 0.0539126843214035 0.0634128674864769 -0.02290521375834942 -0.012883506715297699 -0.041351161897182465 0.016542334109544754 0.04261991009116173 -0.028493424877524376 
0.035020239651203156 0.047979746013879776 -0.02699117921292782 -0.012813874520361423 0.003375513479113579 0.018105054274201393 0.0523194894194603 0.06338757276535034 0.04715609923005104 
-0.048027411103248596 0.05675989016890526 0.058631543070077896 0.06863999366760254 -0.017184924334287643 0.02235296368598938 -0.021198691800236702 -0.021575933322310448 -0.02882489003241062 
-0.05739337205886841 -0.005476188845932484 0.027124615386128426 0.036447133868932724 0.008286961354315281 0.048262108117341995 0.056331489235162735 0.05445128679275513 -0.020942943170666695 
0.05096723139286041 0.0643106997013092 -0.02688359096646309 -0.05688599869608879 0.021772583946585655 -0.0132985170930624 -0.02504061348736286 -0.04878637567162514 -0.052378471940755844 
0.05548899248242378 0.028319083154201508 0.03748567774891853 -0.026792041957378387 0.006974446587264538 0.05462411046028137 -0.03812640160322189 -0.0009251457522623241 -0.010085148736834526 
-0.0225276630371809 -0.051588691771030426 -0.01683850772678852 0.004520606715232134 0.05284389108419418 -0.011176861822605133 0.011961178854107857 -0.02652144432067871 -0.014300519600510597 
0.008367053233087063 -0.05091934651136398 -0.01592821069061756 -0.00785466842353344 0.030185949057340622 0.03396226093173027 0.030222812667489052 0.004103779327124357 -0.04541992023587227 
-0.03513350710272789 -0.03518468141555786 -0.01799464412033558 0.015554200857877731 0.018024537712335587 -0.0007570473826490343 -0.06048014014959335 0.022458026185631752 -0.0580458827316761 
-0.03763018548488617 0.06445039808750153 0.040593940764665604 -0.00852933432906866 -0.03562036156654358 -0.003411697456613183 -0.004775345791131258 0.048363011330366135 -0.0011402012314647436 
0.049928002059459686 -0.018599770963191986 0.013189198449254036 0.021625159308314323 0.062149882316589355 -0.02286437340080738 -0.03074452467262745 -0.014069043099880219 0.0576399527490139 
0.041521329432725906 0.055494457483291626 0.010459214448928833 -0.020495817065238953 0.022235222160816193 0.051395513117313385 0.019331784918904305 -0.00021771575848106295 -0.028768423944711685 
0.008472711779177189 -0.06407517939805984 0.03446352854371071 0.0043199933134019375 0.04756981506943703 0.05354946851730347 -0.055672962218523026 -0.06502897292375565 -0.0026909320149570704 
-0.008195172064006329 0.00011701048060785979 0.027082260698080063 0.01609385572373867 0.03335751220583916 -0.021340854465961456 -0.06753858923912048 -0.06461162865161896 -0.016244729980826378 
0.0201267097145319 0.023106765002012253 0.046277567744255066 -0.06372702121734619 0.06432394683361053 -0.012034441344439983 0.034378357231616974 -0.03953571617603302 -0.04511737823486328 
-0.04811125993728638 -0.042695995420217514 -0.0010551641462370753 0.04843783378601074 -0.004861228633671999 0.03752681612968445 0.005867937579751015 -0.06628849357366562 -0.06688683480024338 
0.020088760182261467 -0.04642840474843979 0.03744256868958473 -0.03808854892849922 0.06837033480405807 -0.0266350619494915 0.02524598315358162 -0.06105327233672142 -0.05135398730635643 
-0.03541870415210724 0.014644352719187737 0.013765446841716766 0.03142693638801575 0.041032277047634125 0.08621137589216232 0.04908128082752228 -0.027043789625167847 0.01809816248714924 
0.04799003154039383 -0.008996348828077316 0.10593102872371674 -0.03513066843152046 -0.05340960621833801 0.11711692065000534 0.010506072081625462 -0.0611826628446579 0.07687538862228394 
0.033784788101911545 -0.024254828691482544 0.004572071600705385 0.0173441544175148 0.013843589462339878 -0.013009268790483475 -0.0327925905585289 0.018671246245503426 0.023377327248454094 
-0.011301662772893906 -0.05342387780547142 -0.029841728508472443 -0.0065415832214057446 -0.011480803601443768 -0.05756314471364021 -0.05400976166129112 -0.020176179707050323 0.008833019062876701 
0.06877174973487854 -0.04020189121365547 -0.04383246228098869 0.0008392214658670127 0.0811934694647789 0.013424515724182129 0.04559537023305893 -0.003177051432430744 0.03758113086223602 
-0.02179764397442341 0.054893866181373596 -0.00800427794456482 -0.031020935624837875 0.0028266175650060177 -0.028853798285126686 0.051328424364328384 0.019716940820217133 -0.023477574810385704 
0.05200289562344551 -0.059889018535614014 0.02091357111930847 0.0240952055901289 0.03860895708203316 0.06082864850759506 0.022868197411298752 0.01810642145574093 -0.047897979617118835 
0.0014168634079396725 -0.03666457161307335 0.035123761743307114 -0.028938110917806625 0.06436396390199661 0.03779178112745285 0.04718922823667526 0.04763508960604668 0.02030625380575657 
0.019889604300260544 -0.05289696156978607 -0.05630309134721756 0.05129801854491234 0.01803247630596161 0.01742071844637394 -0.05475255846977234 0.04805242270231247 -0.05166665464639664 
-0.03696483373641968 -0.06950940936803818 -0.026021312922239304 0.06278882920742035 0.014121518470346928 -0.06273193657398224 -0.035534556955099106 -0.00344901904463768 0.05179523304104805 
-0.05249296873807907 -0.0735258013010025 -0.06852567195892334 -0.0009484467445872724 0.07040571421384811 0.0006066778441891074 0.004010939970612526 0.017935199663043022 0.03821732476353645 
-0.062335435301065445 0.041418883949518204 -0.019273748621344566 -0.06110909953713417 -0.01937187649309635 0.04669122025370598 0.017691515386104584 0.029393134638667107 0.05240769684314728 
-0.06521902978420258 0.047990161925554276 0.07633749395608902 -0.005885438993573189 -0.05380193144083023 0.018189534544944763 -0.06961134821176529 0.033251091837882996 -0.023039525374770164 
0.0707414448261261 -0.019945558160543442 -0.007796494755893946 0.03552206605672836 0.04221784695982933 0.06700114905834198 -0.01260608620941639 -0.026446465402841568 0.06269776076078415 
0.03654421865940094 -0.024076225236058235 0.04593250900506973 -0.05983571708202362 0.03273078054189682 0.06158387288451195 0.05794796347618103 -0.06272456794977188 -0.01074669137597084 
0.05011630803346634 0.021918784826993942 -0.019673705101013184 -0.0626414343714714 0.06357646733522415 -0.03997112438082695 -0.04560372978448868 -0.01775539480149746 0.023043643683195114 
0.06938663125038147 0.007020832505077124 0.06632958352565765 0.05734231323003769 -0.015728821977972984 0.038401711732149124 0.02608594112098217 -0.05599329248070717 -0.05642213672399521 
-0.030994324013590813 -0.017138801515102386 0.05118057131767273 0.02962448075413704 0.030521100386977196 0.029954465106129646 -0.0036831411998718977 -0.026191914454102516 0.008249512873589993 
0.06470347940921783 0.02915680781006813 -0.044017989188432693 -0.018378710374236107 -0.03742130100727081 -0.059195078909397125 0.017235008999705315 -0.047261953353881836 -0.025670450180768967 
0.010082148015499115 0.02251403033733368 -0.06433442234992981 0.018980756402015686 0.0416916161775589 -0.005876091308891773 0.026940733194351196 0.010159152559936047 0.002390196779742837 
-0.06014281138777733 -0.019140031188726425 0.01265264768153429 0.01566166803240776 -0.007151681464165449 -0.047177545726299286 -0.0008208311628550291 0.0552448146045208 0.056509386748075485 
0.049219876527786255 -0.024723991751670837 0.06932241469621658 -0.05123759061098099 0.009145552292466164 -0.050490982830524445 0.06379882991313934 0.06399276107549667 0.02874516323208809 
0.053916290402412415 0.055496491491794586 0.05182596296072006 -0.05829443037509918 -0.032958611845970154 0.03334170952439308 -0.053210463374853134 0.06437463313341141 0.07128793001174927 
0.026622332632541656 -0.05298478528857231 -0.02611878328025341 0.019925124943256378 0.04473644867539406 -0.05282711982727051 -0.009229302406311035 0.035745445638895035 -0.009953129105269909 
-0.033694248646497726 0.05332815647125244 -0.008522123098373413 0.06651392579078674 0.009595069102942944 -0.07379595190286636 0.015182461589574814 0.043819405138492584 0.04856729879975319 
0.016323553398251534 0.06502175331115723 -0.030570922419428825 0.04365842416882515 0.046248216181993484 -0.02810380794107914 -0.06756097078323364 0.09044219553470612 0.018719784915447235 
0.0298329945653677 -0.052655890583992004 0.04950309172272682 0.05960703268647194 -0.04378429800271988 -0.05471363663673401 0.05529874563217163 -0.051936741918325424 -0.04181826859712601 
-0.02861388958990574 0.04802608862519264 -0.021689852699637413 0.07033919543027878 0.06443885713815689 -0.03926689550280571 0.014763331040740013 0.00210951897315681 0.06069487705826759 
0.004845100920647383 0.034808624535799026 0.036760494112968445 -0.0009647167171351612 0.03343277424573898 0.024359503760933876 -0.023424845188856125 0.026782531291246414 0.022746354341506958 
0.06172775849699974 -0.047699809074401855 -0.059707168489694595 0.057054925709962845 -0.048701755702495575 0.050446078181266785 0.014362514950335026 -0.05610177665948868 -0.02297223173081875 
0.04799260199069977 0.06815610826015472 0.010198441334068775 0.010863522998988628 0.04584410414099693 -0.05614196136593819 -0.03756900131702423 0.003995324485003948 -0.05547725036740303 
-0.05037134513258934 -0.052039965987205505 0.04707753658294678 -0.05547211319208145 -0.014146575704216957 0.07020971179008484 0.03221030533313751 0.013756035827100277 -0.014424556866288185 
-0.03930022194981575 0.014182872138917446 -0.030078886076807976 -0.027361731976270676 0.056306395679712296 -0.055279262363910675 0.057584479451179504 0.026108339428901672 0.0006716063362546265 
-0.05543343350291252 0.05804814025759697 -0.001179061713628471 -0.020312637090682983 -0.034326277673244476 -0.047621697187423706 0.0005862605758011341 -0.014559859409928322 0.01600528135895729 
0.04178576543927193 0.05620294064283371 -0.04775470867753029 0.02065732702612877 0.07548628002405167 0.026395073160529137 0.08367009460926056 0.007976802997291088 0.04658249020576477 
0.05232929065823555 -0.014532697387039661 0.054591644555330276 0.02183232083916664 0.06718703359365463 0.008130911737680435 0.021967418491840363 -0.050425563007593155 0.043681155890226364 
0.017376964911818504 -0.035963185131549835 -0.048402149230241776 0.01866140589118004 0.029409706592559814 0.007350008934736252 0.0724794790148735 -0.02668914385139942 -0.0073065245524048805 
0.014573791064321995 -0.009055799804627895 -0.06425072997808456 -0.06450028717517853 -0.019634442403912544 -0.0009364509605802596 0.011195721104741096 0.04566337540745735 0.027314160019159317 
-0.015814905986189842 0.03564681485295296 -0.023116642609238625 -0.0017602656735107303 0.017935214564204216 -0.011981230229139328 -0.05497606471180916 -0.0434618778526783 0.04435516521334648 
-0.005257618613541126 0.05780647695064545 -0.035007573664188385 -0.03847729414701462 0.004699459299445152 0.050551190972328186 -0.05278000608086586 0.007972849532961845 -0.019337298348546028 
-0.004021726083010435 -0.05659790709614754 -0.05661851912736893 -0.06851230561733246 -0.0014224572805687785 0.02503610961139202 -0.014264287427067757 0.017946602776646614 -0.033340755850076675 
-0.03373148664832115 0.030658528208732605 0.05122996121644974 0.03869890421628952 -0.022837255150079727 0.007954727858304977 0.043603021651506424 0.05265361815690994 -0.07105579227209091 
0.027240049093961716 -0.06500495970249176 -0.045463960617780685 -0.010658497922122478 -0.06372135877609253 -0.02344130165874958 0.002187615493312478 -0.06853687018156052 4.242446811986156e-05 
-0.011254350654780865 -0.0472160167992115 0.01655198633670807 0.00637696823105216 0.08159791678190231 -0.047736410051584244 -0.03794065862894058 0.0022389390505850315 0.05372623726725578 
0.056504517793655396 -0.02412169985473156 -0.04176659137010574 -0.028309298679232597 0.048392314463853836 0.04873178154230118 0.030209770426154137 0.04338939115405083 0.03992703929543495 
-0.032830704003572464 -0.022382056340575218 -0.07031818479299545 0.022433249279856682 -0.052269820123910904 0.007893561385571957 0.03574999421834946 0.05302879586815834 0.01380976103246212 
0.04269617795944214 0.036009982228279114 -0.02360384166240692 -0.05055934935808182 -0.03682653605937958 0.009197484701871872 -0.03314822539687157 -0.016152480617165565 -0.0611126571893692 
-0.017605258151888847 0.02361978031694889 -0.036192551255226135 -0.06674264371395111 0.010304078459739685 0.05112511292099953 -0.0409681536257267 -0.06683274358510971 -0.04003605991601944 
0.08923900872468948 0.10392537713050842 -0.028136570006608963 0.0306087713688612 0.02407211624085903 -0.03108183480799198 0.05879180505871773 0.009632223285734653 -0.01882949285209179 
0.06446241587400436 0.01138485036790371 0.03591291233897209 -0.013068554922938347 0.030726304277777672 0.01412637997418642 -0.03559143841266632 -0.07852870225906372 -0.015580261126160622 
-0.020095549523830414 0.024867208674550056 0.05606015399098396 0.05829322338104248 -0.011619110591709614 0.03827535733580589 -0.05589370056986809 0.061932746320962906 0.007241471670567989 
-0.05789225921034813 0.04548773542046547 9.513163968222216e-05 -0.047879409044981 -0.0322883203625679 -0.06292269378900528 -0.01704772189259529 -0.05437365546822548 -0.0671825036406517 
-0.045158371329307556 -0.008845248259603977 0.014219898730516434 -0.07681727409362793 -0.11241015791893005 -0.008197860792279243 0.003481948748230934 -0.09470777213573456 -0.014362052083015442 
-0.05893413722515106 -0.017766911536455154 0.05951996520161629 0.009834442287683487 0.02542656473815441 -0.004586366470903158 0.006398536264896393 -0.014322713948786259 0.03667127713561058 
0.022220037877559662 -0.03904933109879494 -0.052633654326200485 0.042690783739089966 -0.06698276102542877 -0.008030100725591183 -0.054021723568439484 0.01873616687953472 -0.04822070151567459 
-0.01725796051323414 -0.05572689697146416 0.034820131957530975 -0.034334488213062286 -0.043467264622449875 -0.02765693888068199 0.014841650612652302 -0.05671868100762367 0.03073621168732643 
-0.05720124393701553 -0.010271134786307812 -0.048421408981084824 -0.057639557868242264 0.020394202321767807 0.07077525556087494 -0.017901331186294556 -0.03366616368293762 0.0007774446276016533 
-0.05403031408786774 0.06578043103218079 0.003982007037848234 -0.053291238844394684 -0.041620854288339615 -0.010981020517647266 -0.014388320967555046 -0.034032855182886124 -0.034276966005563736 
-0.019648302346467972 -0.06355879455804825 0.01099537592381239 -0.06622719764709473 -0.010402408428490162 -0.027868401259183884 -0.0026449973229318857 -0.08201273530721664 -0.06511638313531876 
-0.05376395583152771 -0.016304748132824898 0.06572706252336502 0.009985825978219509 -0.05913832411170006 0.0020117999520152807 -0.03222373500466347 0.03939457982778549 -0.02345137856900692 
0.07609044760465622 0.03438570722937584 0.05786390230059624 -0.03866664692759514 -0.032606691122055054 0.021380005404353142 0.049850109964609146 -0.016211355105042458 0.02892765775322914 
-0.015241263434290886 0.06090809032320976 0.02065792866051197 -0.05076856166124344 -0.06204943358898163 -0.05116765946149826 0.021241603419184685 -0.00783898588269949 0.06739609688520432 
0.042059287428855896 0.01771838217973709 0.023407936096191406 -0.030267929658293724 0.015726085752248764 0.08014567196369171 -0.05932870879769325 0.012258709408342838 -0.03488599509000778 
-0.04040350392460823 0.005956877488642931 -0.04661500081419945 -0.05230182409286499 0.010776428505778313 0.06561607867479324 0.05942043662071228 -0.007282905746251345 0.06900102645158768 
-0.03127700090408325 -0.042739056050777435 0.01974702626466751 0.011848210357129574 0.027667725458741188 0.017094071954488754 -0.030391080304980278 0.03572266176342964 0.0254982840269804 
0.0598377026617527 0.05595606192946434 -0.017879534512758255 -0.013452616520226002 0.06427517533302307 -0.06317436695098877 -0.005196472629904747 0.01848313957452774 -0.04803796857595444 
-0.019120333716273308 0.043898776173591614 0.06812053918838501 -0.002989754546433687 -0.022998478263616562 0.04165556654334068 0.05501055717468262 0.04591532424092293 -0.039658743888139725 
0.005408741533756256 0.002912374911829829 -0.004607175476849079 0.08631259948015213 0.05355273559689522 0.09594620019197464 0.06394319236278534 0.0197418462485075 -0.004380593542009592 
-0.0022959935013204813 0.05117213726043701 0.022091956809163094 -0.04376247152686119 -0.03786598891019821 0.0847054272890091 0.006029834970831871 0.034670621156692505 0.047191813588142395 
0.007971091195940971 0.012567153200507164 0.04949032887816429 0.03722837194800377 -0.04576883837580681 -0.03830539807677269 -0.013606264255940914 -0.012638193555176258 0.017766237258911133 
-0.05182851478457451 -0.0030340813100337982 -0.03244620934128761 0.000954275659751147 0.051195207983255386 0.03083498775959015 -0.04685412347316742 -0.062422871589660645 -0.032024841755628586 
0.045172225683927536 -0.03393767774105072 0.021909886971116066 0.060976091772317886 0.00961486715823412 -0.05916370078921318 0.03741662949323654 0.009021761827170849 -0.038698259741067886 
0.01501097995787859 0.023630287498235703 0.008367080241441727 0.0772523432970047 0.14314815402030945 0.05524840205907822 0.06187135726213455 0.016442690044641495 0.04338056966662407 
-0.021615739911794662 0.02154211513698101 -0.0234487596899271 0.08467821031808853 0.06925181299448013 0.0012882375158369541 0.056254833936691284 0.04870231822133064 -0.03650495782494545 
-0.05964208021759987 0.019506117329001427 -0.012345690280199051 0.025982750579714775 -0.001967491814866662 0.02271599881350994 -0.031760700047016144 0.012361490167677402 -0.04587435722351074 
0.06242852658033371 0.007054902147501707 -0.014937720261514187 -0.015955153852701187 -0.04743604362010956 0.06297363340854645 -0.0014369770651683211 -0.058980200439691544 -0.02701851911842823 
0.023596305400133133 -0.0020773811265826225 -0.028448378667235374 0.09813513606786728 -0.013799109496176243 -0.012063090689480305 0.055433955043554306 0.07116612046957016 0.0016412886325269938 
-0.052025746554136276 -0.05683714151382446 0.04867856577038765 -0.03334687650203705 -0.03271991387009621 0.04595712572336197 -0.019088521599769592 0.04888877645134926 0.03990559279918671 
0.02519737370312214 0.009150920435786247 0.016701318323612213 0.03797220066189766 -0.007272026967257261 0.012711318209767342 0.00022382114548236132 -0.008096112869679928 -0.023941554129123688 
0.062379173934459686 0.002252489561215043 0.034344632178545 0.001164030167274177 -0.0003552085254341364 0.06699448823928833 -0.04221624881029129 0.054212529212236404 0.0038430248387157917 
0.07339560985565186 0.012314116582274437 0.0836271196603775 0.028650470077991486 -0.029714301228523254 0.08629358559846878 0.03191160783171654 0.06979949027299881 -0.008529647253453732 
-0.011691851541399956 0.08270037174224854 -0.00760291051119566 0.051109619438648224 -0.011800450272858143 -0.04765406623482704 0.052758608013391495 0.05572943016886711 -0.041948411613702774 
-0.057614874094724655 0.036555781960487366 -0.024710308760404587 -0.03617604076862335 -0.03679291158914566 0.002758992603048682 -0.0031296361703425646 0.036188237369060516 -0.053284142166376114 
0.0104032251983881 0.016711080446839333 0.017148306593298912 0.032726600766181946 -0.05927055701613426 -0.007670182269066572 -0.045896340161561966 -0.00743097672238946 0.054975178092718124 
-0.06672674417495728 -0.019775627180933952 -0.03609514608979225 -0.009828607551753521 0.043799545615911484 -0.05294537916779518 -0.022159703075885773 0.029710084199905396 0.04089730978012085 
-0.04156243056058884 0.02043635956943035 0.06597036123275757 -0.019501466304063797 0.011792421340942383 -0.01853022165596485 -0.03937821835279465 -0.03494849056005478 0.0038321916945278645 
-0.014957361854612827 0.023891253396868706 -0.023380056023597717 0.06305447965860367 -0.025436723604798317 -0.030475730076432228 0.0026105009019374847 -0.02438587136566639 -0.03867693617939949 
-0.00012717641948256642 0.007904428988695145 -0.06164029240608215 -0.060990653932094574 0.012822789140045643 -0.055351242423057556 0.028746992349624634 0.02639649249613285 0.056277770549058914 
0.0024587754160165787 0.06840455532073975 0.02483225427567959 -0.055222366005182266 -0.013750926591455936 0.009092830121517181 0.0281915832310915 0.05725827440619469 -0.06675288826227188 
0.05487457290291786 0.00011141549475723878 0.027217751368880272 0.033846620470285416 0.018819652497768402 -0.06393618136644363 -0.0558868944644928 0.03222765401005745 -0.05272459238767624 
-0.012263533659279346 0.0424448661506176 0.03757960721850395 0.013590115122497082 0.03102416917681694 -0.059979356825351715 0.010459779761731625 0.01550667081028223 -0.012288735248148441 
0.03139065206050873 -0.014697602950036526 -0.029945360496640205 0.03137807548046112 -0.053822245448827744 -0.00444138515740633 -0.004857564345002174 -0.013823151588439941 0.05124228447675705 
-0.042591650038957596 -0.037204232066869736 -0.012786505743861198 -0.04529603198170662 -0.028745247051119804 -0.03755863383412361 -0.012103261426091194 -0.03586869686841965 -0.04218519479036331 
0.05092465877532959 0.03297659382224083 0.01457524299621582 -0.03675643727183342 -0.02683313749730587 -0.06447429955005646 -0.011162283830344677 -0.029021242633461952 0.02302585355937481 
-0.018357230350375175 0.025373920798301697 0.03924108296632767 -0.007582446560263634 0.027367284521460533 -0.0517561174929142 -0.056192126125097275 0.06388777494430542 0.031371377408504486 
-0.005945128854364157 0.024782389402389526 -0.009499287232756615 0.020509231835603714 0.045832496136426926 0.009474060498178005 -0.013660102151334286 -0.0525275319814682 -0.002469618571922183 
-0.04030990973114967 0.030686017125844955 -0.0953202098608017 -0.02114454284310341 -0.07387344539165497 -0.019026871770620346 0.021247265860438347 -0.0662495568394661 -0.08551004528999329 
-0.05324290692806244 -0.0032889486756175756 -0.02924482338130474 0.015886783599853516 -0.0688733458518982 -0.08103825896978378 -0.07225112617015839 -0.05714767053723335 -0.04231271147727966 
-0.018791133537888527 -0.05155240744352341 0.010920951142907143 0.04877898469567299 -0.0252212081104517 0.008201534859836102 0.06612972915172577 -0.05766745284199715 0.020881209522485733 
0.05512363836169243 0.05121295899152756 0.051704954355955124 0.011025609448552132 0.001094514736905694 0.027709994465112686 -0.0105777932330966 0.060550183057785034 -0.04895129054784775 
-0.0068817283026874065 0.03387097641825676 0.042357176542282104 0.07841131836175919 0.08114589750766754 0.037412866950035095 0.08049119263887405 0.017588073387742043 -0.0027605807408690453 
0.004407281521707773 -0.02707294374704361 0.009410318918526173 0.049002233892679214 -0.027688633650541306 0.05349639803171158 0.02490844391286373 -0.021315908059477806 -0.06360848993062973 
-0.028744302690029144 -0.020274147391319275 -0.021271852776408195 0.04942570999264717 0.06120545044541359 -0.03086146153509617 0.0420546717941761 -0.01712517999112606 0.01745264045894146 
0.053598761558532715 -0.06515446305274963 -0.018963580951094627 0.01939857192337513 0.04082860052585602 0.035648006945848465 0.0011960797710344195 -0.012369152158498764 0.010540906339883804 
0.06253555417060852 -0.07312782108783722 -0.07763086259365082 0.06383116543292999 0.01891312375664711 0.0334831066429615 0.035005971789360046 -0.0011537271784618497 -0.04278026893734932 
-0.03870469704270363 -0.07023452967405319 0.05044855177402496 -0.05037756636738777 -0.018279872834682465 -0.018001865595579147 -0.0503854975104332 -0.0033905620221048594 0.051394425332546234 
0.007259037345647812 0.06511061638593674 -0.012232904322445393 0.06774753332138062 0.07268183678388596 -0.03897817060351372 0.0017883320106193423 -0.030361507087945938 0.05512809753417969 
-0.02993057668209076 0.06838963180780411 -0.004621611442416906 -0.052332304418087006 0.01396914478391409 -0.05689552426338196 0.04917116463184357 -0.020053382962942123 0.03845197334885597 
0.025327131152153015 -0.06806827336549759 -0.028362439945340157 -0.00304299034178257 -0.050334639847278595 -0.020314957946538925 -0.033824823796749115 -0.06047315523028374 -0.0485166572034359 
0.008952314034104347 -0.036899205297231674 0.02496006339788437 0.0048033008351922035 0.04564540833234787 0.024762053042650223 0.06094652786850929 -0.0031508803367614746 0.05768360570073128 
0.06974674761295319 0.036810845136642456 -0.06680194288492203 0.007102391216903925 0.006047854200005531 0.044288113713264465 -0.024692511186003685 0.011359957046806812 0.011958462186157703 
0.01862308382987976 -0.053433459252119064 -0.05818238481879234 0.04654841497540474 -0.022377239540219307 -0.011463283561170101 0.025234287604689598 -0.03986248001456261 0.044259630143642426 
-0.065911203622818 -0.015240564942359924 0.06480716913938522 -0.022120052948594093 0.046135928481817245 0.017338894307613373 -0.019835511222481728 0.06491922587156296 -0.04621107503771782 
0.037102337926626205 -0.05376490578055382 -0.020108940079808235 0.0196039080619812 0.04897299036383629 -0.02279774658381939 -0.0438041128218174 -0.027240408584475517 0.06891000270843506 
-0.0241377055644989 0.05298685282468796 -0.05961804464459419 0.02424473688006401 -0.008574511855840683 -0.005006098188459873 -0.04659534618258476 -0.04246637597680092 -0.008079953491687775 
-0.054813485592603683 -0.05694011226296425 -0.035514261573553085 0.020039521157741547 -0.05776076391339302 0.017663760110735893 0.015138707123696804 0.010387837886810303 0.0009505587513558567 
0.003534449264407158 -0.009875145740807056 0.027281861752271652 -0.06929314136505127 0.0017177441623061895 0.046025943011045456 -0.06387848407030106 0.011191113851964474 0.005628966260701418 
0.01985858753323555 -0.06601975113153458 -0.05513935536146164 -0.04252574220299721 -0.046059586107730865 0.016899481415748596 -0.0015209224075078964 -0.003188580274581909 0.024214202538132668 
-0.02616559900343418 0.04537501558661461 0.053320519626140594 -0.036332111805677414 0.053337421268224716 -0.014896510168910027 -0.004012181423604488 0.022121435031294823 -0.0462568923830986 
0.0056634945794939995 0.036951467394828796 -0.019439762458205223 -0.004472076427191496 -0.06800863891839981 -0.022981371730566025 0.02168153040111065 -0.04736246168613434 -0.005138994660228491 
-0.08970144391059875 -0.02670837752521038 0.025336088612675667 -0.09687112271785736 -0.032697644084692 0.025845522060990334 -0.023826222866773605 -0.018714023754000664 0.06077456474304199 
-0.03552417457103729 -0.053363434970378876 0.10117647796869278 -0.044438593089580536 0.01167877484112978 -0.031448349356651306 -0.057057540863752365 -0.08490417152643204 0.06525194644927979 
0.007065443322062492 -0.023725083097815514 0.007556180935353041 0.05975686013698578 0.02647067978978157 0.012541335076093674 -0.06797929853200912 -0.06596320122480392 0.015518046915531158 
0.04408513382077217 0.020747752860188484 0.03170643374323845 0.028088539838790894 -0.01162700355052948 0.03532218933105469 -0.017397116869688034 -0.05149116739630699 0.061888545751571655 
0.01994386501610279 0.018203701823949814 0.006625769659876823 0.08171340078115463 0.03514697775244713 -0.02548282779753208 0.037587396800518036 0.0968940481543541 0.03775233030319214 
-0.06273942440748215 0.0001808829401852563 0.0652552917599678 -0.035036228597164154 0.01605725660920143 -0.04815664887428284 0.0588054396212101 -0.039375439286231995 0.044074684381484985 
-0.05800303444266319 -0.061600398272275925 -0.023859016597270966 -0.0496218241751194 -0.042224373668432236 0.014974923804402351 0.0632011890411377 0.05166821926832199 0.01607445254921913 
0.04877203702926636 -0.053338635712862015 -0.03043675608932972 0.042981747537851334 -0.055107053369283676 0.0032921398524194956 0.014479544013738632 -0.038829196244478226 0.01793995313346386 
-0.02549165114760399 0.003171843709424138 -0.04108647257089615 0.02057786099612713 -0.030919548124074936 0.07476101815700531 0.0007738044369034469 -0.06350703537464142 -0.017566310241818428 
-0.005619919393211603 -0.08024684339761734 -0.04003535956144333 0.04898009076714516 0.015518538653850555 4.962104503647424e-05 -0.01175831351429224 -0.06801146268844604 0.015946442261338234 
0.005529527086764574 -0.015141922049224377 0.06952948123216629 0.017517583444714546 0.015587596222758293 -0.010094919241964817 0.0011134291999042034 0.07389568537473679 0.024273652583360672 
0.06045471876859665 0.01828845776617527 0.00491333706304431 0.03384484723210335 -0.05942833796143532 0.05593645200133324 -0.008257881738245487 0.026782695204019547 -0.03241429850459099 
-0.005124904680997133 -0.016036225482821465 0.060768481343984604 0.053575675934553146 0.007894013077020645 0.0723472535610199 0.009242828004062176 0.06047287955880165 0.06515508145093918 
-0.05696246027946472 -0.06258824467658997 0.02264111302793026 0.0028813043609261513 0.017052236944437027 0.01738288812339306 -0.00657372921705246 -0.040031131356954575 0.025420360267162323 
-0.0019624214619398117 -0.0349564403295517 0.007792845834046602 -0.07726089656352997 0.047426849603652954 -0.01604326255619526 -0.045736562460660934 0.008967592380940914 0.0007187825394794345 
0.023590799421072006 0.030274497345089912 -0.021952137351036072 -0.018034543842077255 0.0333227701485157 -0.017347510904073715 -0.02436559647321701 -0.02685706503689289 -0.03858252614736557 
0.05708318576216698 -0.04085637629032135 0.011963068507611752 0.007014074362814426 -0.05015946924686432 0.008067606948316097 -0.00892508402466774 -0.028225112706422806 0.017298037186264992 
-0.05824131518602371 0.01258462481200695 -0.06621114909648895 -0.03558581694960594 -0.06438286602497101 -0.05383332818746567 0.04146724194288254 -0.01512393169105053 -0.0546911284327507 
0.007597909774631262 -0.011445683427155018 -0.04671406373381615 0.038168396800756454 -0.06617891788482666 0.009318324737250805 -0.060454122722148895 0.04166872054338455 0.05940668284893036 
0.04038519784808159 -0.015580895356833935 0.06643368303775787 -0.03719138726592064 -0.06993016600608826 0.01447790302336216 0.05252101644873619 -0.06595385819673538 -0.013066669926047325 
-0.07000955194234848 0.05289933457970619 -0.038995999842882156 -0.05146448314189911 -0.017042508348822594 0.07489383220672607 -0.02855079248547554 -0.021084997802972794 0.049511849880218506 
-0.014015757478773594 0.05078404024243355 0.033024027943611145 -0.026891067624092102 0.026309669017791748 -0.005866393446922302 0.015854254364967346 0.06134963408112526 -0.0023028035648167133 
-0.0548810213804245 -0.04478713870048523 -0.05075946822762489 -0.022697756066918373 0.008800721727311611 -0.012690537609159946 -0.061454951763153076 0.024035701528191566 0.046139542013406754 
0.024499718099832535 0.06087248772382736 -0.06308563798666 0.04511559382081032 -0.0032506620045751333 0.0228860042989254 0.004623053129762411 0.036887411028146744 0.03451087698340416 
-0.02093374915421009 -0.04746704921126366 0.004456936381757259 -0.0703171044588089 0.0010931672295555472 0.007113868370652199 -0.008758493699133396 -0.06249492987990379 0.04402715712785721 
0.039473339915275574 0.0057455976493656635 0.03895688056945801 -0.02515311725437641 -0.055176109075546265 0.06714845448732376 0.04235127568244934 -0.08940394222736359 0.0828968733549118 
0.024818286299705505 -0.02113598957657814 -0.055863868445158005 0.028682006523013115 0.05005674064159393 -0.05420975387096405 -0.02321498468518257 0.06624344736337662 0.008840047754347324 
-0.010374839417636395 0.048371072858572006 -0.034266337752342224 -0.018352225422859192 0.04533446207642555 0.012293214909732342 0.02478855848312378 -0.06265855580568314 0.06364024430513382 
0.010475058108568192 0.002778000431135297 0.09289486706256866 0.07471580058336258 -0.03613390773534775 0.0734657570719719 -0.03609715774655342 0.011629207991063595 0.03805909305810928 
-0.038071926683187485 0.0229543074965477 0.06329390406608582 -0.020334895700216293 -0.05274735391139984 0.014273399487137794 -0.03380692005157471 -0.007804328575730324 0.0653054416179657 
0.054593559354543686 -0.002709790598601103 0.0597260519862175 0.0042255050502717495 -0.035498738288879395 0.002433328190818429 -0.058616429567337036 0.06494344770908356 -0.008506931364536285 
-0.05339819937944412 -0.05095914378762245 0.004072830080986023 -0.03412772715091705 0.03234880417585373 -0.043187908828258514 0.04308609291911125 0.0030764529947191477 -0.03804699704051018 
0.01081427838653326 -0.07122301310300827 0.058024097234010696 -0.04072580114006996 -0.061574142426252365 -0.051419567316770554 0.06862017512321472 -0.030559711158275604 0.005127997137606144 
0.07833682000637054 -0.05141069367527962 0.015383738093078136 0.008784504607319832 -0.03659269958734512 0.048330094665288925 0.07787096500396729 -0.006119560915976763 0.04079277068376541 
-0.06235215440392494 -0.04516710340976715 -0.04604405537247658 -0.002028374234214425 0.02764003537595272 0.00811687484383583 0.007362090051174164 -0.06349258124828339 -0.032655052840709686 
0.05643346533179283 -0.061216089874506 -0.06576383113861084 0.00655632046982646 -0.020734623074531555 0.05288831144571304 -0.051325734704732895 0.04290822893381119 0.06410714238882065 
0.004273465368896723 -0.01699177920818329 0.022104782983660698 -0.049825094640254974 0.06076386570930481 -0.028503060340881348 -0.04958472400903702 -0.024814242497086525 -0.004710751120001078 
-0.06407428532838821 -0.055114854127168655 0.02238103374838829 -0.014697137288749218 0.022524677217006683 0.029468566179275513 0.047675445675849915 0.04007325321435928 -0.05465551093220711 
-0.0408293791115284 -0.059301044791936874 -0.06218065693974495 -0.031440332531929016 -0.035905901342630386 -0.03815419599413872 0.035039305686950684 -0.051061198115348816 -0.03366732969880104 
0.06562938541173935 -0.06384054571390152 0.06824257969856262 -0.05360989272594452 0.02312592789530754 0.02098560892045498 -0.050154052674770355 -0.03181637451052666 -0.036581799387931824 
0.0171049814671278 -0.015515550971031189 -0.04101833328604698 0.03716117516160011 -0.04237186908721924 0.031746115535497665 -0.03428380936384201 -0.00480958865955472 0.03322117403149605 
0.012121191248297691 -0.06095683202147484 0.015964822843670845 0.024437379091978073 -0.02193811908364296 0.009648744948208332 -0.035968899726867676 -0.052485719323158264 -0.008441982790827751 
0.05003797635436058 0.017296629026532173 -0.006172677967697382 -0.03037199378013611 -0.03979999199509621 0.054243579506874084 0.021559862419962883 -0.0033821617253124714 -0.0196341872215271 
-0.018646880984306335 0.032770734280347824 0.06898677349090576 -0.013187550008296967 0.014358806423842907 -0.015723958611488342 0.043119437992572784 -0.0016059863846749067 0.03787529468536377 
-0.07019472867250443 0.04921787977218628 0.005995132029056549 -0.014781595207750797 -0.042906224727630615 0.05865992233157158 0.03343622013926506 -0.027667313814163208 0.01951451040804386 
-0.04674482345581055 0.035379596054553986 -0.040452830493450165 0.0020943484269082546 0.06555575132369995 0.004468302708119154 0.031039033085107803 0.05318961292505264 0.008251432329416275 
-0.03174913674592972 -0.041810043156147 -0.021714458242058754 -0.063150554895401 0.05863901972770691 -0.041423946619033813 -0.041363757103681564 0.007381785660982132 -0.036523353308439255 
-0.061406154185533524 -0.048858873546123505 0.006935649551451206 -0.05695179104804993 -0.04488905146718025 -0.007791824638843536 -0.028890104964375496 -0.0660056471824646 -0.005874307826161385 
-0.03562867268919945 -0.00788471382111311 -0.01799621991813183 0.032396938651800156 0.03975941240787506 -0.07835230231285095 -0.021621443331241608 -0.023534903302788734 -0.06014826148748398 
0.03561297431588173 -0.014371524564921856 0.039552509784698486 0.029739171266555786 -0.052470192313194275 -0.05822339653968811 -0.06897574663162231 0.017156943678855896 0.06722190231084824 
0.032869912683963776 0.056138865649700165 -0.05896643176674843 0.05200952664017677 -0.03211228549480438 0.04578734561800957 0.016517752781510353 0.04831051453948021 -0.01623467355966568 
0.04114454612135887 -0.015142112039029598 0.0577690415084362 -0.053686123341321945 0.05554082617163658 -0.02761434204876423 -0.03603888303041458 0.061237793415784836 0.02755490317940712 
-0.022156668826937675 0.03090856410562992 -0.07125800848007202 0.004003329202532768 -0.00046266071149148047 -0.03497541695833206 0.047727759927511215 -0.05055975541472435 0.013193907216191292 
-0.009870623238384724 -0.03916255384683609 0.024028992280364037 -0.06852104514837265 0.011651504784822464 0.06484925746917725 -0.0199990663677454 -0.03283952921628952 -0.06290863454341888 
0.022804835811257362 -0.06607242673635483 0.011256101541221142 -0.025058861821889877 -0.06484413146972656 0.029013480991125107 -0.003184322966262698 0.043500930070877075 -0.043675970286130905 
0.04522755742073059 0.007634013891220093 0.02167925052344799 0.011586742475628853 -0.02876623347401619 0.03192639723420143 -0.06609896570444107 -0.05693779140710831 -0.003962194547057152 
-0.06695479899644852 -0.04169450327754021 0.005187707487493753 -0.01852770335972309 0.03137314319610596 0.03890475258231163 0.027214186266064644 0.02070351503789425 -0.015067332424223423 
0.0031801050063222647 0.0019730301573872566 0.026665961369872093 0.05784393846988678 -0.013833927921950817 -0.07019650191068649 -0.04561878368258476 0.02342883311212063 0.023110173642635345 
