0.0546875
0.109375
0.15625
-0.0078125
0.0390625
-0.0625
0.171875
-0.1640625
0.1328125
-0.0078125
-0.015625
-0.09375
0.046875
0.046875
-0.09375
-0.1015625
-0.109375
-0.0703125
-0.0859375
0.1796875
0.046875
-0.03125
-0.03125
0.0078125
-0.006230775732547045
0.002534985775128007
-0.008255602791905403
0.005977581720799208
0.047775570303201675
0.05607962980866432
-0.048812106251716614
0.009997078217566013
0.024611692875623703
0.020890740677714348
0.005540722515434027
0.05522070452570915
-0.01670289970934391
0.06127498671412468
-0.06181587651371956
-0.06781379878520966
-0.04186791181564331
-0.03943492844700813
0.034946508705616
0.08203296363353729
-0.0010575122432783246
-0.0636734589934349
0.0631452277302742
0.060089241713285446
0.04484092816710472
-0.0496196374297142
-0.0094180628657341
0.018368283286690712
-0.006548750214278698
0.059205494821071625
0.016988102346658707
0.018931645900011063
-0.02427375316619873
0.024534352123737335
0.009384154342114925
0.0068968492560088634
-0.04289679601788521
-0.017912371084094048
-0.02201211079955101
0.025670524686574936
-0.006725976709276438
0.06727946549654007
0.04062899947166443
0.018692241981625557
-0.015834428369998932
-0.024636942893266678
-0.05203552171587944
0.004533958621323109
-0.006230775732547045
0.002534985775128007
-0.008255602791905403
0.005977581720799208
0.047775570303201675
0.05607962980866432
-0.048812106251716614
0.009997078217566013
0.024611692875623703
0.020890740677714348
0.005540722515434027
0.05522070452570915
-0.01670289970934391
0.06127498671412468
-0.06181587651371956
-0.06781379878520966
-0.04186791181564331
-0.03943492844700813
0.034946508705616
0.08203296363353729
-0.0010575122432783246
-0.0636734589934349
0.0631452277302742
0.060089241713285446
-0.027170440182089806
-0.04424332454800606
-0.07961273193359375
-0.013819931074976921
-0.008628417737782001
0.025744004175066948
0.02210298739373684
0.004648864269256592
-0.05701635777950287
0.02098257467150688
-0.01367879007011652
-0.008797640912234783
-0.06338106840848923
0.05979794263839722
0.011663397774100304
-0.051438748836517334
-0.007727800868451595
-0.042303137481212616
-0.042789723724126816
0.05839527025818825
0.036666154861450195
0.04560383781790733
-0.05606398358941078
-0.00637879129499197
-0.017414933070540428
0.06190330535173416
-0.022363809868693352
0.0327131561934948
0.075330451130867
0.06730566918849945
0.054458506405353546
0.051172930747270584
0.06132063642144203
-0.05449862405657768
-0.006984498351812363
-0.04393943026661873
-0.05068212375044823
0.0003219296340830624
-0.021638929843902588
-0.019755521789193153
0.0834740400314331
-0.03265196457505226
0.02673851139843464
0.0027047633193433285
-0.016796689480543137
-0.02740081213414669
-0.053498998284339905
-0.012084872461855412
-0.055654823780059814
-0.005090794991701841
-0.05788225680589676
-0.045875433832407
-0.03679030016064644
-0.041762374341487885
0.03685813397169113
0.040105193853378296
-0.03658311069011688
-0.05592215433716774
-0.04178033024072647
0.006838248111307621
0.040266118943691254
0.016822634264826775
-0.03752948343753815
-0.004708106629550457
0.004990037064999342
0.0027002973947674036
0.07379096746444702
-0.046869102865457535
-0.03441143035888672
0.010427010245621204
0.002746067475527525
-0.007920283824205399
0.02850697934627533
-0.008018684573471546
0.050481174141168594
-0.013352717272937298
0.02340923622250557
-0.046839527785778046
-0.000818766828160733
-0.06395697593688965
-0.011164074763655663
0.006954264361411333
-0.0020551932975649834
-0.04528915509581566
0.03655333071947098
-0.011625973507761955
-0.05346930772066116
0.025407303124666214
-0.00995804462581873
0.0035088106524199247
-0.038033317774534225
-0.014848564751446247
0.016711492091417313
0.05797341465950012
-0.05595018342137337
-0.05196305364370346
-0.0024308841675519943
0.0274934284389019
-0.03407681733369827
-0.051060788333415985
-0.03946464881300926
-0.01167320180684328
-0.07836195081472397
-0.03604267165064812
-0.03752191364765167
-0.00790417194366455
0.06288783252239227
0.0460713766515255
0.028236132115125656
-0.04588104784488678
0.030097058042883873
-0.06256873160600662
0.023704254999756813
0.06180902197957039
0.03884688392281532
-0.02012164145708084
-0.0009948338847607374
-0.06605211645364761
0.010218046605587006
-0.03746356442570686
-0.04546921327710152
0.03401710093021393
-0.04613552615046501
0.04651668667793274
0.02829083614051342
0.03898259997367859
-0.018543096259236336
-0.049247320741415024
0.003803801257163286
-0.0356430858373642
0.024973634630441666
0.013464370742440224
0.06319345533847809
0.0012915653642266989
-0.03354281187057495
0.0668630376458168
0.009119760245084763
0.04540172591805458
-0.05034682899713516
0.01867630146443844
-0.005628609098494053
-0.04924290254712105
0.048302337527275085
-0.027438370510935783
0.03523233160376549
-0.04222911223769188
-0.005025312304496765
0.024899465963244438
-0.030815985053777695
0.04188135266304016
0.02894316427409649
0.015207458287477493
0.059454936534166336
0.04431086778640747
0.028764495626091957
-0.036651838570833206
-0.059394702315330505
0.04376017302274704
-0.03688550740480423
0.030279800295829773
0.05117092281579971
0.026525160297751427
0.058224156498909
0.029317064210772514
-0.048593658953905106
-0.06612776964902878
0.0527699775993824
-0.0060120513662695885
-0.005708659999072552
-0.04737310856580734
-0.05417212098836899
