-0.050523996353149414 0.07063140720129013 0.026744669303297997 0.032055944204330444 0.007197612430900335 0.029741302132606506 -0.020530426874756813 0.06626447290182114 -0.026875929906964302 
0.0585743710398674 0.023997269570827484 0.0317378044128418 -0.025944987311959267 0.048941850662231445 0.04868602007627487 -0.01279819943010807 0.020257549360394478 -0.0721602514386177 
-0.0046459827572107315 -0.04580390825867653 0.025014042854309082 0.0771026760339737 0.012989911250770092 -0.03908799961209297 0.005446745548397303 0.0861731618642807 -0.045340221375226974 
0.047830864787101746 0.036614373326301575 0.03349481150507927 0.04675043746829033 -0.02495207078754902 -0.03475239500403404 -0.0026832318399101496 -0.03947782143950462 0.07006222754716873 
-0.007765457034111023 0.08386343717575073 -0.008654719218611717 0.006103156134486198 0.01190708763897419 0.0004747373750433326 0.0043522207997739315 -0.007850602269172668 -0.009845827706158161 
-0.02103150635957718 -0.03456411510705948 0.02069496549665928 0.02414659783244133 -0.03653523698449135 0.0008230999228544533 -0.004004512447863817 -0.017590422183275223 -0.05641642212867737 
-0.0368538536131382 -0.05330468341708183 0.0065731992945075035 -0.009902387857437134 0.03798697888851166 0.0299701988697052 0.03754856437444687 0.019082602113485336 0.05193828418850899 
-0.06426224112510681 -0.04632018506526947 0.08208216726779938 0.04528393596410751 0.043526411056518555 -0.036053091287612915 -0.010908740572631359 -0.052136167883872986 0.02828449010848999 
0.045705534517765045 -0.023090703412890434 -0.041704367846250534 -0.08378514647483826 0.24511310458183289 -0.030652903020381927 0.062161725014448166 0.04968651384115219 0.09425706416368484 
0.02112317457795143 -0.06934887915849686 0.038848742842674255 0.02793262153863907 0.01596113108098507 0.007588550914078951 -0.02691098116338253 -0.044850751757621765 -0.05536651611328125 
-0.00019791917293332517 -0.05101556330919266 0.010852772742509842 0.04976632073521614 0.026637928560376167 -0.009293376468122005 -0.042146213352680206 -0.07762461155653 -0.0777517631649971 
0.1545920968055725 0.0378032922744751 -0.00018709174764808267 -0.15091663599014282 0.10370855033397675 0.1314094066619873 0.043752264231443405 0.0784912258386612 -0.09836659580469131 
0.009281032718718052 0.015779834240674973 0.02502906136214733 -0.22215290367603302 -0.08869249373674393 -0.1269623190164566 0.03960045799612999 -0.4091048836708069 -0.22339121997356415 
-0.037462253123521805 -0.06348858773708344 -0.02867157943546772 0.043651681393384933 0.040591489523649216 0.00026469831936992705 -0.06457462161779404 -0.0037279310636222363 0.01602739281952381 
-0.01053090114146471 -0.04102787747979164 -0.011129220016300678 0.02987181581556797 -0.09795352816581726 -0.034451551735401154 0.004125289618968964 -0.08103425055742264 -0.008128764107823372 
-0.07024535536766052 -0.011228417046368122 -0.07312554121017456 0.020511765033006668 -0.0050704893656075 0.006214498076587915 -0.018232209607958794 -0.02809891849756241 -0.04633447900414467 
-0.05174476280808449 0.04215486720204353 0.005404212512075901 0.04579611495137215 -0.05103188753128052 0.014646059833467007 0.07757150381803513 0.05272247642278671 -0.037885360419750214 
-0.0653446614742279 0.04039948433637619 0.02373400330543518 0.041228875517845154 -0.0025824273470789194 -0.04675620421767235 -0.05983613803982735 0.06627559661865234 0.05107572302222252 
0.04977507144212723 0.016979552805423737 -0.04157410189509392 0.06823417544364929 -0.03851444646716118 -0.037277448922395706 0.051906518638134 0.0698181688785553 0.03521254286170006 
-0.04311273247003555 -0.08518441766500473 0.01447166595607996 0.19000540673732758 0.13342678546905518 0.04334108158946037 0.17710362374782562 -0.029643597081303596 -0.05017751455307007 
0.09349019825458527 0.003395858919247985 0.05185037851333618 -0.041130196303129196 -0.11449597030878067 0.07421205192804337 0.027837786823511124 0.09401050955057144 0.11066047847270966 
-0.0541209876537323 0.021418599411845207 -0.05045950040221214 -0.07342204451560974 0.05324304476380348 0.04400193318724632 -0.05421149358153343 0.0459316186606884 0.016817597672343254 
-0.10189185291528702 -0.06783751398324966 -0.012607289478182793 -0.023897258564829826 0.06735944747924805 -0.05060616880655289 -0.013872744515538216 -0.004702311009168625 -0.03726150467991829 
-0.03784862905740738 0.07662110030651093 -0.05980169028043747 0.0024409801699221134 -0.08433790504932404 0.03229327127337456 0.022851955145597458 0.039230428636074066 0.0712079405784607 
0.00040794810047373176 -0.021307887509465218 0.06951364129781723 0.001858609146438539 -0.06529279798269272 0.019380340352654457 -0.01842755824327469 -0.05733207240700722 -0.03879117593169212 
0.059280771762132645 -0.05794006958603859 3.127529998891987e-05 0.06335249543190002 0.04240860417485237 -0.030550263822078705 -0.03643364831805229 0.059211958199739456 0.03887473791837692 
0.04080089181661606 -0.04909920692443848 0.018514709547162056 0.042021650820970535 -0.03222048282623291 -0.029368119314312935 -0.03855637088418007 -0.05113339424133301 -0.057206638157367706 
0.054336387664079666 -0.056916121393442154 -0.04254002496600151 -0.026031319051980972 -0.024693813174962997 0.0666390061378479 0.00042949861381202936 -0.05065969005227089 0.014919815585017204 
0.006951119750738144 -0.05612516775727272 0.003915600944310427 0.08143146336078644 -0.03531274199485779 0.05306713655591011 0.004762261640280485 -0.041471462696790695 0.030340347439050674 
-0.017067447304725647 0.017809966579079628 0.0022009897511452436 -0.008338521234691143 -0.022338271141052246 0.0012820169795304537 0.027748726308345795 -0.04429704695940018 0.013596058823168278 
-0.025537360459566116 0.013534238561987877 0.05880994349718094 -0.037230122834444046 -0.009999196976423264 -0.009517651982605457 -0.045898571610450745 -0.049962833523750305 -0.007390209473669529 
-0.046442799270153046 0.023493407294154167 -0.03482230007648468 2.0726994989672676e-05 0.041856635361909866 -0.050159040838479996 -0.035960182547569275 0.04728859290480614 -0.05260666459798813 
0.1116613820195198 -0.035502634942531586 0.06422661989927292 0.03220135718584061 0.012388511560857296 0.07982943207025528 -0.012381098233163357 0.022981954738497734 0.08541097491979599 
0.04755017161369324 -0.03297145664691925 0.051572173833847046 0.03323002904653549 0.05305596441030502 -0.037816617637872696 0.02383067086338997 0.033883530646562576 -0.060987941920757294 
0.016020886600017548 -0.0034186847042292356 -0.0026949900202453136 -0.021864382550120354 -0.03262125700712204 -0.044520825147628784 -0.04402093216776848 0.010624135844409466 -0.0054525453597307205 
0.04051198065280914 0.06231231614947319 0.047671034932136536 0.029434576630592346 -0.017758838832378387 0.07853265106678009 0.055959854274988174 -0.030020682141184807 0.00445155194029212 
0.007117040455341339 -0.052927903831005096 -0.03139334172010422 -0.0036299480125308037 -0.1392286717891693 -0.03399163484573364 -0.06334912031888962 0.05309645086526871 0.03478201478719711 
0.0341341532766819 -0.014813259243965149 -0.05401791259646416 0.06591369956731796 -0.01626375876367092 0.036837052553892136 -0.011427280493080616 0.06831450015306473 0.06296873837709427 
-0.03729384019970894 -0.030522508546710014 -0.005238145589828491 0.03829456865787506 0.0553356371819973 -0.047026678919792175 0.040580835193395615 0.02396398037672043 0.05501222237944603 
-0.0124466298148036 0.0051645273342728615 0.0046276128850877285 0.026121845468878746 0.02303110621869564 -0.033951036632061005 -0.01399954967200756 -0.04870733618736267 -0.01536320149898529 
-0.05904373526573181 -0.0642896220088005 -0.02128756232559681 0.003540388308465481 0.05482051894068718 0.00714386161416769 -0.015486868098378181 -0.03296591341495514 0.042494915425777435 
-0.0012699782382696867 -0.0715651661157608 0.05256054177880287 0.04651690647006035 0.002154075540602207 -0.02450370043516159 -0.041020773351192474 0.04040534421801567 0.0542539618909359 
-0.05718126893043518 0.01661790907382965 0.04537245258688927 0.0516197606921196 0.049379173666238785 -0.03756994754076004 0.008861159905791283 -0.03601803630590439 -0.0500982366502285 
-0.13790088891983032 0.02229003794491291 0.002468830905854702 0.03491019085049629 -0.12586013972759247 0.07130508124828339 0.004640168510377407 -0.01946883648633957 -0.04884706437587738 
-0.07409006357192993 -0.059233129024505615 -0.01663966104388237 0.004550832323729992 -0.010919024236500263 0.0613844133913517 -0.02361707016825676 -0.019473139196634293 0.04742133244872093 
-0.03069477714598179 0.033327147364616394 0.037197187542915344 -0.04357004165649414 0.037290509790182114 0.06107218191027641 0.05057276785373688 0.028219906613230705 0.024961449205875397 
0.07078098505735397 -0.05068109929561615 -0.046070218086242676 -0.008662746287882328 -0.005988419987261295 -0.019589904695749283 -0.011579599231481552 -0.013227825053036213 0.01147428434342146 
-0.04403911530971527 0.06164698675274849 -0.01184941828250885 -0.05553499609231949 0.026070576161146164 -0.009500589221715927 0.03044455125927925 0.04962434619665146 -0.005550776608288288 
-0.019012702628970146 0.01340500544756651 -0.020871493965387344 -0.061998456716537476 -0.048618484288454056 0.027514539659023285 0.03942118585109711 -0.043442800641059875 0.03175998851656914 
0.033249083906412125 0.0009731286554597318 -0.03308113291859627 -0.04018515720963478 0.05047523230314255 0.05742846056818962 0.029613055288791656 0.03221520036458969 -0.049476828426122665 
0.041553061455488205 -0.00928470678627491 -0.054117150604724884 -0.03430352732539177 0.0366484634578228 0.06574999541044235 0.06450439989566803 -0.05596175044775009 -0.027103127911686897 
0.00044927195995114744 0.0571620799601078 -0.04408580809831619 -0.05517672747373581 -0.00883819442242384 -0.04300335794687271 -0.0031668487936258316 -0.05448295921087265 -0.06717755645513535 
-0.02314910665154457 0.04752469062805176 0.06653153151273727 0.05425887927412987 0.04592811316251755 0.03651629015803337 0.06862533837556839 0.1003507599234581 -0.007175504695624113 
0.003904562210664153 0.038859009742736816 -0.02972176857292652 0.025170190259814262 -0.03589954227209091 0.04202853888273239 -0.031438831239938736 0.02834238111972809 0.04321175813674927 
0.04238981753587723 -0.029288845136761665 -0.029610615223646164 -0.00037232262548059225 0.04254379868507385 0.039615027606487274 -0.018211035057902336 0.009393123909831047 0.05067389830946922 
0.027641911059617996 0.0461714081466198 -0.03181290626525879 0.07453419268131256 -0.0649874359369278 0.0013527849223464727 0.05468721315264702 -0.05765673518180847 -0.03229481726884842 
-0.05588914081454277 0.045272573828697205 -0.07485803216695786 -0.06631776690483093 -0.010414396412670612 -0.16186362504959106 0.04479943960905075 -0.024463238194584846 -0.031223777681589127 
-0.0365731418132782 0.015521140769124031 0.05590527504682541 0.03610745817422867 -0.007721596863120794 -0.04660876840353012 0.01339262630790472 -0.06318892538547516 0.058229245245456696 
-0.06308376044034958 0.04171016067266464 -0.00645166402682662 -0.042683713138103485 -0.04111582413315773 -0.0023018494248390198 -0.030037863180041313 -0.010838856920599937 0.030987638980150223 
0.05021249130368233 -0.06175074726343155 -0.002596066566184163 0.06461375951766968 0.018086101859807968 -0.009976278059184551 0.12398936599493027 -0.11984257400035858 0.058190446346998215 
-0.10112914443016052 0.09481504559516907 0.037190549075603485 0.024553025141358376 0.12695808708667755 0.09458339959383011 -0.11063623428344727 -0.1444946974515915 -0.09297748655080795 
0.05291193723678589 -0.05684024095535278 -0.008316189050674438 -0.016021497547626495 -0.012574268504977226 -0.02839246392250061 0.040079519152641296 0.023592475801706314 -0.058658622205257416 
-0.045573119074106216 -0.01594412885606289 -0.02489100769162178 -0.07653018087148666 -0.061185937374830246 0.06437310576438904 0.08036033809185028 0.008354688063263893 0.043462518602609634 
0.07040011137723923 -0.018528243526816368 -0.019967950880527496 0.07683665305376053 -0.04114599898457527 -0.011849789880216122 0.02184768207371235 -0.0017306925728917122 -0.013577685691416264 
0.07164999097585678 0.036381497979164124 0.0531952790915966 -0.06038690358400345 -0.05124155804514885 -0.037658579647541046 -0.05717854201793671 -0.06338156759738922 -0.0325680635869503 
-0.05680364742875099 0.04428567364811897 -0.0441814549267292 -0.02605251409113407 0.03418838605284691 0.05547245591878891 0.023134464398026466 -0.002857225015759468 0.019332583993673325 
-0.0013375034322962165 0.00506862485781312 -0.0045394147746264935 -0.03227884694933891 0.037569183856248856 0.05654697120189667 -0.011479605920612812 0.06009974703192711 -0.023220030590891838 
-0.06783811002969742 -0.07981891930103302 -0.058646343648433685 -0.033915307372808456 0.041438136249780655 0.026887813583016396 -0.08356843888759613 -0.05046119540929794 -0.015907594934105873 
0.07094468921422958 0.002297177677974105 0.052181538194417953 0.053450096398591995 -0.04347255453467369 0.04003167524933815 -0.014752482064068317 0.005212778225541115 -0.1187586784362793 
0.02651156857609749 0.03132293000817299 0.038757648319005966 0.014990009367465973 0.00042525623575784266 0.03154913708567619 0.04048376902937889 -0.009663419798016548 0.035453666001558304 
-0.037994977086782455 -0.03321976587176323 0.029047533869743347 0.005048561841249466 -0.03591543063521385 -0.030192753300070763 0.012686869129538536 0.03078918345272541 -0.012372505851089954 
-0.06696831434965134 0.037890948355197906 0.025840844959020615 -0.04889393597841263 -0.05867515131831169 0.04436487331986427 -0.05304789915680885 0.026289140805602074 -0.01195018831640482 
-0.0692053958773613 0.051122911274433136 0.062134310603141785 0.042754918336868286 -0.0331130251288414 0.0627555251121521 0.017812034115195274 -0.012494505383074284 0.051497649401426315 
0.06354507058858871 -0.06377950310707092 0.012066963128745556 -0.018558349460363388 -0.060777921229600906 -0.0163421630859375 -0.010186544619500637 0.057529788464307785 0.010557340458035469 
0.011166632175445557 0.041744355112314224 -0.0010683087166398764 0.00023412820883095264 0.02973955124616623 0.058261264115571976 0.009594938717782497 0.027614260092377663 -0.0049238866195082664 
0.023655593395233154 0.051250163465738297 -0.06985625624656677 0.025853291153907776 -0.004309598356485367 0.06187606602907181 0.06535337120294571 -0.07283885776996613 -0.06180490180850029 
0.0007681493298150599 -0.03232433646917343 -0.06834498047828674 -0.039876535534858704 0.05333646386861801 -0.01584467850625515 -0.005512362811714411 -0.04197927191853523 0.009783349931240082 
0.0018527014181017876 -0.0054240599274635315 0.017212841659784317 -0.0271232258528471 0.02392732910811901 -0.04217509552836418 0.005817060824483633 0.04178423434495926 -0.04005828872323036 
0.06899574398994446 -0.028669321909546852 0.034755315631628036 -0.029767023399472237 0.002927130088210106 -0.025519005954265594 -0.033574629575014114 -0.048179738223552704 0.03656088188290596 
-0.029904600232839584 0.0052473777905106544 -0.02223232202231884 0.009472695179283619 0.0044923387467861176 -0.07055331021547318 0.04582012817263603 0.0287739560008049 0.00793122872710228 
0.02119085192680359 -0.07958844304084778 -0.004446125123649836 -0.06813482195138931 -0.07289807498455048 -0.009255080483853817 0.05807343125343323 0.07836179435253143 0.15912170708179474 
0.06095978990197182 -0.028979653492569923 0.026727264747023582 -0.03270740061998367 -0.03235570713877678 -0.018256932497024536 0.01304081454873085 0.051272325217723846 -0.011810129508376122 
-0.0020421163644641638 -0.06197724491357803 0.023884158581495285 0.021662810817360878 -0.0060332356952130795 -0.01932970993220806 0.020643381401896477 -0.0187262874096632 0.04892369359731674 
-0.03743211179971695 0.01181658636778593 0.07212807983160019 0.020948324352502823 0.08248145133256912 -0.019590681418776512 -0.05608117952942848 0.06935453414916992 -0.0006654178141616285 
0.04663288965821266 0.08461838215589523 0.09798964112997055 0.019246110692620277 -0.024738555774092674 -0.049670472741127014 0.020243532955646515 -0.09237952530384064 0.043220795691013336 
-0.05864248424768448 -0.012472404167056084 0.03269154578447342 0.02855777181684971 -0.01610725373029709 0.021488329395651817 0.026088986545801163 0.048363808542490005 -0.0680115595459938 
-0.04344450309872627 -0.07147857546806335 -0.029050389304757118 0.051641810685396194 -0.012764650397002697 -0.02932424657046795 -0.03522685542702675 -0.016624191775918007 0.05689569562673569 
-0.04503563046455383 -0.0012016394175589085 0.06130014359951019 -0.06683272868394852 -0.019648579880595207 0.0618683397769928 -0.02301419898867607 -0.030622322112321854 -0.015845200046896935 
0.030682383105158806 -0.01135812047868967 0.014927170239388943 -0.027681734412908554 0.0011533268261700869 -0.032229233533144 0.017131362110376358 -0.05141683295369148 0.022414645180106163 
-0.009676345624029636 0.0015773216728121042 -0.06088320538401604 -0.0456918440759182 -0.04580700770020485 -0.04269276186823845 0.032871950417757034 -0.04307527095079422 0.04906298592686653 
0.025879424065351486 -0.04598385840654373 -0.04707149416208267 0.01411525160074234 -0.03177660331130028 -0.005850078538060188 0.003822876140475273 0.05190308019518852 0.004953089170157909 
-0.05427851900458336 0.10833202302455902 0.00027067516930401325 0.06267647445201874 0.0773896723985672 -0.028148161247372627 -0.032629240304231644 0.044066041707992554 0.07925873249769211 
0.012682262808084488 0.001305942889302969 0.0660114660859108 -0.020548710599541664 0.04889143258333206 0.020823435857892036 0.013781816698610783 -0.07982467114925385 0.0266309455037117 
-0.004867421928793192 -0.025131840258836746 0.02178041823208332 -0.017323626205325127 0.04103760048747063 0.004254401195794344 0.04492733255028725 0.015074288472533226 -0.05053601413965225 
0.014127376489341259 0.05096353217959404 -0.009162332862615585 0.05307463929057121 -0.06525995582342148 0.03804086521267891 -0.011718833819031715 0.04946468397974968 0.024454323574900627 
0.0035961384419351816 0.013204032555222511 0.0019155166810378432 0.023375531658530235 -0.02156558632850647 -0.05737718939781189 0.018854299560189247 0.009324204176664352 0.016765156760811806 
-0.026385555043816566 0.002793752821162343 -0.0034068231470882893 0.029498562216758728 0.07179543375968933 0.046944960951805115 0.029489442706108093 0.07304619252681732 0.009957101196050644 
-0.03616567701101303 0.019536539912223816 0.06952285021543503 -0.026206327602267265 0.013899221085011959 0.06757406890392303 -0.026660451665520668 0.0275731161236763 -0.04442445933818817 
-0.014830231666564941 0.051303960382938385 -0.0466335266828537 -0.02451162412762642 0.030657567083835602 -0.045253168791532516 -0.02062312699854374 0.015433193184435368 0.047714341431856155 
-0.049745410680770874 0.03554908186197281 -0.04383311793208122 -0.06572989374399185 -0.008511684834957123 -0.044169776141643524 -0.04462817683815956 -0.030354352667927742 0.0655086562037468 
0.012644168920814991 -0.00295047159306705 0.06680627167224884 -0.0428033322095871 0.054389096796512604 0.013178852386772633 0.03981729969382286 0.004369695670902729 0.05745306238532066 
0.05450186878442764 0.07246944308280945 -0.04515616223216057 0.07027360051870346 -0.006758240982890129 0.061087701469659805 -0.028485367074608803 -0.019619926810264587 0.03519544377923012 
-0.030068809166550636 -0.03828984498977661 -0.06853248178958893 -0.01987626403570175 0.032725244760513306 0.05025394633412361 0.030790777876973152 0.015364113263785839 -0.06277544051408768 
-0.03608550876379013 0.024322103708982468 -0.027057286351919174 0.02544940821826458 -0.03289059177041054 -0.059240054339170456 0.02966274879872799 0.027087541297078133 0.027857517823576927 
-0.013438744470477104 0.05640269070863724 -0.04044651612639427 -0.025386346504092216 0.1253102421760559 0.13987605273723602 0.14471137523651123 0.028501518070697784 0.004623031709343195 
-0.004803654737770557 0.05403691530227661 0.054999638348817825 0.028754031285643578 -0.044261083006858826 0.07153996080160141 -0.05700824782252312 -0.0003632236330304295 -0.05327986180782318 
0.031212003901600838 -0.01679086871445179 0.043120890855789185 0.019640063866972923 0.03720633313059807 0.02611510269343853 0.05189220607280731 -0.00036709103733301163 0.038706615567207336 
0.04931182414293289 -0.005948354490101337 -0.021422656252980232 0.006182336248457432 0.010380707681179047 0.011883224360644817 -0.06630250066518784 0.00042603505426086485 0.0678798109292984 
-0.058944351971149445 -0.057907380163669586 -0.023799635469913483 -0.0906452164053917 -0.12606589496135712 -0.0416739396750927 0.19861656427383423 -0.11828554421663284 0.06673722714185715 
-0.008506420068442822 -0.03595524653792381 0.00445872638374567 -0.04806637391448021 0.049640972167253494 0.026336966082453728 0.04704855754971504 0.04808192327618599 -0.03948412090539932 
-0.016923455521464348 -0.005990625359117985 -0.02256307564675808 -0.029534630477428436 -0.04844512790441513 0.06580713391304016 0.02493748627603054 0.016476094722747803 -0.014416288584470749 
-0.06683571636676788 0.00830103550106287 -0.0055800434201955795 0.03621002286672592 0.045670442283153534 0.010862572118639946 -0.06427475810050964 0.04899827390909195 0.033773478120565414 
-0.010815837420523167 0.036329809576272964 -0.03395339101552963 -0.013801045715808868 -0.04873517155647278 0.011583639308810234 0.02981661818921566 -0.05488497018814087 -0.025112472474575043 
-0.029860740527510643 0.011502042412757874 0.0006956520956009626 -0.004148933105170727 0.018306758254766464 -0.047997184097766876 -0.025413811206817627 0.0003893640823662281 0.012539909221231937 
0.010069101117551327 -0.04976588115096092 -0.01689862459897995 0.03965324908494949 0.051687099039554596 0.06596168875694275 -0.029019933193922043 -0.048613350838422775 0.07045980542898178 
-0.08313015848398209 -0.061285484582185745 -0.008908992633223534 -0.01677481085062027 0.04966149106621742 -0.027705205604434013 0.03673060983419418 -0.042010653764009476 0.03600408881902695 
-0.001929122139699757 -0.013602704741060734 0.022702021524310112 0.0835685208439827 -0.02610914595425129 -0.043195612728595734 -0.0167576614767313 -0.02113335020840168 0.03184947744011879 
0.04722311720252037 -0.06895346939563751 -0.021303268149495125 -0.057090118527412415 0.016940899193286896 -0.03450493514537811 0.004241392016410828 0.028880614787340164 -0.022888904437422752 
-0.053427401930093765 0.04515334963798523 0.07261738926172256 -0.043784379959106445 0.07084836810827255 -0.002346162684261799 -0.010344705544412136 0.017719991505146027 0.013828625902533531 
-0.014553628861904144 0.05807242915034294 0.00032875602482818067 -0.029165100306272507 0.04992475360631943 -0.023678168654441833 0.01882520504295826 -0.03987657278776169 -0.05691089853644371 
0.012132286094129086 0.06481660902500153 -0.03530387952923775 -0.047563761472702026 0.08586005866527557 -0.07372400909662247 -0.014857136644423008 0.07094135135412216 -0.07044848054647446 
-3.080102487729164e-06 0.004875210113823414 -0.06690378487110138 0.036999575793743134 0.00759325735270977 0.02028302103281021 0.013891158625483513 0.038972388952970505 0.04290340468287468 
-0.018119122833013535 -0.03273199498653412 0.05838954448699951 0.03758951649069786 0.01755042001605034 0.06569558382034302 -0.012594230473041534 0.04022130370140076 0.04980074614286423 
0.05997537821531296 0.054229192435741425 0.02877241000533104 0.035185664892196655 -0.03058989718556404 0.051983535289764404 -0.030620794743299484 0.05084243044257164 -0.036087989807128906 
0.06659092754125595 -0.0563858300447464 0.041365399956703186 0.02224065363407135 -0.052262939512729645 0.0626300722360611 -0.031688228249549866 0.06138817220926285 0.042933814227581024 
0.03300518915057182 0.04524045065045357 0.006896427366882563 -0.004288427531719208 0.024971408769488335 -0.02228904888033867 0.02449868433177471 0.04064886271953583 -0.05033431202173233 
-0.02484855428338051 0.027474405243992805 -0.03347151353955269 0.02180044911801815 -0.06426917016506195 -0.06472961604595184 0.01592238061130047 -0.019770575687289238 -0.04664238169789314 
-0.06339714676141739 0.047994464635849 0.012613949365913868 -0.006963125895708799 -0.02759416028857231 -0.0021055741235613823 -0.08381764590740204 0.06419195979833603 -0.06753706187009811 
0.00791902095079422 0.08730771392583847 0.08708302676677704 -0.07269406318664551 0.14592799544334412 -0.027339821681380272 -0.032960377633571625 0.15085986256599426 0.08488094806671143 
-0.004427630454301834 -0.05057104304432869 0.026820139959454536 0.039411511272192 0.030371472239494324 -0.025945181027054787 0.025659890845417976 -0.012785433791577816 -0.00454203924164176 
-0.0564272478222847 -0.005074452143162489 0.015566742978990078 0.04700234904885292 -0.06242205202579498 0.009701489470899105 0.04123176261782646 -0.05504477396607399 0.02289668656885624 
-0.04836272448301315 -0.04276246950030327 0.047736961394548416 -0.01333842147141695 -0.05636865645647049 -0.07077275961637497 -0.023043904453516006 -0.05058759078383446 0.10525555908679962 
-0.017804311588406563 0.00944579765200615 -0.029229220002889633 0.04259021580219269 -0.03768331930041313 0.019698191434144974 0.2006322145462036 -0.06359320133924484 0.07095857709646225 
-0.07375260442495346 0.06077352911233902 -0.028716305270791054 0.04580290988087654 -0.04655010998249054 -0.0428556427359581 0.008289196528494358 -0.02398597076535225 0.05688302218914032 
-0.05673947557806969 -0.03274482488632202 0.040854185819625854 0.0034296042285859585 -0.059890102595090866 0.10901790857315063 0.036351971328258514 0.01934688352048397 -0.009418484754860401 
-0.04638713225722313 -0.058250218629837036 0.03907686099410057 -0.029041636735200882 -0.04243725538253784 -0.0480918362736702 -0.06903650611639023 -0.048280250281095505 0.02654549479484558 
0.011868702247738838 0.02558891288936138 -0.04983920603990555 -0.0489187054336071 -0.009381531737744808 -0.013077503070235252 -0.02233254723250866 0.040152858942747116 0.005842243786901236 
0.007452614605426788 -0.02760544791817665 -0.040457624942064285 0.07267424464225769 0.04021400213241577 -0.03106890805065632 0.03703475371003151 -0.033713776618242264 -0.06204165145754814 
-0.07446449249982834 0.05304788798093796 -0.0759311094880104 0.06987888365983963 0.05239083245396614 0.002527475357055664 0.0027438276447355747 0.05625428259372711 -0.03939615935087204 
-0.14935551583766937 -0.011746879667043686 -0.055597078055143356 0.04747343808412552 -0.07456286996603012 0.04679766297340393 0.0451543927192688 -0.06969659775495529 0.04726359248161316 
0.0034131065476685762 -0.0541311614215374 0.05355925112962723 0.0408102311193943 -0.10104186832904816 0.06291642785072327 -0.03754103183746338 -0.11366952955722809 0.09562468528747559 
0.052724748849868774 -0.03250030055642128 0.04042712599039078 0.03635929897427559 -0.0463675819337368 -0.022249625995755196 0.02646416798233986 0.0434575118124485 0.044155318289995193 
-0.009077404625713825 0.03738125041127205 0.053275708109140396 0.018564803525805473 -0.017376767471432686 0.0027083675377070904 -0.02542554959654808 0.04976500943303108 0.0676426962018013 
-0.03515572473406792 0.026931487023830414 0.06908255070447922 0.07309325039386749 -0.04610472917556763 -0.022591348737478256 -0.06799057126045227 0.033060986548662186 -0.015482485294342041 
-0.03596684709191322 -0.06143279746174812 0.03908701613545418 -0.06129269301891327 0.0246309582144022 -0.016731541603803635 -0.03866912052035332 0.007821760140359402 -0.04469415545463562 
0.03708184137940407 -0.01018257811665535 -0.04249870032072067 0.031518906354904175 -0.025476131588220596 -0.0078194011002779 0.04830504208803177 -0.02653553895652294 0.010220654308795929 
-0.040380872786045074 -0.02262839488685131 -0.042934566736221313 0.06400777399539948 -0.0558389276266098 0.02252022922039032 -0.009338106028735638 -0.046857524663209915 0.02382248267531395 
-0.0058067538775503635 0.04340663552284241 0.0508304163813591 -0.044452086091041565 0.052395135164260864 -0.003233179450035095 0.052349381148815155 0.058791738003492355 -0.02797047793865204 
0.049340441823005676 -0.0363355353474617 -0.011049044318497181 0.02716214396059513 0.036346904933452606 0.002434473019093275 -0.021663270890712738 0.06356848031282425 -0.04421190544962883 
-0.04349612817168236 0.020289599895477295 0.03058796003460884 0.041049037128686905 0.06030029058456421 0.06016780808568001 -0.02176368236541748 -0.05830955132842064 -0.005048073828220367 
-0.058746498078107834 -0.03378623351454735 0.02253946103155613 -0.03832022100687027 -0.045307520776987076 0.04143529012799263 -0.05962788313627243 -0.006894496735185385 0.028470395132899284 
-0.04269310086965561 0.030201707035303116 0.018116489052772522 0.05672483891248703 -0.003829618915915489 0.006010329816490412 0.041431985795497894 -0.02657509408891201 0.014624960720539093 
-0.04786762222647667 0.012360596098005772 0.15566779673099518 -0.0005767038674093783 0.009618696756660938 -0.03799830377101898 0.003601505421102047 0.07462131977081299 -0.12123093008995056 
0.00978744588792324 -0.0013034164439886808 0.04979269951581955 0.037969883531332016 0.05166913568973541 -0.04954574257135391 -0.027059197425842285 -0.05952579900622368 0.07743200659751892 
-0.05076862499117851 0.04696988686919212 0.026148919016122818 0.02363339439034462 -0.03664132580161095 -0.03884230926632881 -0.020264780148863792 0.005646405275911093 0.010442208498716354 
0.0665956512093544 -0.04893997684121132 0.02924501709640026 0.045404303818941116 -0.02596459351480007 -0.05760549381375313 -0.008013827726244926 0.018764769658446312 0.06325037777423859 
-0.061246998608112335 -0.00889792013913393 0.024074025452136993 0.06095544621348381 0.03696679323911667 0.07286842167377472 -0.04904346913099289 0.10952742397785187 0.11572284251451492 
0.036018967628479004 0.05859451740980148 -0.0003758930542971939 0.03883516788482666 -0.05678200721740723 0.0680137351155281 -0.015135635621845722 0.04553090035915375 -0.06591945141553879 
0.04332805424928665 0.04160091653466225 -0.02622177265584469 0.032195527106523514 -0.03715650737285614 -0.08144274353981018 0.04192163795232773 9.658806811785325e-05 -0.02532457932829857 
-0.0158969908952713 -0.06151079386472702 -0.041597846895456314 -0.05634342506527901 -0.0001859951880760491 0.04251983016729355 0.018687808886170387 -0.019104553386569023 -0.0032923496328294277 
-0.033707745373249054 0.0546850711107254 -0.005952638573944569 -0.057673145085573196 -0.034855857491493225 0.03886611387133598 -0.011052854359149933 0.053021278232336044 -0.047435563057661057 
0.040924280881881714 0.01616673730313778 0.04946416988968849 0.04769567772746086 0.03544989228248596 -0.04598338529467583 -0.0354611910879612 0.003925339784473181 0.0017292051343247294 
0.05357249826192856 0.05451685190200806 0.04374479129910469 0.016528574749827385 -0.059937912970781326 -0.006748063489794731 -0.014298572205007076 -0.056557171046733856 -0.04605970159173012 
-0.07583577930927277 -0.07704127579927444 -0.08257841318845749 0.007562416139990091 0.05048287287354469 -0.012754710391163826 -0.04883299022912979 0.05855249613523483 0.02847738191485405 
0.04625781625509262 0.014233957044780254 0.0025005231145769358 -0.07579758018255234 -0.005946175195276737 -0.09372357279062271 -0.00764806242659688 0.022390706464648247 -0.12128528952598572 
0.021102268248796463 -0.028713161125779152 0.04320228472352028 -0.021999798715114594 0.046428076922893524 0.02281855046749115 0.04736238718032837 -0.034149669110774994 -0.020893123000860214 
0.05725105106830597 -0.016677364706993103 0.03780660033226013 -0.019878625869750977 -0.047236427664756775 0.027988890185952187 -0.023162182420492172 0.012142392806708813 0.05300460755825043 
0.02873486466705799 -0.018288787454366684 -0.05906302109360695 -0.030932383611798286 0.047250017523765564 0.031021427363157272 0.0666012167930603 -0.0015095950802788138 0.04692097008228302 
-0.042742859572172165 -0.04040272906422615 -0.042770933359861374 -0.04615205526351929 -0.08910761028528214 0.03246801346540451 -0.0013092353474348783 0.04034082591533661 0.0074909706600010395 
-0.04599149152636528 0.08073610812425613 -0.01797042414546013 -0.03211170807480812 0.0033133032266050577 -0.0021935231052339077 0.07682162523269653 -0.052566174417734146 -0.0050877598114311695 
0.03426237404346466 0.012576926499605179 0.015151786617934704 -0.06124831736087799 -0.06237580254673958 0.04800618439912796 0.008171211928129196 -0.030889179557561874 0.022614868357777596 
-0.05817452818155289 0.01779976300895214 0.030480291694402695 -0.050542596727609634 -0.06921708583831787 -0.021169204264879227 -0.02935774438083172 -0.045400187373161316 -0.022026803344488144 
-0.07551279664039612 -0.059856828302145004 -0.02125631831586361 -0.0942506194114685 0.02007587067782879 -0.019610481336712837 0.025420207530260086 -0.04393404349684715 0.00733946543186903 
0.016709275543689728 -0.06420788168907166 0.03070334903895855 0.07541236281394958 -0.027569765225052834 0.0009672847809270024 0.06180282309651375 0.033897802233695984 -0.05191560834646225 
0.011748163029551506 0.04155932366847992 -0.027673937380313873 -0.026654226705431938 -0.0297390166670084 0.016436370089650154 -0.06429655104875565 0.007809576578438282 -0.039506107568740845 
0.004333954304456711 -0.006399312522262335 -0.009429040364921093 -0.0643179714679718 0.04230983927845955 0.02887216955423355 -0.015464370138943195 -8.032088953768834e-05 0.023199833929538727 
-0.043092332780361176 -0.0020601502619683743 0.02929069846868515 -0.1527767777442932 -0.1593208611011505 0.15315833687782288 -0.0029382624197751284 0.06643161177635193 0.007064646575599909 
-0.029046794399619102 0.020888354629278183 -0.047329131513834 0.038432251662015915 0.06679168343544006 -0.04711427539587021 -0.025787493214011192 0.05013572424650192 -0.059280261397361755 
0.052769098430871964 -0.0050889612175524235 0.06636446714401245 -0.04608152061700821 0.03459750860929489 0.07000081986188889 -0.041889723390340805 -0.05450150743126869 -0.049273453652858734 
-0.011618414893746376 -0.07142811268568039 -0.011262350715696812 0.05198872461915016 0.08240331709384918 -0.21373781561851501 0.05149845778942108 0.02079097367823124 0.17612582445144653 
-0.07617321610450745 -0.1177481934428215 0.060769274830818176 -0.11465959995985031 0.04894298315048218 -0.1823660284280777 0.014335856772959232 0.04840044304728508 0.2505638897418976 
0.09385860711336136 -0.0015446589095517993 0.03272842615842819 -0.020353129133582115 -0.06461074948310852 -0.052287694066762924 0.0017346801469102502 0.07733438163995743 -0.03018735907971859 
0.019086526706814766 -0.016481252387166023 -0.028473155573010445 -0.0019378990400582552 -0.025994213297963142 0.055393628776073456 -0.08463770896196365 -0.019723569974303246 0.039951495826244354 
0.0385298952460289 0.0014310787664726377 -0.048488799482584 0.04447304084897041 -0.018453337252140045 0.01638590171933174 -0.01912427507340908 0.059608254581689835 0.014828815124928951 
-0.06261925399303436 -0.04083584249019623 0.044143810868263245 0.045307617634534836 -0.047909609973430634 -0.0009152074926532805 -0.038103822618722916 0.03808543086051941 -0.06226011738181114 
-0.0021932402160018682 -0.007583267986774445 -0.055265601724386215 -0.05184813588857651 -0.06131453439593315 0.044523973017930984 0.014135082252323627 -0.07835998386144638 0.03411618620157242 
-0.027372732758522034 0.014773582108318806 0.000561892578843981 0.013601905666291714 -0.03279045596718788 -0.028793061152100563 0.043054357171058655 -0.04447454586625099 0.06682246178388596 
0.0855376124382019 0.022678382694721222 -0.06035677716135979 0.10364770144224167 -0.01038590632379055 -0.02499680407345295 0.09382662922143936 -0.017259906977415085 0.09065035730600357 
-0.025859935209155083 -0.026241028681397438 -0.19790823757648468 -0.05934752896428108 -0.0523860938847065 -0.10643912851810455 0.12629352509975433 -0.042511314153671265 0.015223318710923195 
-0.06875352561473846 -0.012597166933119297 0.06288565695285797 -0.009055101312696934 -0.05536653846502304 0.019487502053380013 0.028597736731171608 -0.07057216763496399 -0.0026656638365238905 
-0.04489392787218094 -0.025857869535684586 -0.0023340596817433834 -0.003116058185696602 0.03118238039314747 -0.017371855676174164 -0.037319544702768326 -0.002677569631487131 -0.04989501088857651 
0.018437739461660385 0.01307274866849184 0.04616645723581314 -0.03489898145198822 0.02659211866557598 0.06748953461647034 -0.00343547691591084 -0.04386596754193306 -0.030778275802731514 
0.030650118365883827 0.0046042101457715034 -0.06309767067432404 0.04567304253578186 -0.0074707092717289925 -0.024894626811146736 0.06761948764324188 -0.03972877562046051 -0.049270156770944595 
0.034809038043022156 0.07174816727638245 -0.041839778423309326 0.06721802800893784 0.049654606729745865 0.012168130837380886 -0.05922836810350418 0.05826933681964874 0.0995321199297905 
0.05747427046298981 -0.06336498260498047 0.057217031717300415 0.05836458504199982 -0.0004803233896382153 -0.05106128007173538 0.001160934567451477 0.06439518183469772 0.06125770881772041 
0.06388870626688004 0.007530737202614546 -0.06386196613311768 0.0037969881668686867 -0.023762663826346397 0.029979050159454346 0.03278439864516258 -0.0673045665025711 0.00892908126115799 
0.008162418380379677 0.01953156478703022 -0.00688555184751749 0.024083655327558517 -0.019105510786175728 -0.03862983360886574 -0.021424347534775734 -0.07273799926042557 0.01802632212638855 
-0.05753893405199051 0.007186775095760822 -0.05421612411737442 0.06548736989498138 0.007249506656080484 -0.015670809894800186 0.043866757303476334 0.06188216432929039 -0.004321304615586996 
-0.060154009610414505 0.03901054710149765 -0.03475974127650261 -0.004578832536935806 0.028638621792197227 -0.026019301265478134 -0.009567396715283394 -0.04542465880513191 -0.03425982967019081 
0.006773480214178562 -0.026980767026543617 0.0367317795753479 -0.04318850114941597 0.04180079326033592 -0.08143328875303268 -0.024501178413629532 -0.035142652690410614 -0.034413523972034454 
0.034434229135513306 0.033090412616729736 -0.010214030742645264 0.05986717715859413 -0.05620146542787552 -0.1470051109790802 0.032232701778411865 0.02264462597668171 -0.11989253014326096 
-0.027605080977082253 -0.015689125284552574 -0.03113311342895031 -0.003379617817699909 -0.0284733884036541 0.018064923584461212 -0.05061083659529686 0.026675725355744362 -0.042424216866493225 
-0.010154062882065773 0.030276553705334663 -0.030525363981723785 -0.02891559898853302 -0.05201713368296623 -0.02362394705414772 -0.054353054612874985 -0.05513127148151398 0.011438346467912197 
0.07349620014429092 0.017183097079396248 -0.010749188251793385 -0.030905669555068016 0.020732054486870766 -0.07779236882925034 -0.0830063745379448 0.006441954988986254 -0.029633929952979088 
0.04413992911577225 0.03470831364393234 0.08595142513513565 -0.0803125724196434 -0.12685970962047577 -0.04795677587389946 -0.06142780929803848 0.2050621658563614 0.4099314212799072 
-0.04964594542980194 0.04782728850841522 0.024195842444896698 0.02852051705121994 -0.034660663455724716 0.016332121565937996 -0.05202361196279526 0.01856173388659954 -0.021245013922452927 
0.01454559899866581 -0.04290545731782913 0.02971755340695381 0.0836433544754982 0.07015463709831238 -0.06876245886087418 -0.0767783597111702 0.01404738612473011 0.03529118746519089 
-0.026151811704039574 -0.0031742220744490623 0.039805322885513306 0.048364441841840744 -0.019402654841542244 -0.01882695034146309 -0.046359214931726456 0.07658138871192932 0.03241794928908348 
0.030091697350144386 0.007629243656992912 0.06587132811546326 -0.056926991790533066 -0.0461525097489357 0.017126865684986115 -0.03303457796573639 -0.03382847085595131 0.03513065353035927 
0.06345167756080627 -0.0017665022751316428 -0.004593460354954004 0.009484972804784775 -0.06411304324865341 0.03840004652738571 -0.031657204031944275 0.03087690658867359 -0.024726761505007744 
0.061200015246868134 0.012868070974946022 -0.00040248958976008 0.03431584686040878 -0.04669236019253731 0.02140948176383972 -0.05857773870229721 0.06582313776016235 0.022770557552576065 
-0.08654484152793884 -0.0465499572455883 -0.06193527206778526 0.14891017973423004 0.07704037427902222 0.01152225024998188 0.0030032661743462086 -0.03093409352004528 -0.035869523882865906 
0.04083920642733574 0.017820514738559723 -0.00869778823107481 0.01776682585477829 0.05828148499131203 -0.016143260523676872 -0.0712013766169548 -0.0396728478372097 0.0579654723405838 
-0.0013424053322523832 -0.006110655143857002 -0.04157988354563713 -0.06460405886173248 -0.06432504206895828 -0.0651167705655098 -0.03593076393008232 -0.0032104719430208206 -0.054301436990499496 
0.026231881231069565 -0.007507071364670992 -0.02833055518567562 0.007420992013067007 -0.002773477230221033 -0.03273322060704231 -0.045328252017498016 0.007668163161724806 -0.043854065239429474 
-0.04284694045782089 -0.021336879581212997 0.011041167192161083 0.020427661016583443 0.010439484380185604 0.0777520015835762 0.03655461594462395 -0.030227215960621834 -0.019027099013328552 
-0.04204018786549568 0.0432448610663414 -0.0226313304156065 -0.017729829996824265 -0.02654484659433365 -0.06668085604906082 -0.029902027919888496 -0.0425204262137413 -0.057744041085243225 
-0.06932482868432999 -0.06275123357772827 -0.07856761664152145 0.0009914550464600325 0.04826749116182327 0.0009954632259905338 0.030678922310471535 -0.005788585636764765 -0.05335475131869316 
0.0006686606793664396 0.027417592704296112 -0.024218609556555748 0.0044829766266047955 -0.04899614304304123 -0.04428772255778313 0.05875532329082489 0.05564795061945915 0.029358547180891037 
-0.035629753023386 0.022025518119335175 -0.019552504643797874 -0.028856003656983376 0.04242384806275368 -0.005026574712246656 -0.03249794617295265 -0.01575046218931675 0.012127222493290901 
0.03963042423129082 0.07120328396558762 0.019585849717259407 -0.0035229669883847237 0.041642285883426666 -0.0073160878382623196 0.003870489541441202 0.0515078529715538 -0.05996092036366463 
0.06708033382892609 0.02805645577609539 -0.007648262660950422 0.023648656904697418 0.07477138191461563 0.0034699279349297285 0.01769493892788887 0.0060759554617106915 -0.07753757387399673 
-0.016223935410380363 0.00879777129739523 -0.06585503369569778 0.014167769812047482 0.02966194972395897 0.037055790424346924 -0.02739706076681614 -0.04253212735056877 -0.03353217616677284 
-0.03685899078845978 -0.016612451523542404 -0.04982953146100044 -0.025414887815713882 -0.0015154832508414984 0.012759892269968987 0.028572743758559227 -0.08649083971977234 0.048988305032253265 
-0.03083866834640503 -0.027541177347302437 0.05264339968562126 -0.09671776741743088 0.03858953341841698 -0.037883367389440536 0.05654173344373703 -0.07325917482376099 -0.012107029557228088 
-0.048421092331409454 0.04892072081565857 0.021642370149493217 -0.045380692929029465 0.04391450062394142 0.05986460670828819 0.0703514963388443 0.03200823441147804 0.04777246713638306 
0.05291716754436493 -0.00794116873294115 0.020076576620340347 0.038547784090042114 -0.013638691045343876 -0.06631989032030106 -0.0006410624482668936 0.006450502667576075 0.004051577299833298 
0.028638796880841255 -0.01477759424597025 -0.03768220916390419 -0.06510103493928909 0.011409147642552853 0.05110767111182213 0.1009267047047615 0.05126839876174927 0.011626739986240864 
0.017700858414173126 0.01297793909907341 0.03919270262122154 -0.019388511776924133 0.07350759953260422 0.055814921855926514 0.10991416126489639 -0.21092060208320618 -0.08304419368505478 
0.03264940157532692 -0.059216294437646866 0.06402619928121567 0.02571711130440235 0.0008366430993191898 0.0017971735214814544 0.06980018317699432 0.06840096414089203 -0.00026407596305944026 
0.03756279870867729 -0.054032035171985626 0.0167453121393919 -0.09669174998998642 0.027163013815879822 0.02900238335132599 0.045838918536901474 -0.06286215782165527 -0.036978788673877716 
-0.03955761715769768 0.032913241535425186 -0.08230117708444595 -0.037190452218055725 0.01333122979849577 -0.042358748614788055 -0.054829347878694534 -0.08109873533248901 0.015365117229521275 
0.030144236981868744 -0.06798145174980164 -0.02076244167983532 -0.039817485958337784 -0.07346513867378235 0.03498096019029617 0.013873718678951263 -0.005250667221844196 0.033435557037591934 
0.054979387670755386 -0.020891252905130386 -0.04417276009917259 -0.00017714140994939953 -0.00028590913279913366 0.0536661334335804 -0.040680963546037674 0.06379219144582748 0.04556281119585037 
-0.050351645797491074 -0.015267201699316502 -0.06642387062311172 0.0337858647108078 0.0011276000877842307 0.02592466026544571 -0.04825638607144356 -0.006832664366811514 0.030375996604561806 
-0.11535265296697617 -0.03984106704592705 -0.03516769781708717 0.009033848531544209 -0.000853820878546685 -0.010799458250403404 0.005598964635282755 -0.03822894021868706 -0.032665569335222244 
0.059461187571287155 0.04120497778058052 -0.004771809093654156 -0.023731423541903496 -0.0938933864235878 -0.114466093480587 0.10658690333366394 -0.015019122511148453 0.05080731585621834 
0.04666672646999359 0.06925283372402191 0.04799024388194084 0.0350276418030262 -0.02406424842774868 0.05099884420633316 0.05585051700472832 -0.016600238159298897 0.011524081230163574 
-0.02589205838739872 0.0001703079033177346 0.07369869202375412 0.004046961665153503 0.08934898674488068 -0.030604181811213493 0.038796115666627884 0.03131421282887459 -0.03291983902454376 
0.05243786796927452 0.05200941488146782 0.03172910585999489 -0.031129522249102592 -0.06661642342805862 -0.011650701984763145 0.04023110866546631 0.03803306818008423 0.050644878298044205 
0.047527771443128586 -0.0069625466130673885 0.04773864150047302 0.0243097972124815 0.015127476304769516 0.0049895234405994415 0.046513963490724564 -0.0754823312163353 -0.024162746965885162 
0.05528829246759415 -0.029035981744527817 0.06645559519529343 -0.0649903193116188 0.017796587198972702 0.0029960395768284798 0.003233817173168063 0.0662614181637764 -0.0457390658557415 
-0.035980090498924255 0.020090697333216667 -0.040196843445301056 0.014812368899583817 0.044810693711042404 0.0015527245122939348 -0.028303176164627075 -0.03334736078977585 0.027740677818655968 
-0.0664062649011612 -0.02217288129031658 -0.016501324251294136 -0.0710805207490921 -0.03234947845339775 -0.022016016766428947 -0.010972116142511368 0.0048465728759765625 -0.04218209162354469 
-0.013082205317914486 0.015417703427374363 -0.029601577669382095 0.018062829971313477 -0.025004936382174492 0.048824965953826904 -0.03142305091023445 0.02283424325287342 -0.02536274865269661 
-0.05240278318524361 -0.04608390852808952 0.03143433481454849 0.0016745536122471094 -0.06433233618736267 0.053083062171936035 0.025852883234620094 0.007021225057542324 0.05104561895132065 
-0.036180369555950165 -0.014250297099351883 0.07131887972354889 -0.014907673932611942 -0.0005501901032403111 -0.0007574229966849089 0.05236184224486351 -0.02735813334584236 -0.0635017603635788 
-0.048841435462236404 0.010280044749379158 0.029064495116472244 0.05830793455243111 0.004298090934753418 0.049245644360780716 0.023567501455545425 0.018346525728702545 -0.045470766723155975 
-0.05362757295370102 0.031540509313344955 0.09933226555585861 -0.02273893915116787 -0.05428189039230347 -0.02874043583869934 0.01944963075220585 0.05808424949645996 -0.02431345358490944 
0.004353225696831942 0.010237169452011585 -0.061420988291502 0.055966682732105255 0.006506687495857477 0.015749072656035423 -0.02879290282726288 0.011510645970702171 -0.05917815491557121 
0.015293524600565434 -0.031401626765728 -0.042689550668001175 -0.03195267915725708 -0.02470509707927704 0.056230004876852036 0.024117950350046158 -0.026873623952269554 -0.03489382937550545 
0.0607583150267601 -0.02888750657439232 -0.0029804969672113657 0.08053839951753616 -0.017575211822986603 0.016916664317250252 0.01567341387271881 -0.022502070292830467 0.05829239264130592 
-0.03366422280669212 0.0523994117975235 0.022479232400655746 -0.05263490974903107 -0.03305693343281746 -0.05229327082633972 0.015272141434252262 0.11575362086296082 0.06745392084121704 
-0.059083785861730576 0.02392258308827877 0.057635270059108734 -0.025167880579829216 0.04043523967266083 -0.04607849568128586 0.020156243816018105 -0.015310625545680523 -0.03583209961652756 
-0.019157465547323227 0.013028504326939583 -0.05148397386074066 0.0402752161026001 0.062440820038318634 0.030754394829273224 -0.021049315109848976 -0.04467986151576042 -0.071625255048275 
-0.05319960415363312 0.03292820602655411 -0.008879486471414566 0.04413608834147453 0.03901026397943497 0.03624835982918739 0.04615585133433342 0.021624628454446793 0.03869897872209549 
0.00994061678647995 -0.03987351804971695 0.0440233014523983 -0.03409624844789505 -0.0423896424472332 -0.033264342695474625 0.030594784766435623 -0.05943184718489647 0.027643807232379913 
-0.00473043555393815 0.037632279098033905 -0.000567068753298372 -0.033902380615472794 0.04481087997555733 0.06164451688528061 0.029910465702414513 -0.01796191930770874 -0.012097769416868687 
0.07619363069534302 -0.04789995029568672 0.03888559341430664 -0.0235071312636137 0.06504960358142853 -0.05007122457027435 0.06268668174743652 -0.05388480797410011 -0.033642739057540894 
0.07413605600595474 0.04614197462797165 0.008456027135252953 -0.011359798721969128 0.002923775464296341 0.01808779314160347 -0.07886439561843872 -0.07775499671697617 -0.016284478828310966 
-0.050836384296417236 0.0025007284712046385 -0.007548121735453606 -0.07086789608001709 0.08200618624687195 0.03431772440671921 0.03152627497911453 -0.028210943564772606 -0.018659722059965134 
4.527993223746307e-05 -0.01686546392738819 0.0682503879070282 -0.0119248628616333 -0.06626514345407486 0.06490540504455566 0.06143362820148468 0.048191022127866745 -0.05332009866833687 
0.0788683369755745 -0.04270113632082939 0.03724902123212814 -0.020414015278220177 0.010095156729221344 -0.005768789444118738 -0.0005315041053108871 -0.018502898514270782 -0.0633908063173294 
-0.050539374351501465 -0.021256813779473305 -0.0394868478178978 0.009973670355975628 0.022959839552640915 0.01627323590219021 -0.016540275886654854 -0.003912546671926975 -0.06235889345407486 
0.05161164328455925 0.034403879195451736 -0.014892982318997383 -0.024092312902212143 -0.004449191503226757 -0.008663106709718704 -0.06501475721597672 -0.061206888407468796 -0.032528799027204514 
0.06631757318973541 -0.05415468290448189 -0.06351517140865326 0.06381859630346298 0.05147746205329895 0.0012940894812345505 0.015465072356164455 -0.06441605091094971 -0.04895495995879173 
-0.06286667287349701 0.06971049308776855 -0.052021972835063934 0.03215722739696503 -0.022404421120882034 0.01681911200284958 -0.039861321449279785 -0.03195330873131752 -0.013571497984230518 
-0.03425431624054909 -0.05711774155497551 0.03858702629804611 0.05878419429063797 -0.047070734202861786 0.017143411561846733 0.06189683824777603 -0.050820350646972656 -0.013520406559109688 
-0.043209753930568695 -0.0006698666256852448 -0.032349683344364166 -0.006842132192105055 0.0403527095913887 -0.02204180881381035 0.03405323624610901 0.06013662368059158 0.01735583506524563 
0.06374136358499527 0.021276680752635002 -0.054396238178014755 0.06181156635284424 0.045356251299381256 0.014361660927534103 -0.052790749818086624 -0.026787465438246727 -0.040168508887290955 
0.048816606402397156 -0.029155470430850983 0.02329707331955433 -0.020531747490167618 -0.05616680160164833 -0.03143401816487312 -0.017893854528665543 -0.062245965003967285 0.046312373131513596 
-0.0724339708685875 -0.06607197225093842 -0.013749818317592144 -0.02165921963751316 0.06324408203363419 -0.012083164416253567 0.014334850013256073 -0.035199765115976334 0.055097900331020355 
-0.0019304279703646898 0.08108948916196823 -0.012175698764622211 0.1478860229253769 0.13432075083255768 -0.003936693537980318 0.042559362947940826 -0.10361294448375702 -0.038446094840765 
0.00048087805043905973 0.07129865139722824 -0.03472859784960747 0.06570028513669968 0.018416494131088257 0.027919573709368706 0.05942834913730621 0.06567473709583282 0.05845813453197479 
-0.04285062849521637 -0.05155086889863014 0.02906944416463375 0.040668707340955734 0.01351743470877409 -0.03113240748643875 -0.05301659554243088 0.01863035373389721 0.067324697971344 
-0.011293946765363216 -0.012907787226140499 0.05363268032670021 -0.016016531735658646 0.07735755294561386 0.018644148483872414 0.0401226282119751 0.00455718208104372 0.016973868012428284 
-0.0513358898460865 -0.031105397269129753 0.008808750659227371 -0.06438834965229034 -0.033361587673425674 -0.004666980355978012 0.013948217034339905 0.017864540219306946 0.04586310312151909 
0.05096929892897606 -0.05462511628866196 -0.021297844126820564 0.02487291768193245 0.06160804629325867 0.05310320109128952 0.01702558808028698 0.016449959948658943 0.05367114394903183 
-0.011597946286201477 -0.031494006514549255 0.02238890901207924 -0.045008059591054916 0.015161950141191483 -0.029491180554032326 0.039097461849451065 0.05935640260577202 -0.03130294010043144 
0.014220945537090302 -0.016037173569202423 -0.006881114095449448 -0.055487100034952164 0.028470925986766815 0.012475650757551193 -0.03820830583572388 -0.05608692765235901 -0.045096397399902344 
0.0050001973286271095 0.016936834901571274 -0.03941556438803673 -0.016229741275310516 0.06346069276332855 -0.05634770542383194 0.02550577186048031 0.006309621036052704 0.01491184439510107 
-0.007379400078207254 -0.0460929237306118 -0.028625357896089554 0.02594812586903572 -0.05602790415287018 0.01606033742427826 -0.0003344360156916082 -0.04622860252857208 0.042477622628211975 
0.05502616986632347 -0.012711599469184875 -0.031149769201874733 -0.06586658209562302 0.046452026814222336 0.028518090024590492 -0.0311929602175951 0.0017437442438676953 0.005238798446953297 
0.0006152580608613789 -0.005383388139307499 0.019714638590812683 -0.062449902296066284 -0.03271230310201645 0.04039515554904938 -0.033955033868551254 -0.057779811322689056 0.04655678570270538 
-0.03413785248994827 0.06800863891839981 -0.025767039507627487 0.026373881846666336 -0.0045411353930830956 0.11276933550834656 -0.00663195364177227 -0.04408639296889305 -0.052219271659851074 
0.030434250831604004 0.017976293340325356 0.03894096240401268 -0.003693146863952279 0.033410776406526566 0.05035945028066635 0.03139607608318329 0.06394754350185394 0.055710066109895706 
0.02093609794974327 0.027277853339910507 0.04239790141582489 0.05843421444296837 0.023394418880343437 -0.0036954882089048624 -0.03858402371406555 -0.015410952270030975 0.056753065437078476 
-0.04443622753024101 0.031135383993387222 -0.03348470479249954 0.04440071061253548 0.07031797617673874 0.059193942695856094 0.0345228873193264 0.034975066781044006 -0.05748440697789192 
0.013973684050142765 0.03344384580850601 -0.00783892534673214 -0.05707373842597008 0.007710203528404236 0.07647938281297684 0.019360268488526344 -0.015687355771660805 0.02173408679664135 
0.06875930726528168 0.06233343854546547 -0.001963817048817873 0.015717748552560806 -0.0719785988330841 -0.018122605979442596 0.05500989034771919 0.00011542846186785027 -0.013854164630174637 
-0.026644669473171234 -0.03421515226364136 -0.020030563697218895 0.048468273133039474 0.01614561304450035 0.06655965745449066 -0.004207869525998831 0.010964673943817616 -0.005194247700273991 
-0.05432424694299698 0.07572368532419205 -0.049579743295907974 0.007457583677023649 -0.030463213101029396 -0.059727031737565994 0.06472773104906082 -0.0029066719580441713 -0.010729730129241943 
0.03488292917609215 -0.03543835133314133 0.004443086683750153 0.0886797234416008 0.03435346111655235 0.028092987835407257 0.02965433895587921 0.06291253119707108 -0.026975935325026512 
-0.05700768902897835 0.030562156811356544 0.012421666644513607 -0.07329113781452179 -0.041422996670007706 0.035866815596818924 -0.0024144353810697794 0.00521430280059576 -0.006885860580950975 
0.01628212258219719 -0.011100927367806435 -0.031694844365119934 0.036666713654994965 -0.027155838906764984 -0.017446840181946754 0.023864248767495155 0.023321568965911865 -0.04242069274187088 
0.06493663042783737 0.025206593796610832 -0.021655134856700897 -0.009946011938154697 -0.02395292930305004 0.06668438017368317 -0.03310433030128479 -0.034219130873680115 -0.005017972085624933 
0.047632213681936264 -0.021030034869909286 0.06633516401052475 0.06350944191217422 -0.11434467136859894 -0.06988510489463806 0.0011476720683276653 -0.10094598680734634 -0.3146001696586609 
0.0015183751238510013 0.05404924601316452 0.023078441619873047 0.005207553505897522 -0.08258181065320969 0.06836539506912231 -0.011049882508814335 0.028357114642858505 0.051071327179670334 
-0.01594313234090805 -0.04031674563884735 0.035332534462213516 0.008115319535136223 0.03464510664343834 0.042199328541755676 -0.012704886496067047 0.06547433137893677 -0.028544485569000244 
-0.005048947408795357 0.04680253192782402 -0.0018251757137477398 -0.0828867182135582 0.016489645466208458 -0.04744856432080269 -0.14970670640468597 0.11784202605485916 -0.0575505830347538 
0.14992117881774902 -0.08117150515317917 -0.059033311903476715 -0.09647586196660995 -0.16285105049610138 -0.038631241768598557 0.10005421936511993 -0.04946308583021164 -0.03346489742398262 
0.020649323239922523 0.049696821719408035 -0.05456620454788208 0.012069979682564735 -0.014953920617699623 0.06425156444311142 0.0638040229678154 0.0617990680038929 -0.050579577684402466 
-0.02549835294485092 0.06204557046294212 -0.0016209552995860577 0.02498074807226658 0.042386189103126526 0.04140397533774376 0.028094075620174408 0.019404353573918343 -0.025490067899227142 
0.005301558878272772 0.06699559837579727 -0.0343644917011261 -0.028981372714042664 0.03035835176706314 0.07149773836135864 0.04532850161194801 -0.032842546701431274 -0.04526953771710396 
0.06508850306272507 -0.01120928954333067 -0.0453333780169487 -0.04518651217222214 0.05423732101917267 0.044884297996759415 0.048663556575775146 0.012660917825996876 0.0108940489590168 
0.06376252323389053 0.022792117670178413 0.0024644196964800358 0.04577934741973877 0.0066452124156057835 -0.0034499976318329573 0.039963316172361374 -0.04830487444996834 -0.019276011735200882 
-0.031529780477285385 0.042703039944171906 -0.026372333988547325 0.0397772453725338 0.004309709649533033 -0.06512610614299774 0.03183808550238609 -0.06713676452636719 -0.06424913555383682 
0.17094212770462036 0.05637970194220543 0.016774455085396767 0.013829279690980911 0.028950948268175125 0.008613373152911663 0.01674114167690277 0.0411958210170269 0.06507782638072968 
0.03629457950592041 -0.0019433584529906511 -0.02860301360487938 0.08992980420589447 0.018861453980207443 -0.04085448011755943 -0.04112102836370468 -0.009562690742313862 -0.014054456725716591 
0.005660880822688341 0.06705566495656967 0.053982850164175034 -0.05866165831685066 -0.07098887860774994 0.02645191177725792 -0.01613878831267357 -0.06292862445116043 -0.0512777715921402 
-0.052435118705034256 -0.05201837420463562 0.03573906794190407 0.07509853690862656 -0.002654867712408304 -0.027713695541024208 -0.05741012468934059 0.007751063909381628 0.05626241862773895 
0.029251236468553543 0.06779224425554276 -0.028039051219820976 0.03330051898956299 0.04237350448966026 0.05648786574602127 0.036140117794275284 0.0006944873603060842 0.021720360964536667 
-0.05872124806046486 -0.047576289623975754 -0.027093233540654182 -0.041557759046554565 0.026398392394185066 0.05364435911178589 -0.03335217759013176 -0.03913472592830658 -0.06905270367860794 
-0.01005546934902668 0.06355437636375427 -0.043552398681640625 0.048866692930459976 -0.00633825222030282 -0.021754290908575058 -0.00998118706047535 -0.05887340009212494 -0.05540396645665169 
-0.01922050304710865 -0.05924201384186745 -0.04418148472905159 0.06418869644403458 0.007206869777292013 0.015300674363970757 0.05633581057190895 -0.025000831112265587 0.02019398659467697 
-0.029868189245462418 -0.04836165904998779 0.003640886163339019 -0.03301501274108887 -0.02687043882906437 0.016196273267269135 -0.006272861734032631 0.007548926398158073 0.04744372144341469 
-0.007694341707974672 0.05567219853401184 -0.0030680554918944836 -0.0207960307598114 -0.03485501930117607 0.04198170080780983 -0.008627514354884624 -0.05572202801704407 0.042540617287158966 
0.04476604983210564 0.0041190506890416145 0.00038011957076378167 -0.0299469456076622 0.0383816659450531 0.04373671114444733 0.04079334810376167 -0.06912297010421753 -0.0755760669708252 
0.036971427500247955 -0.0268593430519104 -0.03925211727619171 -0.010442184284329414 0.023434307426214218 0.029857970774173737 -0.027885787189006805 -0.03533133491873741 -0.004455365240573883 
0.007665857207030058 -0.01403117086738348 -0.0626867264509201 0.06318534910678864 0.05973144993185997 -0.007592672482132912 0.0454290397465229 0.015166725032031536 0.03247012197971344 
0.03379327431321144 0.034261465072631836 0.08336667716503143 -0.07328406721353531 0.025049716234207153 0.019362345337867737 0.04213456064462662 -0.02281530387699604 0.04257100075483322 
-0.0042064255103468895 0.011435572057962418 0.005982192233204842 0.007227444555610418 0.029867403209209442 -0.0360046923160553 -0.0652315691113472 0.0442473366856575 -0.0635753944516182 
0.03702190890908241 -0.01862228848040104 0.06552700698375702 -0.04922118037939072 -0.01259842049330473 0.006128304172307253 0.0026476741768419743 -0.06912639737129211 0.03295324370265007 
0.06736289709806442 -0.07181046903133392 0.03711496293544769 -0.061861272901296616 0.0258178673684597 0.06414536386728287 0.047960471361875534 -0.06750879436731339 0.0010444105137139559 
-0.044219713658094406 0.006231182254850864 -0.020945735275745392 0.013832077383995056 0.13156086206436157 0.009086936712265015 -0.01732567697763443 -0.020074671134352684 0.03136143833398819 
0.0497288778424263 -0.013496684841811657 -0.041728731244802475 0.037064094096422195 -0.03241315484046936 -0.03030044212937355 -0.016262823715806007 0.05971681699156761 -0.018999138846993446 
-0.0006897023995406926 -0.02935727871954441 -0.04403398185968399 -0.01683511584997177 -0.0034174195025116205 0.07716145366430283 -0.050483573228120804 -0.048053573817014694 -0.04426272585988045 
0.02647075429558754 -0.06844667345285416 0.018924983218312263 -0.064554862678051 -0.0420481413602829 0.008683618158102036 -0.026605263352394104 0.05612071976065636 -0.0025117930490523577 
-0.039857663214206696 0.035687003284692764 0.018534867092967033 -0.0386546291410923 0.03890758007764816 -0.035434309393167496 -0.02868535928428173 -0.05806410312652588 0.05982200428843498 
-0.06413652747869492 0.04735160246491432 -0.0583200603723526 -0.017919600009918213 -0.03374120965600014 0.05488918349146843 -0.04323935508728027 0.06261955946683884 -0.04512424394488335 
0.005730008240789175 0.0027797475922852755 0.046946845948696136 -0.05798565223813057 -0.008327228017151356 0.004853828344494104 0.05023660138249397 0.005646351259201765 0.05996399372816086 
-0.06499321013689041 -0.04453360661864281 0.002443175297230482 -0.03912408649921417 0.02505796030163765 -0.07501763105392456 0.008382130414247513 0.022165901958942413 -0.025741221383213997 
-0.04139189049601555 0.030962180346250534 -0.004125157371163368 0.02162844128906727 -0.05469987913966179 0.03429180011153221 0.03302149847149849 -0.032231323421001434 0.06591156870126724 
0.05021185055375099 0.03818488493561745 -0.007069641258567572 -0.0066499169915914536 0.038055285811424255 0.024747688323259354 0.01771008037030697 -0.03830185905098915 -0.04817555472254753 
0.051314614713191986 -0.03523728996515274 -0.029003752395510674 -0.006727735511958599 0.0005348294507712126 -0.01907733641564846 -0.0644025057554245 0.027622830122709274 0.06203588843345642 
0.06933106482028961 -0.060066547244787216 0.050460103899240494 2.4775979454716435e-06 0.01690915785729885 -0.06321746110916138 -0.0048398119397461414 -0.03310801088809967 -0.04189835861325264 
-0.04080238193273544 0.01989780366420746 0.03942038491368294 0.015963925048708916 -0.031436238437891006 0.020860152319073677 0.030216319486498833 -0.07942182570695877 -0.0038733382243663073 
-0.053605202585458755 -0.05111313611268997 0.04149796441197395 -0.025704657658934593 0.023018918931484222 -0.05128002539277077 0.04474510997533798 -0.0252838097512722 -0.021682605147361755 
-0.044101301580667496 -0.05285099148750305 -0.009429783560335636 0.06444663554430008 -0.06697103381156921 0.04563123732805252 0.018056374043226242 -0.008085420355200768 0.040905945003032684 
0.004190661478787661 0.05865319445729256 0.015194716863334179 0.03446677327156067 0.05868881940841675 -0.0774834081530571 -0.01703725941479206 -0.025289591401815414 0.025811895728111267 
-0.06391245871782303 0.05511672422289848 -0.08626465499401093 0.011337840929627419 -0.026415450498461723 -0.041742268949747086 0.06361116468906403 0.0002337984333280474 0.06141584739089012 
-0.0028186554554849863 -0.042447127401828766 -0.045181114226579666 0.01682835817337036 -0.01464208122342825 -0.013080863282084465 0.04892200231552124 -0.030203942209482193 0.013436377979815006 
-0.0509098581969738 -0.05327453464269638 0.02213396318256855 0.005609577521681786 -0.063739113509655 0.01117134653031826 0.03372735530138016 0.046373266726732254 -0.026292549446225166 
0.02729031629860401 0.022179508581757545 0.01347762905061245 -0.06920474767684937 0.06689758598804474 -0.059779759496450424 0.07993751764297485 -0.008556430228054523 -0.002396517898887396 
0.03566732257604599 -0.07685425132513046 0.013120798394083977 0.06447982043027878 0.05425766110420227 0.17124800384044647 0.022071238607168198 0.20288300514221191 0.13655132055282593 
0.02872369810938835 -0.027688032016158104 -0.012061799876391888 0.0718638151884079 -0.02720663696527481 0.010366124100983143 -0.004629781004041433 0.0741814523935318 0.029277849942445755 
0.055449940264225006 0.05424201115965843 0.05648253858089447 -0.031187361106276512 -0.06043732911348343 0.03920876607298851 0.025012586265802383 0.034670840948820114 -0.005830543115735054 
0.0642954558134079 0.0018057498382404447 0.0509706549346447 -0.043176308274269104 -0.12067897617816925 0.03200501203536987 -0.098469577729702 -0.003791417693719268 0.04049426689743996 
0.0005989089258946478 -0.0792260617017746 -0.014141684398055077 -0.025645174086093903 0.0287849772721529 -0.06339378654956818 -0.19730058312416077 0.07625996321439743 -0.1013948991894722 
-0.05257333442568779 -0.04899013414978981 -0.024786900728940964 0.04219197854399681 0.041678234934806824 0.0041275606490671635 0.038124777376651764 -0.011071559973061085 0.03475465998053551 
0.05951737239956856 -0.005741995293647051 -0.03472990542650223 0.022696426138281822 -0.009317472577095032 -0.0017336038872599602 -0.023875068873167038 -0.014235514216125011 0.031896624714136124 
-0.036505188792943954 -0.05834462493658066 0.05444043502211571 -0.017893977463245392 -0.026581035926938057 -0.03465983644127846 -0.04059446603059769 -0.01234285905957222 0.0008357335464097559 
0.05084703117609024 0.06532218307256699 -0.03206045925617218 0.03474601358175278 -0.005813745781779289 0.0408325158059597 -0.02768772281706333 -0.016388244926929474 0.044867683202028275 
0.0026867445558309555 0.06599317491054535 0.022940192371606827 -0.03772120177745819 -0.05521562695503235 0.06134018674492836 -0.0024921055883169174 -0.0533907376229763 -0.033959973603487015 
0.02851133979856968 0.04573763161897659 0.020024877041578293 0.004246699623763561 -0.011554650962352753 0.06251221895217896 -0.0420638844370842 -0.08259633928537369 0.05343528836965561 
0.12947633862495422 0.015753647312521935 0.04935949668288231 -0.05610893666744232 -0.05403302609920502 -0.0709909200668335 0.00038339602178893983 0.059759411960840225 -0.02215956151485443 
-0.019864924252033234 0.08552546054124832 -0.038656704127788544 -0.002357730409130454 -0.0011479753302410245 0.03290005773305893 0.013125442899763584 -0.05543806031346321 0.10249099135398865 
-0.05527376011013985 -0.002011347096413374 -0.03975740820169449 0.007550609298050404 0.02814731001853943 -0.03478909656405449 0.040174949914216995 -0.026291294023394585 0.0635884553194046 
-0.012145374901592731 -0.009561548009514809 0.01887425407767296 0.019120201468467712 0.041354961693286896 0.03956177458167076 -0.07944751530885696 -0.04225166514515877 0.02281797304749489 
-0.02123378962278366 -0.04234661906957626 0.005416401196271181 -0.036469388753175735 -0.03719085082411766 0.06665349751710892 -0.04616271331906319 -0.032388269901275635 -0.0200747549533844 
-0.04363537207245827 0.05852731689810753 -0.021383224055171013 -0.03906695172190666 -0.03285284712910652 0.0206312146037817 -0.01522491779178381 0.027506709098815918 -0.037159621715545654 
0.05038311704993248 -0.029020845890045166 0.04706071317195892 -0.042548395693302155 0.020767943933606148 -0.05098173767328262 0.010118302889168262 0.02607744000852108 -0.05236637219786644 
-0.0047881524078547955 0.008052928373217583 -0.006539948284626007 0.021300991997122765 0.048909544944763184 -0.06202017143368721 0.027239972725510597 0.012324384413659573 -0.06133054196834564 
-0.03085080161690712 -0.0065929824486374855 0.04064497351646423 -0.06182418018579483 -0.0026490865275263786 -0.010174281895160675 0.06674782186746597 0.06126461550593376 -0.05710257589817047 
0.016339680179953575 0.005411983467638493 -0.04296807572245598 0.03210264444351196 -0.027241462841629982 0.05049944669008255 0.05543636530637741 0.03759491443634033 -0.03210173174738884 
-0.045914772897958755 0.07998702675104141 0.047331057488918304 -0.06625110656023026 0.06307043135166168 0.03552532568573952 0.05235740914940834 0.061207208782434464 0.02839101478457451 
0.00866600964218378 -0.018645821139216423 0.04576992616057396 -0.05241290107369423 -0.029802562668919563 -0.00855239573866129 -0.04683002457022667 0.04542166739702225 0.04481065273284912 
0.03952721133828163 0.01640133187174797 0.0038639907725155354 -0.01848342828452587 -0.03785098344087601 -0.042164064943790436 -0.049163781106472015 0.056736987084150314 -0.026781760156154633 
0.01884969137609005 0.09250402450561523 0.01574097014963627 0.05156354233622551 -0.10019806772470474 -0.030536994338035583 -0.004577394109219313 0.04542650282382965 0.06369765102863312 
0.061916809529066086 0.07525500655174255 -0.01172615960240364 -0.008678177371621132 -0.03936997056007385 0.06133078411221504 -0.0316087007522583 0.0304602961987257 0.028718126937747 
0.030143817886710167 0.01863507740199566 -0.045825693756341934 -0.02819884940981865 0.0467982292175293 0.05796073377132416 0.003365530399605632 0.031900547444820404 -0.021542567759752274 
-0.009108471684157848 0.07964714616537094 0.05211178958415985 -0.04984765499830246 0.009098131209611893 -0.03435491397976875 0.05269986018538475 0.04709143936634064 -0.009503773413598537 
0.011753932572901249 0.07481713593006134 -0.03750401362776756 -0.044511303305625916 -0.11238563060760498 0.017710836604237556 0.017649270594120026 0.1660258024930954 0.11988720297813416 
-0.03265898674726486 0.04808976501226425 0.07129976898431778 -0.029151450842618942 0.0030856693629175425 0.07173978537321091 0.06300819665193558 0.04538523778319359 0.0011244238121435046 
0.0401642732322216 -0.01690417341887951 -0.03574078157544136 0.0376054123044014 -0.005826891399919987 -0.015208200551569462 0.03913938254117966 -0.022483928129076958 -0.05418229103088379 
0.029927749186754227 -0.044985346496105194 0.06238395348191261 -0.03147822991013527 0.032924797385931015 -0.006285542156547308 -0.028281044214963913 0.04621095210313797 0.041100967675447464 
0.034670520573854446 -0.03746038302779198 0.026106636971235275 0.039785150438547134 0.023617208003997803 -0.025359194725751877 0.003024906851351261 -0.06072815880179405 0.047445692121982574 
-0.057870980352163315 -0.00893176719546318 -0.03340930491685867 -0.02167384885251522 -0.026613110676407814 0.021173976361751556 -0.054685719311237335 0.06032869964838028 -0.06939412653446198 
0.030000701546669006 0.03498067706823349 0.04037172719836235 -0.029124632477760315 0.030990565195679665 -0.0027684199158102274 -0.026393309235572815 0.05754054710268974 0.06227053329348564 
0.05635139346122742 0.013371296226978302 -0.044799305498600006 0.09758898615837097 -0.04981113597750664 -0.039868686348199844 0.03828414902091026 0.06661001592874527 0.05747685953974724 
-0.04228988662362099 -0.008964292705059052 0.05906100943684578 0.04711419343948364 0.0849294513463974 0.0539812371134758 0.009510049596428871 -0.06749525666236877 0.01851602829992771 
-0.016965992748737335 -0.019519280642271042 -0.02729176916182041 0.009602648206055164 0.02526487410068512 -0.03845520690083504 0.03810190036892891 0.05581708252429962 -0.004196944646537304 
0.04150595888495445 0.0350206159055233 -0.0006578961038030684 0.059918906539678574 -0.04456421732902527 0.0033128533978015184 0.013026745989918709 0.013434776104986668 0.0338333435356617 
0.022076744586229324 0.06927385181188583 -0.015273536555469036 -0.02980738878250122 0.044615842401981354 -0.025558937340974808 0.03558364883065224 -0.009662805125117302 -0.04302447289228439 
0.05445035919547081 0.06511038541793823 -0.06636067479848862 0.05438452959060669 0.017988478764891624 -0.02287486381828785 0.02376306802034378 0.0539315789937973 0.0421188659965992 
0.026254618540406227 0.0313827320933342 -0.0451803058385849 0.06008609011769295 0.03429141268134117 0.03323961794376373 -0.048855967819690704 -0.026819942519068718 -0.061960190534591675 
0.010010533966124058 0.01845652237534523 -0.025348763912916183 0.01112054381519556 -0.04185862839221954 -0.05495671182870865 -0.004973743110895157 0.06529794633388519 0.01484096422791481 
0.04341020807623863 -0.040723979473114014 -0.060466136783361435 -0.0027294836472719908 0.05093683302402496 -0.05470605939626694 0.007857228629291058 -0.029246054589748383 -0.04578571394085884 
-0.03280215337872505 -0.03704366087913513 -0.027942121028900146 -0.03172190859913826 0.031418755650520325 0.06057727336883545 -0.03917238116264343 -0.05509564280509949 -0.04308244213461876 
0.05009757727384567 0.012717182748019695 -0.018464399501681328 -0.019331345334649086 0.05632700026035309 -0.05231570824980736 -0.059854503720998764 0.030987108126282692 0.01690543256700039 
-0.030757132917642593 -0.04473887383937836 -0.05714517459273338 -0.020273223519325256 -0.041655272245407104 -0.020383043214678764 -0.02883593738079071 0.022922586649656296 0.05728524550795555 
-0.04488350450992584 -0.05012514814734459 -0.02806338295340538 0.018063144758343697 0.0650031566619873 0.04701319336891174 -0.020684506744146347 -0.035259343683719635 -0.027973230928182602 
-0.0681004524230957 0.06802055984735489 -0.04213889688253403 0.003385429736226797 0.007545992732048035 -0.044975873082876205 0.0003658254281617701 -0.010871566832065582 -0.1024961993098259 
0.009297976270318031 0.04961151257157326 -0.0020269248634576797 -0.023468337953090668 0.046905066817998886 -0.022115476429462433 0.02121143229305744 0.037406112998723984 -0.001391981728374958 
0.0028867730870842934 -0.021092677488923073 -0.019295556470751762 0.039767272770404816 0.021236971020698547 -0.051337167620658875 0.03042510710656643 0.03263956680893898 0.04479501023888588 
0.024894101545214653 0.05079253762960434 0.025714993476867676 0.058782126754522324 -0.032044410705566406 -0.06261582672595978 -0.023388544097542763 0.0058309477753937244 0.04442284628748894 
0.004248345270752907 0.1021052673459053 0.0613117553293705 0.016430506482720375 0.006080036051571369 -0.045060813426971436 -0.014186553657054901 0.14358679950237274 0.017180345952510834 
-0.013193965889513493 0.018543461337685585 0.031571127474308014 0.03393763676285744 -0.04676211625337601 -0.058787740767002106 0.031166059896349907 0.019195513799786568 0.0424489863216877 
0.007988507859408855 0.0406324565410614 0.07871511578559875 -0.03869623318314552 -0.058107588440179825 0.0685882568359375 -0.024324553087353706 0.03568308800458908 0.07147526741027832 
0.04750082269310951 -0.046773191541433334 0.040548231452703476 0.04798539727926254 -0.00726539921015501 0.014092528261244297 0.04947388917207718 -0.016369322314858437 -0.046651579439640045 
-0.037042081356048584 -0.023672129958868027 0.017285987734794617 0.043279971927404404 0.004488339647650719 0.040133532136678696 -0.06871329993009567 -0.04456634819507599 -0.038980573415756226 
-0.04995320364832878 0.004685499239712954 -0.04053569212555885 -0.056156132370233536 -0.03773461654782295 -0.053023189306259155 0.016547037288546562 0.049253884702920914 -0.05771525204181671 
0.038970205932855606 -0.05724020302295685 -0.03227562829852104 0.04107718914747238 0.037371233105659485 0.04475061967968941 0.04817792773246765 -0.034243348985910416 -0.06178531423211098 
-0.004469830542802811 0.053739599883556366 0.052236538380384445 -0.004698577336966991 0.012813360430300236 0.02769254706799984 -0.0024440535344183445 0.011949487961828709 -0.03350944072008133 
-0.020381322130560875 0.04551522433757782 -0.006710979156196117 -0.005886375904083252 -0.10709664970636368 -0.03253142908215523 0.0685061663389206 -0.041010335087776184 0.016494767740368843 
-0.053122568875551224 -0.058246221393346786 0.01331260148435831 -0.03979078680276871 0.013338426128029823 0.06217023357748985 -0.013982084579765797 0.06458193808794022 -0.02236468344926834 
0.010604613460600376 0.012736673466861248 0.054001737385988235 -0.06951539218425751 0.0278778113424778 0.0574338436126709 0.0020667330827564 0.023522712290287018 0.046645112335681915 
-0.006097571458667517 -0.015687523409724236 0.05143432691693306 0.061267346143722534 0.0013015768490731716 0.04636738821864128 -0.026113204658031464 0.04474161937832832 0.0218974556773901 
0.007886881940066814 0.03908968344330788 0.014313410967588425 0.018122099339962006 -0.005459069274365902 -0.044705405831336975 0.05387917533516884 0.04256906732916832 -0.00839217659085989 
-0.028076978400349617 0.011048850603401661 0.06762020289897919 -0.01860605925321579 0.06359241902828217 0.04388632997870445 -0.06882810592651367 -0.04630650579929352 0.0687817633152008 
-0.007520308718085289 -0.0531824491918087 -0.07003328204154968 -0.06942744553089142 -0.043457288295030594 0.038096439093351364 -0.037911541759967804 0.06277547776699066 0.038354236632585526 
0.04645388573408127 0.039678461849689484 0.01720476895570755 0.025758875533938408 0.04334057494997978 -0.018518095836043358 -0.021756168454885483 0.05668925866484642 0.028840411454439163 
0.03855641931295395 0.046603210270404816 0.08054745942354202 0.025325775146484375 -0.0024754528421908617 -0.02491948753595352 -0.05899440869688988 0.03508462384343147 0.022059546783566475 
-0.04166058078408241 0.02610751800239086 0.026221152395009995 0.04953091964125633 -0.011419967748224735 -0.0030555652920156717 0.029797064140439034 -0.037174761295318604 0.002163221361115575 
0.02473297342658043 0.02522735483944416 -0.027547776699066162 -0.04887666180729866 0.006119365803897381 -0.0627882182598114 0.010115697048604488 0.026937490329146385 -0.030608948320150375 
0.052727337926626205 -0.013849950395524502 -0.02651982195675373 0.01695275492966175 -0.02803771197795868 -0.02109883725643158 -0.012179388664662838 -0.053762733936309814 -0.049859847873449326 
-0.05039095878601074 -0.008122940547764301 -0.014870516955852509 -0.025308752432465553 0.20350933074951172 0.1396370828151703 -0.10774548351764679 0.14458736777305603 0.12064144015312195 
0.05397305637598038 -0.07246160507202148 -0.017836768180131912 -0.028158079832792282 0.06376783549785614 -0.01949228346347809 -0.04361755773425102 0.06624947488307953 0.03537525609135628 
-0.04500048980116844 0.005316772498190403 0.007688998710364103 -0.06738409399986267 0.010971775278449059 -0.002685331739485264 0.006660517305135727 0.01034546084702015 -0.07921595871448517 
0.033604491502046585 -0.027510467916727066 -0.0020947058219462633 -0.05058537423610687 -0.05080972984433174 0.04523654654622078 -0.020238252356648445 -0.02703694999217987 -0.061454787850379944 
0.034573718905448914 0.06655997037887573 0.09159790724515915 0.04179442301392555 0.10388700664043427 -0.025913260877132416 0.0062357657589018345 -0.0633925125002861 -0.2588652968406677 
0.04387475177645683 -0.07496815919876099 -0.028615618124604225 0.006731090135872364 -0.02810262143611908 -0.003650425700470805 -0.0779510885477066 -0.040747933089733124 0.006063077598810196 
-0.08079347759485245 -0.06765703856945038 0.08888629078865051 -0.025827793404459953 -0.07809588313102722 0.025498349219560623 -0.002492400584742427 -0.14557881653308868 -0.04104476049542427 
0.008396320976316929 0.01469470001757145 0.005144198890775442 -0.05272969231009483 0.014257119037210941 -0.07648982852697372 -0.08787593245506287 0.022230861708521843 0.02915022522211075 
0.02513185888528824 -0.07894967496395111 -0.06488760560750961 -0.0857597067952156 0.01629118248820305 -0.09376184642314911 0.018164606764912605 -0.01955949142575264 -0.06877067685127258 
0.04545284062623978 0.02981681562960148 0.07604841887950897 0.012129008769989014 -0.01246123667806387 0.0624082013964653 -0.021683914586901665 0.01601264625787735 0.056334689259529114 
0.028254883363842964 0.004422137513756752 0.00016693236830178648 0.061207354068756104 -0.03396296128630638 0.021937450394034386 0.030277449637651443 0.03638004884123802 -0.04977928102016449 
0.030902547761797905 0.0504014752805233 0.02022840641438961 0.008333100937306881 -0.021320266649127007 -0.12933532893657684 0.024656450375914574 0.10208173841238022 0.01632000133395195 
-0.03832705691456795 0.047895126044750214 0.07479765266180038 -0.12253408133983612 -0.019485488533973694 -0.04481814056634903 -0.061567723751068115 -0.015558497048914433 -0.016900520771741867 
-0.021528903394937515 -0.045574091374874115 -0.024469731375575066 0.03331925719976425 0.0036680216435343027 0.03644277900457382 -0.012608729302883148 -0.00992366299033165 0.017270570620894432 
-0.03550662100315094 0.06231211870908737 0.06476900726556778 -0.06417422741651535 0.00988510437309742 -0.0024633624125272036 0.03668036311864853 -0.03831491619348526 -0.023419834673404694 
0.01728041097521782 -0.024389073252677917 0.007927076891064644 -0.010438135825097561 -0.06609026342630386 0.0254961047321558 0.009190603159368038 0.05200853571295738 -0.005717155057936907 
0.06001202017068863 -0.06916598230600357 0.011171585880219936 0.04855077713727951 -0.035548046231269836 -0.010477470234036446 0.03504203259944916 -0.054076630622148514 0.002506894525140524 
0.043464016169309616 -0.029882660135626793 -0.014606687240302563 -0.033354975283145905 -0.01545258890837431 -0.026504874229431152 -0.04854722321033478 -0.01779639720916748 -0.04494338855147362 
0.058802530169487 -0.03180727735161781 -0.025751182809472084 0.027002455666661263 -0.006190182641148567 0.061347585171461105 0.019876467064023018 -0.04242730513215065 0.0007719480199739337 
-0.05303967744112015 0.0007394059211947024 0.050273314118385315 -0.03298299387097359 -0.031458716839551926 0.052637968212366104 -0.026021774858236313 -0.04503744840621948 -0.05705121532082558 
-0.023155394941568375 -0.008506505750119686 -0.06501899659633636 0.005877940449863672 -0.05858605355024338 -0.06021236628293991 -0.03979208692908287 0.04182019457221031 0.036665916442871094 
-0.029820995405316353 -0.004035770893096924 0.0014556883834302425 -0.039942286908626556 -0.016204699873924255 0.02087952196598053 0.0470971018075943 0.014144273474812508 -0.011887595988810062 
-0.06134535372257233 -0.011031796224415302 -0.018975835293531418 0.060896456241607666 -0.02201371267437935 -0.025855209678411484 0.022820228710770607 -0.019776232540607452 0.03909938409924507 
0.037100717425346375 0.04733538627624512 -0.04870269075036049 0.026922091841697693 0.015500311739742756 -0.021003378555178642 0.052899524569511414 -0.058789435774087906 0.017156178131699562 
-0.008199368603527546 0.02045583352446556 -0.07071220129728317 -0.028946222737431526 -0.05510735139250755 -0.01561923511326313 -0.04734041541814804 -0.12766455113887787 -0.1812564581632614 
-0.0023011176381260157 0.0451633520424366 0.025675678625702858 0.019922347739338875 0.009123943746089935 0.005277981515973806 -0.03561541065573692 0.03639889508485794 0.02220422402024269 
-8.777103175816592e-06 0.04367295280098915 0.04336440563201904 -0.008282344788312912 -0.05530523136258125 -0.011862904764711857 0.001526258303783834 -0.054835252463817596 0.06880836188793182 
-0.047607824206352234 0.015012981370091438 -0.04766887426376343 0.027534980326890945 0.014443879947066307 -0.0007410918478854001 -0.034534748643636703 0.006227804347872734 -0.021717173978686333 
-0.03005421906709671 -0.010849379934370518 0.03385767713189125 0.01413241121917963 -0.05361848697066307 -0.019907748326659203 0.016299385577440262 0.08625125885009766 0.09204713255167007 
-0.03024139814078808 -0.01061852928251028 0.04163040593266487 -0.049608342349529266 0.04870140925049782 0.0553690530359745 -0.01967431977391243 -0.05373870208859444 -0.059787195175886154 
0.05174238979816437 0.04145191237330437 0.004931348841637373 0.032849572598934174 -0.06804554909467697 -0.08520469814538956 -0.030063385143876076 0.02132018655538559 -0.03187631070613861 
-0.06455016881227493 -0.023507563397288322 0.07107772678136826 -0.029694855213165283 0.05943385139107704 -0.021561704576015472 0.0059465025551617146 -0.014869160018861294 0.0700678676366806 
-0.06289699673652649 0.02879098616540432 -0.016403481364250183 -0.0034830099903047085 -0.0507073700428009 -0.04794272780418396 0.02718351222574711 -0.00011036168871214613 -0.033244747668504715 
0.05678538605570793 -0.025985220447182655 -0.022979391738772392 0.02176615595817566 -0.01932426169514656 -0.013099294155836105 -0.021752506494522095 0.03280562907457352 -0.038780078291893005 
-0.0006209071143530309 0.006100763566792011 0.04527321830391884 0.02430621348321438 0.01899915747344494 -0.025427058339118958 0.026120977476239204 -0.021679583936929703 -0.046678926795721054 
-0.09001587331295013 0.040186557918787 -0.015453151427209377 -0.08743181824684143 -0.014392383396625519 -0.0007336050039157271 0.05681004375219345 -0.08153419941663742 0.026163581758737564 
0.009160102345049381 -0.05093035474419594 -0.02081442065536976 -0.02392171323299408 0.0002353188319830224 0.03872952237725258 0.035692207515239716 -0.04240117222070694 -0.03613271191716194 
-0.008004390634596348 -0.030318772420287132 -0.03602614998817444 -0.003984981216490269 -0.06695899367332458 -0.004383464809507132 0.05830656364560127 -0.0614757239818573 0.052895594388246536 
0.015315551310777664 0.014331068843603134 -0.004309488460421562 0.01242412906140089 0.01615980826318264 -0.0007253368385136127 0.0241241492331028 -0.06630860269069672 0.015993934124708176 
0.036553483456373215 0.046993471682071686 0.021533343940973282 0.04582715407013893 0.02990076318383217 0.0670899972319603 0.06003832072019577 0.006763229612261057 0.011483505368232727 
-0.08775903284549713 0.03937187418341637 -0.0266035757958889 -0.028919070959091187 0.03590096905827522 0.033816974610090256 0.049201346933841705 0.0351884700357914 0.037426356226205826 
-0.010891442187130451 -0.0345604307949543 0.008988876827061176 0.005443105474114418 0.039698608219623566 -0.058832503855228424 -0.02878384292125702 -0.0003191086871083826 -0.04513410106301308 
0.015727879479527473 -0.029537130147218704 0.0278091412037611 0.00586288096383214 0.043130408972501755 0.038703612983226776 0.07261866331100464 0.0052109663374722 -0.023339897394180298 
-0.00363615108653903 -0.011918321251869202 0.03051481768488884 0.05792688950896263 0.015983855351805687 -0.06052471697330475 0.030091430991888046 -0.008759955875575542 0.023888900876045227 
0.0370691642165184 0.01673920638859272 0.0721307173371315 0.03424295410513878 -0.01433562207967043 0.008506901562213898 0.059864502400159836 -0.06944029778242111 0.009657537564635277 
-0.009960154071450233 0.05027773603796959 -0.07985924184322357 -0.01730152778327465 -0.060167498886585236 -0.03377871215343475 -0.07087501138448715 0.00640556076541543 0.044547367841005325 
-0.015250629745423794 0.07194746285676956 0.04624401777982712 0.01048200111836195 0.0311021376401186 0.005452678073197603 -0.012538691982626915 -0.03507578372955322 0.0560375452041626 
0.05065036565065384 -0.03881435468792915 -0.03390151634812355 0.05519784986972809 0.05354471504688263 -0.031627219170331955 0.027599170804023743 -0.0034466562792658806 -0.07395000755786896 
0.06903231143951416 0.10118105262517929 -0.024872127920389175 -0.025845209136605263 0.19681191444396973 -0.007771497126668692 0.12159474194049835 0.1591748595237732 -0.05075740069150925 
0.009001282975077629 0.07539261132478714 0.039865896105766296 -0.031787026673555374 0.0008332060533575714 -0.07786845415830612 0.03678546100854874 -0.05288898944854736 -0.02145986445248127 
-0.05989288538694382 -0.027491243556141853 0.07711140811443329 -0.05815441161394119 -0.04172499477863312 0.027730684727430344 -0.0246422179043293 -0.01454402506351471 0.07880327850580215 
-0.06355005502700806 0.053303081542253494 0.04846741259098053 0.022011147812008858 0.18784204125404358 0.07007201761007309 0.03324621170759201 -0.008809570223093033 -0.01288493163883686 
-0.06468883156776428 -0.020204806700348854 0.05106951668858528 -0.1458398401737213 -0.3141116797924042 -0.09473276138305664 0.004063245840370655 -0.23263755440711975 0.003275416325777769 
-0.038363613188266754 -0.054650865495204926 -0.04971161484718323 0.013060207478702068 0.027692122384905815 0.004012341145426035 -0.0010531076695770025 -0.06050710752606392 -0.029932521283626556 
0.04414403811097145 -0.06456051021814346 -0.0005627571372315288 0.010177100077271461 -0.027698878198862076 -0.06117408350110054 -0.021065982058644295 0.05333301052451134 0.028821026906371117 
0.05464126914739609 0.03347283601760864 0.04920218884944916 -0.06093980744481087 0.04460086300969124 -0.04068472981452942 -0.002465292112901807 -0.018137753009796143 0.009427588433027267 
0.023793747648596764 0.05144849419593811 0.037483133375644684 0.08402795344591141 0.06222742795944214 0.04451238736510277 0.019053034484386444 0.008581462316215038 -0.02342822030186653 
-0.010221594013273716 -0.07212582975625992 -0.03711559623479843 -0.028647752478718758 0.008138826116919518 -0.0653524324297905 0.0048496355302631855 -0.03146686404943466 -0.05078670382499695 
0.03638708218932152 -0.05130073428153992 -0.05200342833995819 0.04997359961271286 0.05741913244128227 0.014371633529663086 -0.020119832828640938 -0.019726034253835678 -0.04283185303211212 
-0.12429208308458328 -0.13079307973384857 -0.07264335453510284 0.10416533052921295 0.0994274765253067 0.11602340638637543 -0.03042970784008503 0.04685566946864128 -0.03427235782146454 
0.13116104900836945 -0.07670559734106064 0.031234022229909897 0.012740332633256912 0.03627638518810272 0.10097426921129227 0.04697633534669876 0.1113448292016983 0.010087183676660061 
-0.05456036701798439 -0.024640347808599472 -0.004735801834613085 -0.05165708437561989 0.03219868242740631 -0.07604990899562836 0.05691429600119591 0.05663416534662247 -0.023112602531909943 
-0.07768774032592773 -0.02564719319343567 0.0015129620442166924 2.242156188003719e-05 -0.026311414316296577 0.021375877782702446 -0.05943327024579048 0.021466398611664772 0.03314542397856712 
0.03548271209001541 -0.07698080688714981 0.057499270886182785 0.029278550297021866 0.036930255591869354 -0.054520729929208755 -0.01293296366930008 0.017892912030220032 -0.011479847133159637 
0.05922411009669304 -0.058117758482694626 -0.0063518560491502285 -0.0773330107331276 -0.018276475369930267 0.049891673028469086 -0.05129926651716232 -0.034740664064884186 0.016792114824056625 
0.00258085411041975 -0.033946048468351364 0.02561844326555729 -0.06392785906791687 -0.06576445698738098 -0.05436856672167778 0.03977571055293083 0.01574683003127575 -0.03379778563976288 
-0.05454730987548828 -0.0260816290974617 -0.056471895426511765 0.06529900431632996 0.05281779170036316 0.0202865619212389 0.01092165894806385 -0.017752215266227722 -0.059403326362371445 
0.03268261253833771 -0.04419541358947754 -0.01884852908551693 -0.039528150111436844 0.006283646449446678 0.003533835057169199 -0.0463121272623539 -0.03519412875175476 -0.0453110933303833 
-0.021628541871905327 0.029793631285429 0.06588269025087357 -0.002664063358679414 -0.0031915828585624695 0.013084322214126587 -0.056028082966804504 0.03435617685317993 -0.05111194774508476 
-0.054998159408569336 -0.0077819605357944965 -0.0361928790807724 0.04728526994585991 0.029833968728780746 -0.03418809548020363 -0.06961269676685333 0.04425670579075813 -0.059597235172986984 
0.03222980722784996 0.05699555575847626 -0.020057272166013718 -0.061839669942855835 0.03331008926033974 -0.015395660884678364 0.06822910159826279 -0.035831231623888016 0.03023114614188671 
-0.058033574372529984 0.051849350333213806 -8.388896094402298e-05 -0.060831282287836075 0.06819205731153488 0.03136274963617325 -0.051939114928245544 -0.040835294872522354 0.023723959922790527 
0.016949543729424477 -0.03032519295811653 -0.012694262899458408 0.09626898914575577 0.18063569068908691 0.06715420633554459 -0.06119268760085106 0.11304210871458054 0.10786938667297363 
0.01974954642355442 0.0010926356771960855 0.00787549652159214 -0.07791164517402649 -0.054231908172369 -0.052537787705659866 -0.059119801968336105 -0.01871873438358307 -0.042024675756692886 
0.003663416486233473 -0.03914424777030945 -0.03222598135471344 -0.07427063584327698 0.03639909625053406 0.056790176779031754 -0.042586348950862885 -0.03170330077409744 0.03296137601137161 
-0.015183052979409695 -0.06612837314605713 -0.024278845638036728 -0.026150917634367943 0.04341728612780571 0.02178959734737873 -0.06025339290499687 0.05451512709259987 0.07710806280374527 
0.032106827944517136 -0.026598509401082993 -0.040189750492572784 0.0748508870601654 0.12638401985168457 0.1272103488445282 -0.13957306742668152 -0.00807917583733797 -0.19339190423488617 
-0.017945103347301483 0.013779020868241787 -0.05673918128013611 -0.07296101748943329 -0.005951220635324717 -0.030402537435293198 -0.000824281363748014 0.05308837071061134 0.04099787026643753 
0.05492865666747093 -0.024034006521105766 0.0507226437330246 0.01260775700211525 -0.03167100250720978 0.03618815913796425 -0.03332814574241638 0.029479999095201492 -0.03291604667901993 
0.026224669069051743 0.03031213767826557 0.014086027629673481 -0.02207251265645027 0.03228410333395004 -0.06840577721595764 -0.03189266100525856 -0.004650904331356287 -0.04976225271821022 
-0.05025555565953255 0.06497368216514587 0.0017006846610456705 -0.044765301048755646 -0.03868575021624565 0.007347166538238525 -0.030289240181446075 0.01704077050089836 -0.0017537566600367427 
0.040016770362854004 -0.025976724922657013 0.03299335390329361 -0.007719452492892742 0.035422343760728836 0.012160875834524632 -0.00022901241027284414 0.027331408113241196 0.0431816428899765 
0.04137348383665085 0.05901166796684265 0.05961492657661438 0.0033176362048834562 -0.001524658058770001 0.01153312623500824 0.017244018614292145 0.035801056772470474 0.06104506924748421 
0.140757754445076 0.061802007257938385 0.005828161258250475 -0.06031171232461929 0.0177568718791008 -0.013335992582142353 -0.012048324570059776 -0.04876967519521713 0.037593625485897064 
-0.007214707788079977 0.007228568661957979 0.08219148218631744 0.02692398987710476 -0.02374999038875103 0.06476259976625443 0.027898376807570457 -0.04261220991611481 0.10990744084119797 
0.01576274260878563 0.04957656189799309 -0.02047003246843815 -0.032478757202625275 0.05842428281903267 0.05105060338973999 0.05056001991033554 -0.0273489560931921 -0.030927758663892746 
-0.05375861003994942 0.04798717424273491 0.03605020046234131 0.04626527056097984 -0.06669946014881134 -0.0308399498462677 0.023680424317717552 0.033602047711610794 -0.05951489135622978 
-0.039669960737228394 0.006621914450079203 -0.03010888583958149 -0.022565826773643494 0.06168060749769211 0.05464174598455429 0.010819204151630402 -0.027159126475453377 -0.0007715779356658459 
0.003337323199957609 -0.06754495948553085 0.06375202536582947 -0.05329679697751999 0.006090245675295591 0.05729885771870613 0.05031419172883034 -0.014640367589890957 0.0575915090739727 
0.04056531563401222 0.03387961909174919 0.03762604296207428 -0.0004798303998541087 0.043230053037405014 -0.005585245788097382 -0.007438248489052057 0.009137049317359924 -0.008320322260260582 
0.003928917460143566 0.0065300120040774345 -0.0679556131362915 0.06100635975599289 0.005145037081092596 0.04903344810009003 0.03811945021152496 -0.01357800979167223 -0.036226995289325714 
-0.030730964615941048 -0.05280202627182007 0.03405197709798813 0.031364332884550095 0.0362677201628685 -0.04904650151729584 -0.006211959756910801 0.014081340283155441 0.01939590461552143 
-0.04409707337617874 -0.04391339421272278 -0.06746518611907959 -0.050993289798498154 0.009250779636204243 -0.03260502219200134 -0.02392653375864029 -0.025157475844025612 -0.0031389230862259865 
0.0011461613466963172 0.048847220838069916 0.036672454327344894 -0.02135244570672512 0.03217892721295357 -0.05423952639102936 0.060296859592199326 0.043993692845106125 0.032110948115587234 
0.013421788811683655 0.023977132514119148 -0.027118487283587456 0.04203173890709877 -0.044430963695049286 -0.0223532747477293 -0.043290216475725174 -0.05950436741113663 -0.055527329444885254 
0.007062745746225119 0.02933252602815628 -0.012485588900744915 0.01671472378075123 -0.004550838377326727 0.022050630301237106 -0.055872928351163864 0.018415266647934914 -0.03501516580581665 
0.09443152695894241 0.007413302082568407 -0.0208494421094656 0.05032116919755936 -0.06281078606843948 -0.08927290886640549 0.03516006842255592 0.1091303825378418 0.07595601677894592 
-0.03928808495402336 0.06156047806143761 -0.06095430999994278 0.06100338697433472 0.036144107580184937 -0.0418279655277729 -0.006782909389585257 -0.05042733624577522 -0.04213852062821388 
-0.012330911122262478 0.019521145150065422 0.03993307799100876 -0.02863815799355507 0.0006593121215701103 0.027567831799387932 -0.026796292513608932 -0.01961648091673851 0.06956058740615845 
-0.012370284646749496 -0.008867144584655762 0.025589920580387115 -0.01968144066631794 -0.01757056452333927 -0.07098899781703949 -0.015823014080524445 -0.04808645695447922 -0.04738254100084305 
-0.052980996668338776 0.018138688057661057 0.01636156626045704 0.10814593732357025 0.0559307262301445 -0.0012174824951216578 -0.07113059610128403 0.004097119439393282 -0.04942959174513817 
0.02425207942724228 0.025839049369096756 0.03969668224453926 0.03240074962377548 -0.0305941179394722 -0.004792273044586182 -0.02303844504058361 0.051751457154750824 0.03166568651795387 
0.04847672954201698 0.020721592009067535 0.0393868125975132 0.056974444538354874 0.04528198018670082 0.05176248773932457 0.06457459926605225 -0.049837369471788406 -0.03091440536081791 
-0.05326135456562042 0.012461302801966667 -0.05741656571626663 -0.005612474866211414 -0.05655277520418167 -0.04821670055389404 0.06747500598430634 0.054046180099248886 0.005869073327630758 
0.06643740087747574 0.06799275428056717 -0.04092180356383324 0.004637294914573431 -0.0646739974617958 0.03080010786652565 0.04562916234135628 0.025190986692905426 0.06618481129407883 
0.06445017457008362 -0.04413211718201637 0.011430938728153706 -0.02740868739783764 0.038111183792352676 -0.006650124676525593 -0.04109733924269676 0.03634991869330406 0.04140058904886246 
-0.04367362707853317 -0.06154947727918625 -0.02788717858493328 -0.03377126157283783 0.00729401083663106 -0.020655864849686623 -0.009384553879499435 -0.0556735023856163 0.06325846910476685 
0.07615608721971512 0.06540938466787338 -0.04717601463198662 -0.06854142248630524 -0.031716685742139816 0.008429302833974361 0.0066117034293711185 -0.028085313737392426 -0.01967265084385872 
-0.0007681751740165055 0.03686663135886192 -0.03227754682302475 0.04846402630209923 0.0018528803484514356 0.045719534158706665 -0.031216587871313095 0.019528256729245186 0.039484236389398575 
-0.04735543951392174 -0.01747346855700016 0.049203917384147644 0.01984735019505024 -0.05689280107617378 0.0049562579952180386 0.06808412075042725 0.03574105724692345 -0.021876376122236252 
0.00609184242784977 -0.01017421018332243 -0.04364267364144325 -0.01419580914080143 0.0192964356392622 -0.03985624760389328 0.06603635847568512 0.04794217646121979 -0.023962758481502533 
