-0.05783449485898018 -0.03956267237663269 -0.0354587584733963 -0.06213635578751564 -0.0017750981496647 -0.0022827403154224157 0.05615407973527908 0.05845174565911293 -0.02467333897948265 
0.018035724759101868 -0.01908593252301216 0.05779201537370682 -0.05386687442660332 0.04258132725954056 0.0469980351626873 -0.04171044006943703 0.031401537358760834 -0.027431894093751907 
-0.007105845492333174 -0.019269581884145737 0.06406258791685104 0.0435846708714962 0.0008313450962305069 -0.042617201805114746 0.03171096742153168 -0.029518580064177513 0.012201247736811638 
0.010830326937139034 -0.018218684941530228 -0.08193747699260712 -0.029612796381115913 -0.037784043699502945 -0.0012543381890282035 -0.059625014662742615 -0.012058906257152557 0.026438022032380104 
-0.006646326277405024 0.05815869942307472 -0.06218843162059784 0.009487085044384003 0.056459080427885056 -0.029765687882900238 -0.05859577655792236 0.05173110216856003 0.02035791426897049 
-0.009363565593957901 0.06790769100189209 -0.142622172832489 -0.06060825660824776 0.06249277666211128 -0.14223353564739227 0.05746247619390488 0.043491214513778687 -0.086776502430439 
-0.0727129578590393 0.032779134809970856 0.02131592482328415 -0.0058739217929542065 0.034582607448101044 0.0608765184879303 -0.006994795054197311 -0.02480452135205269 0.046880435198545456 
-0.02137164957821369 -0.010671921074390411 0.061173029243946075 -0.051960211247205734 -0.025282306596636772 0.05406394228339195 -0.025466052815318108 -0.018796661868691444 0.006704490166157484 
0.03208819031715393 0.02510857954621315 0.02287500724196434 0.055164191871881485 -0.031207283958792686 -0.040458932518959045 -0.0668940395116806 0.07055144757032394 -0.04478849843144417 
0.03208941966295242 -0.012181279249489307 0.028417954221367836 -0.06785466521978378 0.037448950111866 0.05397866666316986 0.04579075053334236 0.05323278531432152 -0.07952892035245895 
0.050552912056446075 -0.03622324764728546 0.027012161910533905 0.013587454333901405 0.034011200070381165 0.0466478168964386 0.06356941908597946 -0.05291862413287163 -0.0024401945993304253 
-0.036084406077861786 -0.05299607664346695 -0.018858972936868668 -0.03870481997728348 0.06883576512336731 0.052176766097545624 -0.02051442675292492 0.015644803643226624 0.053230274468660355 
-0.03696807473897934 0.05978569760918617 0.017137646675109863 -0.0255449078977108 0.018587782979011536 -0.01220648642629385 -0.011542265303432941 -0.05128985643386841 0.06885818392038345 
-0.012841175310313702 -0.0033262609504163265 -0.059703677892684937 0.00067098718136549 0.0537298358976841 -0.02097058668732643 -0.06406039744615555 -0.01557157002389431 0.04888860881328583 
0.042706333100795746 -0.026914814487099648 0.03500966727733612 -0.031497929245233536 -0.023676874116063118 -0.004435661714524031 0.0012908490607514977 -0.0863141268491745 0.06919689476490021 
0.06995005905628204 -0.0495886467397213 0.012177198193967342 0.02386007457971573 -0.04489297792315483 0.05049189180135727 0.014623554423451424 -0.05075281858444214 0.0013499690685421228 
-0.04723137244582176 0.06872765719890594 -0.015910230576992035 0.008318326435983181 -0.040056467056274414 0.04152844101190567 0.012319031171500683 0.049367766827344894 0.03735695779323578 
-0.07077845931053162 -0.043607644736766815 0.01757226511836052 0.04396848753094673 0.05919376388192177 0.022695500403642654 -0.02212194725871086 0.0596219003200531 -0.05056534335017204 
0.005669162143021822 -0.03307921439409256 -0.012765037827193737 -0.02677268721163273 -0.010837235487997532 0.03565813973546028 -0.02017802931368351 0.029112020507454872 -0.045924343168735504 
-0.02199653908610344 -0.03925372287631035 -0.06577618420124054 -0.027474401518702507 0.020653333514928818 -0.05898788943886757 0.014653901569545269 0.010665149427950382 0.03775280714035034 
0.03358706086874008 -0.006741032470017672 0.016226867213845253 0.010561634786427021 -0.05842248722910881 -0.05922522395849228 -0.04275600239634514 -0.011186140589416027 0.015831440687179565 
0.037152647972106934 0.00833093374967575 -0.002471169224008918 0.04366512969136238 -0.019243033602833748 8.709623944014311e-05 0.015739845111966133 0.01754148304462433 -0.00753919780254364 
-0.05484825745224953 0.005400966387242079 -0.02174106054008007 -0.06441366672515869 -0.004048461094498634 0.01640038937330246 0.033050891011953354 0.011592669412493706 0.04289013892412186 
-0.06317984312772751 0.022679340094327927 0.009764458052814007 0.1103968396782875 0.0323244072496891 0.03164951130747795 0.03380187228322029 -0.00902180839329958 0.09738732129335403 
-0.05424840748310089 0.01164488960057497 0.03565296530723572 0.03646856173872948 0.022361688315868378 -0.012486664578318596 0.037154655903577805 -0.014251054264605045 -0.08022063970565796 
0.02703161910176277 -0.06390545517206192 0.05268292874097824 0.0035743594635277987 0.048473063856363297 -0.0285309050232172 -0.030839072540402412 0.021614547818899155 -0.017387323081493378 
0.015061970800161362 -0.10128892958164215 0.07143021374940872 0.0035581316333264112 0.08558154106140137 -0.041878592222929 0.05081697180867195 -0.016402538865804672 -0.018028050661087036 
0.07626134157180786 -0.020528573542833328 0.018457064405083656 0.05181150883436203 0.04013891890645027 -0.014282895252108574 -0.033340513706207275 -0.010972922667860985 -0.043253522366285324 
0.0397304967045784 -0.013534264639019966 0.015290968120098114 -0.05897165834903717 -0.05419734865427017 -0.02154683694243431 0.0001244255545316264 0.03720032796263695 -0.008989430032670498 
-0.02690679021179676 0.020569968968629837 0.07349666208028793 -0.025661010295152664 -0.1396787017583847 -0.05154816806316376 0.007913196459412575 0.12437605112791061 -0.004977037664502859 
0.023368557915091515 -0.06632549315690994 -0.0066474429331719875 0.018554989248514175 -0.0831727460026741 0.00046675847261212766 -0.016634762287139893 -0.08926678448915482 0.048194337636232376 
0.03789215907454491 -3.41371851391159e-05 0.046024926006793976 -0.0810745358467102 -0.02259499579668045 -0.0052871257066726685 -0.007838794030249119 -0.07708606123924255 0.040615811944007874 
0.02126825414597988 0.113915354013443 0.011136861518025398 0.019762786105275154 -0.11509180814027786 0.032569900155067444 0.019376426935195923 0.0568976104259491 0.04558980464935303 
-0.06005788594484329 0.019953344017267227 -0.002859983127564192 0.031667038798332214 0.038285233080387115 -0.04876033589243889 0.011488965712487698 -0.042678289115428925 -0.05075925961136818 
0.02651342749595642 -0.05497750639915466 -0.011667761020362377 -0.05157563462853432 -0.05485912784934044 -0.024902909994125366 -0.008085357956588268 -0.00033155648270621896 0.052442312240600586 
-0.07693809270858765 -0.06018684431910515 -0.0674600824713707 0.03035745956003666 0.05101633816957474 0.05059175193309784 0.0023741526529192924 -0.026922134682536125 -0.019445130601525307 
-0.06804730743169785 -0.04532900080084801 -0.0036341859959065914 -0.05233268812298775 0.004147170577198267 -0.071168452501297 -0.007901493459939957 0.0005023448029533029 0.028039475902915 
-0.06680066138505936 0.003468655049800873 -0.03450608626008034 -0.03473832458257675 0.010454192757606506 0.020275957882404327 0.003333279164507985 0.02783084847033024 -0.07616560161113739 
-0.017974108457565308 -0.03301949426531792 0.0522727370262146 -0.0919421836733818 0.1364295482635498 0.14361782371997833 -0.0460800863802433 -0.02444205805659294 -0.049874644726514816 
-0.05176230147480965 -0.05811375752091408 -0.033875972032547 -0.01951570250093937 0.005483486223965883 0.012903756462037563 0.023319710046052933 0.02262222208082676 -0.02813638001680374 
0.031462546437978745 -0.035565201193094254 0.05156992748379707 -0.00654130894690752 0.05575082451105118 -0.019275428727269173 -0.010678298771381378 -0.0006530825048685074 -0.024499092251062393 
0.0038660916034132242 0.02211681567132473 0.0008683832711540163 0.03228437900543213 0.04217757284641266 0.0533377006649971 -0.055590905249118805 -0.07581659406423569 0.01144969742745161 
-0.0038942783139646053 -0.05148224160075188 -0.04373521730303764 0.004570061340928078 -0.019849156960844994 -0.05450378358364105 -0.058813415467739105 0.03865019604563713 -0.027413463220000267 
0.03914342448115349 -0.015097448602318764 0.052120644599199295 0.0447251982986927 0.055219702422618866 -0.05512485280632973 0.0801202729344368 -0.04131576418876648 -0.04689529910683632 
-0.005795769393444061 0.04531872272491455 -0.04230218380689621 -0.02229762077331543 -0.04503801465034485 -0.05763963982462883 -0.06487379968166351 0.05464988946914673 0.013022330589592457 
0.01837521232664585 0.0027316156774759293 0.0005247530061751604 0.05888693034648895 -0.010821468196809292 -0.031045248731970787 0.04456049203872681 0.04825165867805481 -0.0022316521499305964 
-0.010699848644435406 0.06157144531607628 0.024262560531497 0.005596686154603958 0.06216774880886078 0.05984834209084511 -0.022064173594117165 -0.011621398851275444 0.042917877435684204 
-0.06706257909536362 -0.02625129558146 0.10527831315994263 -0.0279859509319067 -0.15094292163848877 0.026979489251971245 -0.043320029973983765 0.16892533004283905 -0.026825016364455223 
0.06882935017347336 0.0030171351972967386 -0.04043621942400932 -0.02131408080458641 -0.030471831560134888 -0.07139856368303299 -0.030349479988217354 -0.04656770080327988 0.0005523976287804544 
0.020244533196091652 -0.0214287880808115 0.020084289833903313 0.016212264075875282 0.014154323376715183 0.017211515456438065 -0.032693203538656235 0.03726302459836006 0.003976577427238226 
-0.05281910300254822 -0.032899077981710434 0.09384874999523163 0.028939783573150635 -0.0548553466796875 -0.006985570304095745 -0.024928363040089607 0.0369708351790905 -0.03642458841204643 
0.01554823573678732 -0.028007280081510544 0.010555172339081764 -0.0542793907225132 -0.049190253019332886 0.030752504244446754 0.03647780790925026 -0.03026636131107807 0.045267269015312195 
0.04441199079155922 -0.0009320598328486085 0.021361177787184715 7.806725989212282e-06 0.012008008547127247 0.040206074714660645 0.0013355724513530731 0.004121384583413601 0.016678152605891228 
0.007596285548061132 0.0120323421433568 -0.09119293838739395 -0.057203277945518494 -0.02020595595240593 -0.01518345158547163 0.027282558381557465 0.04486816003918648 0.010316861793398857 
-0.03982515633106232 -0.05849741771817207 -0.06550911068916321 -0.017169972881674767 -0.02947409451007843 -0.023560192435979843 -0.03009408712387085 0.02621470019221306 0.003356396220624447 
-0.00586994644254446 -0.025139080360531807 -0.014813178218901157 -0.041288670152425766 -0.009545715525746346 -0.04318980500102043 -0.06736906617879868 -0.05211331322789192 0.04980747774243355 
-0.05226336047053337 0.012003866024315357 -0.018574658781290054 -0.0424545519053936 0.03733799606561661 -0.025673959404230118 -0.03568153455853462 -0.02259579300880432 0.021490328013896942 
0.05116577446460724 0.04540980979800224 0.012584073469042778 -0.010761926881968975 -0.07896099239587784 0.022134888917207718 -0.02765822224318981 0.0020557017996907234 0.025354348123073578 
-0.0029097546357661486 -0.0018348675221204758 -0.04266016557812691 -0.06805572658777237 0.022551003843545914 0.02240595780313015 -0.06611261516809464 -0.03613625839352608 0.04365267604589462 
0.040539875626564026 -0.04255847632884979 0.04304315894842148 0.04786382243037224 0.05978183075785637 -0.0062554064206779 -0.044106580317020416 0.045263294130563736 0.0024160053580999374 
-0.03278739005327225 0.0005084577132947743 0.056762583553791046 -0.00876400712877512 -0.05992351099848747 -0.02391763962805271 -0.026640933007001877 -0.03461551293730736 -0.04106481745839119 
0.02382943220436573 0.04619350656867027 -0.019317617639899254 0.06752119958400726 0.04985586553812027 -0.0417342483997345 -0.06647849082946777 -0.074596107006073 0.04139022156596184 
0.10589602589607239 -0.0696515217423439 -0.04611938074231148 0.01970922388136387 -0.024170316755771637 -0.05627776309847832 0.06240516155958176 0.039616577327251434 0.022255800664424896 
0.04284929111599922 0.04359316825866699 0.042798303067684174 0.053912144154310226 0.02390231564640999 0.04201652109622955 -0.06777241826057434 0.05780763551592827 -0.049492765218019485 
-0.0660182535648346 -0.028095226734876633 0.035870086401700974 -0.011562395840883255 -0.00815748143941164 0.011574731208384037 -0.04775426536798477 -0.002290457021445036 0.057021260261535645 
-0.06567971408367157 0.057520102709531784 0.05287178233265877 -0.0011615271214395761 0.01360554900020361 0.019203010946512222 0.012413275428116322 0.026544278487563133 -0.03959492966532707 
-0.017878388985991478 0.057768940925598145 -0.053306836634874344 -0.020846258848905563 0.023824460804462433 -0.0576736219227314 -0.06817375123500824 0.02445378340780735 0.03840167075395584 
-0.015040508471429348 -0.016785476356744766 -0.05133536830544472 -0.07934606820344925 -0.006888786796480417 0.000780431495513767 0.033238064497709274 0.020816201344132423 -0.008739161305129528 
0.04530192166566849 -0.05672480911016464 -0.03648291155695915 -0.01718657836318016 -0.036329835653305054 -0.05517075955867767 -0.04910041019320488 -0.023898189887404442 -0.0056983293034136295 
-0.023854397237300873 0.04401254653930664 0.006127439439296722 0.03588508442044258 -0.03073730133473873 -0.046473179012537 -0.03624635934829712 0.027571160346269608 -0.04487627372145653 
0.06470885127782822 0.012712898664176464 0.06487663835287094 -0.0629383847117424 -0.06131984293460846 -0.00962646584957838 -0.032171428203582764 0.044602878391742706 -0.05522427707910538 
0.031321827322244644 0.037702661007642746 -0.005102747119963169 0.04102403298020363 -0.026874076575040817 1.6383297406719066e-05 0.03455055132508278 0.030288945883512497 0.017265887930989265 
0.004799833055585623 0.0001180710387416184 -0.008734055794775486 -0.056479424238204956 -0.00012511247768998146 0.03396720811724663 -0.037988435477018356 0.07122567296028137 0.03924037143588066 
0.006207202095538378 0.06194188818335533 -0.01694929040968418 -0.04991019144654274 -0.01780709996819496 0.02390414848923683 0.053534578531980515 -0.041066233068704605 0.009847225621342659 
-0.07531861215829849 -0.02728240005671978 -0.04511719197034836 -0.035544123500585556 -0.06714040786027908 -0.05007420852780342 0.04678986221551895 -0.0382675975561142 -0.06378275156021118 
-0.0183608066290617 -0.06355743110179901 -0.022081704810261726 -0.04353557527065277 -0.03515198454260826 0.025687716901302338 -0.007636722642928362 -0.0038712145760655403 0.015354152768850327 
0.014701406471431255 0.03542568162083626 0.05064944550395012 0.01780584640800953 0.05454987660050392 0.053405437618494034 -0.03675362095236778 -0.03060060553252697 -0.026633387431502342 
-0.04950110614299774 0.06580827385187149 -0.029026243835687637 0.11421267688274384 -0.11389989405870438 -0.05766626074910164 0.0262265857309103 -0.0033708123955875635 -0.016021640971302986 
-0.06625388562679291 -0.023213643580675125 0.01035150233656168 0.021218370646238327 -0.03296283259987831 -0.02198459766805172 0.04193815588951111 -0.006340078543871641 -0.016583312302827835 
0.020328493788838387 0.030250608921051025 -0.05510580539703369 -0.026543110609054565 -0.0222647562623024 -0.05410754308104515 -0.035666223615407944 -0.050589270889759064 -0.031161844730377197 
0.0005270754918456078 0.004492733161896467 -0.058556586503982544 -0.024190628901124 0.03835487365722656 -0.0028517493046820164 0.05017980560660362 0.08581709116697311 -0.057530470192432404 
0.08197609335184097 -0.06585816293954849 0.02598734386265278 -0.056695591658353806 0.0546327568590641 0.05030229687690735 -0.03792344778776169 0.033034440129995346 -0.0009789859177544713 
-0.015300602652132511 -0.06342899054288864 0.03468466177582741 -0.08108427375555038 0.022750308737158775 0.04987849295139313 0.0023977088276296854 0.050282273441553116 -0.06490519642829895 
0.05405808240175247 -0.05132710561156273 0.03439265862107277 -0.037308502942323685 -0.02151276171207428 -0.0018257548799738288 -0.04135950282216072 0.0389709435403347 0.048066385090351105 
-0.024256601929664612 -0.027384581044316292 0.006158055737614632 -0.038912899792194366 -0.062434762716293335 0.047642916440963745 -0.027161646634340286 0.05536092072725296 0.006335419602692127 
0.05272815003991127 0.04501340538263321 0.03960811719298363 -0.01581738516688347 -0.04125864803791046 0.03134734928607941 0.03010350465774536 -0.041721612215042114 -0.0559752993285656 
0.03506278991699219 -0.087045818567276 0.07010669261217117 -0.003421967849135399 0.08266165107488632 0.09262631833553314 -0.1288796216249466 0.05634505674242973 0.05006188526749611 
-0.025237563997507095 -0.0667722225189209 0.05297427251935005 0.06713873147964478 0.033987369388341904 0.005711328238248825 0.035757675766944885 0.03025556541979313 -0.043650250881910324 
0.030277101323008537 0.04308529570698738 0.014499174430966377 -0.026497669517993927 0.054828617721796036 0.0196914654225111 -0.04289035126566887 0.05748406797647476 0.005950568709522486 
0.04439103603363037 0.05104871466755867 0.056490860879421234 -0.04840303957462311 -0.052810024470090866 -0.06083955615758896 -0.045181114226579666 -0.04502071440219879 0.007474592886865139 
-0.02215399779379368 0.013873464427888393 -0.03069853037595749 0.039532508701086044 0.04524122551083565 -0.04194170981645584 -0.008797305636107922 -0.04798024892807007 0.004916556179523468 
0.029104631394147873 0.05922377482056618 0.015613933093845844 0.05191855505108833 0.004431017674505711 -0.01615278050303459 -0.023763611912727356 0.05012905225157738 0.10206769406795502 
-0.04409707710146904 0.06059889867901802 0.05917876586318016 0.03097783401608467 0.058626335114240646 -0.048938069492578506 0.011827165260910988 -0.06586124002933502 0.07227150350809097 
0.007859221659600735 0.05747929960489273 0.013833471573889256 0.0662684291601181 -0.030599238350987434 -0.017205365002155304 0.056150030344724655 -0.04571133106946945 0.05917622148990631 
0.0667218416929245 -0.035817503929138184 0.049520108848810196 -0.030001334846019745 -0.009419992566108704 0.022081408649683 0.06297046691179276 -0.008961215615272522 -0.00993478111922741 
0.054941609501838684 -0.010019021108746529 0.021233145147562027 -0.09380187839269638 -0.06849084794521332 0.050626665353775024 -0.04827580973505974 0.01747184433043003 0.07169737666845322 
0.009762014262378216 0.026245784014463425 0.034928251057863235 0.03884664922952652 -0.0715085119009018 -0.004014354664832354 0.04533354938030243 0.01646803319454193 -0.007328357081860304 
-0.031353652477264404 -0.0075376639142632484 0.02112603932619095 -0.05179049074649811 0.0612388476729393 -0.013453626073896885 -0.0006639535422436893 -0.001941011636517942 0.03463691473007202 
-0.046408042311668396 0.0593084916472435 0.042132630944252014 0.02606462500989437 -0.02954797074198723 -0.06600894033908844 0.04385928809642792 -0.046574585139751434 -0.020391732454299927 
-0.0317608118057251 0.052231304347515106 0.03677017614245415 0.06195248290896416 0.0006497352151200175 -0.0031846482306718826 -0.03044019639492035 -0.05421474203467369 0.06482675671577454 
0.03792870044708252 0.022427447140216827 0.014353334903717041 -0.050693683326244354 0.02363019436597824 -0.031015081331133842 0.0479731447994709 0.07586414366960526 -0.048020411282777786 
0.017964288592338562 0.024807393550872803 -0.0013350136578083038 0.0144821647554636 -0.08374953269958496 0.08577193319797516 -0.019208017736673355 -0.03532600775361061 -0.01986071653664112 
-0.05723029747605324 0.03995111212134361 -0.03652093559503555 -0.036582041531801224 -0.05634824559092522 0.013872165232896805 0.04504569247364998 -0.027993163093924522 0.008262868970632553 
-0.010066252201795578 0.004038628190755844 0.0329708568751812 -0.025263095274567604 0.02254626341164112 -0.005495185498148203 0.05761822313070297 0.00044099221122451127 -0.05392972752451897 
0.012722217477858067 -0.015508820302784443 -0.060626666992902756 0.06540562212467194 0.0049087489023804665 0.022683992981910706 -0.005775554105639458 -0.03286441043019295 -0.029891695827245712 
0.0037475505378097296 -0.026070306077599525 0.027030469849705696 0.002781265415251255 0.0411752313375473 -0.03038746491074562 -0.053430747240781784 0.004726773593574762 0.015511532314121723 
-0.04418747499585152 0.01907181553542614 0.002343019936233759 0.0056175426580011845 -0.04382597655057907 -0.006866541691124439 0.015093776397407055 0.03924811631441116 -0.05797682702541351 
-0.02582710050046444 0.025023002177476883 -0.06027679145336151 0.029305366799235344 0.06482348591089249 -0.06713894009590149 0.010934773832559586 0.05266726762056351 -0.014843561686575413 
0.04858780279755592 -0.010305611416697502 0.030917387455701828 -0.04327328875660896 -0.05559432879090309 0.04435517638921738 -0.05039684474468231 0.008470199070870876 -0.035808492451906204 
0.02443794347345829 -0.04140019416809082 0.04085158929228783 0.02335468865931034 -0.030576925724744797 -0.0004151142784394324 -0.04077116400003433 0.01337449997663498 0.07207905501127243 
0.07756312191486359 -0.019439177587628365 0.09236922115087509 0.03378617390990257 0.07125230133533478 -0.03876153379678726 -0.07592889666557312 0.01383134350180626 -0.06967306137084961 
0.0353822186589241 -0.02092185616493225 0.03399248793721199 -0.055729564279317856 -0.038425855338573456 0.017665697261691093 0.03218334913253784 -0.013173291459679604 0.04523920640349388 
0.06668874621391296 -0.05080786719918251 -0.0067725046537816525 0.040697239339351654 0.06873515248298645 -0.049935128539800644 0.0703999325633049 -0.05195097625255585 -0.04885069280862808 
-0.025792786851525307 0.004566297400742769 -0.023970361799001694 0.0464642271399498 0.06418278068304062 0.012693224474787712 0.005957539193332195 -0.04902169480919838 -0.02780516818165779 
0.043981049209833145 -0.002509942278265953 -0.023231547325849533 -0.032527584582567215 0.022545836865901947 0.025226736441254616 -0.012509148567914963 0.04196988418698311 -0.042844463139772415 
0.038390666246414185 0.06143459677696228 -0.06874685734510422 -0.054677654057741165 -0.03365494683384895 0.01449586357921362 0.036831021308898926 0.007682986091822386 0.019305434077978134 
-0.06716016680002213 -0.05826084688305855 0.03478337824344635 0.04546186327934265 0.014586957171559334 0.04213223606348038 -0.01944427564740181 0.007887221872806549 0.023150734603405 
0.04466559737920761 0.0035559043753892183 0.045556601136922836 0.003966873977333307 -0.04214276745915413 0.029004203155636787 0.011556444689631462 0.03305838629603386 -0.012331202626228333 
0.05121058598160744 -0.0002993050147779286 0.008045862428843975 0.015330222435295582 0.05757243186235428 -0.014368375763297081 0.050534218549728394 -0.049653731286525726 -0.06252782046794891 
-0.03617001324892044 0.06599676609039307 -0.021382823586463928 -0.06388717889785767 0.043533217161893845 -0.06486653536558151 -0.04256255552172661 0.043376676738262177 -0.0074426839128136635 
-0.03161921724677086 -0.028454232960939407 -0.07057584822177887 0.081526018679142 0.04370049014687538 -0.040071528404951096 -0.017226925119757652 -0.03642125055193901 0.029311267659068108 
-0.0007682510185986757 -0.000823579786811024 0.011726421304047108 -0.04011433199048042 -0.06842272728681564 0.039336781948804855 -0.028478030115365982 0.015221384353935719 0.033573899418115616 
-0.014448859728872776 -0.07107604295015335 0.05434291809797287 0.02668798714876175 0.054655373096466064 -0.007130479905754328 -0.047970063984394073 -0.02808251976966858 0.01613956317305565 
-0.016383403912186623 0.05313964933156967 -0.06053811311721802 0.024595722556114197 0.016859864816069603 0.004042364656925201 -0.038602229207754135 -0.04500523954629898 0.060127414762973785 
-0.03611085191369057 0.03088756650686264 -0.06438272446393967 0.008301307447254658 0.010069021955132484 -0.017736677080392838 0.06636892259120941 -0.010071354918181896 -0.02185974083840847 
0.01766892708837986 0.022482190281152725 -0.020703503862023354 -0.04829104617238045 -0.035939767956733704 -0.13387338817119598 -5.936259185546078e-05 0.003932997118681669 0.04817674681544304 
0.017090221866965294 -0.06729274243116379 0.033490635454654694 0.05622256174683571 0.020719420164823532 -0.030400557443499565 -0.06918050348758698 0.012915708124637604 -0.02129395306110382 
-0.025937914848327637 0.06467369943857193 -0.007419966626912355 -0.04195539653301239 -0.04763326793909073 -0.04574012756347656 0.024512210860848427 -0.01799512654542923 -0.05332937091588974 
-0.028746740892529488 0.0623624362051487 0.06811733543872833 0.005815259180963039 -0.008588689379394054 -0.01329999789595604 -0.0546298511326313 -0.018478913232684135 0.044238366186618805 
0.05975896120071411 0.047221265733242035 -0.07422512024641037 0.03433583676815033 0.018677325919270515 -0.01927207037806511 -0.04883555695414543 0.028502346947789192 -0.0551997572183609 
-0.014271730557084084 -0.029650090262293816 0.06250027567148209 0.036735087633132935 -0.029270628467202187 -0.03781978785991669 -0.04898223653435707 0.048765167593955994 -0.014402782544493675 
0.01517904456704855 0.03181625157594681 0.021222051233053207 0.047962456941604614 0.018848776817321777 0.0661144107580185 0.0651254951953888 0.044578321278095245 -0.034899309277534485 
0.01697578653693199 -0.0346064567565918 -0.0016662842826917768 0.020399967208504677 -0.013423566706478596 -0.07416275888681412 0.049923043698072433 -0.0019582367967814207 -0.08043405413627625 
-0.026179347187280655 -0.0472949855029583 0.0014760963385924697 -0.019693812355399132 -0.00022023962810635567 -0.04396039992570877 0.013948478735983372 -0.013327796943485737 0.012105551548302174 
-0.03451722487807274 0.05869792774319649 0.04776056483387947 0.06429561227560043 0.033567193895578384 0.05690036341547966 0.02509453520178795 -0.00857143197208643 0.01902257464826107 
-0.04689290374517441 -0.054982103407382965 0.012988125905394554 0.009070126339793205 -0.005128857214003801 -0.013928056694567204 0.05586060881614685 -0.08177746832370758 0.01693638227880001 
-0.055647872388362885 -0.029887327924370766 -0.0017940979450941086 -0.026263203471899033 -0.046058010309934616 0.023226216435432434 0.06394606828689575 -0.010204632766544819 0.0134193180128932 
-0.04806219041347504 -0.02196972258388996 -0.03382394462823868 -0.014932863414287567 0.027322357520461082 -0.007163153495639563 -0.017068425193428993 0.06208404526114464 0.030983934178948402 
0.050574563443660736 -0.010706549510359764 0.0007582596153952181 0.05833720415830612 -0.06492362916469574 -0.05553244426846504 -0.03200491517782211 -0.048555970191955566 -0.07093055546283722 
-0.013194838538765907 -0.03094560094177723 -0.05029284581542015 0.003063864540308714 0.03474196419119835 -0.010593215003609657 -0.06050293520092964 -0.014872339554131031 0.06473521143198013 
-0.019296815618872643 -0.007695233915001154 -0.05495665222406387 -0.05067513510584831 0.02387755922973156 0.014978796243667603 -0.059401314705610275 0.053220540285110474 0.006080437917262316 
0.03822331503033638 -0.013363081961870193 -0.04647441953420639 -0.013731374405324459 -0.06591717898845673 -0.03773171082139015 -0.010186892934143543 -0.04305240884423256 0.014544030651450157 
0.054477762430906296 -0.027974456548690796 0.004189892206341028 0.05711539834737778 0.05419795587658882 0.04520796984434128 0.017935626208782196 -0.06673683226108551 -0.03761235624551773 
0.08030065894126892 0.01081106811761856 0.0455046109855175 0.05701696500182152 -0.08706802129745483 0.005296582821756601 0.11045195162296295 0.07591801136732101 0.08112908154726028 
0.029690522700548172 -0.024848204106092453 0.02771715819835663 0.011377043090760708 0.05506949499249458 0.010654866695404053 -0.08682317286729813 -0.06215520575642586 -0.0152605464681983 
0.003085366217419505 -0.00019743209122680128 -9.843237057793885e-05 0.06403397768735886 0.03516160324215889 -0.05488280579447746 -0.00512209115549922 -0.03797701373696327 0.02968546189367771 
0.025833284482359886 0.04219484701752663 -0.06252212077379227 -0.022117702290415764 -0.023060519248247147 0.03196030110120773 -0.024619262665510178 -0.014695423655211926 0.07369831204414368 
0.02822624146938324 -0.03272558003664017 -0.04205446317791939 0.04515178129076958 -0.0008185170008800924 -0.051603011786937714 0.03254666551947594 0.06383749097585678 0.020430564880371094 
0.011176922358572483 0.028018344193696976 0.00606507295742631 0.013849816285073757 -0.005928000435233116 -0.05092836543917656 0.06210348382592201 -0.01694062538444996 0.007327032741159201 
0.03228799253702164 -0.03320043906569481 0.007763278670608997 -0.009684425778687 0.01298457756638527 -0.02329099178314209 -0.08729317039251328 0.10981006920337677 0.02887941338121891 
-0.03122670203447342 -0.08539317548274994 0.002043377375230193 0.038744017481803894 -0.05862662196159363 -0.09993468970060349 0.013125734403729439 -0.03733940050005913 -0.012164297513663769 
-0.03865896910429001 -0.0023714315611869097 -0.027887815609574318 0.030431857332587242 0.05185634270310402 -0.01464036013931036 0.012917343527078629 0.00047454165178351104 -0.021725134924054146 
-0.04253251850605011 0.025316599756479263 0.020575974136590958 -0.0660218894481659 -0.014043476432561874 -0.036358464509248734 -0.08336172252893448 0.0707237720489502 0.044257745146751404 
-0.020775320008397102 0.07428240776062012 -0.07506568729877472 -0.035811930894851685 0.10758334398269653 0.03483720123767853 0.04360610246658325 0.04050268232822418 -0.0742165669798851 
0.04520253464579582 0.0322064608335495 -0.014690565876662731 0.02387007512152195 0.06566018611192703 -0.013096083886921406 -0.06495501846075058 -0.03984491527080536 0.004067470319569111 
-0.029812300577759743 0.0667501911520958 -0.037805140018463135 -0.047715604305267334 -0.04130192846059799 -0.06052064523100853 0.056687407195568085 -0.044682443141937256 -0.04262777045369148 
-0.04709172993898392 0.03623121976852417 -0.01607193797826767 -0.00932356622070074 -0.03139682859182358 0.07134489715099335 -0.06565938144922256 0.058794815093278885 0.03393483906984329 
-0.002729513216763735 0.04441830515861511 0.0347151905298233 0.006578754633665085 0.02991488017141819 0.06604921072721481 0.05427880585193634 -0.06816594302654266 -0.045249179005622864 
-0.01684294268488884 0.08590962737798691 0.02494841441512108 -0.06764338910579681 -0.0504455640912056 -0.05671006068587303 -0.025308962911367416 -0.07033189386129379 0.02540636993944645 
-0.0030594132840633392 0.020699800923466682 -0.008956851437687874 -0.0033001257106661797 0.05892753228545189 0.0483265183866024 0.010311058722436428 0.009934788569808006 -0.007394164800643921 
0.043253976851701736 -0.06410019844770432 0.018486814573407173 0.02339690364897251 -0.03190203383564949 -0.0017316901357844472 0.05673978850245476 0.005566902458667755 0.020856956019997597 
0.036813441663980484 -0.03288435563445091 0.026810022071003914 0.006125541403889656 -0.05648845061659813 0.004414847120642662 0.044383369386196136 0.048049043864011765 0.004086779430508614 
-0.05525893718004227 -0.05301757529377937 -0.043707747012376785 -0.01409594714641571 -0.03578319028019905 -0.011606351472437382 -0.011324324645102024 -0.013224354013800621 -0.016622481867671013 
-0.014334479346871376 -0.053535886108875275 0.018678506836295128 0.029411565512418747 0.015821369364857674 -0.01181031484156847 -0.0003178933111485094 -0.06108202785253525 0.039024222642183304 
0.017701340839266777 0.0727824866771698 -0.03194693475961685 -0.014899799600243568 -0.06369812041521072 -0.06268921494483948 -0.013479337096214294 0.016602329909801483 0.05339865759015083 
-0.024085381999611855 -0.004750767722725868 0.009256565012037754 0.0172922071069479 -0.01658303663134575 0.03618563339114189 -0.03443635627627373 0.030168801546096802 0.0024293456226587296 
0.01275484636425972 -0.001761975116096437 -0.00527541246265173 0.03351359814405441 -0.0018143089255318046 -0.04899316653609276 -0.0303686261177063 -0.03746739774942398 -0.0008884034468792379 
-0.05851283669471741 0.003956057131290436 0.05819894000887871 0.03251367807388306 0.035387828946113586 0.0133150490000844 0.06358012557029724 0.026171352714300156 0.07670201361179352 
-0.008255827240645885 0.014212889596819878 0.021364999935030937 0.08162669092416763 -0.10083011537790298 0.06275522708892822 0.08588024973869324 -0.016743171960115433 -0.07737758755683899 
-0.04611072689294815 -0.007881022058427334 -0.056470710784196854 -0.03554930165410042 0.07060492783784866 -0.008954467251896858 -0.014985283836722374 0.0434960275888443 0.041335463523864746 
-0.023952603340148926 0.004756606183946133 -0.07768471539020538 0.04779338464140892 -0.02922804467380047 0.0029305771458894014 0.0676579475402832 -0.023456938564777374 -0.05333470553159714 
-0.07740238308906555 -0.018755175173282623 -0.022148163989186287 -0.02985476702451706 0.004259778186678886 -0.05339561402797699 0.05418093875050545 0.0027611935511231422 -0.032458022236824036 
0.08748846501111984 -0.03430666774511337 -0.018444104120135307 -0.07414082437753677 -0.004423920065164566 -0.006909575313329697 -0.017953036352992058 -0.013761624693870544 -0.014467879198491573 
0.044160936027765274 0.07204528898000717 -0.036626096814870834 -0.01285939384251833 -0.010782625526189804 -0.05985046550631523 -0.08779977262020111 0.1490807980298996 -0.12316707521677017 
0.02534356899559498 0.08412423729896545 -0.047205958515405655 0.022495076060295105 -0.01747559756040573 0.09085652977228165 0.031255997717380524 -0.041852761059999466 -0.013373106718063354 
-0.03910165652632713 0.04519488289952278 -0.05000520125031471 -0.0636412501335144 0.021744245663285255 -0.08084665238857269 0.03753777965903282 -0.049019716680049896 -0.0355568453669548 
0.037918590009212494 0.026796085759997368 -0.0012054082471877337 -0.07391950488090515 0.0074958582408726215 0.03742286190390587 0.08009880781173706 -0.06539608538150787 -0.0820346251130104 
-0.056283582001924515 0.038878779858350754 -0.050629690289497375 0.03915197774767876 -0.0091317780315876 -0.13371284306049347 -0.02280871570110321 -0.04167924448847771 -0.0735970064997673 
0.041114214807748795 0.006718863733112812 -0.031851112842559814 -0.0084303580224514 0.02443678490817547 0.043629784137010574 0.037900183349847794 0.0018628506222739816 -0.019702646881341934 
-0.07020982354879379 0.04894082248210907 0.004810089245438576 -0.052183013409376144 0.0626632571220398 0.01258120872080326 0.024098306894302368 -0.07026679813861847 -0.014965093694627285 
0.09530344605445862 -0.022889913991093636 -0.0334310382604599 0.03738413378596306 -0.049834780395030975 0.057780295610427856 0.0230917539447546 -0.027473093941807747 0.04282568767666817 
0.07469938695430756 -0.06246613711118698 -0.036213718354701996 0.04688037559390068 -0.03326263651251793 -0.041104331612586975 0.034957271069288254 0.02647535875439644 -0.001047134050168097 
-0.08908740431070328 -0.13120371103286743 0.027129454538226128 -0.08484134078025818 -0.010893125087022781 -0.20940296351909637 0.08225937187671661 -0.01960405707359314 0.05091703683137894 
0.009410643018782139 0.0060829590074718 0.06183423474431038 0.041640505194664 -0.046470142900943756 0.041296254843473434 0.0328528918325901 -0.028431201353669167 -0.025517171248793602 
0.010458956472575665 0.05908244475722313 -0.011418301612138748 0.04975919425487518 -0.008741281926631927 -0.01495935209095478 -0.053803056478500366 -0.005707583390176296 0.04572395607829094 
0.009516449645161629 0.014433087781071663 0.032525546848773956 -0.003080001100897789 0.027138726785779 -0.038677506148815155 0.016377512365579605 -0.04552518203854561 -0.019702129065990448 
-0.049173686653375626 -0.03899156674742699 0.04853654280304909 0.02227902226150036 -0.005074041895568371 -0.05366940796375275 0.005019997712224722 -0.02976679615676403 0.05212884768843651 
-0.03368713706731796 0.033451326191425323 -0.004439851269125938 -0.06027496978640556 -0.06631720811128616 0.06737389415502548 -0.1724768579006195 -0.0013100450159981847 0.01220924872905016 
-0.08533918112516403 0.08312761783599854 0.033000290393829346 -0.06918912380933762 -0.07241376489400864 -0.0332261398434639 -0.007688418962061405 -0.009227094240486622 -0.0661490187048912 
-0.03457285463809967 0.04512035474181175 -0.026205047965049744 -0.021303502842783928 -0.023206893354654312 -0.038753993809223175 -0.05577469989657402 0.019909877330064774 0.014233214780688286 
-0.07084207981824875 0.060938917100429535 -0.02969961240887642 -0.053547922521829605 0.0578218437731266 0.0305415578186512 -0.016861997544765472 -0.02353837713599205 0.05023534968495369 
-0.043667808175086975 -0.0736408680677414 0.037699248641729355 0.057667460292577744 -0.044030431658029556 -0.0003440176951698959 0.0659513995051384 -0.035200152546167374 0.06851519644260406 
-0.10054662823677063 -0.030681513249874115 0.06406915187835693 0.01892802119255066 0.03768859803676605 -0.0990869328379631 -0.007209810893982649 0.021586328744888306 0.06399501860141754 
-0.030990326777100563 0.046422794461250305 0.034365225583314896 0.07157541811466217 -0.032512832432985306 0.00013390045205596834 0.0008720061741769314 -0.005015662871301174 -0.053471241146326065 
0.004257539287209511 0.024967841804027557 0.04642151668667793 -0.1000346690416336 0.04188124090433121 0.06234040483832359 -0.01276659220457077 -0.03575330972671509 -0.0006552103441208601 
-0.017245449125766754 0.013737734407186508 0.01112010981887579 -0.02786434441804886 0.06219683587551117 0.06147207319736481 -0.018053805455565453 0.0005272950511425734 -0.06885788589715958 
-0.06481628119945526 -0.04372432455420494 -0.0028478065505623817 -0.06446626037359238 0.10858989506959915 -0.052717965096235275 -0.008815083652734756 0.017383094877004623 0.07981209456920624 
0.029394740238785744 -0.015009359456598759 0.18693788349628448 0.0016537242336198688 -0.05299156531691551 -0.02286333404481411 -0.07670745998620987 -0.03009529411792755 -0.0032895503100007772 
0.02275722473859787 0.040714431554079056 0.018366077914834023 0.04407558590173721 -0.013520648702979088 0.017571130767464638 -0.11575745791196823 -0.005804304964840412 -0.021366098895668983 
0.02198791317641735 -0.03641987591981888 -0.02997696027159691 0.01216645073145628 -0.08310481905937195 -0.0006334129138849676 0.06698842346668243 -0.02839779481291771 0.012335725128650665 
0.03501162305474281 0.11989755183458328 0.008931695483624935 0.08808629959821701 0.07279519736766815 0.07246829569339752 -0.08660835772752762 0.028755122795701027 -0.04007333517074585 
-0.1363535225391388 -0.07229620218276978 0.07653097063302994 -0.05216158181428909 0.10225877165794373 0.025445636361837387 0.17077766358852386 -0.04769584536552429 0.09764835983514786 
-0.007422925904393196 -0.030243558809161186 0.07452410459518433 -0.02863110974431038 0.04510633647441864 -0.09012182056903839 0.02389528788626194 -0.07179021835327148 0.05233792960643768 
-0.03620699793100357 0.04143848642706871 -0.017932428047060966 0.07417980581521988 -0.08435428887605667 0.005547395907342434 0.020707769319415092 0.003686152398586273 0.04407988116145134 
-0.0030892388895154 -0.01745697110891342 0.053725555539131165 -0.07400792837142944 -0.018066857010126114 0.03953848406672478 -0.022340552881360054 -0.014468899928033352 -0.07793422043323517 
0.04416608065366745 -0.024851905182003975 -0.08033314347267151 -0.043503593653440475 0.01255091093480587 0.028433555737137794 0.04368462786078453 0.06301962584257126 -0.06866339594125748 
-0.2463257610797882 0.08872991055250168 -0.1506480723619461 0.2062431275844574 0.08753587305545807 0.04603194817900658 0.21262721717357635 -0.15999042987823486 0.0034229191951453686 
0.012737642042338848 -0.04895855113863945 -0.01013751421123743 0.03137349337339401 -0.05608588084578514 0.03764085844159126 0.06647638976573944 -0.019728200510144234 -0.06400258094072342 
0.07847151160240173 0.06722194701433182 -0.0409567728638649 -0.05062634497880936 -0.0072915093041956425 -0.026313720270991325 -0.0077705723233520985 0.04008670896291733 -0.012364840134978294 
0.02687135711312294 -0.02202647179365158 -0.08805050700902939 -0.011404377408325672 0.10010994225740433 0.07207870483398438 0.008812916465103626 0.021323177963495255 0.008892225101590157 
0.007468275725841522 0.08965617418289185 -0.0008071456686593592 0.09787403047084808 -0.012782515957951546 -0.05541408061981201 0.08140984922647476 -0.08504873514175415 0.026944946497678757 
0.018676133826375008 -0.02224506437778473 0.1282251924276352 -0.07569636404514313 -0.027167104184627533 0.034502025693655014 -0.0063103558495640755 0.07712876051664352 -0.10628198087215424 
-0.030992047861218452 0.030617190524935722 -0.050742026418447495 -0.03686394914984703 0.0763801857829094 0.03681075572967529 -0.011663385666906834 -0.0043906583450734615 -0.06724894791841507 
-0.02365683950483799 0.0007403159979730844 0.07956556975841522 0.11510653048753738 0.02607879973948002 -0.03723638504743576 0.014361552894115448 -0.038292307406663895 -0.03679514676332474 
-0.06211678311228752 -0.09070567041635513 0.046468935906887054 -0.020855190232396126 -0.021133460104465485 -0.03737901151180267 0.04573793336749077 0.052883364260196686 -0.03329828381538391 
0.10352925211191177 0.07405712455511093 0.03885941207408905 0.026216264814138412 -0.040882036089897156 0.002419875469058752 -0.09651178121566772 -0.022532975301146507 0.12624593079090118 
-0.021436814218759537 -0.07081213593482971 -0.0056906165555119514 0.06384766101837158 -0.017324907705187798 0.04835260659456253 0.04339027777314186 -0.03481364995241165 -0.0616878978908062 
0.047791920602321625 -0.033648595213890076 -0.03362991660833359 0.00017874092736747116 0.006415806710720062 -0.002480411669239402 0.037816453725099564 -0.027227042242884636 0.02239200472831726 
-0.033811844885349274 0.019456451758742332 0.041223663836717606 -0.015564610250294209 0.03051910363137722 0.03486818075180054 0.044908344745635986 -0.010968570597469807 -0.04098076745867729 
-0.009884807281196117 0.010433312505483627 0.05459121987223625 0.011567417532205582 -0.027156570926308632 0.027532611042261124 -0.03566698729991913 -0.04913108050823212 -0.016155607998371124 
-0.0153889125213027 -0.01127337571233511 -0.045862890779972076 0.059343017637729645 -0.048199884593486786 0.024329788982868195 -0.04888443648815155 0.03404756635427475 0.03196653723716736 
-0.01825607195496559 0.014839820563793182 0.06651585549116135 0.012796643190085888 0.13935254514217377 -0.11860749870538712 -0.009616974741220474 -0.07508207857608795 -0.07411032915115356 
0.04413523152470589 -0.04021519422531128 0.07671739161014557 -0.11660663038492203 0.027248673141002655 0.09887635707855225 0.043862730264663696 -0.002778643509373069 -0.008265821263194084 
-0.033156391233205795 0.06679638475179672 -0.043638285249471664 0.052615899592638016 -0.057160113006830215 0.01784958876669407 -0.025540921837091446 -0.006387466099113226 0.012120581232011318 
-0.0747469887137413 -0.013985400088131428 -0.036376796662807465 0.06751692295074463 0.03436538204550743 -0.053817883133888245 0.02858082391321659 -0.10748004913330078 -0.02923768199980259 
0.0357702411711216 -0.007163068745285273 0.02816404588520527 -0.028006577864289284 -0.09150268137454987 0.05741647630929947 0.005880104377865791 -0.03521024435758591 -0.007308973465114832 
0.0012933483812958002 -0.05791855975985527 -0.013615463860332966 0.06170538440346718 -0.06936997175216675 0.011554486118257046 -0.04864923283457756 -0.013833482749760151 -0.047140855342149734 
0.041445810347795486 -0.055798813700675964 -0.034324388951063156 -0.04839571192860603 -0.0322360023856163 0.009581223130226135 0.04132724553346634 -0.0223015658557415 -0.020569542422890663 
0.025634363293647766 0.027724092826247215 0.03449540212750435 -0.025226078927516937 -0.04804651066660881 0.07176325470209122 0.05075852945446968 -0.06367338448762894 0.056965429335832596 
-0.025555698201060295 -0.060411158949136734 -0.038394466042518616 -0.06189686059951782 0.030446071177721024 -0.04143121838569641 0.04912179708480835 -0.0020834384486079216 0.03865896537899971 
0.011242691427469254 -0.008932134136557579 -0.038091618567705154 0.09165937453508377 -0.09267774224281311 -0.027287334203720093 -0.03429600968956947 -0.010344267822802067 0.018049389123916626 
0.012893433682620525 -0.019489990547299385 -0.02687603048980236 0.047555092722177505 0.04816262423992157 0.05112966150045395 0.02778603881597519 0.0030817717779427767 0.06484748423099518 
0.050267741084098816 -0.008713632822036743 0.03185868263244629 -0.048125166445970535 0.00941204372793436 0.0016646793810650706 -0.06720704585313797 0.0354907251894474 0.05293932929635048 
0.032291948795318604 -0.015532548539340496 -0.005029096268117428 0.04105706512928009 0.020315341651439667 0.01733650267124176 0.034732919186353683 -0.054511405527591705 -0.018044034019112587 
-0.03666341304779053 -0.022404877468943596 -0.005279154982417822 0.03618902340531349 -0.04733017086982727 -0.028301918879151344 -0.05679116025567055 -0.01927417702972889 -0.03632363677024841 
0.055590998381376266 0.049445219337940216 0.0358237698674202 -0.037811681628227234 0.0282139852643013 -0.013969427905976772 0.00918329693377018 0.10949046909809113 -0.07980861514806747 
-0.060222458094358444 0.000861856562551111 0.0631585642695427 -0.04017491266131401 0.03511672094464302 0.012326895259320736 0.05995020642876625 -0.03526793047785759 -0.06321407854557037 
0.022229323163628578 -0.026367301121354103 0.011660733260214329 -0.017932310700416565 0.053413838148117065 0.007988329976797104 -0.012893091887235641 -0.028302080929279327 0.014694897457957268 
-0.011730555444955826 0.03475605696439743 -0.04991903901100159 0.014884110540151596 0.020261211320757866 -0.05523565039038658 0.012274322099983692 -0.008708476088941097 -0.03256327286362648 
-0.037390224635601044 0.016115795820951462 0.08131689578294754 0.09455884248018265 0.13870389759540558 0.008265471085906029 0.11457084864377975 -0.10937774181365967 -0.00578274903818965 
-0.026239659637212753 0.01660972461104393 0.04382338374853134 0.048139628022909164 -0.00867348350584507 0.02910681813955307 -0.05869665741920471 0.011042164638638496 0.03291642293334007 
0.029614407569169998 -0.05008333548903465 0.043168164789676666 0.056763239204883575 -0.05623557046055794 0.019720302894711494 -0.034965164959430695 -0.06388477236032486 0.05414963886141777 
0.03994888812303543 -0.004672360140830278 -0.06179755553603172 -0.08272600173950195 0.055259913206100464 0.0014470216119661927 0.03878654167056084 0.0599529854953289 0.007815518416464329 
-0.019842011854052544 0.01693584956228733 -0.04617840051651001 -0.053989969193935394 0.060259658843278885 -0.041298676282167435 0.04461761191487312 -0.03490251302719116 -0.025182435289025307 
0.012691020034253597 0.010160526260733604 0.031099533662199974 0.053569499403238297 -0.028709443286061287 0.04049818590283394 -0.006610008887946606 0.02198801003396511 0.005908557213842869 
0.04174868389964104 -0.11170615255832672 0.01019445899873972 0.045104291290044785 -0.03949519991874695 -0.04715621843934059 0.0065337796695530415 -0.051880497485399246 -0.11009752750396729 
0.04761742055416107 -0.010682748630642891 -0.007220841944217682 -0.07597879320383072 0.04261104762554169 0.011914581060409546 -0.029912913218140602 -0.008573184721171856 -0.03526958078145981 
0.023581508547067642 -0.028185110539197922 0.02787412703037262 0.06149161234498024 -0.02336798422038555 -0.03546598181128502 -0.0013523652451112866 0.03996432200074196 -0.04689502343535423 
-0.04954713582992554 -0.04305919259786606 0.044108133763074875 0.05227962136268616 -0.028764817863702774 0.029268374666571617 0.05348929017782211 -0.018635764718055725 0.05540958419442177 
0.05329282581806183 0.059971634298563004 -0.059286054223775864 -0.02589225396513939 -0.0025374714750796556 0.058633461594581604 0.05763442814350128 0.05688104405999184 0.0643591359257698 
-0.04003284499049187 0.0030324901454150677 0.058906227350234985 0.003362123155966401 -0.04273432493209839 0.012262272648513317 -0.04327910393476486 0.05815624073147774 -0.02618017978966236 
-0.05832643061876297 0.003995594102889299 0.018435120582580566 -0.04834463819861412 -0.02458278089761734 -0.028678327798843384 -0.04329747334122658 -0.0013714437372982502 0.01689285784959793 
-0.07594174146652222 -0.0583760030567646 0.02179911732673645 -0.002897064434364438 0.06682257354259491 -0.05590297281742096 -0.015206203795969486 -0.02952723577618599 -0.03469820320606232 
0.03767218068242073 -0.03922322764992714 -0.0698741227388382 0.010421630926430225 0.024332506582140923 -0.05709344893693924 0.03873678669333458 0.060911037027835846 0.009019014425575733 
0.036165282130241394 0.06739365309476852 0.07900077849626541 -0.055530913174152374 -0.006308452691882849 -0.04303903877735138 0.03316020593047142 -0.03478333353996277 0.04004310071468353 
0.05820826068520546 0.0436975471675396 0.021712692454457283 0.014885148964822292 -0.0173494890332222 -0.016180725768208504 -0.049538444727659225 0.012607555836439133 0.044461872428655624 
0.004529125988483429 0.014871065504848957 0.010537373833358288 0.023112846538424492 -0.01206248253583908 0.018544992431998253 0.02270454168319702 -0.0005954515654593706 0.011118179187178612 
-0.07303047180175781 0.05448135361075401 -0.0026084077544510365 0.02669164352118969 0.055532749742269516 -0.030593371018767357 -0.023304611444473267 0.04383077844977379 0.00846926961094141 
0.04116826131939888 0.05941084027290344 -0.012738915160298347 0.02304181456565857 -0.06223660334944725 -0.007003898732364178 -0.004392614122480154 -0.04496033489704132 -0.006444145459681749 
0.025369228795170784 -0.023908942937850952 0.03694237023591995 -0.025790851563215256 -0.02523297816514969 -0.03276100754737854 0.008448456414043903 0.012528118677437305 -0.02232656069099903 
0.021976642310619354 -0.0590071976184845 -0.0016179580707103014 0.04165409505367279 -0.0027623840142041445 0.05084545165300369 0.033889155834913254 0.026946110650897026 0.05679116025567055 
-0.06729988008737564 0.03463554009795189 -0.0636795163154602 0.04502515494823456 -0.03420230373740196 0.0335627943277359 0.021936101838946342 0.0449061244726181 0.00948487501591444 
0.04172369837760925 0.01525214221328497 -0.02752419374883175 -0.018718363717198372 0.03654830902814865 -0.023644691333174706 0.06191856414079666 0.038107309490442276 -0.044001977890729904 
-0.0014224635669961572 0.0019526840187609196 -0.00011462946713436395 -0.10020142793655396 0.1748020499944687 0.05917072668671608 0.036526698619127274 -0.017832642421126366 -0.061124254018068314 
-0.03940778225660324 -0.01506273914128542 -0.0150954844430089 0.06380623579025269 0.057938382029533386 -0.06758343428373337 0.031138695776462555 0.021476296707987785 0.08107848465442657 
0.01867235079407692 -0.04259375110268593 -0.05773167684674263 0.007480218540877104 0.01376598235219717 0.044325802475214005 0.05793696641921997 -0.05570830777287483 0.040409382432699203 
0.0052727931179106236 0.008605845272541046 -0.009809454903006554 0.0030508709605783224 -0.04336421191692352 0.03549296781420708 0.0707559883594513 0.016015024855732918 -0.03552323952317238 
-0.07547885924577713 0.034726761281490326 0.007452225312590599 -0.022068096324801445 0.058010488748550415 -0.028548847883939743 -0.01527593657374382 -0.034557558596134186 -0.04307376220822334 
-0.10607417672872543 0.05217556282877922 -0.051439378410577774 0.032790590077638626 0.0238830354064703 -0.01417994312942028 0.017768030986189842 0.015655677765607834 -0.006780262105166912 
-0.09085942059755325 0.010991142131388187 0.07596233487129211 -0.08120138943195343 0.07220810651779175 0.04079166427254677 0.03232865780591965 -0.04516581445932388 0.15671758353710175 
0.028691178187727928 0.00388992833904922 0.01633516140282154 -0.01268798764795065 0.013162804767489433 0.005274971481412649 0.054115429520606995 -0.03803444281220436 0.019811730831861496 
-0.02010914869606495 -0.05979737266898155 0.039592187851667404 0.034742794930934906 0.030417857691645622 0.013606440275907516 -0.026969965547323227 0.061451543122529984 -0.0752260759472847 
-0.1625732034444809 0.012561296112835407 -0.028589509427547455 0.040428098291158676 0.03169336915016174 -0.032542645931243896 0.031195851042866707 0.026069622486829758 0.028700262308120728 
-0.11148145794868469 0.006191672291606665 0.0377998910844326 0.022825084626674652 0.019917380064725876 -0.03830704838037491 -0.005913804285228252 -0.08400816470384598 -0.016265178099274635 
0.04629582539200783 0.013928133994340897 -0.06627585738897324 0.06664595007896423 0.004971934482455254 -0.049794018268585205 0.04598624259233475 -0.0057807015255093575 0.03114471212029457 
0.061027638614177704 -0.007618013769388199 -0.027563437819480896 -0.030809544026851654 0.004636489320546389 0.06083297356963158 0.0003149750118609518 0.0011320861522108316 -0.02373192086815834 
-0.03429272770881653 0.04748385772109032 -0.028541620820760727 0.02428318001329899 -0.04942528158426285 -0.01809530146420002 0.02393312007188797 -0.020444171503186226 -0.03254732862114906 
-0.07315777242183685 0.032446037977933884 -0.018999045714735985 0.0019317024853080511 0.045139461755752563 -0.029812350869178772 0.03353051096200943 0.03359169512987137 0.04728212580084801 
0.07207316160202026 0.019931655377149582 -0.09313494712114334 0.10207499563694 -0.05001584440469742 -0.052743956446647644 -0.020968466997146606 -0.05488743633031845 0.08133416622877121 
-0.03368788957595825 0.025211188942193985 0.006693156901746988 0.034489359706640244 0.07505336403846741 -0.021369853988289833 0.046631451696157455 -0.04438257962465286 -0.02835174649953842 
0.010391401126980782 -0.07806743681430817 -0.03593859449028969 0.020777376368641853 0.059009358286857605 -0.03950594738125801 0.007444700226187706 -0.03873718902468681 -0.03399941325187683 
0.011609389446675777 -0.010986760258674622 -0.06121407821774483 0.050383832305669785 0.03185691684484482 -0.04923565685749054 0.0550304614007473 -0.0770651251077652 -0.008173658512532711 
0.0208918247371912 -0.052145861089229584 -0.029399177059531212 0.03751227259635925 -0.06555923074483871 0.015815120190382004 -0.06880395114421844 0.020462512969970703 0.023274049162864685 
0.10557376593351364 -0.1537589281797409 0.03643962740898132 -0.18651418387889862 0.045883964747190475 0.16041839122772217 0.014684049412608147 0.07307268679141998 -0.04799050837755203 
0.0370372012257576 0.042294397950172424 0.026490485295653343 -0.012815561145544052 -0.031246859580278397 0.01322939246892929 0.010941635817289352 0.056216973811388016 -0.016557198017835617 
-0.0217603649944067 -0.041076235473155975 -0.04306098073720932 0.060163822025060654 0.002795899286866188 0.007858648896217346 -0.07372225821018219 0.007596244104206562 0.05082372948527336 
-0.03130301833152771 0.055240556597709656 0.0035940001253038645 0.012900917790830135 0.04142482206225395 -0.03829922527074814 -0.025563647970557213 0.021728381514549255 0.04759347066283226 
0.04426806420087814 0.021036330610513687 0.019033627584576607 -0.00723177008330822 0.030990146100521088 -0.06771904230117798 0.043355900794267654 -0.144688680768013 -0.05327463895082474 
-0.16040699183940887 0.05061693489551544 0.09510286897420883 0.03035057708621025 0.14607851207256317 0.03686443716287613 -0.049368783831596375 -0.06853152811527252 -0.004782463423907757 
0.05823102965950966 0.06099311634898186 -0.04161614924669266 0.06924643367528915 -0.028274646028876305 0.015547428280115128 -0.024388402700424194 0.03911014273762703 -0.0195266455411911 
-0.06361126899719238 0.015350252389907837 -0.021361323073506355 -0.03321143612265587 0.04582163318991661 0.06018083915114403 0.041001275181770325 -0.01945982687175274 -0.07673299312591553 
0.10056354850530624 -0.06348053365945816 0.018590521067380905 -0.0242687426507473 0.026037409901618958 0.06459701806306839 0.06327693909406662 -0.06900443136692047 0.03239999711513519 
0.01624186895787716 0.036912597715854645 -0.02997129037976265 0.006840060465037823 0.07133584469556808 0.015365807339549065 -0.014171061106026173 -0.03247745335102081 0.027469083666801453 
0.06300041079521179 0.09845662862062454 0.1971922367811203 -0.00010550666775088757 -0.0030210439581424 -0.10536036640405655 0.005291418172419071 0.13477419316768646 -0.012643895111978054 
0.06679334491491318 0.06970870494842529 -0.04000890627503395 -0.052058953791856766 -0.09761882573366165 0.06802108138799667 0.0061289663426578045 -0.019445015117526054 -0.0341489352285862 
0.08104243129491806 0.07255136966705322 -0.10521914809942245 -0.0434427447617054 0.025917958468198776 0.027459748089313507 -0.03512020781636238 0.004159125499427319 -0.021551931276917458 
-0.01372484490275383 0.054339878261089325 0.16617392003536224 -0.1660604327917099 -0.13701824843883514 -0.012968613766133785 0.10544908791780472 0.06071449816226959 0.012077627703547478 
-0.053888533264398575 -0.037042539566755295 0.008528727106750011 -0.04547838866710663 0.0036575966514647007 -0.09190525114536285 -0.05094122514128685 -0.05493189021945 0.035440657287836075 
-0.013839507475495338 0.03939209133386612 0.05267855525016785 0.054215505719184875 -0.009052649140357971 -0.09251560270786285 -0.06252630800008774 -0.05932149663567543 0.034908000379800797 
-0.08828267455101013 0.1096227765083313 0.06779015809297562 0.037302639335393906 0.01735166646540165 -0.05146338790655136 0.02588885836303234 0.02795160748064518 0.04838476702570915 
-0.028030700981616974 -0.07913586497306824 -0.06104741618037224 0.04157356545329094 -0.011732757091522217 0.030266111716628075 -0.12018191814422607 -0.10616189241409302 -0.011670658364892006 
-0.0370299406349659 -0.050771988928318024 -0.08677999675273895 -0.08624447137117386 0.045911893248558044 0.05796355754137039 0.040889251977205276 -0.022872693836688995 0.05199919268488884 
-0.17673520743846893 -0.13715995848178864 -0.16876117885112762 -0.04293450713157654 0.17111800611019135 -0.15865570306777954 -0.050283193588256836 -0.14092884957790375 0.05589373782277107 
0.07025706022977829 -0.0771811231970787 -0.04072541743516922 -0.1175602376461029 -0.0763641744852066 -0.06678859144449234 0.08188612014055252 -0.024710258468985558 -0.03276883810758591 
0.022728541865944862 -0.0009592454880475998 -0.05001366138458252 -0.07060293108224869 -0.03238067403435707 0.0601208470761776 0.03139100968837738 -0.01665705256164074 0.02486386150121689 
-0.047058459371328354 0.0032528876326978207 -0.04581132531166077 -0.04737222567200661 -0.0015831179916858673 -0.02686128579080105 0.03364044800400734 -0.02914278954267502 0.008839367888867855 
0.03707880899310112 -0.017585160210728645 0.08226002752780914 -0.005753506440669298 0.002605834975838661 -0.06793083250522614 -0.007666012737900019 -0.026784131303429604 0.018555376678705215 
0.016613712534308434 0.05307637155056 -0.014086687937378883 0.026251384988427162 0.016391977667808533 0.14317414164543152 0.06212795898318291 0.004500466864556074 -0.10776763409376144 
0.04079876095056534 0.052822474390268326 0.00036809133598580956 0.012990467250347137 0.05599815025925636 0.03894956782460213 -0.015687523409724236 -0.03258344903588295 -0.04460913687944412 
-0.0479445718228817 0.003461790969595313 0.03613337129354477 0.07307004928588867 0.03497081622481346 -0.0038166202139109373 0.008304687216877937 0.017486808821558952 0.08113979548215866 
-0.05585244297981262 -0.04991793632507324 -0.0014650087105110288 -0.010762193240225315 0.15054890513420105 0.09819744527339935 -0.08927775174379349 -0.02912238799035549 -0.07085300236940384 
0.010863173753023148 -0.009222380816936493 -0.05381548032164574 -0.16425077617168427 -0.06847447156906128 0.026242127642035484 0.06428371369838715 0.004904282744973898 -0.05546855926513672 
-0.025650328025221825 -0.05634019151329994 -0.000524088682141155 0.024943126365542412 0.0031652709003537893 0.043341346085071564 -0.027966970577836037 -0.02076277695596218 0.012915955856442451 
0.01820676214993 0.056079622358083725 0.03844090923666954 0.014806913211941719 0.021627552807331085 0.011226383037865162 -0.027526788413524628 -0.024507666006684303 0.03863567113876343 
-0.06476243585348129 -0.028325503692030907 0.03761354088783264 0.021114831790328026 0.06929551810026169 -0.0006519953021779656 -0.027505740523338318 0.007270397152751684 0.009595721960067749 
0.022137217223644257 -0.00022283346334006637 0.02991328574717045 0.06366357952356339 0.06665165722370148 -0.07061327993869781 0.0431857593357563 -0.04126283898949623 -0.030567213892936707 
-0.0340370237827301 -0.010691657662391663 -0.059615783393383026 -0.08575481921434402 0.05712509900331497 -0.054387036710977554 -0.03367878869175911 -0.021404990926384926 0.04919464886188507 
0.012822997756302357 -0.05747802183032036 0.042980555444955826 0.01364475954324007 -0.057905394583940506 -0.016963768750429153 -0.053952738642692566 0.06740519404411316 0.04634148254990578 
-0.03558507189154625 0.004500678740441799 -0.022783132269978523 0.06213904172182083 0.004317522048950195 -0.02790134958922863 -0.07052844017744064 0.024592699483036995 0.060250818729400635 
-0.0491725355386734 -0.05223971977829933 -0.001188434660434723 -0.066625215113163 -0.0008279963512904942 -0.040804315358400345 0.03253745660185814 0.02902170456945896 -0.04049043729901314 
0.02608882077038288 0.04700431227684021 0.03937846049666405 -0.024223053827881813 -0.015983501449227333 0.08472665399312973 -0.061426371335983276 0.046286895871162415 -0.050847332924604416 
-0.05529302358627319 0.03384125232696533 0.05418495088815689 -0.0193061213940382 0.02169441059231758 0.04384886100888252 0.01634293980896473 -0.05703005939722061 -0.04720484837889671 
-0.012713814154267311 0.004135961178690195 -0.056978821754455566 0.060209009796381 -0.009981351904571056 -0.020996954292058945 0.0064390613697469234 -0.0009594987495802343 0.04688894376158714 
-0.046799883246421814 -0.004174548201262951 -0.0152056273072958 0.06316977739334106 0.06432821601629257 -0.01664193719625473 0.012498185969889164 0.05956888571381569 -0.02894456870853901 
-0.029138142243027687 -0.03150063008069992 0.05071292817592621 0.042808301746845245 -0.04588133841753006 0.05974341928958893 -0.0067362175323069096 0.021678674966096878 -0.019164063036441803 
0.05151708424091339 0.06618759781122208 -0.011041984893381596 0.04643334075808525 -0.05824064463376999 -0.044199470430612564 -0.05217733606696129 0.04510682448744774 0.023466307669878006 
-0.04413166269659996 -0.04450981318950653 -0.13875675201416016 0.027616288512945175 0.1081586480140686 0.06265488266944885 0.010176151059567928 -0.046316929161548615 0.006654317956417799 
-0.023457087576389313 0.0590733140707016 -0.004645619075745344 0.05473009869456291 -0.037360209971666336 -0.028600824996829033 -0.010629039257764816 0.04135170578956604 -0.07250627875328064 
-2.8174815724923974e-06 0.0015735201304778457 0.018798651173710823 -0.007171970792114735 0.03206446021795273 -0.018822668120265007 0.0032605065498501062 0.01572662964463234 -0.06477035582065582 
-0.02358267642557621 0.039778027683496475 -0.06707227975130081 0.06051446497440338 -0.04233980178833008 0.0119486004114151 -0.005918069276958704 0.05863497406244278 0.01984560489654541 
0.03632253035902977 -0.03249621018767357 -0.0407160222530365 0.011150209233164787 -0.030531177297234535 -0.04318566620349884 -0.044984377920627594 -0.04433372616767883 -0.021398143842816353 
0.02864377573132515 -0.03612591326236725 0.04729485139250755 -0.040994368493556976 0.06339950114488602 -0.014276977628469467 0.07085642963647842 -0.012188331224024296 0.05896451324224472 
-0.020439188927412033 0.05588517338037491 -0.04302798956632614 0.016435299068689346 0.0007242202991619706 -0.00640067458152771 0.05209130048751831 0.027297580614686012 -0.04856019467115402 
0.049480460584163666 0.0549066960811615 0.05029379203915596 -0.05190620571374893 0.044214677065610886 0.03204124793410301 -0.05436549708247185 -0.05568326264619827 0.007234935183078051 
0.04251465946435928 -0.047669000923633575 0.042803436517715454 -0.057566989213228226 -0.0047548250295221806 -0.039236899465322495 -0.051332004368305206 -0.05693671479821205 -0.053429752588272095 
-0.01611987315118313 -0.00020459428196772933 -0.056742530316114426 0.05205637589097023 -0.04323684424161911 0.027403447777032852 -0.10393937677145004 0.032953210175037384 0.011404959484934807 
0.030175749212503433 -0.028236879035830498 0.004418389871716499 0.06977757811546326 0.026372503489255905 0.022565316408872604 0.00803999975323677 0.08084142208099365 0.02467871457338333 
0.04899097979068756 0.030491407960653305 -0.03031245432794094 -0.01119854673743248 -0.025129204615950584 -0.017450064420700073 -0.030151482671499252 -0.030568072572350502 -0.07554502040147781 
-0.027290580794215202 0.0573541633784771 0.04233284667134285 -0.041467081755399704 0.046756867319345474 0.019176043570041656 0.036257702857255936 -0.04804422706365585 -0.003527709050104022 
-0.0035530347377061844 0.0018757543293759227 0.021894296631217003 0.00044878816697746515 -0.05181249603629112 0.004519553855061531 -0.06818326562643051 -0.0544767901301384 0.02851027250289917 
0.06425053626298904 -0.03338039293885231 0.01233071368187666 -0.040250014513731 -0.04805485159158707 0.008340778760612011 -0.029578564688563347 -0.028096575289964676 -0.03216768801212311 
-0.049133483320474625 0.05851928889751434 0.029375171288847923 0.03552522137761116 -0.08480220288038254 -0.02001640386879444 -0.00906666275113821 -0.047276679426431656 -0.1264173686504364 
-0.028390798717737198 0.06395693868398666 -0.08643069118261337 0.010274539701640606 0.06124283745884895 -0.04580044001340866 -0.06543464213609695 0.027941295877099037 -0.013612501323223114 
0.03984762728214264 0.05005956441164017 -0.018679125234484673 0.02938888967037201 0.021572766825556755 0.06697241961956024 -0.0471871979534626 -0.033895399421453476 -0.0500677265226841 
0.009117751382291317 -0.023133890703320503 0.026122841984033585 -0.006661519408226013 -0.008315300568938255 0.06548145413398743 0.044102225452661514 -0.0386202298104763 0.040025319904088974 
0.026574496179819107 0.042996808886528015 0.0540836937725544 0.023632492870092392 0.005357669200748205 -0.06007034704089165 0.017266474664211273 -0.006040743086487055 0.048408057540655136 
-0.06298680603504181 0.06829468160867691 -0.05931561067700386 -0.06388919800519943 -0.05577349662780762 0.0033189458772540092 0.05913127586245537 0.046914003789424896 0.03366921842098236 
0.05362718179821968 0.016311611980199814 -0.006735437083989382 -0.0401177778840065 0.041567012667655945 -0.036281339824199677 0.03433965891599655 0.05269387364387512 0.03285946324467659 
-0.02936664968729019 -0.030762914568185806 0.02807696722447872 0.014489179477095604 0.051223479211330414 0.015994364395737648 0.009764802642166615 0.04607732594013214 -0.014642538502812386 
0.05819901451468468 -0.009233898483216763 0.003222706262022257 -0.0046937596052885056 0.01915450394153595 0.014456437900662422 0.061655934900045395 -0.05245550721883774 0.004319057799875736 
0.03590741381049156 -0.11753441393375397 0.07655739784240723 -2.4645702069392428e-05 0.008811641484498978 -0.01947743445634842 -0.11457480490207672 -0.003944823518395424 -0.0057890224270522594 
0.042956870049238205 -0.008581090718507767 -0.0417146272957325 -0.033611420542001724 -0.05665210261940956 0.056816160678863525 -0.011507896706461906 0.005637939088046551 0.03684749826788902 
-0.031079590320587158 -0.06277686357498169 -4.550253652269021e-05 -0.03122233971953392 0.03918292745947838 0.00120720942504704 -0.05666496977210045 -0.03179853409528732 0.0010537669295445085 
0.06617819517850876 -0.018561238422989845 0.03424166887998581 0.01949763484299183 -0.016246631741523743 0.06878116726875305 0.023350972682237625 0.055041227489709854 -0.015171434730291367 
-0.016943270340561867 0.06827040016651154 0.02253631502389908 0.038936469703912735 0.006956122349947691 -0.022315220907330513 -0.025775320827960968 0.04707186296582222 0.043862439692020416 
0.0153800705447793 -0.029828248545527458 -0.024727707728743553 0.03739522770047188 -0.07620181888341904 -0.05853930115699768 0.03431486710906029 -0.07501756399869919 -0.03417951986193657 
-0.07435483485460281 0.06649015098810196 0.003606655402109027 0.02732345275580883 0.046282269060611725 -0.05488834157586098 0.024551501497626305 0.005011541303247213 -0.0653780922293663 
0.004794008564203978 -0.035345952957868576 0.00526411971077323 -0.0018086136551573873 -0.013623683713376522 0.05407767742872238 -0.06237804517149925 0.018403304740786552 -0.04169069230556488 
0.03403947874903679 -0.031723830848932266 -0.054810404777526855 0.013720819726586342 -0.017888544127345085 0.006868977099657059 -0.03208906203508377 -0.07316890358924866 -0.0019171887543052435 
-0.04802876338362694 -0.015357843600213528 -0.08432936668395996 0.002490244572982192 -0.05311253294348717 0.032828282564878464 0.14320702850818634 0.036453187465667725 0.014126277528703213 
0.01703767664730549 0.0031983451917767525 0.028089256957173347 -0.008791814558207989 0.06695225834846497 -0.0006208223639987409 -0.024702163413167 0.0573405958712101 0.020717700943350792 
-0.022670479491353035 0.044271714985370636 0.04896827042102814 0.04632840305566788 -0.051362164318561554 -0.03294115141034126 0.05974634364247322 -0.034849490970373154 0.04459916055202484 
0.0033062382135540247 0.053764842450618744 -0.0449201725423336 -0.02485652081668377 0.023921389132738113 -0.004934884607791901 0.023097485303878784 -0.037770409137010574 -0.0006605125963687897 
-0.05473357439041138 -0.054392244666814804 -0.0565168522298336 0.008128596469759941 0.005130678880959749 -0.04212421551346779 0.02261251211166382 -0.03225371241569519 -0.06157456710934639 
0.028136273846030235 0.06894584000110626 0.02709866128861904 -0.05307988449931145 0.02513798698782921 0.01990978978574276 -0.015359017997980118 0.006890593562275171 0.02175757847726345 
0.06461068987846375 0.004244935233145952 0.009346339851617813 -0.0225600004196167 0.03381210193037987 0.0018024928867816925 -0.02702314779162407 -0.007631596177816391 0.0628947988152504 
0.06715071946382523 -0.04911496862769127 0.030917197465896606 0.07444800436496735 -0.04466349631547928 -0.006752262823283672 -0.05691973865032196 -0.05199635773897171 -0.06041315570473671 
-0.04399678483605385 0.035016659647226334 -0.036583978682756424 -0.007463504560291767 -0.0395776703953743 -0.04446874558925629 0.03513508662581444 -0.0657523050904274 0.007894139736890793 
0.009709492325782776 0.03565215319395065 -0.08269844204187393 0.001959079410880804 -0.06956373900175095 -0.06880871206521988 -0.028731852769851685 -0.023950574919581413 -0.04173861816525459 
0.01615982875227928 -0.02865409478545189 -0.056321971118450165 0.025646409019827843 0.05913560837507248 -0.023514917120337486 0.021135715767741203 0.0517137236893177 0.06395907700061798 
0.02591565065085888 0.02675989270210266 -0.006032605189830065 -0.01677352748811245 -0.010094796307384968 0.03747957944869995 0.02148500457406044 -0.012845136225223541 -0.011542940512299538 
-0.040214091539382935 -0.04407375678420067 -0.05133868008852005 0.03612324222922325 0.024345533922314644 0.052273597568273544 -0.018993154168128967 -0.06112078204751015 0.008979447185993195 
-0.05275081843137741 -0.03108462132513523 0.05308502912521362 0.038529448211193085 0.022080618888139725 -0.06094294786453247 -0.02139907516539097 0.02086556889116764 -0.06211164966225624 
-0.029451999813318253 0.005214523524045944 -0.0019287943141534925 0.021348919719457626 0.029061302542686462 -0.0019314683740958571 0.06759469956159592 -0.04337576404213905 0.03418347239494324 
0.0062154363840818405 0.01793913170695305 0.0334235318005085 -0.07412907481193542 -0.023300444707274437 -0.05211716517806053 0.04782368242740631 -0.007779182866215706 0.02533476985991001 
0.0031706171575933695 0.051170527935028076 0.03410223126411438 0.040202293545007706 0.004114388022571802 0.04158106818795204 -0.01171655673533678 -0.001008152379654348 0.05079900473356247 
-0.0015181767521426082 0.03082025982439518 -0.03660710155963898 -0.01634080894291401 0.02921171486377716 -0.02361142449080944 0.05352814868092537 0.051973164081573486 -0.04951626434922218 
0.04685502499341965 0.006631099618971348 0.0555323027074337 -0.014184283092617989 0.05429540574550629 0.0037071872502565384 -0.016349662095308304 0.06902561336755753 0.06440024822950363 
-0.06962817162275314 0.05507005751132965 -0.04228821024298668 -0.0693279504776001 -0.0044073318131268024 0.03093865141272545 -0.06781485676765442 0.0490010529756546 0.0274250078946352 
-0.060007207095623016 -0.05306299403309822 0.05414567515254021 -0.05011586844921112 0.007380220107734203 0.030537843704223633 -0.03786485269665718 -0.03706054389476776 -0.04139944911003113 
0.06543327122926712 -0.006948145106434822 -0.05267931893467903 -0.009580465964972973 -0.012388472445309162 -0.0261235274374485 -0.0003355292428750545 0.004816439468413591 -0.062202513217926025 
-0.016304684802889824 -0.02032923884689808 -0.00725855166092515 0.04569880664348602 0.05600529909133911 -0.02924823760986328 0.029030120000243187 -0.003617603797465563 0.008921629749238491 
-0.05414988100528717 -0.03073730878531933 -0.05325922742486 -0.003420871216803789 -0.019687671214342117 -0.03679341822862625 0.05323753505945206 0.003923647105693817 -0.051256902515888214 
0.03952081501483917 -0.09381011873483658 -0.09907887876033783 -0.005223965272307396 -0.1282568871974945 0.03982066735625267 -0.01538872066885233 -0.009074068628251553 0.09643596410751343 
-0.019968649372458458 0.029422851279377937 0.06927979737520218 0.046972405165433884 0.0677042305469513 0.014495479874312878 -0.0013133209431543946 -0.028796331956982613 0.053856827318668365 
0.04883766546845436 0.008661534637212753 0.04411083087325096 -0.0041164830327034 0.03370560333132744 -0.027523156255483627 0.05529400333762169 -0.026198191568255424 0.04658724367618561 
-0.004866463597863913 -0.022659888491034508 0.06310665607452393 -0.0001273417437914759 -0.0376112125813961 0.002459159819409251 0.028010549023747444 -0.03537226840853691 0.04776208847761154 
-0.020448194816708565 0.020926933735609055 0.0612080879509449 0.01202122587710619 0.03684091567993164 -0.02326561138033867 -0.03202000632882118 -0.03431950509548187 0.05567772686481476 
0.0036924940068274736 -0.06726391613483429 -0.012398630380630493 0.0022294865921139717 0.06547597050666809 -0.017527751624584198 -0.06966196745634079 0.014182359911501408 0.055129293352365494 
-0.06683695316314697 -0.0008098524413071573 0.013756546191871166 0.06605934351682663 0.00894283875823021 -0.08103837817907333 -0.0009291749447584152 0.06782791018486023 0.11338239908218384 
0.07094760984182358 -0.014116394333541393 -0.027576269581913948 -0.023840541020035744 -0.04788745939731598 0.019501343369483948 0.07592153549194336 0.0696413516998291 -0.02964581921696663 
-0.04706514626741409 0.05872521921992302 0.023829670622944832 0.027503864839673042 0.03170005604624748 0.04009634256362915 -0.0026298135053366423 0.030633926391601562 -0.025778580456972122 
-0.02563568204641342 -0.03846370056271553 0.024572933092713356 0.048937831073999405 0.050088100135326385 0.045534897595644 -0.07070419937372208 -0.011445021256804466 0.049460891634225845 
0.03448903560638428 -0.011567629873752594 0.024830300360918045 -0.004566737450659275 0.011721033602952957 0.03311719745397568 0.05458224564790726 0.01709427870810032 -0.06826699525117874 
-0.013097105547785759 0.0204278863966465 0.00847557932138443 0.03450671210885048 0.04863587021827698 0.04578758403658867 0.01746993139386177 -0.0745341032743454 -0.030803777277469635 
-0.021565793082118034 -0.04130534455180168 0.002411671681329608 0.03328557312488556 -0.04611821845173836 0.007049626670777798 -0.03200298920273781 -0.02752634882926941 0.06706596910953522 
-0.04900060221552849 -0.03133523464202881 0.0006090420065447688 -0.054038964211940765 0.022107310593128204 0.03332214057445526 0.04940750449895859 -0.035297609865665436 0.018654173240065575 
0.016772432252764702 -0.06346473842859268 0.0576009564101696 0.057600799947977066 0.057481274008750916 0.03391607105731964 -0.03804938495159149 -0.043777354061603546 -0.02704196237027645 
0.0019586458802223206 -0.046236660331487656 -0.07763618975877762 -0.00615329947322607 -0.012946932576596737 -0.056526221334934235 0.07967359572649002 0.11091852933168411 0.10242912918329239 
-0.02970019541680813 -0.04179297387599945 -0.02956452965736389 -0.0025466466322541237 0.06677798181772232 -0.013512478210031986 -0.08013404905796051 -0.013471749611198902 -0.042249154299497604 
0.03475994989275932 0.0023445524275302887 -0.02585359662771225 -0.06072315573692322 -0.014072524383664131 0.019802024587988853 -0.028544651344418526 0.01092942152172327 0.00900825671851635 
-0.06691194325685501 0.024791041389107704 -0.04123113304376602 -0.05583733692765236 0.038452789187431335 -0.03819344565272331 -0.04084915295243263 -0.02715199813246727 0.019950322806835175 
-0.03766874596476555 -0.020021069794893265 -0.04569217935204506 -0.032398633658885956 -0.05107704550027847 0.036681272089481354 -0.0507364347577095 0.05500056967139244 0.01923694834113121 
-0.04100034013390541 -0.020414620637893677 -0.011696632951498032 -0.0465814471244812 -0.02550130896270275 0.010915277525782585 -0.014269283972680569 -0.007431095000356436 0.008022971451282501 
0.06333338469266891 -0.041099440306425095 -0.042445551604032516 0.034086212515830994 -0.0031169650610536337 -0.019362473860383034 -0.037523262202739716 0.07539474964141846 -0.004920077510178089 
0.03274153545498848 0.01687074825167656 0.010399296879768372 -0.03336626663804054 0.008320123888552189 -0.018739530816674232 -0.04990041255950928 0.019998669624328613 0.013007784262299538 
-0.01975506916642189 0.02752229943871498 0.04948028177022934 0.04174341633915901 -0.03241829574108124 -0.026686929166316986 -0.042398374527692795 -0.05723109468817711 0.019879182800650597 
0.021365473046898842 0.01810077764093876 -0.01977241225540638 -0.004528643563389778 -0.03706289455294609 -9.484804468229413e-05 -0.04729107767343521 -0.05334514379501343 0.003804609412327409 
0.06183942034840584 0.038217492401599884 -0.042063068598508835 0.0019282653229311109 0.012597003020346165 -0.020428406074643135 -0.059266213327646255 0.003878897288814187 -0.050952255725860596 
-0.016622524708509445 0.03906583786010742 0.03273794800043106 0.03680407255887985 0.040414437651634216 0.0400625504553318 0.040517788380384445 0.039147958159446716 -0.03573601692914963 
0.031090745702385902 0.028703583404421806 0.0318438857793808 -0.03367195278406143 -0.013144133612513542 0.05016080290079117 0.05076373368501663 0.020094577223062515 -0.014221223071217537 
-0.018726740032434464 -0.033268917351961136 0.05245865508913994 0.007205870933830738 -0.04881549999117851 -0.015713799744844437 -0.018743334338068962 0.03438347205519676 0.03766540437936783 
-0.020299114286899567 -0.0571804940700531 0.021988919004797935 -0.06189366430044174 -0.027109038084745407 0.0008785984828136861 0.02676902897655964 0.006009720731526613 0.03581235930323601 
-0.02567589469254017 -0.00917381513863802 0.06917224079370499 0.0003149182884953916 -0.0036275305319577456 0.08613825589418411 0.005813341122120619 0.06477297842502594 -0.028983427211642265 
-0.05775821954011917 -0.03658505529165268 -0.020677533000707626 0.014631747268140316 0.0679718628525734 0.05927222967147827 -0.007448491174727678 -0.032096829265356064 0.03718724846839905 
0.005120784975588322 -0.02510453201830387 -0.04847755655646324 0.054778195917606354 0.004036375787109137 0.023459933698177338 0.018728457391262054 0.046979643404483795 0.009833679534494877 
0.01908278651535511 0.04135540500283241 0.03693419322371483 -0.05359711870551109 0.03731803968548775 -0.02367805503308773 0.01495364960283041 0.029187817126512527 -0.014230458065867424 
0.0439893864095211 -0.039558157324790955 0.07678935676813126 0.06691344827413559 0.03626947104930878 0.014152400195598602 -0.01494251936674118 0.020577069371938705 0.04862728714942932 
-0.044135160744190216 -0.0361236110329628 -0.06640899926424026 -0.06856683641672134 0.04111425206065178 -0.008764287456870079 0.045524101704359055 -0.03449063375592232 0.011696026660501957 
0.06400390714406967 -0.01739266701042652 -0.03345156088471413 -0.027994759380817413 -0.00021048290363978595 -0.01730257086455822 0.03343174234032631 -0.06016241014003754 -0.010875048115849495 
0.06523460149765015 -0.027822989970445633 0.022476952522993088 0.01540099922567606 -0.013231009244918823 -0.02342703752219677 -0.012804998084902763 -0.020305557176470757 -0.07417527586221695 
0.030453957617282867 -0.05338815972208977 0.06840959191322327 -0.03592497855424881 -0.008214839734137058 -0.040197450667619705 0.049565497785806656 -0.010438422672450542 -0.022230718284845352 
-0.05917438492178917 -0.07736153155565262 0.014543059282004833 0.0391228049993515 -0.00244954158551991 0.05509262531995773 0.009114798158407211 -0.027186311781406403 -0.005759721621870995 
-0.041084229946136475 0.033715974539518356 0.04429297521710396 0.04496023803949356 -0.047701701521873474 0.009921219199895859 0.001377559150569141 -0.06366222351789474 -0.05323955416679382 
0.008101881481707096 0.01912582851946354 -0.01652062125504017 -0.020148050040006638 0.06642360985279083 -0.0430729053914547 -0.06098073348402977 -0.0476054847240448 0.05180025473237038 
-0.05522814020514488 0.04632926732301712 0.006821722257882357 -0.05663154646754265 0.07503658533096313 0.009475764818489552 0.06943021714687347 0.0657850131392479 0.019805459305644035 
-0.0699479728937149 -0.02599223516881466 -0.043926678597927094 -0.036999739706516266 0.0128850769251585 0.007995547726750374 -0.040619462728500366 -0.028614019975066185 0.003958165179938078 
-0.05404936149716377 0.06713496148586273 0.060308534651994705 0.005980488378554583 0.028591500595211983 -0.01956523209810257 -0.024258757010102272 -0.008068195544183254 0.02913818508386612 
0.011062832549214363 0.0501977764070034 0.035088974982500076 0.06269966065883636 -0.035878319293260574 -0.0242820605635643 -0.0052871801890432835 -0.017529454082250595 0.012267885729670525 
-0.032767973840236664 -0.08452149480581284 -0.006888153031468391 0.009778451174497604 -0.014451862312853336 0.03681568428874016 0.04434600844979286 0.015766363590955734 -0.010776299983263016 
0.0078821312636137 0.025956640020012856 0.051585450768470764 0.04751872271299362 -0.032602593302726746 -0.06113015487790108 -0.025854572653770447 0.03954225033521652 0.029179394245147705 
0.027600865811109543 -0.034212544560432434 -0.024537324905395508 0.0607636533677578 -0.024570010602474213 0.06776897609233856 0.019040266051888466 0.03865645080804825 0.007390143349766731 
-0.01643434539437294 0.0016419062158092856 0.025822360068559647 -0.041626863181591034 -0.06980473548173904 -0.023368479683995247 -0.017582949250936508 0.05396077036857605 0.03646188601851463 
-0.053011104464530945 -0.057819072157144547 0.05764627084136009 -0.038985725492239 0.027573972940444946 -0.010743006132543087 -0.019542397931218147 0.012064533308148384 0.015723109245300293 
-0.03576764091849327 0.012230382300913334 0.02980739250779152 0.06000291183590889 -0.05541902780532837 -0.02362801693379879 0.00874017458409071 -0.022607719525694847 -0.03444581851363182 
-0.005391276907175779 0.0038931502494961023 0.01304740272462368 -0.04383141174912453 -0.04115480184555054 -0.008354428224265575 -0.02688763104379177 0.0656042993068695 0.009079696610569954 
0.04098194092512131 0.04318222403526306 0.019770760089159012 0.020288320258259773 -2.1330633899196982e-05 -0.01518076192587614 -0.03317447751760483 0.06402812153100967 -0.06157367303967476 
-0.023438194766640663 0.03173729032278061 -0.0139184994623065 -0.003089997684583068 -0.0004885799717158079 0.014053618535399437 -0.10823851823806763 0.02989356964826584 -0.06906779855489731 
-0.07002248615026474 -0.03448349982500076 -0.048561036586761475 -0.023891707882285118 0.05000545457005501 -0.02010183036327362 -0.007885657250881195 -0.02874346822500229 0.01065603643655777 
0.03025823086500168 0.02239052951335907 -0.015288095921278 -0.07793034613132477 0.04608563706278801 -0.026544468477368355 0.06814752519130707 0.002726008417084813 -0.009819818660616875 
-0.08649764955043793 -0.009876294992864132 -0.07475250214338303 0.05977816507220268 -0.055944088846445084 -0.013438951224088669 -0.007015596609562635 0.05478442832827568 0.03764363005757332 
0.030912762507796288 -0.043854061514139175 -0.051017675548791885 -0.0037521643098443747 0.011332856491208076 0.0366816446185112 -0.0013094457099214196 -0.06190074235200882 -0.011399646289646626 
-0.04537084698677063 -0.0033459030091762543 0.015307808294892311 -0.0001284554455196485 -0.0441986620426178 0.033439766615629196 -0.01654820702970028 -0.057336267083883286 0.06324346363544464 
0.004568067844957113 0.029795754700899124 0.021320367231965065 -0.05960335582494736 -0.03651776909828186 0.0033821614924818277 0.06765284389257431 -0.018445955589413643 -0.046623602509498596 
-0.006095735356211662 0.0639825090765953 0.05124431103467941 -0.027907131239771843 -5.0035327149089426e-05 0.054215993732213974 0.01895354501903057 -0.02093874104321003 -0.055108342319726944 
0.04726678505539894 -0.04909452795982361 -0.05048257112503052 -0.024442438036203384 0.008258851245045662 0.04878245294094086 -0.02907206490635872 0.04615003243088722 0.005232188850641251 
0.0760623887181282 -0.10929476469755173 -0.02428901568055153 0.03314143419265747 0.032262545078992844 0.08555642515420914 -0.06676096469163895 0.022218110039830208 -0.0024031768552958965 
0.05381488800048828 -0.06683574616909027 0.011220007203519344 0.027180621400475502 -0.006557198241353035 0.009473813697695732 -0.040401216596364975 -0.06212926656007767 -0.049911487847566605 
0.043417081236839294 -0.03596186637878418 0.02220425195991993 -0.007861454039812088 -0.025836173444986343 0.022052805870771408 -0.025739887729287148 -0.06057979166507721 -0.05312599241733551 
0.02509704791009426 0.03644612804055214 0.01598670333623886 0.022347399964928627 0.04077771678566933 -0.0656241774559021 -0.04989578202366829 -0.02915104478597641 0.07560978084802628 
0.030137622728943825 -0.015363339334726334 -0.047066785395145416 0.0010144291445612907 -0.06501743197441101 0.0017452165484428406 -0.03399417921900749 0.06558382511138916 0.05539673939347267 
-0.0814221128821373 0.027895113453269005 -0.04263165965676308 0.05440967530012131 0.06715556234121323 -0.08156965672969818 -0.03273714706301689 -0.06577494740486145 -0.06317589432001114 
0.0671541690826416 -0.05288028344511986 -0.009986969642341137 0.028950916603207588 -0.04520319029688835 -0.05902162566781044 0.047087907791137695 -0.05685705319046974 0.004800993949174881 
-0.06010778248310089 -0.057935930788517 -0.03911950811743736 0.0015969619853422046 0.018476277589797974 0.031441766768693924 0.03442264348268509 -0.038199491798877716 -0.017660226672887802 
-0.03287465125322342 0.058307189494371414 -0.030419692397117615 -0.004951204638928175 0.032413043081760406 0.018642857670783997 0.038914356380701065 0.04565511271357536 0.05243281275033951 
0.02849561534821987 -0.032798007130622864 -0.0044664484448730946 -0.015496667474508286 0.02546927146613598 -0.05060765892267227 -0.03241591528058052 0.0638849213719368 -0.052717264741659164 
-0.057709913700819016 0.018467767164111137 -0.051895637065172195 0.0010319037828594446 0.07640008628368378 -0.07990974187850952 -0.023913906887173653 0.030107559636235237 -0.04769312962889671 
-0.06986767798662186 -0.0455537848174572 0.05225766822695732 -0.04260037839412689 0.0326557531952858 0.03391173854470253 0.006341904867440462 -0.01376593392342329 -0.024345912039279938 
-0.017309444025158882 -0.10526509582996368 0.013353334739804268 0.0005248887464404106 -0.01490042544901371 0.07346280664205551 0.00893407128751278 -0.05876116827130318 -0.010148651897907257 
-0.04699515551328659 -0.01452573947608471 0.000838110689073801 0.04853665083646774 0.008633243851363659 -0.013704893179237843 -0.06476020067930222 -0.013390591368079185 0.06131337955594063 
0.020598074421286583 0.03144058212637901 0.015964681282639503 -0.029378823935985565 -0.014404264278709888 0.023284848779439926 0.007530989591032267 0.0017695805290713906 0.04543479532003403 
0.09325587749481201 0.004309996031224728 0.057008299976587296 0.01144895888864994 -0.06784019619226456 0.05166053771972656 0.02653847262263298 0.058361299335956573 0.12154917418956757 
0.057578977197408676 -0.08082316070795059 -0.011651012115180492 0.018865343183279037 0.11821386963129044 0.07374145090579987 -0.024836532771587372 -0.05088156461715698 -0.007226257119327784 
-0.033076539635658264 0.051291968673467636 -0.03288544341921806 -0.042990945279598236 -0.05910591036081314 -0.02200663648545742 -0.0021858983673155308 0.07225589454174042 -0.005948612466454506 
-0.026411056518554688 -0.014105680398643017 0.10625845193862915 -0.03406248614192009 0.04315605387091637 -0.050192929804325104 0.04009433090686798 0.008476718328893185 0.0026184869930148125 
0.006034671328961849 -0.04306184500455856 0.07680027186870575 0.01840054802596569 0.06242235377430916 -0.019305534660816193 0.013229860924184322 -0.03721613809466362 -0.045430876314640045 
-0.07415980100631714 0.02855737879872322 0.07114553451538086 -0.015090691857039928 0.044531986117362976 0.017482422292232513 0.0013680235715582967 -0.06842730939388275 -0.03833162039518356 
-0.06110038980841637 0.04247531294822693 -0.08831813186407089 0.09225907921791077 -0.043123118579387665 0.04067205265164375 0.041240908205509186 -0.05092260614037514 0.04906564950942993 
0.006230365484952927 -0.06671684235334396 -0.008932728320360184 -0.0302426815032959 -0.035864949226379395 -0.02480844222009182 0.008562046103179455 0.004394832998514175 -0.0409383624792099 
-0.0719619020819664 0.03677228093147278 -0.0020232433453202248 -0.016130512580275536 0.018233342096209526 -0.0030233128927648067 0.004034889861941338 -0.028120489791035652 -0.07283566892147064 
-0.03370310738682747 -0.014389104209840298 -0.08243706822395325 -0.026001891121268272 0.07273821532726288 -0.11785371601581573 -0.051366738975048065 0.07271314412355423 0.060793280601501465 
-0.030803758651018143 0.022795535624027252 -0.05828149616718292 -0.01899990625679493 0.028678083792328835 0.06582747399806976 -0.05700882524251938 -0.06701068580150604 0.052924755960702896 
0.03839908167719841 -0.013672181405127048 -0.022175835445523262 -0.06402089446783066 0.002550748875364661 -0.03901517391204834 0.06096236780285835 0.06327187269926071 0.013983792625367641 
-0.03358910605311394 0.047158390283584595 -0.013033052906394005 0.018837865442037582 -0.04506714269518852 -0.03799257054924965 -0.0009169860277324915 0.0009403888252563775 -0.015243355184793472 
0.04917501285672188 -0.05898577347397804 -0.04160021245479584 -0.041042786091566086 0.048725392669439316 -0.01700967364013195 0.04670846089720726 0.02463364228606224 -0.019273512065410614 
-0.009952724911272526 -0.06553339958190918 -0.06083370000123978 0.0269674863666296 0.024217108264565468 0.13628076016902924 -0.016776513308286667 -0.03218168020248413 -0.04643068462610245 
-0.045855872333049774 0.029775889590382576 0.05841417983174324 -0.00763844046741724 -0.08031368255615234 -0.02880796790122986 0.052905868738889694 0.0031850370578467846 0.04386218264698982 
-0.030402950942516327 -0.045262616127729416 0.06193298101425171 0.0515608973801136 0.04454223811626434 0.04116511717438698 -0.05604647099971771 0.05333365127444267 -0.016334103420376778 
0.004392106086015701 -0.048047639429569244 0.056030526757240295 -0.07497429847717285 -0.0665539801120758 -0.005380664486438036 0.04506222903728485 0.009002581238746643 0.0715954378247261 
0.06661541759967804 -0.027727339416742325 -0.004042489919811487 -0.02407321333885193 0.0726718083024025 -0.1156003475189209 -0.017182255163788795 0.040803950279951096 -0.0794740542769432 
-0.03692729026079178 0.01028467621654272 -0.014096897095441818 -0.10044988989830017 -0.03231681138277054 0.03475828096270561 -0.034102946519851685 0.03928981348872185 -0.006112932693213224 
0.09077038615942001 -0.06720725446939468 -0.04470548406243324 0.06888127326965332 -0.04150782898068428 0.050265729427337646 -0.04389166459441185 0.019601428881287575 -0.09022903442382812 
0.0767822191119194 0.07317949831485748 -0.026014266535639763 -0.00646613584831357 -0.04011164978146553 -0.06004733964800835 -0.008686835877597332 0.01963037997484207 -0.019228029996156693 
0.012098420411348343 -0.003887951374053955 -0.00013884877262171358 0.00573490047827363 0.03325890377163887 0.022934317588806152 0.03144507855176926 -0.01696237549185753 0.08094169199466705 
0.03797971084713936 0.03508485481142998 -0.028542594984173775 -0.002298432867974043 -0.0018750326707959175 7.222818385343999e-05 -0.06307406723499298 -0.012135837227106094 0.019899945706129074 
0.05176948755979538 -0.10729974508285522 -0.18076299130916595 0.05862032622098923 0.013206424191594124 0.23845534026622772 0.029658645391464233 0.02129383012652397 -0.008969992399215698 
-0.0666513592004776 -0.026933303102850914 -0.09339158982038498 0.026049204170703888 -0.011461141519248486 0.021460305899381638 0.03426271304488182 -0.06889936327934265 0.005255291238427162 
0.032472915947437286 -0.03154268115758896 -0.051033955067396164 0.06865621358156204 0.0650884360074997 -0.00585540197789669 -0.032143719494342804 -0.001508480403572321 0.05944380909204483 
-0.03832882642745972 -0.009405047632753849 0.014710153453052044 -0.039159324020147324 0.07367502897977829 -0.021625444293022156 0.013103318400681019 0.05915996804833412 -0.010852748528122902 
0.04772001877427101 0.03318861126899719 0.09656734764575958 -0.07357960194349289 -0.02340920828282833 -0.12064877152442932 -0.14321854710578918 0.050478894263505936 -0.08679160475730896 
0.07317779213190079 0.0400206595659256 -0.014749220572412014 0.02916095219552517 0.031357891857624054 0.02710743248462677 -0.010099333710968494 -0.03900101035833359 -0.049801621586084366 
0.06307394802570343 -0.02857343479990959 -0.019464293494820595 0.02687290497124195 0.01781044341623783 0.0012024478055536747 0.03749270737171173 -0.048010967671871185 0.033351730555295944 
-0.02350614406168461 0.016991931945085526 -0.04111131653189659 -0.056861914694309235 -0.009767506271600723 -0.025670349597930908 -0.023553388193249702 -0.0349675714969635 0.04883631318807602 
-0.018825111910700798 0.0027675307355821133 -0.00781607162207365 -0.023525431752204895 0.021941374987363815 -0.07888025790452957 0.004556944128125906 0.035889215767383575 -0.022047625854611397 
0.013962936587631702 -0.16444247961044312 0.08567217737436295 -0.01816229708492756 0.02202373370528221 0.055291660130023956 -0.021404260769486427 0.04339070990681648 -0.012878856621682644 
-0.05448289215564728 -0.06412262469530106 -0.035762280225753784 0.03977249562740326 0.008203243836760521 -0.041082385927438736 -0.07764843106269836 -0.05587778240442276 -0.0032607598695904016 
-0.048197388648986816 -0.009232762269675732 -0.0009766083676367998 0.0020618459675461054 0.028548244386911392 0.05905355513095856 -0.05288407951593399 0.05331484228372574 0.029711075127124786 
-0.013442840427160263 -0.024837123230099678 0.0726228579878807 0.04522862657904625 0.057397857308387756 -0.020065832883119583 -0.07770897448062897 0.063072070479393 0.012652277015149593 
0.08515320718288422 -0.006692348048090935 -0.030529625713825226 0.021781673654913902 0.038306280970573425 -0.010042502544820309 0.03303959593176842 0.05854468792676926 0.039075326174497604 
-0.13501882553100586 -0.048372238874435425 -0.005770798306912184 0.10238412767648697 -0.01344922836869955 0.04352262243628502 0.1820780485868454 -0.04160047322511673 0.0883437767624855 
0.018952626734972 -0.042467664927244186 -0.07314538210630417 0.06707637012004852 0.044841084629297256 -0.051468055695295334 -0.029408039525151253 -0.03009043261408806 0.003260876052081585 
0.02462131902575493 -0.06106949970126152 -0.05626095458865166 -0.08156602829694748 -0.05474669486284256 -0.04779912531375885 0.046805720776319504 0.05393114686012268 -0.02977042645215988 
0.04079727828502655 -0.006874075625091791 0.02494405210018158 0.0531403087079525 -0.08383028209209442 -0.05488448962569237 0.0698704794049263 0.0641508400440216 0.07449379563331604 
0.1196780800819397 0.03424378111958504 -0.048084914684295654 -0.012984548695385456 0.02784706838428974 -0.021622762084007263 0.057485517114400864 0.08005212992429733 0.021098140627145767 
-0.044395625591278076 -0.014288747683167458 0.06253588199615479 0.024657387286424637 0.044912151992321014 -0.056069038808345795 0.03873109444975853 0.04525930434465408 0.05089500546455383 
0.016093797981739044 0.031717341393232346 -0.029470976442098618 -0.06648756563663483 -0.05715684965252876 -0.0026104741264134645 -0.05665237829089165 -0.01755191758275032 0.03611116111278534 
-0.009292829781770706 0.05467750132083893 -0.020632538944482803 0.05278092622756958 -0.02158144861459732 -0.03514159843325615 -0.025969572365283966 -0.018295880407094955 0.0028004066552966833 
-0.05965036898851395 0.04106051102280617 -0.044297900050878525 -0.03696054965257645 -0.051503609865903854 -0.04018362984061241 -0.024870947003364563 0.04143676906824112 0.01687236875295639 
0.07169618457555771 0.021571390330791473 0.048020511865615845 -0.05340265482664108 -0.033267803490161896 0.002199311973527074 -0.01840309612452984 -0.03744197636842728 0.04245300590991974 
0.0084565794095397 0.015404507517814636 0.0005907104932703078 0.009173030033707619 -0.07651807367801666 0.039015840739011765 0.005005694460123777 -0.04364262893795967 0.047356296330690384 
-0.057457175105810165 -0.03833480179309845 0.00834615994244814 0.010442365892231464 -0.007294177543371916 0.07586762309074402 -0.017896607518196106 0.003544646082445979 -0.026826051995158195 
-0.029949968680739403 -0.020181506872177124 0.014430176466703415 -0.04330907016992569 0.0235636904835701 0.06498537957668304 -0.020925248041749 -0.048343781381845474 0.02851591259241104 
-0.018666435033082962 0.05158109962940216 0.04158995300531387 0.041656095534563065 -0.0067894309759140015 0.045694779604673386 -0.025066563859581947 -0.02017824724316597 0.03354852646589279 
-0.01845615543425083 0.020512429997324944 -0.042686209082603455 0.012552529573440552 -0.0153778912499547 0.021395789459347725 0.05520666018128395 0.033401377499103546 0.03413540869951248 
0.0004076475161127746 0.04379808530211449 -0.03546980023384094 0.003256796393543482 0.008542402647435665 -0.06455177068710327 0.0002062346029561013 -0.007308633532375097 0.005096421577036381 
-0.00704599404707551 0.055588334798812866 -0.032132215797901154 0.0154312988743186 0.03407925367355347 -0.058613743633031845 -0.061677705496549606 0.0613783597946167 0.009657829999923706 
-0.058873891830444336 -0.03491034358739853 0.03892521932721138 0.024554941803216934 -0.011165186762809753 -0.04354744404554367 0.042460862547159195 0.033990439027547836 -0.0578521266579628 
-0.022585686296224594 -0.006188979838043451 -0.029230453073978424 -0.008451518602669239 0.005547080188989639 -0.0636921375989914 -0.03474629297852516 0.06027854233980179 -0.01966448500752449 
-0.057260774075984955 0.014937514439225197 0.017340561375021935 0.05024676024913788 0.053458187729120255 0.015989752486348152 -0.08924765139818192 -0.057459507137537 0.016017206013202667 
-0.0040957750752568245 -0.058237042278051376 -0.015687210485339165 0.01339048519730568 -0.06880298256874084 0.04943463206291199 -0.059457968920469284 0.0003580352640710771 -0.0439535416662693 
-0.04294317588210106 -0.03823564201593399 0.011420042254030704 0.03433041274547577 -0.04970639944076538 -0.0025275740772485733 -0.024908168241381645 -0.005553381517529488 -0.00998599547892809 
-0.00021999611635692418 0.014494192786514759 -0.04162644222378731 -0.05036475881934166 -0.03785629943013191 -0.007024924736469984 -0.05296241492033005 -0.04608902707695961 -0.02526186779141426 
-0.03630777820944786 -0.03417880833148956 -0.06994184851646423 -0.011768518015742302 -0.01856667920947075 -0.014567832462489605 0.023270653560757637 0.009224899113178253 -0.006258200388401747 
0.02841075509786606 0.02034706249833107 -0.0009046094492077827 0.025284964591264725 -0.0039220345206558704 -0.019925644621253014 -0.007627203594893217 -0.06985777616500854 -0.02403329126536846 
0.01910754293203354 -0.02148471213877201 0.0020279427990317345 -0.059166863560676575 0.028638867661356926 0.051408424973487854 -0.05589193478226662 -0.00579008087515831 0.04084523394703865 
-0.04546016454696655 -0.04167384281754494 0.037073370069265366 0.044658176600933075 0.047001805156469345 -0.043986912816762924 -0.055209383368492126 0.03632008284330368 0.029612651094794273 
-0.05152856558561325 0.06380931288003922 0.05758421868085861 0.03457057848572731 -0.054099585860967636 0.04770006611943245 -0.046985018998384476 -0.007651917170733213 -0.027051860466599464 
