0.057943787425756454 -0.0442919097840786 -0.040403082966804504 0.040710169821977615 -0.040941499173641205 -0.04175761714577675 0.02971024625003338 -0.0010575471678748727 -0.06838878244161606 
0.0682583600282669 -0.04476550593972206 -0.013729310594499111 -0.0383005328476429 0.03454155474901199 0.08900157362222672 -0.004043286666274071 0.02673913538455963 0.012569427490234375 
-0.012587113305926323 0.026506179943680763 -0.03940111771225929 -0.014475078321993351 -0.010561387054622173 0.06955178827047348 -0.06565019488334656 -0.0013652516063302755 0.07010442763566971 
-0.04224076494574547 -0.06092848628759384 0.014424481429159641 0.04955354705452919 0.015226909890770912 0.06694534420967102 -0.033891282975673676 -0.03573446348309517 -0.011535241268575191 
-0.07166469097137451 0.039698731154203415 0.06031346693634987 0.03991495817899704 -0.015608901157975197 -0.04351367801427841 0.0508275143802166 -0.06170441582798958 -0.04511498659849167 
-0.030917946249246597 0.04750343784689903 -0.005948442034423351 0.024531256407499313 0.05840824544429779 -0.02591281197965145 -0.07273198664188385 0.04503288492560387 -0.026584191247820854 
0.03319055959582329 0.04842010512948036 0.011113540269434452 -0.027929143980145454 -0.016970420256257057 0.04705560579895973 -0.059442490339279175 -0.06576494127511978 -0.016157241538167 
0.002444473560899496 0.05149523541331291 -0.045667778700590134 -0.036163706332445145 -0.044754210859537125 -0.03329858556389809 -0.011754085309803486 -0.011944153346121311 -0.06997382640838623 
-0.044175732880830765 -0.004573179874569178 0.005903842393308878 -0.030359461903572083 0.04139671102166176 0.017925888299942017 -0.016300907358527184 -0.020826321095228195 -0.03522162139415741 
-0.03740786015987396 -0.01695713773369789 -0.04256289452314377 -0.012738268822431564 0.0477350614964962 0.06241149082779884 -0.051965709775686264 0.056214261800050735 -0.0035878238268196583 
0.04019623249769211 0.08486461639404297 0.001997854094952345 0.04527278617024422 0.008773785084486008 0.0016313227824866772 -0.062153466045856476 0.02277323044836521 -0.03299390897154808 
-0.049841415137052536 -0.01154097355902195 0.018709244206547737 -0.0027410448528826237 0.039161618798971176 -0.022228442132472992 0.02258957363665104 0.03940454497933388 -0.03747275471687317 
0.06992389261722565 -0.01812337525188923 -0.05519817769527435 -0.05510823428630829 -0.06197043135762215 -0.027588769793510437 0.05597291141748428 -0.051427364349365234 -0.050047654658555984 
-0.034224893897771835 -0.022051803767681122 0.020058648660779 -0.022409893572330475 0.02374366857111454 -0.021742627024650574 0.06239337846636772 -0.060370463877916336 -0.04235709831118584 
-0.005277229472994804 0.012713250704109669 -0.03304032236337662 -0.029239214956760406 0.032462477684020996 -0.05904022231698036 -0.048309940844774246 0.059671550989151 0.022067878395318985 
-0.00390984071418643 -0.04604558274149895 -0.03720944747328758 0.045100536197423935 -0.01068949792534113 0.0052156769670546055 -0.0415208637714386 -0.044066883623600006 -0.06645803898572922 
0.020696548745036125 0.01800430193543434 0.03418213874101639 -0.003120660549029708 0.08565529435873032 0.10318858176469803 -0.06368587166070938 -0.0639692097902298 0.04602152109146118 
-0.025440309196710587 0.02434646338224411 -0.07418382167816162 0.06265878677368164 -0.009653470478951931 0.07367689907550812 -0.04928017035126686 0.05379391461610794 -0.06339899450540543 
0.056948382407426834 0.01705119013786316 -0.026657670736312866 0.022520486265420914 -0.012793989852070808 0.009687631390988827 -0.028139833360910416 0.038315240293741226 0.01639135181903839 
-0.055467791855335236 0.03194373473525047 0.0018439855193719268 0.035085611045360565 0.03830466791987419 -0.061715155839920044 -0.03026285581290722 0.05315545201301575 -0.07127147167921066 
-0.0038810349069535732 0.03552590683102608 -0.033152248710393906 0.06108300760388374 0.00404965179041028 -0.05725599452853203 -0.0349600650370121 -0.0322805680334568 -0.0024732735473662615 
-0.029373114928603172 0.01975191757082939 0.04475679248571396 0.0020270522218197584 0.033813945949077606 0.07077010720968246 -0.00842621736228466 -0.06730547547340393 0.02803768403828144 
-0.061889708042144775 -0.007479635067284107 -0.058392226696014404 0.01949799433350563 0.03823480010032654 0.01863676868379116 -0.006791267544031143 -0.0023964967112988234 -0.0038406620733439922 
-0.05878258869051933 0.06936553120613098 0.0038077649660408497 0.02125854417681694 0.047309111803770065 0.06088399887084961 -0.06875988841056824 -0.07852989435195923 -0.0014850947773084044 
0.061833303421735764 0.017143528908491135 -0.050087668001651764 -0.06432364881038666 -0.015429208055138588 0.03688821196556091 0.04943752661347389 0.022733500227332115 -0.015782980248332024 
-0.0471540130674839 0.023635584861040115 -0.008694608695805073 -0.03961949422955513 0.038254931569099426 -0.014651885256171227 0.020881636068224907 0.047388672828674316 -0.022888967767357826 
0.010868857614696026 0.0391668826341629 -0.0637403205037117 -0.044999293982982635 0.0365549735724926 -0.0019414665875956416 0.053842052817344666 -0.07247411459684372 -0.021123288199305534 
-0.0055663734674453735 -0.035423245280981064 -0.06274322420358658 -0.014973659999668598 0.01986639015376568 -0.04977543652057648 -0.05534910410642624 -0.02829114720225334 0.010579125955700874 
-0.029530944302678108 -0.00043580334750004113 0.008114888332784176 0.007539328653365374 0.022738035768270493 0.031494174152612686 -0.0028470137622207403 -0.005682877730578184 0.03602330759167671 
-0.024961644783616066 -0.05681973695755005 -0.00462789973244071 0.014165906235575676 -0.05071544274687767 -0.06502984464168549 -0.05428638681769371 -0.054085370153188705 0.016086334362626076 
0.06741262227296829 0.04444098845124245 0.051935404539108276 -0.01044054888188839 0.033379822969436646 -0.06123247742652893 -0.006627472583204508 -0.03742576390504837 -0.04492020606994629 
-0.028612323105335236 -0.05649548023939133 -0.04890533536672592 -0.05719119310379028 0.03981268033385277 -0.012531639076769352 -0.005455174017697573 0.031063614413142204 -0.055342186242341995 
-0.012024990282952785 0.031234944239258766 -0.04140463098883629 0.017660023644566536 -0.015827232971787453 0.025516187772154808 -0.031009424477815628 -0.06279262155294418 -0.021537387743592262 
-0.04446908086538315 0.03398413211107254 -0.049702227115631104 0.04509509727358818 0.03590795770287514 -0.009148972108960152 0.013157174922525883 -0.006604109425097704 -0.07241800427436829 
0.010721849277615547 0.048143066465854645 0.011577173136174679 0.01923699863255024 -0.038101546466350555 0.029748745262622833 -0.010598068125545979 0.025072991847991943 0.08458166569471359 
0.0484902523458004 -0.03464672341942787 -0.049117352813482285 0.02278929017484188 -0.09146561473608017 -0.10245130211114883 0.04220810905098915 0.008207820355892181 0.05611039325594902 
-0.03138997405767441 -0.011629057116806507 0.018157700076699257 0.06287988275289536 0.058907900005578995 -0.016037480905652046 0.024568162858486176 -0.03775675222277641 0.03235485032200813 
0.05678783357143402 -0.02486654743552208 -0.03935965523123741 -0.06830784678459167 0.003026066580787301 -0.0502665750682354 0.04978181794285774 0.038405582308769226 0.056059665977954865 
0.005778498016297817 0.02443857677280903 0.05096229910850525 -0.04211586341261864 -0.06037760153412819 -0.0008517549722455442 0.020099055022001266 0.06956107169389725 -0.013247651979327202 
-0.027912182733416557 0.03414146602153778 -0.04039692506194115 0.027889885008335114 -0.0114072784781456 0.001974190818145871 -0.016274290159344673 0.026818012818694115 -0.055983416736125946 
0.002788407728075981 -0.01742016337811947 -0.00018804175488185138 -0.04220926761627197 -0.09655234217643738 -0.056122660636901855 0.04185556620359421 -0.014879361726343632 0.060878556221723557 
-0.031044110655784607 0.01496866624802351 0.016067305579781532 -0.04510960727930069 0.009136097505688667 0.03210650756955147 -0.056870702654123306 -0.01765771023929119 -0.06855545938014984 
-0.030469464138150215 0.04238397255539894 -0.03444426506757736 0.060970231890678406 0.010687957517802715 0.07980551570653915 -0.03283677622675896 -0.04714882746338844 -0.016416290774941444 
-0.041684843599796295 0.033299267292022705 0.01832832209765911 0.05795324966311455 0.02356862463057041 -0.007707247044891119 -0.025138018652796745 -0.0651741623878479 0.016611982136964798 
0.03504946455359459 -0.03490304574370384 0.029535843059420586 0.036549732089042664 -0.012341220863163471 0.05841246619820595 -0.08679322153329849 0.014844468794763088 -0.013499286957085133 
-0.038787711411714554 -0.003426465205848217 0.017205437645316124 0.036409251391887665 -0.00869273953139782 0.05655742809176445 -0.001481710816733539 -0.02269718050956726 0.04857701063156128 
-0.06027228385210037 0.04686380550265312 0.0402689203619957 0.04485749453306198 0.03531089425086975 -0.060934700071811676 0.05707363411784172 0.032555174082517624 0.06299193203449249 
-0.001899626338854432 -0.042317651212215424 -0.03917837142944336 0.02380986325442791 0.03634060546755791 0.05258842930197716 -0.013487854041159153 -0.002029224531725049 -0.02181989699602127 
0.02248593606054783 -0.06525344401597977 -0.029949404299259186 -0.06546619534492493 -0.06063707545399666 -0.03611767664551735 -0.06664140522480011 0.011343817226588726 -0.010119468905031681 
-0.03593572974205017 -0.013383613899350166 -0.027579208835959435 0.007204958703368902 0.01903306506574154 0.06631483882665634 -0.04921384155750275 -0.03201913461089134 0.03429083153605461 
-0.06074697524309158 0.0082347821444273 -0.04469897598028183 0.028049485757946968 0.06476942449808121 0.04280944541096687 0.059376124292612076 0.05276612192392349 0.002200457965955138 
0.00804965104907751 -0.05178121477365494 -0.0003461312735453248 0.04906720295548439 -0.035248517990112305 0.029202915728092194 -0.07746648788452148 -0.05140532925724983 0.03758980706334114 
0.03529750555753708 -0.02089335396885872 -0.05446714907884598 0.05396980047225952 0.0040367464534938335 -0.03721751645207405 -0.04231167584657669 0.023007437586784363 0.058243997395038605 
0.0619080513715744 -0.0698733851313591 0.020698443055152893 -0.06933923810720444 -0.021737203001976013 -0.07101166993379593 -0.03726337477564812 -0.051765941083431244 0.02473701909184456 
-0.06515883654356003 -0.03831060603260994 -0.013995666988193989 -0.040349215269088745 0.03484963998198509 0.05473259836435318 0.03620503470301628 -0.05241614207625389 -0.04361724108457565 
-0.017090870067477226 -0.011468463577330112 -0.033195801079273224 -0.019608987495303154 -0.038083694875240326 0.01699100062251091 0.05598874390125275 0.047104429453611374 0.020746678113937378 
0.011961874552071095 -0.06133419647812843 -0.05712413415312767 0.0043778130784630775 0.014825074002146721 0.004498065449297428 -0.07106024771928787 -0.05508751422166824 0.045640718191862106 
0.018388884142041206 -0.059250980615615845 0.03769674524664879 -0.047476280480623245 0.009741950780153275 -0.02341829612851143 -0.0669792965054512 0.0565057210624218 -0.012513354420661926 
-0.057013265788555145 -0.03973560780286789 -0.0010174264898523688 -0.043492935597896576 0.016569430008530617 0.05724910646677017 -0.0061970921233296394 0.009454813785851002 -0.05322819948196411 
0.04623691737651825 0.05924824997782707 0.04623262211680412 -0.030496977269649506 0.0300667192786932 0.09156816452741623 -0.036647237837314606 -0.015177587047219276 -0.061091385781764984 
-0.06684990972280502 -0.06615464389324188 0.04175129160284996 -0.0675850585103035 -0.03005581721663475 0.01957303285598755 -0.019839243963360786 -0.052013564854860306 0.013017370365560055 
-0.037698451429605484 -0.035778723657131195 -0.022154733538627625 -0.037690188735723495 -0.04593931511044502 -0.05876288190484047 -0.0699164867401123 0.05484168976545334 -0.04628593102097511 
-0.0023465973790735006 -0.04543420672416687 -0.03466871753334999 0.04232005029916763 -0.0012926164781674743 -0.016013767570257187 0.05459253862500191 -0.03769787773489952 0.011616029776632786 
0.024577602744102478 0.011934611015021801 -0.02977793850004673 0.04587260261178017 -0.00953992735594511 0.04539924114942551 0.019557060673832893 0.0004384834901429713 0.05064735934138298 
0.007453614380210638 -0.0644632875919342 -0.0013209936441853642 0.04837892949581146 0.05348709598183632 -0.029735801741480827 0.023953650146722794 -0.032682836055755615 -0.008172568865120411 
-0.027586646378040314 -0.09306814521551132 -0.04706106707453728 0.057328008115291595 0.04947362840175629 0.022251788526773453 0.0031438199803233147 -0.056198976933956146 0.0074022007174789906 
0.053764183074235916 -0.036917056888341904 0.05322280898690224 -0.026893308386206627 0.04140188544988632 -0.06543591618537903 -0.044915441423654556 0.06420809030532837 -0.04716397821903229 
0.05444791540503502 -0.004549340810626745 -0.05736541375517845 0.04389873147010803 -0.02374972589313984 0.031024202704429626 -0.060762472450733185 -0.01822907105088234 -0.05027647688984871 
0.02786167524755001 0.0542231947183609 0.04626305028796196 -0.016992181539535522 -0.027754303067922592 -0.06695812195539474 -0.003643568605184555 -0.01909809000790119 -0.06746944040060043 
0.06330430507659912 0.062046509236097336 0.05959590524435043 0.005811304785311222 0.06453564763069153 -0.049352504312992096 0.011371618136763573 -0.05269286036491394 0.03779304027557373 
-0.018009115010499954 0.02022048644721508 0.02473493665456772 -0.020467063412070274 0.04464423656463623 -0.023248441517353058 0.001414861879311502 0.06074142828583717 -0.04486672580242157 
-0.003828444518148899 0.05830494314432144 -0.007894009351730347 -0.0555277094244957 -0.03890001028776169 -0.008209208026528358 0.020223883911967278 -0.0028220894746482372 -0.0063035497441887856 
-0.010103100910782814 0.04456963390111923 0.008034183643758297 0.004682543221861124 0.06236178055405617 -0.0006690200534649193 -0.039904944598674774 0.05123959481716156 0.06009308621287346 
0.007528697140514851 0.06242092698812485 -0.014530500397086143 -0.022178947925567627 -0.022105133160948753 0.039060693234205246 -0.05540023371577263 0.00021511857630684972 -0.0030501587316393852 
0.05573870614171028 0.04210982844233513 0.014076604507863522 0.014205005019903183 0.02316269278526306 -0.0637936145067215 -0.061450567096471786 -0.011157170869410038 0.020758915692567825 
0.04942682757973671 0.034422338008880615 -0.002070328453555703 0.005334097426384687 0.031186005100607872 -0.025105932727456093 0.01647643931210041 0.06240537390112877 0.020277101546525955 
0.0636603832244873 -0.05672871321439743 -0.013464469462633133 0.057500891387462616 0.07166527956724167 0.044446807354688644 -0.03494839742779732 0.06161496788263321 0.0071316189132630825 
-0.020699722692370415 0.027648577466607094 0.050988029688596725 0.02767346426844597 0.03077961504459381 -0.031484153121709824 -0.061961013823747635 0.04689107835292816 -0.05033690482378006 
0.013456410728394985 0.033653002232313156 -0.03439241647720337 -0.047856733202934265 -0.05306420475244522 -0.036729756742715836 0.0027456122916191816 0.06045789271593094 -0.05877161771059036 
0.05907696112990379 0.026699956506490707 -0.041894011199474335 0.06500660628080368 0.04078071936964989 -0.02468307875096798 -0.03781973570585251 0.03587385639548302 -0.008873960003256798 
-0.025284191593527794 0.03266153112053871 -0.049827296286821365 0.010176769457757473 -0.07255564630031586 0.027710624039173126 0.05235320329666138 -0.009023237973451614 -0.031081954017281532 
0.027227750048041344 -0.001473869546316564 0.0400233119726181 -0.06115678325295448 -0.05030490458011627 0.044886209070682526 -0.065766341984272 -0.008500810712575912 -0.0013509762939065695 
0.008045828901231289 0.06108622997999191 -0.027217861264944077 -0.03990599140524864 -0.046986889094114304 -0.05652127042412758 0.016630113124847412 -0.05358715355396271 -0.042870163917541504 
-0.013772395439445972 -0.07741285860538483 -9.142661838268396e-06 -0.04642866179347038 0.005840074736624956 -0.11348363012075424 -0.04510900378227234 -0.02067391574382782 -0.01324266567826271 
0.042366065084934235 0.05473732203245163 -0.020486826077103615 -0.020686065778136253 -0.008416888304054737 -0.01845356822013855 -0.05439772084355354 -0.029820075258612633 -0.018371885642409325 
-0.05198979005217552 0.015026595443487167 0.028472773730754852 0.05894690752029419 0.05558772012591362 -0.03320077806711197 0.03168260678648949 0.002943547209724784 -0.015371404588222504 
-0.05598858371376991 0.05265836790204048 0.015005310997366905 -0.04863275960087776 0.06458229571580887 -0.06536558270454407 0.053739212453365326 -0.028703417629003525 -0.0021665554959326982 
-0.009020281955599785 -0.012786618433892727 0.0057764374651014805 -0.03217828646302223 0.024767309427261353 0.01736370101571083 -0.05783335119485855 -0.0166730135679245 0.025214562192559242 
0.004550307057797909 -0.01208954956382513 0.044201839715242386 -0.044748298823833466 0.027440465986728668 -0.05363955721259117 -0.05498392507433891 0.04697014018893242 -0.032434605062007904 
-0.022321946918964386 -0.04484904184937477 0.024680975824594498 0.060643572360277176 -0.01974913291633129 -0.05078621953725815 0.023487649857997894 0.0049529289826750755 0.017935287207365036 
-0.03871801123023033 0.013264683075249195 0.018176794052124023 -0.006188599858433008 -0.0302440132945776 0.054695818573236465 0.013697098009288311 0.05856579542160034 0.04771873354911804 
-0.023710977286100388 0.0006287221913225949 0.021211063489317894 0.0013806340284645557 -0.00046903983457013965 -0.0036098682321608067 -0.06340402364730835 0.06603827327489853 -0.017065953463315964 
0.028381813317537308 -0.04245232045650482 -0.019742609933018684 0.056084584444761276 -0.08324187994003296 0.016734059900045395 -0.043581802397966385 0.009779945947229862 0.05003630369901657 
-0.009290957823395729 -0.02006656304001808 -0.017651306465268135 -0.06750863790512085 0.012002453207969666 -0.02547292411327362 -0.01329423114657402 -0.04888525977730751 -0.0023360608611255884 
-0.02083461545407772 -0.04882017523050308 0.013798637315630913 -0.0034264554269611835 0.0001230411435244605 0.03706939518451691 0.015036096796393394 -0.061880409717559814 -0.006189262494444847 
0.04458986222743988 -0.025192400440573692 -0.00010429794201627374 -0.062460534274578094 -0.039801593869924545 0.027819976210594177 0.03703983873128891 0.053053729236125946 -0.04159945994615555 
-0.02227851375937462 0.0315888337790966 0.026537299156188965 0.03907673805952072 -0.05103704333305359 0.02204110287129879 -0.016405051574110985 0.05100839585065842 -0.056321777403354645 
0.029613446444272995 0.019308336079120636 -0.06705105304718018 0.05247226357460022 0.041450414806604385 -0.015568895265460014 -0.03154745325446129 -0.006889817770570517 -0.028363283723592758 
0.02079603262245655 0.05870893970131874 0.05131886526942253 -0.03370866924524307 -0.04265260323882103 0.06550435721874237 -0.03631812706589699 0.04612244293093681 0.033097509294748306 
-0.001109144533984363 -0.03378216549754143 -0.02800634689629078 0.014912321232259274 -0.03422583267092705 0.05694911256432533 0.028143635019659996 -0.01739928498864174 -0.01178961805999279 
0.005224676337093115 0.034139830619096756 -0.03850100189447403 0.06745728105306625 0.05783827230334282 0.02427881397306919 -0.044754110276699066 -0.0594201534986496 -0.055134449154138565 
0.010204860009253025 0.07926163822412491 -0.02790621854364872 -0.0457322895526886 0.04316512867808342 -0.016875501722097397 -0.08121968060731888 -0.0016915498999878764 0.04927409440279007 
-0.04084070771932602 0.07825660705566406 0.06922619044780731 0.03020353987812996 -0.062464796006679535 0.06294120848178864 0.04202156141400337 0.0049825431779026985 0.003002337645739317 
-0.0013185517163947225 0.013633576221764088 0.06699059903621674 0.05249561741948128 0.031029369682073593 0.009087453596293926 -0.05115120857954025 0.015020233578979969 0.040412187576293945 
0.015086683444678783 -0.054450873285532 0.03162604942917824 0.049174655228853226 -0.01835029572248459 -0.013129323720932007 0.044835492968559265 0.029424086213111877 0.039546504616737366 
-0.061513397842645645 -0.007509343326091766 0.017479855567216873 0.015210827812552452 -0.04235422611236572 -0.049553852528333664 -0.05163063481450081 -0.04706382751464844 -0.059556376188993454 
-0.07518912851810455 -0.02178509533405304 -0.055772557854652405 -0.029691265895962715 0.0664244294166565 -0.0552121177315712 0.06063368543982506 -0.023930974304676056 -0.046592406928539276 
-0.011542378924787045 0.05387992784380913 -0.07014812529087067 0.025212150067090988 -0.057374414056539536 0.008136766031384468 -0.04311222583055496 -0.055799536406993866 -0.026852380484342575 
-0.050421588122844696 -0.035478368401527405 -0.031330280005931854 0.03203963860869408 0.04494002088904381 -0.02137339860200882 0.032476797699928284 0.06972777843475342 -0.0069773271679878235 
-0.048270292580127716 -0.011542823165655136 -0.06652183830738068 0.016392335295677185 0.029526157304644585 0.013410041108727455 0.045021165162324905 0.047552745789289474 0.024828555062413216 
0.055468808859586716 -0.0578882172703743 0.007663361262530088 -0.0038602736312896013 0.062380045652389526 0.059640493243932724 -0.020497972145676613 0.06267382949590683 -0.01131263468414545 
-0.06651540845632553 -0.009632722474634647 -0.033760808408260345 -0.029261436313390732 0.04421350732445717 -0.06338109076023102 0.008083219639956951 0.004158318508416414 -0.022596489638090134 
-0.07305914908647537 -0.026223793625831604 0.027255306020379066 -0.04164041578769684 0.01872790791094303 -0.013610072433948517 -0.03566155582666397 0.004654419608414173 -0.026428604498505592 
0.05251922830939293 0.03974488377571106 0.031337153166532516 0.06837247312068939 0.052289921790361404 0.047209229320287704 0.044398076832294464 0.027517490088939667 0.016154704615473747 
0.002229465637356043 -0.020308606326580048 -0.03615646809339523 0.018376750871539116 -0.036001402884721756 0.06314226239919662 0.02828550897538662 -0.06621978431940079 0.01986369490623474 
-0.02943834848701954 0.047202419489622116 -0.01928853988647461 -0.029757043346762657 -0.036562878638505936 0.025509431958198547 -0.012156677432358265 -0.0520324744284153 -0.027011564001441002 
-0.03747387230396271 -0.023511910811066628 -0.059646449983119965 0.0058945282362401485 -0.009843706153333187 -0.016495879739522934 0.05009441450238228 0.06475837528705597 0.030638091266155243 
0.035800907760858536 0.0697474405169487 0.038386814296245575 0.03031795844435692 0.0642906054854393 0.00039023192948661745 -0.0437132827937603 0.0485437735915184 -0.050447411835193634 
-0.005149658769369125 -0.05640997737646103 -0.05865846201777458 0.038207754492759705 -0.004716536961495876 -0.04201832786202431 0.0296743456274271 0.050840165466070175 0.06631897389888763 
-0.07345277070999146 0.03604375198483467 -0.006028714589774609 -0.02638850174844265 -0.02403176575899124 -0.023432379588484764 0.023617876693606377 -0.00567035935819149 0.009478227235376835 
-0.007901240140199661 0.027314521372318268 0.04501153901219368 -0.030142424628138542 0.05132065713405609 0.05875285714864731 0.043622396886348724 -0.061020780354738235 -0.036848824471235275 
-0.041457850486040115 0.048474349081516266 -0.03140977397561073 -0.04113112762570381 -0.02733682096004486 -0.038369789719581604 -0.006729628890752792 0.03596380725502968 0.051319561898708344 
0.07702904939651489 -0.0009110821993090212 0.01053293514996767 0.0573790967464447 0.008105626329779625 -0.01395252626389265 0.014179002493619919 -0.037734389305114746 0.06940606981515884 
0.02426595613360405 -0.06011279299855232 0.04364743456244469 0.004039425402879715 0.019674543291330338 0.023523716256022453 0.04644802585244179 0.007105805445462465 0.054054923355579376 
-0.04345083236694336 -0.04513506963849068 0.014388921670615673 -0.026403769850730896 -0.032300639897584915 0.03042558766901493 -0.034051332622766495 -0.03697230666875839 -0.03619154170155525 
0.036820828914642334 0.03820985183119774 6.612158904317766e-05 -0.04000219702720642 0.03953825309872627 0.04359333589673042 -0.036429814994335175 -0.03122015669941902 -0.059219058603048325 
-0.06107666343450546 0.019307071343064308 0.021126823499798775 0.012648951262235641 0.021633733063936234 -0.058972444385290146 0.025309614837169647 -0.019443854689598083 -0.001981546403840184 
-0.018725072965025902 0.014937748201191425 0.04232751205563545 -0.02769368328154087 0.012964911758899689 -0.0022091949358582497 -0.06258630752563477 0.01042249333113432 -0.04772768169641495 
-0.06631531566381454 0.06878428161144257 -0.01912500709295273 -0.029660159721970558 0.06240416318178177 0.05499374121427536 0.028160803020000458 0.050355467945337296 0.022302282974123955 
0.06092536821961403 -0.024426588788628578 -0.024208324030041695 -0.0476866140961647 0.05716106295585632 -0.035179927945137024 0.02582334354519844 -0.04204833135008812 0.007967459037899971 
-0.004289723001420498 0.012420167215168476 -0.04198962077498436 0.030276307836174965 -0.021941032260656357 -0.046517882496118546 -0.04997117444872856 0.07120311260223389 0.03969347104430199 
0.03459067642688751 0.031013717874884605 -0.007831663824617863 -0.017597997561097145 0.12220975011587143 -0.02422095462679863 -0.050587158650159836 -0.03701666742563248 -0.025302346795797348 
-0.024619825184345245 -0.020257454365491867 0.0402083620429039 0.06179986521601677 -0.049609676003456116 0.015317906625568867 0.0016678296960890293 -0.0015700198709964752 0.018444087356328964 
0.04369290918111801 0.0070612370036542416 0.007755362428724766 0.012042033486068249 0.020812083035707474 0.009260039776563644 -0.06640393286943436 -0.02546839974820614 0.053833626210689545 
-0.055631063878536224 0.05290582403540611 -0.0028079913463443518 0.011259392835199833 -0.001015439978800714 -0.023137757554650307 0.014212403446435928 0.01944609358906746 -0.028967639431357384 
-0.039631884545087814 0.058448925614356995 -0.04117729887366295 0.019877776503562927 0.04383706673979759 0.04562344774603844 -0.060065072029829025 -0.06570737808942795 0.054912269115448 
-0.021812599152326584 -0.02777603082358837 -0.0400240458548069 0.0342111736536026 0.024680720642209053 -0.01532956212759018 0.015843000262975693 0.08049622923135757 0.07597919553518295 
-0.026379819959402084 -0.03187881410121918 0.04078942537307739 0.00265304371714592 -0.035427697002887726 -0.03904465213418007 0.004300002474337816 -0.059542667120695114 0.011828477494418621 
0.02283334918320179 -0.017523180693387985 -0.07168950885534286 0.026279376819729805 0.037466004490852356 0.00858606118708849 0.0682438462972641 0.011152009479701519 -0.0032493630424141884 
0.019388897344470024 0.0528515987098217 -0.054138921201229095 0.06420450657606125 0.03531142696738243 0.05192556977272034 0.0002955166273750365 0.027855148538947105 -0.07055912911891937 
0.024370914325118065 -0.01902875490486622 -0.02252230979502201 0.009026532992720604 -0.02500932104885578 0.05864217132329941 0.030636252835392952 0.07055330276489258 -0.06786663830280304 
-0.050045326352119446 -0.0037118135951459408 -0.03227100893855095 0.06868023425340652 -0.011888074688613415 0.041383832693099976 -0.02378924936056137 0.05457383021712303 -0.01803857646882534 
0.05844574421644211 0.05076565966010094 0.06068890914320946 0.04163061082363129 0.0058899191208183765 0.050149403512477875 -0.030887477099895477 -0.010288307443261147 -0.0028532943688333035 
-0.01808922365307808 -0.01752052828669548 0.0024791418109089136 0.011494582518935204 -0.010684272274374962 0.04889290779829025 -0.06507410854101181 0.021492328494787216 0.014740611426532269 
0.024090463295578957 0.00037435698322951794 0.04954026639461517 -0.009066070429980755 -0.05277303233742714 -0.06373539566993713 -0.015254701487720013 0.04013248160481453 -0.06539762765169144 
0.026553919538855553 -0.05270221084356308 -0.0452822707593441 0.008836089633405209 0.0836314857006073 -0.024024760350584984 -0.001560868346132338 -0.05298570916056633 0.05447873845696449 
0.0489746630191803 0.018835313618183136 0.07805082201957703 0.05705661699175835 -0.07827679812908173 -0.03410685434937477 0.07065752148628235 -0.07176658511161804 0.04655349999666214 
0.008878562599420547 0.056046780198812485 -0.00027127889916300774 -0.05505603924393654 0.01594351790845394 -0.034062858670949936 -0.01293827686458826 0.0023364825174212456 -0.025889724493026733 
0.06669022887945175 -0.012092060409486294 0.0160911176353693 0.011505347676575184 -0.011531275697052479 0.052739787846803665 0.0721069797873497 -0.018512018024921417 -0.016727931797504425 
0.007098265457898378 -0.052584413439035416 -0.04961974918842316 -0.04728594794869423 0.020981818437576294 -0.01603212207555771 -0.03496003523468971 0.0008802572847343981 -0.02729424275457859 
-0.04951934888958931 0.03170330077409744 0.07347428053617477 0.06284097582101822 0.03211627155542374 0.041876453906297684 0.024481769651174545 -0.06406793743371964 -0.014757174998521805 
0.03326001390814781 0.01107418816536665 0.03677096962928772 -0.06096687912940979 -0.0005202360334806144 -0.04826831817626953 0.015175526030361652 0.06632960587739944 -0.03292067348957062 
0.02665496990084648 -0.0019178712973371148 -0.047051768749952316 0.040341876447200775 0.014564868062734604 -0.010170215740799904 0.034611769020557404 -0.08439517766237259 0.03344964236021042 
-0.0067301043309271336 0.04018860682845116 0.06612611562013626 0.04257102310657501 -0.013869056478142738 0.030009286478161812 -0.029215702787041664 0.044911015778779984 0.010733773931860924 
-0.07456323504447937 -0.07274278253316879 0.02539200708270073 -0.052337467670440674 -0.07323925942182541 0.047303855419158936 -0.05362708494067192 -0.018637074157595634 -0.005549910943955183 
-0.11944793164730072 -0.06623390316963196 -0.004882164299488068 -0.06561591476202011 -0.0614260695874691 0.03411368280649185 -0.046137724071741104 -0.045727379620075226 -0.0349743478000164 
-0.02530631795525551 0.011095955967903137 0.06556837260723114 -0.04724414646625519 0.014318965375423431 -0.03954711928963661 -0.005490635521709919 -0.042340606451034546 0.07183729857206345 
0.05741214379668236 -0.009165125899016857 -0.049688030034303665 0.04690089449286461 -0.061199843883514404 -0.011634338647127151 0.02672036923468113 0.05522248521447182 0.04984680190682411 
-0.04041628539562225 0.008469132706522942 -0.05450078472495079 0.06447473168373108 0.02505633793771267 0.03733183071017265 0.06272874027490616 -0.05963026359677315 0.007683722302317619 
0.0555586963891983 0.04200958460569382 0.02930327318608761 0.021533966064453125 -0.058501485735177994 0.034528303891420364 -0.06653085350990295 -0.03344027325510979 -0.04854736849665642 
0.068515345454216 0.06262875348329544 -0.009513366036117077 0.00676360260695219 -0.01837286539375782 0.08061451464891434 -0.06809276342391968 0.03361327946186066 0.013170735910534859 
0.05710943415760994 -0.07818589359521866 0.01966060884296894 0.08862307667732239 -0.034859202802181244 0.055836472660303116 0.00016923063958529383 -0.059339918196201324 0.025522839277982712 
0.054055217653512955 -0.004314674995839596 -0.05617963895201683 -0.06538864225149155 -0.02438524179160595 0.06758415699005127 0.06534361839294434 -0.01084938459098339 -0.009591727517545223 
0.03702323138713837 -0.008169827982783318 0.017271002754569054 0.004833900835365057 -0.052314817905426025 0.027495861053466797 -0.05190735310316086 -0.03666151687502861 0.054968323558568954 
0.07719399034976959 0.06706829369068146 -0.05373113974928856 -0.04518932104110718 0.015439565293490887 -0.003484112210571766 0.014928814023733139 -0.024930991232395172 0.03606078028678894 
0.07366499304771423 -0.005082148592919111 -0.05242304503917694 -0.04932643473148346 0.04742718115448952 -0.01904960535466671 -0.03715447336435318 0.02135390229523182 0.034497521817684174 
-0.05928197130560875 0.036971770226955414 0.027369139716029167 -0.02657865546643734 0.014437470585107803 0.04111834615468979 0.05409207567572594 -0.02958616055548191 0.03213833272457123 
-0.0037633359897881746 0.04166381433606148 -0.056543901562690735 -0.04499088227748871 0.03354469686746597 0.05384500324726105 0.010964643210172653 -0.005400611087679863 -0.05237286537885666 
0.04591457173228264 0.05197330564260483 -0.0199283380061388 -0.06771358102560043 -0.03276684135198593 0.005196866579353809 -0.043612584471702576 -0.024990370497107506 -0.05638488754630089 
-0.056454915553331375 -0.03996329382061958 0.02326846867799759 0.03242341801524162 -0.0434691347181797 0.011630232445895672 0.07179860770702362 0.005536441691219807 -0.015837298706173897 
0.00452354084700346 -0.00909019261598587 0.006556815467774868 -0.04915350675582886 0.020426306873559952 -0.05912630259990692 -0.00276903435587883 0.044739533215761185 -0.01786874793469906 
0.0110849654302001 0.042090486735105515 0.014470861293375492 -0.021673962473869324 -0.012665492482483387 -0.06458830088376999 -0.011249733157455921 -0.0241073090583086 -0.023628439754247665 
0.04221470654010773 -0.01097678579390049 -0.009116269648075104 -0.028469257056713104 -0.03223644196987152 0.0511879026889801 -0.0269679706543684 -0.047879915684461594 -0.02423347719013691 
-0.07597701251506805 -0.01410737819969654 -0.06625566631555557 -0.02603759802877903 0.02297968789935112 0.016894379630684853 -0.05868123099207878 -0.00827680341899395 -0.0037700205575674772 
0.06961630284786224 0.01281258836388588 0.05332883819937706 0.05776466801762581 0.05284953862428665 0.04212184250354767 0.05814410373568535 -0.05379243195056915 -0.028029831126332283 
0.05872567370533943 0.00827441830188036 -0.04605627804994583 0.02966366708278656 0.046718936413526535 0.021011771634221077 0.05051567032933235 -0.02723493054509163 0.03650032356381416 
-0.018754992634058 -0.06685160845518112 0.03381800651550293 0.04822279512882233 0.030995404347777367 -0.05433659628033638 0.0065277256071567535 -0.0014772926224395633 -0.0484938845038414 
0.012190457433462143 -0.06766822934150696 0.03624887764453888 -0.04912029579281807 -0.045336510986089706 -0.025835121050477028 0.005021451506763697 -0.04074270278215408 0.025735395029187202 
0.022229358553886414 0.018935175612568855 -0.049053531140089035 0.08336612582206726 0.0657813549041748 0.014185812324285507 -0.004005633760243654 -0.022751256823539734 -0.06927564740180969 
-0.05442561209201813 0.00027462519938126206 -0.05515802651643753 -0.014750097878277302 -0.00885814055800438 0.005999922752380371 0.009571906179189682 -0.024961475282907486 -0.10217368602752686 
0.01682990789413452 0.006051545962691307 -0.01833975687623024 0.018066488206386566 0.018564730882644653 0.028052067384123802 -0.020299628376960754 0.03405212238430977 0.0059372903779149055 
-0.032192621380090714 0.004146459046751261 0.035016294568777084 -0.014242008328437805 0.06608810275793076 -0.007760858163237572 0.0628705695271492 0.0011725528165698051 0.013581865467131138 
-0.04512064903974533 0.05878865718841553 0.012385946698486805 0.0015624146908521652 -0.03467583283782005 0.05406824126839638 -0.01420468371361494 -0.021893911063671112 -0.016585778445005417 
-0.028555558994412422 -0.05501528084278107 -0.03890050947666168 -0.05437011271715164 0.02914966270327568 -0.06332357972860336 -0.03744382783770561 -0.03346548229455948 -0.03389096260070801 
0.06184544414281845 -0.04567991942167282 -0.051244743168354034 0.05677769333124161 0.07088042795658112 0.08290325105190277 0.04237858206033707 0.02914523147046566 0.036793749779462814 
-0.007693578023463488 -0.051163531839847565 -0.002961212070658803 -0.06049562245607376 0.02860286831855774 -0.008305750787258148 -0.06515833735466003 -0.006298987660557032 0.013852553442120552 
-0.029030781239271164 -0.06064048036932945 -0.05130152031779289 -0.03767397627234459 0.0198455061763525 -0.042999207973480225 -0.022634578868746758 -0.01911451481282711 0.03725771605968475 
0.07001245021820068 0.06960958987474442 -0.050740282982587814 -0.015945957973599434 0.05953521281480789 -0.04228460043668747 0.019547225907444954 -0.023390190675854683 -0.021173859015107155 
0.00018537892901804298 -0.007288697641342878 -0.009287669323384762 -0.007939593866467476 -0.019936228170990944 -0.04033473879098892 -0.03246879577636719 -0.02247617021203041 -0.023787403479218483 
0.049596816301345825 0.026886411011219025 0.0007219089311547577 -0.012567464262247086 0.06935937702655792 -0.0399702750146389 0.04928005859255791 0.014187892898917198 -0.027240976691246033 
0.004832170438021421 -0.03816820681095123 -0.04399298131465912 -0.04503661394119263 -0.056413356214761734 0.03275829181075096 -0.053423721343278885 -0.059282489120960236 -0.04596905782818794 
-0.014429089613258839 0.00885813869535923 -0.03331464156508446 -0.06747215986251831 0.04923614487051964 -0.00866174977272749 0.007404955569654703 -0.03209323436021805 0.03937426954507828 
-0.010058591142296791 0.010013309307396412 -0.04692313075065613 0.03174439072608948 -0.04663759842514992 -0.00267092720605433 0.012210583314299583 -0.017575152218341827 -0.008805353194475174 
0.03939938545227051 0.06916974484920502 -0.028251580893993378 0.04108810052275658 0.035882920026779175 -0.028101760894060135 -0.013088032603263855 0.037441689521074295 0.06438064575195312 
-0.018917685374617577 0.0059544723480939865 -0.003909640945494175 -0.06836044043302536 -0.00657724030315876 0.013647975400090218 -0.024673281237483025 0.066259004175663 0.03768685832619667 
0.05010676756501198 0.061169255524873734 -0.06207595393061638 -0.02243812382221222 0.00941835530102253 -0.06605703383684158 -0.027298476547002792 -0.0005133491940796375 0.03780975937843323 
-0.035002946853637695 -0.021652963012456894 0.05760136619210243 0.04694405198097229 -0.03240281343460083 0.021583810448646545 0.05556514859199524 0.0076274573802948 -0.06334362179040909 
-0.049747057259082794 -0.011805051006376743 -0.011087087914347649 0.023879962041974068 0.1008363738656044 0.07748842984437943 1.6889047401491553e-05 0.018647905439138412 0.0767684057354927 
-0.058349691331386566 0.05670148506760597 -0.07687295973300934 0.06333981454372406 -0.008584205992519855 -0.06193455308675766 0.002488161437213421 0.024448880925774574 0.015499047935009003 
-0.05090399459004402 0.0180946234613657 0.04071527346968651 -0.01794465258717537 0.048561014235019684 0.029275067150592804 0.06257777661085129 -0.021593548357486725 0.0034863639157265425 
0.060528937727212906 -0.040784284472465515 -0.019448788836598396 0.0012971283867955208 0.04797060787677765 0.035380929708480835 0.015655038878321648 -0.0381883829832077 -0.024134613573551178 
0.06291092932224274 -0.018121197819709778 0.05621669813990593 -0.009901954792439938 0.07188772410154343 -0.016804061830043793 -0.019704867154359818 -0.015539425425231457 0.04269162565469742 
0.06997640430927277 -0.002615372184664011 -0.007424856070429087 -0.02424660697579384 -0.011657478287816048 0.033857859671115875 0.06878620386123657 0.1070341095328331 -0.011031982488930225 
0.0804845541715622 0.03052569180727005 0.052631158381700516 0.011736760847270489 -0.049820560961961746 -0.0867820605635643 -0.05229318514466286 -0.021372929215431213 -0.018332239240407944 
0.06571459770202637 -0.029695412144064903 -0.07036327570676804 -0.034123823046684265 -0.0007027506944723427 0.01710570603609085 0.036804139614105225 0.04397344961762428 0.044724807143211365 
-0.010085695423185825 0.011535395868122578 -0.04574676230549812 -0.023931380361318588 -0.03582652285695076 0.024094687774777412 0.03906059265136719 0.03413038328289986 -0.06146037578582764 
0.06126781180500984 0.059335507452487946 0.04248938336968422 -0.05945461988449097 -0.026274699717760086 -0.017471512779593468 0.05833471938967705 -0.02215646579861641 0.06707914173603058 
-0.0007033923757262528 -0.05467677861452103 0.0073259021155536175 0.054030075669288635 0.011297597549855709 -0.031288791447877884 -0.03163128346204758 -0.049751654267311096 0.023887166753411293 
-0.034917619079351425 0.010943817906081676 0.025281589478254318 -0.02056773193180561 0.007869834080338478 -0.02375728078186512 0.02448336035013199 0.07098031789064407 0.06775907427072525 
0.05590949207544327 0.0717800036072731 0.07537873834371567 0.02282056398689747 -0.04243998974561691 0.034384582191705704 0.03162461519241333 -0.01080659031867981 -0.0296928808093071 
-0.008715611882507801 0.014678867533802986 0.03780675679445267 0.05162739008665085 -0.05567685887217522 -0.015337743796408176 0.05071341618895531 -0.026010053232312202 -0.002739866729825735 
0.05228496342897415 0.004308163188397884 0.0663532167673111 -0.038658857345581055 0.005822199396789074 0.014629842713475227 -0.018136916682124138 -0.05923294648528099 -0.034284207969903946 
-0.06537870317697525 0.02377312071621418 0.044567786157131195 -0.0067124273627996445 -0.07206151634454727 0.024089621379971504 0.02678457833826542 -0.03149218484759331 -0.0075366199016571045 
0.05951816961169243 -0.005861460231244564 -0.04542198032140732 0.045125290751457214 0.007580362260341644 0.003033839398995042 0.04958418756723404 -0.02425265498459339 -0.042008865624666214 
0.0444030836224556 -0.01693425513803959 0.022562146186828613 -0.05176662653684616 -0.015328183770179749 0.03813545033335686 -0.05696623772382736 -0.045338213443756104 -0.004594234749674797 
-0.04055660218000412 0.00672175083309412 -0.026379700750112534 0.06085105240345001 -0.02126321569085121 0.04917335882782936 0.06584322452545166 0.07257948815822601 0.04617756977677345 
0.032095275819301605 -0.011955669149756432 0.017972419038414955 -0.011947492137551308 0.054747045040130615 -0.017516572028398514 0.005539923906326294 -0.01868060790002346 -0.01720556803047657 
0.01546543464064598 -0.03143348917365074 -0.010271770879626274 0.06644996255636215 0.061817269772291183 0.048389941453933716 -0.010826356709003448 0.03799709305167198 0.07463471591472626 
-0.049732159823179245 0.022724678739905357 -0.05327519029378891 -0.0601864829659462 0.006609149277210236 -0.04420601204037666 -0.03923406824469566 0.09850584715604782 -0.01141778752207756 
0.011250795796513557 -0.014535713940858841 0.00649176025763154 -0.021440578624606133 0.02231396548449993 -0.01582910306751728 -0.026618054136633873 0.003932035528123379 -0.06388382613658905 
-0.004566601011902094 -0.05416586622595787 -0.008387800306081772 -0.011528857052326202 -0.04994478449225426 0.03827545419335365 -0.05101199820637703 6.502542237285525e-05 -0.02124595455825329 
0.016890190541744232 -0.026629580184817314 -0.04579993337392807 0.010502751916646957 0.062498193234205246 -0.07958891987800598 -0.036621641367673874 -0.04501943662762642 0.006813886575400829 
0.05227809026837349 0.014812346547842026 -0.03152867779135704 -0.04001535475254059 0.016527025029063225 0.01053742878139019 -0.04146367311477661 -0.02997717261314392 -0.055993203073740005 
0.03688867390155792 -0.07180672883987427 0.004814571235328913 0.037229910492897034 -0.019103793427348137 0.024540986865758896 0.010196729563176632 0.0133542250841856 0.011168615892529488 
0.004614738747477531 -0.05335565283894539 -0.033950984477996826 0.02066069282591343 0.0843123123049736 0.00942875724285841 -0.01680510677397251 -0.023520629853010178 -0.00883914902806282 
0.06242043897509575 -0.05010998994112015 0.023905232548713684 0.028113147243857384 0.04987500607967377 0.008814392611384392 0.024522200226783752 0.04453306272625923 0.0181948933750391 
0.0158051997423172 -0.008671263232827187 -0.07363804429769516 -0.057391099631786346 -0.04866291955113411 0.042045287787914276 -0.03531327471137047 0.026832766830921173 -0.040921494364738464 
-0.011271179653704166 0.09901866316795349 0.05750790610909462 0.08588206022977829 0.06513410806655884 0.008059038780629635 0.03969248756766319 0.06598898768424988 0.035669323056936264 
-0.033332459628582 0.0012693468015640974 0.0682528018951416 0.04102468490600586 -0.043392933905124664 0.06443412601947784 0.008812479674816132 -0.03515661507844925 0.022984284907579422 
-0.031341347843408585 -0.0055383178405463696 0.054706983268260956 -0.02048390544950962 -0.03559035807847977 0.003718792460858822 -0.019865768030285835 -0.06674596667289734 -0.05878342315554619 
-0.06630165129899979 0.028956027701497078 0.016479598358273506 -0.019456898793578148 -0.06401406973600388 0.009422965347766876 -0.03390322998166084 -0.01983295939862728 -0.008899055421352386 
0.058258041739463806 0.029909862205386162 0.05186160281300545 -0.04885584115982056 -0.02391579933464527 0.06951401382684708 0.06284898519515991 -0.03996102884411812 -0.05772501975297928 
-0.0003921882016584277 -0.0016030402621254325 0.04968487471342087 0.0706852525472641 0.05507427453994751 0.10487257689237595 0.00149595458060503 -0.05291357263922691 -0.023384233936667442 
0.01000025775283575 -0.06014683470129967 -0.02881164476275444 -0.02538871578872204 0.013327381573617458 0.05223781615495682 0.05541835352778435 -0.01571214385330677 -0.00403450895100832 
-0.0405706949532032 -0.026409484446048737 -0.04223109781742096 0.023298995569348335 0.04733427241444588 -0.030104488134384155 0.003269650274887681 0.019902784377336502 -0.055096741765737534 
-0.048832956701517105 0.0746421292424202 -0.06129035726189613 0.07965318858623505 0.07673834264278412 0.037771064788103104 0.0424765944480896 -0.04756075143814087 -0.04019341245293617 
0.06888139247894287 -0.0260633397847414 0.02415856346487999 -0.02776036225259304 -0.0037899299059063196 0.01821891777217388 -0.029966842383146286 -0.02618723176419735 -0.03516846522688866 
0.05345645546913147 0.046821776777505875 -0.01289000827819109 -0.04584807530045509 0.062224309891462326 0.031758811324834824 -0.04293842986226082 -0.0009562067571096122 -0.021247856318950653 
-0.0163565780967474 -0.027235332876443863 0.04770682752132416 -0.05799118056893349 0.053953077644109726 -0.05876675993204117 0.03828372061252594 0.058635465800762177 -0.035565391182899475 
0.04261096566915512 0.020363930612802505 -0.044512756168842316 -0.05337192490696907 -0.007631880696862936 0.06765950471162796 0.020164186134934425 0.05379501357674599 0.043453365564346313 
-0.04689023643732071 -0.04669371619820595 -0.05580737814307213 -0.043665893375873566 -0.0088959326967597 0.032464686781167984 0.02102023735642433 -0.03267447650432587 0.04649873450398445 
0.06525521725416183 -0.05774447321891785 -0.039421841502189636 0.04192451015114784 -0.058955512940883636 0.015326772816479206 -0.05794474110007286 0.0574333630502224 -0.05630354955792427 
0.04851781576871872 0.04862268269062042 0.03863866627216339 0.04095764830708504 0.03184197470545769 0.04709973558783531 0.07295149564743042 0.04384745657444 -0.04294409230351448 
0.044059671461582184 0.0576610341668129 -0.02161044254899025 0.03190899267792702 -0.03298868611454964 -0.039630088955163956 0.04414091631770134 -0.02356475405395031 -0.003242603735998273 
-0.017966289073228836 0.06610505282878876 0.01712634414434433 -0.03119049221277237 0.04593505337834358 0.015861107036471367 -0.05511267110705376 -0.05915500968694687 -0.019537409767508507 
0.03372976556420326 0.020386483520269394 -0.032512977719306946 0.023535877466201782 0.07140135765075684 -0.06096751242876053 -0.04398315027356148 -0.03276614099740982 -0.057339366525411606 
-0.05638420581817627 0.04497826099395752 0.03061014972627163 0.06874018907546997 -0.03221692144870758 -0.04389367625117302 0.03822901099920273 -0.016228605061769485 0.013046422973275185 
-0.04916084185242653 0.01823912188410759 -0.057325974106788635 -0.043776217848062515 -0.031642552465200424 0.02163711003959179 0.049722202122211456 0.04490544646978378 -0.047869883477687836 
0.06748878955841064 0.01637273281812668 0.05292863771319389 -0.00895691942423582 -0.03641705960035324 0.04363737255334854 -0.060253020375967026 0.04203880578279495 -0.047603413462638855 
-0.04963424801826477 -0.03580872714519501 -0.03600805997848511 -0.03182505443692207 0.0302006546407938 0.04407983273267746 0.052558816969394684 0.06392982602119446 0.017869988456368446 
-0.017858892679214478 0.05303993821144104 0.06949679553508759 0.061226945370435715 -0.03612454608082771 -0.045533083379268646 0.06660717725753784 -0.060141876339912415 -0.046396106481552124 
0.033191923052072525 0.05176595598459244 -0.034323662519454956 -0.04776514694094658 0.012188594788312912 -0.024403609335422516 -0.049524564296007156 0.006255246698856354 0.037385694682598114 
0.05147939547896385 0.042012542486190796 0.050088826566934586 -0.008659008890390396 0.042322635650634766 -0.01799975335597992 0.029852798208594322 0.06624649465084076 0.04151848703622818 
0.04327879473567009 0.05904339626431465 -0.012899907305836678 0.041232701390981674 0.0016923949588090181 0.055197544395923615 0.0341472402215004 0.062025584280490875 -0.019704820588231087 
-0.05998445674777031 0.016762766987085342 0.05824758857488632 0.0024030343629419804 -0.06265847384929657 -0.04477899521589279 0.050398848950862885 -0.023515785112977028 -0.06140526011586189 
0.05603506416082382 -0.03110562264919281 0.0522722527384758 0.051499903202056885 0.04339848458766937 -0.018023256212472916 0.017314080148935318 -0.04721942916512489 -0.0028327167965471745 
0.018966535106301308 -0.017567787319421768 -0.019788693636655807 0.03368647024035454 -0.03881210833787918 -0.06930913031101227 -0.04309544712305069 -0.032923366874456406 0.08098842203617096 
-0.01448836736381054 -0.00872880034148693 0.010258953087031841 0.045703593641519547 0.04468444734811783 -0.007219725754112005 0.005388398189097643 0.018455902114510536 -0.012297358363866806 
-0.07042869180440903 0.008089087903499603 0.006578974425792694 0.06052353233098984 -0.0369814857840538 0.0175487007945776 -0.027479149401187897 -0.0703544095158577 0.014194188639521599 
0.04449808597564697 0.03225760906934738 0.049140941351652145 0.04862472414970398 0.054686471819877625 -0.024185653775930405 -0.03882189467549324 0.06001846119761467 0.029896480962634087 
0.03478921949863434 0.04214903712272644 -0.01931852474808693 0.05445144325494766 0.02444922924041748 0.03306001424789429 -0.017696624621748924 0.049098167568445206 0.066298708319664 
-0.05430249497294426 -0.0004344421031419188 0.06410449743270874 0.003707707393914461 0.02657725103199482 0.06198476627469063 0.031037908047437668 -0.03446434438228607 0.03693746030330658 
-0.03548727557063103 -0.05672381818294525 -0.03262597322463989 -0.008935044519603252 -0.033002693206071854 0.061020638793706894 0.04218829795718193 -0.041359491646289825 0.012589622288942337 
-0.03835600987076759 0.04554818570613861 -0.0621982142329216 -0.04699733108282089 0.04096078500151634 -0.055683594197034836 -0.0520753376185894 -0.06244143098592758 0.047000277787446976 
0.05282920226454735 -0.022840844467282295 0.0017923261038959026 0.014575270004570484 -0.011724529787898064 -0.04810275137424469 -0.05495108664035797 0.028489962220191956 0.010996461845934391 
0.04485612362623215 0.023068133741617203 -0.004117845557630062 0.05458148568868637 0.04102621227502823 0.007349879015237093 0.029723677784204483 -0.04213936999440193 -0.03836710378527641 
0.020070629194378853 -0.036243632435798645 0.06740693002939224 -0.07979312539100647 0.058211151510477066 0.03539065644145012 0.061165452003479004 0.0635194480419159 0.011401411145925522 
0.048256851732730865 0.06287699937820435 0.04757566750049591 -0.048901449888944626 -0.04806468263268471 -0.057724278420209885 -0.02496437355875969 -0.042409829795360565 -0.04776640608906746 
-0.009266961365938187 0.05273188650608063 0.018770867958664894 -0.05099789425730705 0.015437248162925243 -0.0008997624972835183 -0.001684811431914568 -0.04576548561453819 -0.020180657505989075 
-0.034249916672706604 0.004488673526793718 -0.07572028785943985 0.02620740234851837 0.057896483689546585 -0.01743997260928154 -0.03740773722529411 0.05640856549143791 0.052126869559288025 
-0.01718408241868019 0.03436652943491936 -0.015597225166857243 -0.03351346030831337 -0.02294561266899109 -0.02447093278169632 -0.030003622174263 -0.01637233980000019 -0.05521128326654434 
-0.07086225599050522 0.052684806287288666 0.03663521632552147 0.050569452345371246 0.03364641219377518 -0.011948964558541775 -0.005356473848223686 0.048071276396512985 -0.04767577350139618 
-0.06282637268304825 0.015636133030056953 -0.06063782796263695 0.015087471343576908 -0.010717221535742283 0.01143582072108984 0.0389527827501297 0.05434402450919151 -0.016360044479370117 
-0.07028200477361679 0.005178242456167936 -0.04931404069066048 0.05226151645183563 0.07007674127817154 0.049697548151016235 0.041622456163167953 0.0017870584269985557 -0.025163566693663597 
0.06799765676259995 0.029830778017640114 -0.01356662716716528 0.06637823581695557 -0.03770405799150467 -0.03349773585796356 -0.007777860388159752 -0.028003856539726257 0.0581156462430954 
-0.015577508136630058 -0.002563613234087825 0.021565861999988556 -0.06331544369459152 0.016415372490882874 0.04979109391570091 -0.0425330325961113 -0.028264429420232773 -0.06898979097604752 
0.047278326004743576 0.013927444815635681 0.026462944224476814 0.02391604520380497 0.06300482898950577 0.016726002097129822 -0.04582966864109039 0.042601410299539566 -0.042759619653224945 
-0.01994396559894085 -0.05067812651395798 -0.031006334349513054 0.015541152097284794 0.005616828333586454 -0.06247610226273537 0.03238051012158394 -0.040900226682424545 0.025143641978502274 
0.0547066256403923 0.044771552085876465 0.05879265069961548 0.03087387979030609 -0.021739758551120758 -0.02784785069525242 -0.017614440992474556 0.0199159923940897 -0.04345308989286423 
0.05531642585992813 -0.001279640942811966 -0.03225007653236389 0.03195986896753311 0.0683266669511795 0.03466213494539261 0.048139654099941254 0.043186552822589874 -0.06508094817399979 
0.020200354978442192 -0.03706495091319084 -0.027857771143317223 -0.06263254582881927 -0.030032556504011154 -0.024654602631926537 -0.04682158678770065 -0.04673174396157265 -0.05352206155657768 
-0.04289129376411438 0.051201123744249344 0.04625586047768593 -0.019430555403232574 0.05264159291982651 0.005434365943074226 0.005918143317103386 0.004176170565187931 0.062296606600284576 
0.0037616388872265816 0.05993273854255676 -0.013559217564761639 0.07067330926656723 -0.04195265471935272 -0.0009004414896480739 -0.05547979846596718 0.03872092813253403 0.0245662871748209 
-0.019425245001912117 -0.05494936555624008 -0.036169204860925674 0.008328286930918694 -0.025172116234898567 -0.029016774147748947 0.03344433754682541 0.044471900910139084 0.06367159634828568 
0.017193028703331947 -0.028813613578677177 0.052550267428159714 -0.040937043726444244 0.05985023453831673 -0.003456034231930971 0.05172836780548096 -0.004282322246581316 -0.018904676660895348 
-0.02190682291984558 -0.02912767231464386 -0.02615109086036682 0.02300421893596649 0.026303477585315704 0.020913198590278625 -0.04160629212856293 0.03714481368660927 -0.00014847870625089854 
0.0023623451124876738 0.013091192580759525 0.05904238671064377 -0.009336398914456367 0.011212458834052086 -0.012630864046514034 0.04583710804581642 0.017185764387249947 0.03885138779878616 
-0.06303264200687408 0.057790566235780716 0.0006534128915518522 -0.01936759240925312 -0.05180753394961357 0.06254266202449799 0.027600213885307312 0.013248751871287823 -0.01713407225906849 
0.041102729737758636 0.042641475796699524 -0.024132005870342255 0.015402095392346382 -0.005216590594500303 0.03593306615948677 0.040902405977249146 0.04902513697743416 0.050798382610082626 
-0.03202870860695839 0.04547921568155289 0.010835135355591774 -0.003570134285837412 0.032100263983011246 -0.01593445986509323 -0.05581396445631981 0.06429193168878555 0.04221710190176964 
0.021252481266856194 -0.006756878923624754 0.013245496898889542 0.009096065536141396 -0.010345901362597942 -0.007652106694877148 0.03707306832075119 0.01626739278435707 0.07113981992006302 
0.009460274130105972 -0.0702582374215126 -0.04822443425655365 -0.06356887519359589 -0.06428956985473633 0.01969810388982296 -0.004053163807839155 -0.06813382357358932 0.009469786658883095 
-0.044936418533325195 -0.04526525363326073 0.06789139658212662 0.024802982807159424 -0.025334132835268974 0.05431677773594856 -0.01775203086435795 0.06668867915868759 0.07054856419563293 
0.09257610142230988 0.03247090429067612 -0.019930701702833176 0.09852366894483566 0.02878168784081936 0.042987845838069916 0.007991050370037556 -0.05269254371523857 -0.0066617862321436405 
0.0054193646647036076 0.046549104154109955 0.06406223028898239 -0.004739977419376373 -0.037299029529094696 0.041763946413993835 -0.0035505203995853662 -0.02950873412191868 0.002570304786786437 
0.03890685737133026 -0.0421510748565197 -0.01871020905673504 0.044387057423591614 -0.05135325342416763 0.044625818729400635 0.023259146139025688 0.049191102385520935 -0.04682258516550064 
0.044422078877687454 -0.01512998528778553 0.07340380549430847 -0.005130249075591564 0.005482352338731289 -0.003868420608341694 -0.013693471439182758 0.03154020383954048 -0.02947252057492733 
0.06916908919811249 0.0042842659167945385 -0.03352344408631325 -0.033555835485458374 -0.04928296059370041 -0.01051525492221117 0.027360493317246437 0.007230025250464678 0.027744648978114128 
0.07510002702474594 -0.052701178938150406 0.03892313316464424 0.030651114881038666 0.013058743439614773 0.06360416859388351 -0.0030751756858080626 0.03764599561691284 -0.026638993993401527 
0.014256764203310013 -0.09431333839893341 -0.10684572160243988 -0.07619606703519821 -0.02034415304660797 -0.02528415434062481 -0.03955380618572235 -0.01759372651576996 0.012925155460834503 
-0.05697343870997429 0.060110606253147125 -0.037020642310380936 -0.038470830768346786 -0.03743419051170349 -0.04641130194067955 -0.022756582126021385 -0.06665939092636108 0.036165669560432434 
0.019789956510066986 0.0203371774405241 -0.0673127993941307 0.027109550312161446 0.051705460995435715 0.03387272357940674 0.0030887348111718893 0.031216798350214958 -0.06841456890106201 
-0.05466850847005844 -0.011749143712222576 -0.019790371879935265 -0.04383561760187149 -0.025201786309480667 -0.026062190532684326 0.061132777482271194 -0.000428735394962132 -0.022440418601036072 
-0.015635021030902863 -0.04856937751173973 0.03304946795105934 -0.05615294352173805 0.06622521579265594 -0.023614857345819473 -0.0014578980626538396 -0.024349961429834366 -0.06213908642530441 
0.05200308933854103 -0.023054422810673714 -0.029814587906003 0.03275956213474274 -0.029223527759313583 -0.013889627531170845 0.054911378771066666 0.06619033962488174 0.03611304983496666 
0.026106763631105423 0.054228249937295914 -0.049507223069667816 0.008750327862799168 -0.013391978107392788 0.011342213489115238 0.01194807980209589 0.05784260109066963 0.019432349130511284 
-0.04941656440496445 0.0052805994637310505 0.038473211228847504 0.028336185961961746 -0.06319259852170944 -0.018912894651293755 0.03624654561281204 0.0028528240509331226 -0.045023392885923386 
0.05436220020055771 -0.016277695074677467 -0.006983041763305664 -0.017106667160987854 0.05004771053791046 0.013541154563426971 -0.06234663724899292 0.035374898463487625 0.025297310203313828 
0.01816365495324135 -0.013923288322985172 0.013129654340445995 -0.06961043924093246 -0.008427244611084461 -0.040709108114242554 0.04761980101466179 -0.037382982671260834 0.05826413631439209 
0.06739495694637299 0.05483612045645714 0.011460047215223312 0.011921904049813747 0.0222309660166502 0.02280953899025917 0.037064749747514725 0.016870295628905296 -0.032440170645713806 
-0.022663304582238197 0.020128462463617325 0.06116160377860069 -0.04524281993508339 0.0467442087829113 -0.048319630324840546 0.05533977970480919 -0.06966853886842728 -0.020041251555085182 
-0.027472658082842827 -0.06609870493412018 -0.033629558980464935 -0.03393556550145149 -0.0360092930495739 0.05063822120428085 0.06434496492147446 -0.00281564611941576 -0.06570646166801453 
-0.04217532277107239 -0.06934042274951935 0.04817789047956467 -0.006407018750905991 -0.017961179837584496 -0.044419582933187485 0.026587873697280884 0.03464798256754875 -0.04521235078573227 
0.01926417089998722 0.056744884699583054 -0.04175641015172005 0.0693783313035965 -0.04655289649963379 -0.06023811548948288 -0.06450671702623367 -0.027217647060751915 -0.010455493815243244 
-0.009202627465128899 -0.025427736341953278 -0.02635541744530201 -0.0007293049711734056 0.07431068271398544 0.0723068118095398 -0.03970843926072121 -0.02027157135307789 0.023728013038635254 
0.05077901482582092 0.04154037684202194 0.019692176952958107 0.01374147366732359 0.057283878326416016 0.041770193725824356 0.06347833573818207 -0.026320448145270348 -0.023057833313941956 
-0.013110424391925335 -0.013129017315804958 -0.01871846616268158 0.05724520981311798 0.009106931276619434 -0.03436027839779854 -0.060611773282289505 -0.04009433463215828 -0.013914222829043865 
0.0037813333328813314 0.05818769708275795 0.06011680141091347 -0.05778195708990097 0.08937143534421921 -0.0495942197740078 -0.002893914934247732 0.04007761552929878 -0.048381686210632324 
0.015948692336678505 -0.023636355996131897 0.019454436376690865 -0.03868984431028366 -0.029269909486174583 0.05496949329972267 0.03967529907822609 -0.05499881133437157 -0.06707550585269928 
-0.03218851983547211 -0.056314025074243546 -0.043415918946266174 -0.06302864104509354 0.014664492569863796 0.0025827684439718723 -0.045963309705257416 0.07119210809469223 -0.029273180291056633 
-0.06183118000626564 -0.005876562558114529 -0.07206901907920837 0.04661373049020767 0.008225983940064907 -0.004818935878574848 -0.06410940736532211 -0.0019209004240110517 -0.06669390201568604 
0.06317226588726044 0.0065613300539553165 -0.031445909291505814 0.029035747051239014 0.037652019411325455 0.011484448798000813 0.06710788607597351 0.05528462678194046 -0.017692722380161285 
0.04812214523553848 -0.009189541451632977 -0.03256766498088837 -0.05242757499217987 0.04102569818496704 0.056883249431848526 -0.06315091252326965 0.05234759300947189 -0.03855422884225845 
0.0340268537402153 -0.004219926428049803 0.027710195630788803 0.1079908013343811 0.07093585282564163 -0.022261615842580795 -0.042168084532022476 0.09961113333702087 0.06443360447883606 
0.022482022643089294 -0.050052229315042496 0.028141576796770096 -0.046158112585544586 -0.036572255194187164 0.05130242928862572 -0.03770336136221886 0.003328123828396201 -0.0018234940944239497 
-0.03694559261202812 -0.03582034632563591 0.020446959882974625 0.06212218478322029 0.03065669722855091 -0.05943932384252548 0.0001215899974340573 0.018786795437335968 -0.059254396706819534 
-0.02181636169552803 -0.003000688971951604 -0.010887594893574715 0.04805058240890503 0.03510451689362526 0.0160536989569664 0.029138414189219475 -0.022205855697393417 -0.02412131428718567 
0.06140050292015076 0.0486639104783535 -0.0002657920413184911 -0.06328235566616058 -0.014213953167200089 0.050645120441913605 0.000792117090895772 0.0628332644701004 -0.044442128390073776 
0.011657532304525375 -0.08832094818353653 0.034693069756031036 -0.02762744389474392 0.018143780529499054 -0.013887607492506504 -0.07172614336013794 -0.06362330913543701 -0.02955237589776516 
0.029605023562908173 0.03712073713541031 -0.027558520436286926 -0.013635926879942417 0.06423312425613403 -0.05197092145681381 -0.019268931820988655 0.059091027826070786 -0.010549806989729404 
-0.028910059481859207 -0.019029423594474792 0.053277987986803055 0.020717177540063858 -0.06047516688704491 -0.04563385248184204 -0.037318646907806396 0.021045714616775513 -0.012199543416500092 
-0.038769759237766266 0.03406565263867378 -0.031654827296733856 -0.016572782769799232 -0.0407714769244194 -0.04442228004336357 0.04917185381054878 0.05755988508462906 -0.0674755722284317 
-0.024182982742786407 0.004278084728866816 0.05491631105542183 -0.0453004315495491 0.0620788037776947 0.0406278632581234 0.017228631302714348 -0.03285955265164375 0.06483221799135208 
-0.042193520814180374 0.0010456183226779103 0.021347858011722565 -0.053158462047576904 0.06214692443609238 0.009414445608854294 -0.020304732024669647 -0.0038726392667740583 -0.016197416931390762 
0.015941867604851723 -0.04714154079556465 0.06376970559358597 -0.021699320524930954 -0.019259359687566757 -0.020168080925941467 0.06253491342067719 0.017006393522024155 -0.003713366575539112 
-0.054023440927267075 -0.04378475248813629 -0.0075613511726260185 0.028996111825108528 0.01566215790808201 0.005187420640140772 -0.01709585264325142 -0.047820933163166046 -0.07508078217506409 
-0.018274420872330666 -0.005967160686850548 0.06063983589410782 -0.05171292647719383 -0.05459839850664139 0.05900591239333153 0.02449028752744198 0.010565117932856083 0.010535724461078644 
-0.058074090629816055 -0.03193604573607445 -0.026212697848677635 0.006318948697298765 0.041588231921195984 0.01770162396132946 -0.046293456107378006 -0.00220012990757823 -0.04653520882129669 
0.03160575032234192 -0.005637926049530506 0.028177857398986816 0.024413874372839928 -0.015822548419237137 -0.022431379184126854 0.03460347279906273 -0.03915218263864517 -0.06686324626207352 
-0.023556319996714592 0.038336627185344696 0.02417108416557312 -0.0037242863327264786 -0.05276699364185333 -0.004055148456245661 -0.014910313300788403 -0.04114691540598869 0.02480710670351982 
0.024307558313012123 -0.019991649314761162 -0.008600876666605473 -0.043613728135824203 -0.033715132623910904 -0.021729715168476105 -6.103814666857943e-05 -0.021950602531433105 -0.05181359872221947 
0.022718852385878563 -0.006363444495946169 -0.037435516715049744 -0.03431203216314316 0.04562024027109146 -0.06123709678649902 0.020376058295369148 0.011170977726578712 0.013102519325911999 
0.02442105859518051 -0.06830188632011414 -0.011466413736343384 -0.06190021336078644 0.006622361019253731 -0.03706849366426468 0.052661020308732986 0.053510282188653946 0.06033194810152054 
0.013910277746617794 -0.0404755100607872 0.026455741375684738 -0.02789204753935337 -0.01520470529794693 -0.02585722878575325 0.01955653913319111 0.019623519852757454 0.005224589724093676 
0.0246964730322361 0.004896417260169983 0.037162620574235916 0.067160964012146 -0.02225940115749836 0.04683758318424225 -0.0394505113363266 -0.04580044373869896 -0.042723629623651505 
-0.05651964992284775 0.00011982227442786098 -0.04699867218732834 -0.03256845846772194 -0.02824414148926735 -0.043590154498815536 -0.0619376115500927 0.05258334428071976 -0.03431986644864082 
-0.03278862684965134 -0.06490863859653473 0.05157427489757538 0.048866864293813705 -0.038871537894010544 -0.009131195023655891 -0.05748169869184494 -0.07547776401042938 -0.03844469413161278 
-0.1370939016342163 -0.018674513325095177 -0.08509168773889542 -0.03913028910756111 -0.062003642320632935 0.0016437285812571645 -0.05172315984964371 -0.0032809306867420673 -0.02213120274245739 
-0.027662426233291626 0.0020622943993657827 0.06914917379617691 0.04473252594470978 -0.020017463713884354 0.005954303313046694 0.04397142678499222 0.002060801023617387 0.04768839478492737 
0.03180957958102226 -0.049501750618219376 0.04415950924158096 0.03943287581205368 -0.018660899251699448 0.01728694513440132 0.00617621187120676 -0.033557601273059845 0.008775566704571247 
-0.0171374399214983 -0.04435577616095543 0.052128128707408905 -0.009696119464933872 -0.05025157332420349 -0.05163167417049408 -0.056356728076934814 0.05481535196304321 0.023983070626854897 
0.0004091871960554272 -0.057467758655548096 0.03506114333868027 0.03779265284538269 0.04950137063860893 -0.0036672898568212986 0.024164628237485886 -0.028866104781627655 -0.0620005801320076 
0.05809846892952919 -0.017192399129271507 0.015690432861447334 0.04335084557533264 -0.027401378378272057 -0.019905410706996918 -0.05684439092874527 -0.043027523905038834 -0.06129699572920799 
-0.06746815890073776 -0.08127331733703613 -0.020437972620129585 -0.034872204065322876 0.00025476847076788545 0.05977848172187805 -0.03541405498981476 -0.002671891823410988 0.007206316106021404 
-0.010817957110702991 -0.06675747781991959 0.025652378797531128 0.003669513389468193 0.01890510320663452 -0.0014257830334827304 -0.00351054803468287 -0.025243617594242096 0.006187619175761938 
-0.03401665762066841 -0.0448155514895916 0.044186707586050034 -0.038815438747406006 -0.06788672506809235 -0.0384506992995739 0.02509678341448307 -0.028021633625030518 0.04758196324110031 
0.02852453663945198 -0.02256076969206333 0.043879397213459015 -0.035471417009830475 -0.06420493125915527 0.018752409145236015 0.009569300338625908 -0.035193853080272675 -0.010020600631833076 
0.0114870211109519 0.056829337030649185 0.020590366795659065 -0.028135716915130615 -0.06774687021970749 -0.04779089614748955 0.0250539593398571 -0.05744871124625206 0.023111410439014435 
0.060268811881542206 -0.04607342183589935 0.031443849205970764 -0.002782398136332631 -0.008231963030993938 0.03272571414709091 -0.06209238991141319 0.030157988891005516 0.06598382443189621 
0.01748685911297798 -0.01474763173609972 -0.05456781014800072 -0.0250377394258976 -0.02832425758242607 0.014346810057759285 0.04680367186665535 0.010088151320815086 -0.028207918629050255 
-0.006651382893323898 0.016903672367334366 0.042251113802194595 -0.00886243861168623 0.06297899782657623 -0.058731939643621445 -0.04956921935081482 0.02161741629242897 -0.05401104688644409 
-0.043138641864061356 0.06531034409999847 -0.011291916482150555 0.03235945478081703 -0.044412340968847275 0.004607691895216703 -0.05091352015733719 0.01619105413556099 0.046565618366003036 
-0.014826505444943905 0.010111198760569096 0.06091710180044174 0.07080074399709702 0.06413168460130692 0.07144114375114441 0.0348699614405632 -0.05505757033824921 0.041356030851602554 
-0.05775183439254761 -0.05179144814610481 -0.020430857315659523 -0.020270274952054024 -0.012596390210092068 0.02947225794196129 -0.02134723588824272 -0.021321279928088188 0.04407660290598869 
0.07401704043149948 0.03246248513460159 0.07376610487699509 -0.022427236661314964 -0.003071372164413333 0.04116923734545708 0.060519251972436905 0.03288905322551727 0.05805614963173866 
0.07447975873947144 -0.02292005717754364 0.06682510673999786 0.08989267796278 0.08665589988231659 -0.03181782364845276 -0.007060122676193714 -0.010589673183858395 0.075480617582798 
-0.050269730389118195 -0.06037752702832222 0.011414633132517338 0.06017744168639183 0.02711017243564129 -0.04894968122243881 0.02008550800383091 -0.04192514717578888 -0.045406557619571686 
0.05560365691781044 0.01609475165605545 0.0707557275891304 0.03303223103284836 -0.046216048300266266 0.07852534204721451 0.017905814573168755 0.022955894470214844 -0.04257683828473091 
-0.025799460709095 0.060264430940151215 0.05131816118955612 0.035522256046533585 -0.07486385107040405 0.02653023600578308 -0.03626061975955963 0.03800864890217781 -0.004430399741977453 
0.02295914851129055 0.060062505304813385 0.06604480743408203 0.02900085784494877 0.06988687813282013 -0.042446959763765335 -0.01170400995761156 -0.0018490138463675976 -0.05190281197428703 
0.020480021834373474 0.007183346897363663 0.043754786252975464 -0.012004098854959011 -0.012178811244666576 -0.06818302720785141 -0.0343189500272274 0.06548292189836502 -0.05349361151456833 
0.07794845849275589 0.07640019059181213 -0.03629210218787193 -0.07840172201395035 -0.021001696586608887 -0.060072340071201324 0.016410628333687782 0.03351977840065956 -0.050724197179079056 
0.043129224330186844 0.025819703936576843 0.018455177545547485 -0.03026426210999489 0.017837906256318092 -0.02373524010181427 0.055119652301073074 0.028599128127098083 -0.01793201081454754 
-0.026832573115825653 0.031243547797203064 0.05355630815029144 0.046738121658563614 0.01261743064969778 -0.04899461939930916 0.050873372703790665 -0.042362820357084274 -0.025795264169573784 
0.061464570462703705 -0.02854524366557598 -0.06010794639587402 0.028789937496185303 0.06893899291753769 -0.03928175941109657 0.001286894897930324 -0.019824912771582603 -0.012108590453863144 
-0.03211435675621033 -0.011826428584754467 0.023743219673633575 0.05856718495488167 -0.05352647975087166 0.00566834956407547 0.009107268415391445 -0.03612944483757019 -0.0122340964153409 
-0.0190849881619215 -0.028791148215532303 0.00429548230022192 -0.018746137619018555 -0.05886572599411011 -0.04304874688386917 0.0029939424712210894 0.0009325222345069051 -0.002059593331068754 
-0.02427053637802601 0.045758891850709915 0.009823036380112171 0.06071658805012703 0.028697919100522995 0.024995535612106323 -0.02009766362607479 0.06419448554515839 0.012594098225235939 
0.019993068650364876 0.027941351756453514 0.04778730869293213 0.040731482207775116 0.0724659413099289 -0.01688997447490692 0.06351213157176971 0.048067037016153336 0.02455735392868519 
-0.005894014146178961 0.06147443875670433 0.009728603065013885 -0.05205051973462105 -0.03704766184091568 -0.05856218561530113 0.023369530215859413 0.05608415603637695 0.026547908782958984 
-0.008024155162274837 0.02806171216070652 -0.0036776624619960785 -0.08497684448957443 0.02227497100830078 -0.06601019203662872 0.042172495275735855 0.04006402567028999 -0.06688696146011353 
-0.03172734007239342 -0.003041127696633339 -0.011895166710019112 -0.03781173378229141 0.06029639393091202 -0.05486752837896347 -0.03411312773823738 0.048211973160505295 0.009777113795280457 
-0.028891263529658318 -0.037389758974313736 0.016906453296542168 -0.027241379022598267 -0.025488290935754776 0.0535590760409832 0.031666986644268036 0.05882839113473892 -0.049946222454309464 
0.03463083133101463 -0.06225148215889931 -0.02759997360408306 -0.008915944956243038 -0.013673811219632626 -0.012439512647688389 0.06906185299158096 -0.018507523462176323 0.04616372659802437 
-0.01000378280878067 0.011563918553292751 -0.004728108178824186 -0.027727549895644188 -0.05852885916829109 0.018603257834911346 -0.014972914010286331 -0.005226822104305029 0.021289221942424774 
-0.046497005969285965 0.04796662926673889 0.008821259252727032 0.06003798544406891 0.04454584792256355 -0.04225534945726395 -0.0236870888620615 -0.018073715269565582 0.0684354156255722 
0.04719696193933487 0.07136613875627518 0.039202816784381866 -0.006388608831912279 -0.0090496726334095 0.07629653066396713 -0.0708542987704277 -0.01364071574062109 -0.03477070853114128 
0.034349989145994186 0.048977166414260864 -0.04312514141201973 -0.04381269961595535 -0.01530392561107874 0.04635201022028923 0.014806908555328846 0.03361418843269348 0.01937413588166237 
0.03204973414540291 -0.02329167351126671 -0.017109623178839684 -0.05714695528149605 -0.06993114948272705 0.0323633998632431 0.01179442834109068 -0.06818417459726334 -0.03220691904425621 
0.027844903990626335 0.03315084055066109 0.07957407087087631 0.03394238278269768 -0.02215784229338169 -0.030686253681778908 0.0474308505654335 -0.004136072006076574 -0.04908366501331329 
0.019441649317741394 0.03440849855542183 -0.03680684417486191 -0.015233623795211315 -0.012104160152375698 -0.034379005432128906 0.05317511409521103 0.051926687359809875 -0.03687523677945137 
0.05860399082303047 0.05313241854310036 -0.02346579171717167 -0.03534450754523277 -0.04336608201265335 0.008994637988507748 0.03299655765295029 0.04498828575015068 0.055655911564826965 
-0.05868128687143326 0.02247633971273899 -0.05700422450900078 0.0005693564307875931 0.0407458171248436 0.05217026546597481 -0.00518939970061183 -0.016111532226204872 0.03147977218031883 
0.05417618528008461 0.008273525163531303 0.0455935038626194 -0.0015142387710511684 0.01140727661550045 -0.002200925489887595 -0.01753862015902996 0.0398554690182209 -0.0027981840539723635 
0.056873492896556854 -0.06713829934597015 0.012126250192523003 0.03190264105796814 0.007452854420989752 -0.04124301299452782 -0.014314799569547176 0.05847810208797455 0.03406129032373428 
-0.0009928966173902154 0.0738844946026802 -0.0260496623814106 0.013926556333899498 0.0712784007191658 0.04591269791126251 -0.03832995146512985 0.09897951036691666 0.09005185216665268 
0.02872711420059204 -0.04035204276442528 -0.049604590982198715 0.005186721216887236 -0.03341883420944214 0.022044049575924873 0.02874215878546238 0.07026347517967224 -0.010566814802587032 
-0.009885034523904324 0.03137063980102539 -0.005889257416129112 0.01790989190340042 0.0013087262632325292 0.029364027082920074 -0.014784635044634342 -0.00389690138399601 0.06214872747659683 
-0.015520239248871803 -0.009086251258850098 -0.016802432015538216 0.022831693291664124 0.00022193706536199898 0.02293127216398716 0.004327031783759594 0.04037667065858841 -0.06620734184980392 
-0.06538937240839005 0.05855443701148033 -0.043955713510513306 -0.05840861797332764 0.06470110267400742 -0.026396770030260086 -0.04636507108807564 0.0422712005674839 -0.0498306043446064 
-0.08328576385974884 -0.003014255315065384 0.022970030084252357 0.029668958857655525 0.0428888201713562 0.006142743397504091 -0.060197532176971436 0.0032319489400833845 0.03618375584483147 
0.03775659576058388 0.04399082437157631 -0.011811449192464352 0.044768087565898895 -0.05746479332447052 -0.009587936103343964 0.019248856231570244 0.014737319201231003 -0.027818365022540092 
-0.031419869512319565 0.05998782813549042 -0.02948720008134842 -0.026196246966719627 -0.061177462339401245 -0.03536946699023247 -0.00366502464748919 -0.03060789406299591 -0.006971106398850679 
0.06118892505764961 0.014679430052638054 -0.015280896797776222 0.07171306759119034 0.045466743409633636 0.0022614849731326103 0.06111569702625275 0.06654993444681168 0.012648136354982853 
-0.027822472155094147 0.012133371084928513 -0.07104504108428955 0.0525701567530632 0.029324498027563095 0.011604615487158298 -0.02934991754591465 -0.0407303124666214 -0.035878535360097885 
-0.0393589586019516 -0.01065724715590477 0.027554066851735115 0.04317213594913483 -0.05771150439977646 -0.024249326437711716 -0.026327278465032578 -0.04571827873587608 0.01459681335836649 
0.021389277651906013 0.013208321295678616 0.023909375071525574 -0.025185517966747284 -0.03469302877783775 -0.06471670418977737 0.01869036816060543 0.05521735921502113 0.06048068404197693 
0.01309816725552082 0.01996779814362526 0.047976672649383545 0.0016255371738225222 -0.036119211465120316 -0.008496344089508057 0.06846104562282562 0.019383082166314125 -0.00425083190202713 
0.04432840645313263 0.06491267681121826 0.01840944029390812 0.042686063796281815 0.035720497369766235 0.05946246534585953 -0.008635821752250195 0.04641399160027504 0.005988938733935356 
-0.04449683800339699 -0.05749024823307991 -0.06073569133877754 0.06939122825860977 0.0010209681931883097 -0.014644069597125053 0.02358943037688732 -0.03523516654968262 0.02926878072321415 
0.04868565872311592 0.02374904789030552 0.037882108241319656 0.055327434092760086 0.006060301326215267 0.06438639014959335 0.023082666099071503 -0.050447918474674225 -0.0031163664534687996 
-0.029533561319112778 0.020024072378873825 -0.03305430710315704 0.003010283224284649 -0.026921622455120087 0.06006775051355362 -0.012630737386643887 -0.002566284267231822 0.059097565710544586 
0.013002127408981323 -0.022244485095143318 0.007597235031425953 -0.02572260983288288 0.028324982151389122 0.042512327432632446 -0.005804687738418579 -0.010861235670745373 -0.0406096875667572 
0.10114322602748871 0.057560890913009644 0.0927424281835556 -0.010281595401465893 -0.03673487901687622 0.05641498416662216 0.05018722265958786 0.035459935665130615 0.05399026721715927 
0.024029208347201347 -0.012550883926451206 -0.05908463895320892 -0.016419921070337296 -0.052481167018413544 0.06168809160590172 -0.06767568737268448 -0.009074623696506023 -0.009439073503017426 
-0.033356983214616776 -0.053640205413103104 0.04832356795668602 -0.00821623019874096 0.02382085844874382 -0.005765042267739773 -0.008367802016437054 0.02381974644958973 0.0558161661028862 
-0.021184496581554413 -0.016752978786826134 -0.06305316835641861 0.07290183752775192 -0.03991269692778587 0.06780758500099182 0.08570349216461182 -0.045521244406700134 -0.02738279104232788 
0.070754773914814 -0.03220118582248688 0.052490513771772385 0.06756795942783356 0.009219301864504814 0.0034685968421399593 0.0026371520943939686 0.040136322379112244 -0.034189626574516296 
-0.057647839188575745 -0.008495987392961979 -0.05277015641331673 -0.03219981864094734 -0.003469273215159774 -0.04700823873281479 0.038934316486120224 0.02014913223683834 -0.03220666944980621 
0.04669554904103279 0.03385774418711662 0.08748001605272293 -0.03398192301392555 -0.029053356498479843 0.011231247335672379 -0.012053096666932106 0.01522248238325119 -0.003966179210692644 
0.023759521543979645 -0.019828489050269127 0.07785053551197052 0.01180922333151102 0.05133070424199104 0.05710538104176521 -0.013057012110948563 -0.02990003302693367 0.03910474106669426 
0.057001661509275436 -0.019983889535069466 0.016557930037379265 0.0641302689909935 0.03772469982504845 0.06344304233789444 0.045859962701797485 0.0005871564499102533 0.06533870100975037 
-0.05612456798553467 -0.0470668263733387 0.03811269626021385 0.039605725556612015 -0.020835598930716515 -0.061333321034908295 0.02006666734814644 -0.01947437785565853 0.013786888681352139 
0.028292225673794746 0.04807867482304573 -0.04037131369113922 0.03134136274456978 -0.04708942398428917 -0.03920329362154007 -0.04204518720507622 0.004621097352355719 0.06050534546375275 
0.010784752666950226 -0.044147033244371414 0.03229200467467308 0.06865331530570984 0.09514961391687393 0.0927041620016098 0.011977496556937695 0.042450107634067535 0.07724203914403915 
-0.04867027327418327 -0.015101149678230286 0.06417736411094666 -0.02185426838696003 -0.038194362074136734 0.0061464873142540455 -0.0046681188978254795 -0.04278242215514183 -0.06408680230379105 
-0.005764829460531473 0.05919535085558891 -0.022120416164398193 0.040231551975011826 0.02401578612625599 -0.06593868881464005 0.028345834463834763 0.067116379737854 0.05268191173672676 
-0.013025895692408085 -0.0346585176885128 0.001535389805212617 0.02861718460917473 0.0346493162214756 -0.054979465901851654 -0.02485848218202591 0.015388493426144123 0.0049804262816905975 
0.027045270428061485 0.05208898335695267 -0.03804461658000946 0.04921155795454979 0.04269756004214287 0.041714221239089966 0.06577620655298233 0.03089599683880806 -0.029958471655845642 
-0.021372858434915543 -0.05875891447067261 0.024065734818577766 -0.041896019130945206 0.006794029846787453 0.053224723786115646 0.026573026552796364 -0.022173557430505753 0.07084283232688904 
-0.02880779653787613 -0.014066214673221111 0.048256244510412216 -0.03336797282099724 -0.010496983304619789 0.01867075078189373 0.01061972789466381 -0.0498633086681366 0.015597513876855373 
0.030802205204963684 0.0625382512807846 -0.055916931480169296 -0.012486138381063938 0.04329611733555794 0.0022844800259917974 -0.04493137076497078 0.06946577876806259 -0.01933511532843113 
-0.003545115701854229 0.06238921359181404 0.04178955778479576 0.034926559776067734 0.06450629234313965 -0.022844865918159485 0.02227167971432209 -0.058533504605293274 0.03212042152881622 
-0.04008174315094948 0.026384839788079262 0.009981459937989712 -0.0022962025832384825 0.019074387848377228 -0.012035898864269257 -0.00619542645290494 -0.06344550848007202 0.04675493761897087 
0.04541289433836937 0.01354231871664524 0.04530372843146324 -0.049697618931531906 -0.05470331758260727 -0.004370782524347305 -0.03719083592295647 -0.021574674174189568 -0.00497469725087285 
-0.030307738110423088 -0.04367882013320923 -0.029955606907606125 0.04412294551730156 0.044779110699892044 0.03335542604327202 0.03240372985601425 -0.04138284921646118 -0.033737264573574066 
-0.05330238863825798 -0.03653906658291817 -0.016860999166965485 0.07128579169511795 -0.054189715534448624 -0.0036109534557908773 0.011300886981189251 -0.033686451613903046 0.05847865343093872 
0.09185145795345306 0.07342314720153809 -0.06449399888515472 0.02580275572836399 0.024623576551675797 0.022472364827990532 -0.022555742412805557 0.07859470695257187 -0.05137196555733681 
-0.02814774587750435 -0.061517443507909775 -0.06857679784297943 -0.006873510777950287 -0.05885344371199608 0.023155001923441887 -0.01084473542869091 -0.03706483915448189 -0.05752464756369591 
0.05474160239100456 0.015521214343607426 0.059728238731622696 -0.03832594305276871 -0.052026987075805664 0.02461339347064495 0.05037621036171913 -0.005674802232533693 -0.03244548663496971 
-0.04578881338238716 0.03689899668097496 0.026865154504776 -0.05859086662530899 0.017722195014357567 -0.008816925808787346 -0.03824636712670326 0.0071617416106164455 -0.03216857090592384 
0.06274355202913284 0.06204257160425186 -0.062161196023225784 -0.010907207615673542 -0.06834182888269424 -0.05497283861041069 0.03683469071984291 -0.05519180744886398 -0.027981776744127274 
-0.03200998529791832 0.008169617503881454 -0.042242467403411865 -0.04702969640493393 -0.03409087285399437 -0.047008056193590164 0.013639646582305431 -0.06423333287239075 -0.05560993403196335 
0.025708995759487152 0.030203914269804955 -0.06253382563591003 -0.06836654245853424 -0.04693936929106712 0.03190365806221962 -0.006919436156749725 -0.01396915689110756 -0.0688171237707138 
-0.01671905443072319 -0.06768956780433655 -0.04004288464784622 -0.015564337372779846 0.00041742483153939247 -0.04561188817024231 0.04486417770385742 0.03212600201368332 -0.06624502688646317 
-0.01162355300039053 -0.055065181106328964 -0.05684477463364601 0.01806282065808773 0.014514701440930367 -0.034649867564439774 -0.046699006110429764 0.04578424617648125 -0.011422863230109215 
0.04284803569316864 -0.05588502064347267 0.021490024402737617 -0.03969039022922516 -0.018399175256490707 -0.0529048889875412 -0.003794066607952118 -0.06158134713768959 -0.030920814722776413 
0.04907388985157013 -0.04060543328523636 0.044248707592487335 0.024189336225390434 -0.007400026544928551 0.05268873646855354 -0.05544732138514519 -0.00018316673231311142 0.015519397333264351 
0.050072263926267624 -0.011521185748279095 -0.0565049983561039 -0.07228827476501465 -0.024218134582042694 -0.02673196978867054 0.055815111845731735 -0.023964760825037956 0.035103775560855865 
-0.06300315260887146 0.0645667091012001 -0.0246770977973938 0.03460734710097313 -0.028262142091989517 -0.01086481660604477 0.03976597636938095 0.02966037578880787 -0.034265510737895966 
-0.03349516540765762 0.02198045700788498 0.006232116837054491 0.01450256071984768 -0.04940712824463844 0.015113730914890766 0.06250341981649399 -0.05593680962920189 -0.05711200833320618 
0.0440402552485466 -0.011625874787569046 -0.036355018615722656 -0.050865210592746735 0.023152289912104607 0.059988439083099365 0.047708284109830856 0.03881173953413963 -0.05287213996052742 
0.0030936812981963158 0.020835377275943756 0.05412547290325165 -0.08723931014537811 0.04734409227967262 -0.02416018582880497 0.016017043963074684 0.028709691017866135 0.0026248893700540066 
-0.05333895981311798 -0.060914941132068634 0.04845089092850685 0.04180959612131119 0.04565504938364029 -0.010393064469099045 -0.03896137326955795 0.0459759384393692 -0.020436663180589676 
-0.036163751035928726 0.011656859889626503 -0.012086667120456696 -0.027610456570982933 -0.026513596996665 -0.06022253260016441 -0.03891206160187721 0.03531914949417114 0.06113853678107262 
-0.04485302418470383 0.05593879148364067 0.018252985551953316 -0.015170947648584843 0.06800910830497742 0.00011852390161948279 -0.06636424362659454 0.06505772471427917 -0.0075612748041749 
0.01935569755733013 -0.049840860068798065 -0.048201486468315125 0.03614696487784386 0.015955423936247826 -0.02825332060456276 0.03530577942728996 -0.021224962547421455 -0.05368165671825409 
0.05429676175117493 -0.014489044435322285 0.05030437186360359 0.04554876685142517 -0.0030518886633217335 -0.0027787231374531984 0.04423300921916962 0.020349981263279915 -0.006337451748549938 
0.01927053928375244 -0.060142502188682556 0.04024811089038849 -0.054697185754776 0.0014391472795978189 0.00039117736741900444 0.04920980706810951 2.141291588486638e-05 -0.024562902748584747 
0.06009158492088318 0.06428603082895279 -0.054413605481386185 -0.01106907520443201 0.0483618788421154 0.05778072401881218 -0.03754034265875816 0.014532767236232758 0.05340856313705444 
-0.02266555093228817 -0.031637322157621384 -0.01631554216146469 0.029027024284005165 0.030909430235624313 -0.059635233134031296 0.013031506910920143 0.012882363051176071 -0.04966054856777191 
-0.06954476237297058 0.05335363373160362 0.05606222525238991 0.04637272283434868 -0.06474755704402924 0.06296944618225098 0.07237501442432404 -0.014135908335447311 0.05352560803294182 
0.012174232862889767 0.006792511325329542 -0.05009811744093895 0.04944276437163353 -0.00032529435702599585 0.006378897465765476 0.008066091686487198 0.03257577866315842 -0.020329413935542107 
0.044218890368938446 -0.03653043881058693 -0.02117629162967205 0.06596947461366653 0.0013867870438843966 0.014801345765590668 -0.0038223774172365665 0.06284286826848984 -0.00573257589712739 
-0.0659010112285614 -0.058327481150627136 -0.020890260115265846 -0.002567361341789365 0.0195403303951025 0.07148248702287674 0.03226176276803017 -0.024508055299520493 0.01800219528377056 
0.02988205850124359 -0.05017592012882233 -0.009675512090325356 0.05689353868365288 0.0014364938251674175 0.035838667303323746 -0.011997934430837631 -0.031639400869607925 -0.03702269494533539 
0.05163148045539856 0.00503504928201437 -0.019222278147935867 -0.0010556853376328945 0.011812366545200348 -0.039605725556612015 -0.05929110571742058 0.02063666842877865 0.0281221941113472 
-0.053331270813941956 -0.10623161494731903 -0.10824351757764816 -0.08325956761837006 -0.04276972636580467 -0.057830486446619034 -0.01399703323841095 -0.040258366614580154 -0.053744327276945114 
-0.021752167493104935 -0.002381866564974189 0.02264641597867012 0.04551238566637039 -0.04872870817780495 -0.057117246091365814 -0.00020015840709675103 0.04380911588668823 -0.04630724713206291 
0.0670163556933403 -0.015225434675812721 -0.004532961640506983 -0.008171864785254002 0.03495388105511665 -0.04928331449627876 0.0237378291785717 0.06211703270673752 0.023034192621707916 
-0.021969478577375412 0.009582449682056904 0.017226625233888626 -0.06708811223506927 0.04662039503455162 -0.035568226128816605 0.04544124752283096 0.007953432388603687 0.0610656701028347 
-0.06011342629790306 0.0015822717687115073 -0.05635804682970047 0.042811211198568344 0.052391573786735535 0.027428878471255302 0.03731471672654152 -0.022096268832683563 0.05499953776597977 
-0.013178267516195774 0.019869834184646606 -0.023347102105617523 -0.05428576469421387 -0.024448348209261894 -0.04057563468813896 0.0240068007260561 0.013390589505434036 -0.003918160684406757 
0.004368730820715427 -0.06919672340154648 0.04516572877764702 -0.03082643449306488 -0.024433426558971405 0.04060453549027443 -0.02927420102059841 0.03886407986283302 0.06645891815423965 
-0.050463926047086716 0.0442180298268795 0.05504435673356056 -0.02533785067498684 0.030479880049824715 -0.0488891676068306 0.042027685791254044 -0.022117601707577705 0.005562338512390852 
-0.007765105459839106 -0.009253130294382572 0.014350710436701775 0.023999782279133797 0.03268681839108467 -0.02738557942211628 0.03734869882464409 -0.051115475594997406 0.029396221041679382 
-0.050494737923145294 0.02579713985323906 -0.029683692380785942 -0.025522178038954735 -0.05684196576476097 -0.01923421397805214 -0.05392381548881531 0.03454155847430229 -0.0010717147961258888 
-0.012105192057788372 -0.002630894770845771 0.007519859820604324 0.009016575291752815 0.02817315049469471 -0.07483040541410446 -0.043328866362571716 -0.0583898089826107 -0.007511320989578962 
-0.015322677791118622 0.00971622671931982 -0.033050864934921265 -0.05278535187244415 -0.054061222821474075 0.06271392107009888 -0.06524349004030228 -0.02799188531935215 0.04787931218743324 
-0.0429522804915905 -0.058611851185560226 -0.043181102722883224 0.010561476461589336 -0.04573769122362137 -0.013082566671073437 0.06882526725530624 -0.06236445531249046 0.027829091995954514 
-0.05389195680618286 0.020294122397899628 0.058106500655412674 0.015760106965899467 0.0038499317597597837 -0.046698350459337234 -0.055654577910900116 0.0063071949407458305 -0.05767805501818657 
-0.00625257333740592 0.017162669450044632 0.07055243849754333 0.0328746922314167 -0.06509837508201599 -0.06386920809745789 -0.028094999492168427 0.06138863414525986 0.05519963800907135 
-0.043159645050764084 0.031004225835204124 -0.04039520025253296 -0.05288219451904297 -0.10361298173666 0.051848869770765305 0.01821405626833439 -0.053548019379377365 0.014941371977329254 
-0.0105288689956069 0.03571350499987602 0.039757899940013885 -0.06847811490297318 -0.05941341444849968 -0.059193409979343414 -0.06204948201775551 0.026200324296951294 -0.061245329678058624 
0.0036073795054107904 -0.07156763970851898 0.04544106498360634 0.03950992971658707 0.022934280335903168 -0.03614966571331024 -0.02643284760415554 -0.039679404348134995 0.05478346720337868 
0.01886896602809429 -0.05520939081907272 0.04911385849118233 0.006480175070464611 -0.10275879502296448 0.04632190242409706 -0.02300148829817772 -0.033737197518348694 0.0236965324729681 
0.025451771914958954 -0.01003703661262989 -0.0522942952811718 0.025045281276106834 -0.03245026618242264 -0.04546108841896057 -0.041614238172769547 -0.002455302746966481 -0.0337144136428833 
-0.04727277532219887 -0.0833648219704628 0.04462868347764015 0.0031276436056941748 -0.06882340461015701 -0.006976012140512466 -0.07923779636621475 -0.02816489338874817 -0.05297830328345299 
0.044591475278139114 0.038781099021434784 0.05898762866854668 0.015933141112327576 -0.0095479441806674 -0.05609806999564171 -0.06358908861875534 0.032259903848171234 -0.024762170389294624 
-0.02386663295328617 -0.012928750365972519 0.018403278663754463 -0.053287215530872345 0.009790885262191296 0.033407315611839294 0.031765587627887726 0.0005796551122330129 -0.0034651283640414476 
0.0036150068044662476 -0.010431520640850067 -0.04594749957323074 -0.030579999089241028 0.04622751474380493 0.0019046395318582654 -0.03258610516786575 -0.00016724497254472226 0.051379259675741196 
0.062334269285202026 0.010072561912238598 0.03679857403039932 0.07329072058200836 0.03333237022161484 0.027392573654651642 -0.00524470629170537 -0.02158176898956299 0.06794178485870361 
-0.07189817726612091 0.028785033151507378 0.016991255804896355 -0.0010340976295992732 -0.011561204679310322 -0.06337089836597443 0.010137288831174374 -0.00874167587608099 -0.007105599623173475 
-0.05152380093932152 0.008345126174390316 0.006497384514659643 -0.03977198526263237 0.04880792275071144 0.008593514561653137 0.04010215774178505 0.004887384828180075 0.05551024153828621 
0.015509644523262978 -0.06628864258527756 0.0384376235306263 -0.026518873870372772 0.058337852358818054 0.03672996535897255 -0.06342791765928268 -0.05767057463526726 -0.06251875311136246 
-0.007234770804643631 0.00951174646615982 -0.03764313459396362 -0.0464402511715889 -0.0664232075214386 -0.02304774709045887 0.011460562236607075 -0.04021680727601051 -0.007283213548362255 
-0.019217824563384056 0.03838549181818962 0.07102702558040619 0.010180870071053505 0.03961974009871483 -0.01588406041264534 -0.010993042960762978 0.029103344306349754 0.042416539043188095 
0.06259682029485703 -0.058530472218990326 -0.02232012152671814 -0.020972127094864845 0.05184303596615791 -0.034662485122680664 0.0058725932613015175 -0.012820645235478878 -0.02768973633646965 
-0.0238652266561985 0.0017764640506356955 -0.02504175528883934 -0.07380397617816925 0.0342557430267334 0.02281956560909748 -0.07567489892244339 -0.04986463114619255 -0.042589981108903885 
0.031818751245737076 -0.029744641855359077 -0.05885007604956627 0.015493451617658138 -0.004403175786137581 -0.062280431389808655 0.05213375389575958 0.004851385485380888 0.017682893201708794 
0.005499513819813728 -0.05343350023031235 0.060815081000328064 0.005269891582429409 -0.04688021540641785 -0.008107260800898075 -0.057276394218206406 0.010495107620954514 -0.01653306558728218 
-0.06049415096640587 -0.01741856336593628 -0.06982869654893875 0.05844348669052124 -0.010227449238300323 -0.002173121552914381 0.053170088678598404 0.04673709720373154 0.04435151070356369 
-0.01382043119519949 -0.019910110160708427 -0.04932528734207153 0.044481709599494934 -0.008824501186609268 -0.05005199834704399 0.05468359962105751 0.001422204077243805 -0.029761455953121185 
0.046974048018455505 0.02167506515979767 -0.07579861581325531 -0.004502173513174057 0.008669337257742882 0.014520788565278053 0.0038472479209303856 -0.044191863387823105 -0.07194150239229202 
-0.04253340885043144 -0.007201169617474079 0.0469227060675621 -0.018469732254743576 -0.056424129754304886 -0.012081141583621502 0.06171539053320885 -0.04415890574455261 -0.06144299730658531 
-0.007038637064397335 0.0279534999281168 -0.06546329706907272 0.007264940999448299 0.03714941814541817 0.05343620479106903 -0.03163371607661247 -0.006540563423186541 0.022981302812695503 
0.032365813851356506 0.012775380164384842 -0.056081920862197876 0.039781976491212845 -0.050660938024520874 0.003554406575858593 0.007393640000373125 -0.07168946415185928 0.03651491552591324 
0.06357346475124359 -0.03803412988781929 0.04546284303069115 0.017971111461520195 0.06206159666180611 -0.016784638166427612 0.04471474885940552 0.04558635875582695 -0.013347168453037739 
0.01642322912812233 0.053593751043081284 -0.011453941464424133 0.06217922642827034 0.0077268993481993675 -0.019688431173563004 0.014150827191770077 0.0515129454433918 -0.042016174644231796 
-0.005613353103399277 -0.010288046672940254 -0.005954953376203775 0.015671247616410255 -0.04812156409025192 -0.07563360035419464 0.027745524421334267 -0.02475939504802227 -0.049145448952913284 
0.02953815646469593 0.041996777057647705 -0.05524086207151413 0.018878070637583733 0.06116659566760063 -0.01226518489420414 0.056912560015916824 0.041863977909088135 0.029493337497115135 
0.03357456624507904 -0.02888391725718975 -0.05916116386651993 0.029041720554232597 -0.014144355431199074 -0.0017781115602701902 -0.008355124853551388 -0.05641213431954384 0.027516795322299004 
-0.024865925312042236 -0.02178036980330944 0.028348207473754883 -0.011614440940320492 0.0366041399538517 0.011067232117056847 0.0336015559732914 -0.015227338299155235 0.038986120373010635 
0.04785570502281189 -0.043663304299116135 -0.044396620243787766 0.05658364295959473 -0.04450983181595802 0.04748620092868805 0.010356740094721317 0.024172130972146988 0.00412395317107439 
0.05443087965250015 -0.05641961097717285 0.022751053795218468 0.03554840758442879 0.011281676590442657 0.02054852806031704 -0.05209630727767944 0.013592266477644444 -0.03663229942321777 
-0.046974945813417435 0.003472642507404089 0.07513432949781418 0.06884703785181046 -0.008707286790013313 0.09312982112169266 -0.010182018391788006 -0.0080413818359375 0.03876131772994995 
0.014494172297418118 -0.03926289454102516 -0.027591312304139137 -0.04745418578386307 0.022949054837226868 -0.030524328351020813 -0.043047815561294556 0.04584440216422081 0.01009343657642603 
-0.025892015546560287 0.04445081949234009 -0.00965470727533102 -0.06501007080078125 -0.024509500712156296 -0.043865866959095 0.03516898676753044 -0.053862564265728 0.055587995797395706 
-0.054067809134721756 -0.00462470343336463 -0.03499322012066841 0.06188290938735008 -0.025487806648015976 -0.06518176198005676 0.040553417056798935 0.01165887713432312 0.02509162947535515 
0.0428784154355526 -0.0577913299202919 -0.008088622242212296 -0.04506533965468407 0.012777777388691902 -0.010942311957478523 -0.022494979202747345 0.06444918364286423 -0.045204322785139084 
0.007876896299421787 -0.0012991029070690274 -0.007891585119068623 -0.08787915110588074 -0.04253331571817398 -0.07744120806455612 0.026691503822803497 0.05674208700656891 0.06798648834228516 
0.008059140294790268 0.023234056308865547 0.0478070005774498 0.03434896096587181 -0.016792943701148033 -0.03768324851989746 0.046699441969394684 -0.006051621399819851 0.012871693819761276 
-0.06935066729784012 -0.01828484982252121 0.052651677280664444 -0.07076051086187363 0.006985907442867756 -0.06175956130027771 -0.008829056285321712 -0.04363756626844406 -0.0574924610555172 
-0.06257617473602295 0.026899904012680054 0.015580529347062111 0.03483518958091736 -0.07415947318077087 0.03297076001763344 -0.05481557548046112 -0.02040252462029457 0.06543876230716705 
0.028143055737018585 -0.06033243611454964 0.04814537987112999 0.02901902049779892 0.024402281269431114 -0.02504221349954605 -0.008769096806645393 0.020144222304224968 0.030795766040682793 
0.02446933463215828 -0.02473331429064274 -0.0009794365614652634 -0.01447263266891241 -0.038426510989665985 -0.03928535059094429 0.033878959715366364 0.0025300905108451843 0.02568536065518856 
