0.01608913578093052 -0.006344175897538662 0.045295096933841705 0.012924703769385815 0.06441464275121689 0.040585581213235855 -0.05038939788937569 -0.016403360292315483 -0.046454232186079025 
-0.04147500544786453 -0.035991519689559937 0.018665499985218048 -0.019813185557723045 0.009965654462575912 0.07591080665588379 0.0252423994243145 -0.020009631291031837 0.06209081411361694 
-0.001867225393652916 0.025480836629867554 0.00525185652077198 -0.0027007185854017735 0.04996907711029053 0.07684298604726791 0.05737544223666191 0.045898184180259705 0.05961763113737106 
-0.05747387558221817 -0.08786048740148544 -0.04071369394659996 0.03145105391740799 -0.018758175894618034 -0.024280453100800514 0.013187170028686523 -0.0769374892115593 -0.00033472105860710144 
-0.033967550843954086 -0.013726294040679932 0.047595664858818054 0.023646332323551178 0.015792984515428543 0.04720664396882057 -0.05664282292127609 -0.017291611060500145 -0.04935574159026146 
-0.0012056514387950301 0.010441489517688751 -0.018306339159607887 0.023006152361631393 -0.0771448165178299 0.0010844143107533455 -0.0007464683149009943 -0.0018285339465364814 -0.03479570150375366 
-0.05910028889775276 -0.07194787263870239 -0.06716657429933548 -0.05678115412592888 0.053109876811504364 0.04610477760434151 -0.024923786520957947 0.02348499745130539 0.030018452554941177 
0.030995652079582214 0.059681545943021774 0.052740417420864105 -0.00838670413941145 -0.048793673515319824 0.052362870424985886 -0.03907742351293564 -0.053878359496593475 0.0214399304240942 
0.018348850309848785 0.0022847566287964582 0.04858871176838875 0.026856737211346626 -0.033008966594934464 -0.04201656952500343 -0.005486958660185337 -0.044486381113529205 0.03490748628973961 
-0.038718510419130325 0.018462728708982468 -0.0017773094587028027 -0.02238887920975685 0.0332576148211956 -0.01047916617244482 0.04804294556379318 -0.02797415666282177 0.0636696144938469 
0.019291851669549942 0.02601039782166481 0.06354682147502899 -0.02468513697385788 0.00709129823371768 0.06464919447898865 0.03330198675394058 -0.04453682154417038 0.010256502777338028 
-0.06168529391288757 0.03637311980128288 -0.0267893485724926 -0.07742559164762497 -0.019586483016610146 0.02569917030632496 0.035106148570775986 -0.06330893933773041 -0.04361966997385025 
-0.011128617450594902 -0.032488539814949036 0.008232507854700089 -0.03825889527797699 -0.07356470823287964 -0.05711602047085762 0.08633996546268463 0.005886412691324949 0.035426732152700424 
-0.04770568013191223 -0.015269840136170387 -0.004256386309862137 0.030850298702716827 -0.010277396999299526 -0.0032250096555799246 -0.06037069484591484 -0.07711299508810043 -0.03651338815689087 
0.0031101673375815153 -0.016094477847218513 0.009353485889732838 0.06346692889928818 -0.033221285790205 0.034316595643758774 -0.02314961515367031 0.04923630505800247 0.07542190700769424 
-0.07546372711658478 0.015616227872669697 -0.05893583968281746 -0.07642177492380142 -0.06364789605140686 0.04538542032241821 -0.03876389190554619 0.04204515367746353 -0.0007459003827534616 
-0.027125755324959755 -0.05285215377807617 -0.04345949739217758 -0.01561429351568222 -0.040310729295015335 0.008616114966571331 0.03244200721383095 0.008413360454142094 -0.06253968924283981 
0.007460885681211948 -0.04217571020126343 -0.05011940002441406 0.016479263082146645 0.010092615149915218 0.06857410818338394 -0.049966733902692795 -0.01272053737193346 0.058829959481954575 
-0.050592802464962006 -0.04075133427977562 0.04469948261976242 0.037775907665491104 0.05334868282079697 0.030999822542071342 0.05493514984846115 0.00480345543473959 0.017825106158852577 
0.07250881940126419 0.004894677549600601 -0.02753809653222561 0.04600045457482338 0.07684039324522018 -0.015961546450853348 -0.027123093605041504 0.018596500158309937 -0.040189195424318314 
0.006515062414109707 0.021994080394506454 0.06082158908247948 -0.00533055467531085 0.046124424785375595 -0.02603870816528797 0.022616680711507797 0.06406748294830322 -0.015679635107517242 
-0.032161276787519455 0.012398883700370789 0.04102205112576485 -0.046422917395830154 -0.0025130819994956255 -0.03992860019207001 -0.04737437888979912 -0.050290606915950775 -0.02074933610856533 
0.022090112790465355 -0.01651817373931408 -0.010027729906141758 -0.06054433435201645 0.029624992981553078 -0.07583315670490265 0.023294823244214058 -0.0627356693148613 0.017062058672308922 
-0.03474824130535126 -0.035677116364240646 0.020052744075655937 -0.029242506250739098 -0.04801255837082863 0.028513817116618156 -0.04243107885122299 -0.05843396112322807 0.007742708083242178 
0.004198880400508642 0.04381939396262169 0.04138685390353203 0.014183659106492996 0.009034546092152596 0.0711408331990242 0.06778762489557266 0.07739569991827011 0.07128628343343735 
0.01787225529551506 -0.058381181210279465 0.017598820850253105 0.008690131828188896 0.07022418826818466 -0.04264386370778084 0.05800428241491318 -0.01648654229938984 -0.03747781366109848 
-0.05084798485040665 -0.05517870932817459 0.002670338610187173 -0.05443103238940239 -0.0405752919614315 -0.01598065160214901 0.04979601129889488 0.02087135799229145 0.0766943171620369 
0.019107496365904808 -0.02185468003153801 -0.037865445017814636 -0.07529168576002121 -0.00831484142690897 -0.04997921362519264 -0.021785113960504532 -0.04715564101934433 -0.0020341083873063326 
0.03282197192311287 -0.0042185792699456215 0.007893270812928677 0.041375428438186646 -0.03330937772989273 0.023932810872793198 -0.0016048543620854616 -0.019282786175608635 -0.041755303740501404 
-0.05042088404297829 -0.029101885855197906 0.03407461568713188 -0.024470748379826546 0.011278734542429447 -0.07027128338813782 -0.05554948374629021 0.04795999452471733 0.02973617985844612 
0.040765270590782166 -0.05471736937761307 0.013586316257715225 0.005309758707880974 0.004315434955060482 -0.025755824521183968 -0.03657597303390503 -0.04248293116688728 0.06250664591789246 
0.003600232070311904 -0.07258952409029007 0.026026295498013496 -0.0001480436767451465 -0.07441132515668869 -0.05185684189200401 0.036674149334430695 -0.08274297416210175 -0.04157990962266922 
0.00723803136497736 -0.025156157091259956 0.03492868319153786 -0.06196371093392372 -0.07127339392900467 -0.06479814648628235 0.0065489523112773895 -0.06948858499526978 -0.04405929148197174 
-0.02233196049928665 0.05544158071279526 -0.0300919096916914 -0.061288703233003616 0.008907590061426163 -0.0004580535751301795 -0.07178731262683868 0.012598149478435516 0.0024926671758294106 
-0.0044249361380934715 0.06295479834079742 0.07264015078544617 0.021817168220877647 -0.0025353040546178818 -0.009602935053408146 0.03591103106737137 0.017877403646707535 -0.011179765686392784 
-0.06419724225997925 0.016804886981844902 0.014616024680435658 -0.02906322479248047 0.04335549473762512 -0.07043810933828354 0.033114638179540634 -0.006434350740164518 -0.005264325998723507 
0.08460712432861328 0.02607888914644718 0.01964275911450386 0.0700472965836525 0.06538710743188858 -0.02979270927608013 0.06763981282711029 0.03969619795680046 -0.03527585789561272 
0.013395470567047596 -0.02390172891318798 -0.021406225860118866 0.05482305586338043 0.05960245430469513 -0.051435548812150955 0.0037826960906386375 -0.014670385047793388 0.020854560658335686 
-0.06816443800926208 -0.03621450811624527 -0.017325490713119507 -0.026718107983469963 -0.022955600172281265 -0.06313005089759827 0.057710908353328705 -0.004648550879210234 0.04686368629336357 
-0.014654755592346191 -0.05713173747062683 -0.02854282781481743 0.006487575825303793 -0.07494596391916275 0.025278184562921524 0.035880621522665024 -0.024517087265849113 -0.06056725233793259 
-0.07385575026273727 -0.07084798812866211 -0.06453418731689453 0.03042670339345932 0.0472392663359642 -0.015095970593392849 -0.031139295548200607 0.01568012312054634 -0.06297150254249573 
0.009284263476729393 0.009896645322442055 0.026215026155114174 0.04373975098133087 -0.037320755422115326 0.08555684983730316 0.0552874319255352 0.012186387553811073 0.014783242717385292 
0.02266298420727253 0.0179757047444582 0.01324845477938652 -0.043410249054431915 0.06973792612552643 0.042292386293411255 0.04316911846399307 -0.04810343310236931 0.03447795659303665 
0.05211596563458443 0.05117971822619438 0.017661813646554947 0.02878604643046856 -0.044595275074243546 -0.03738131746649742 0.06684324890375137 -0.004601597785949707 0.009158271364867687 
0.027783909812569618 0.057270485907793045 -0.05572278052568436 -0.04319321736693382 -0.06014670804142952 -0.0398271381855011 -0.030828772112727165 0.03921925649046898 0.05342431366443634 
-0.029047710821032524 -0.0455678291618824 0.03344923257827759 0.043662432581186295 0.04196858033537865 -0.058608878403902054 -0.004545224830508232 0.04158327355980873 -0.04945133626461029 
0.06063877418637276 -0.0686737596988678 0.026468435302376747 -0.04017769917845726 0.01122303120791912 -0.05771273374557495 0.01502968743443489 0.023277971893548965 0.025626815855503082 
0.025480665266513824 -0.004967441316694021 0.034069206565618515 0.026167694479227066 -0.022317608818411827 -0.001298710354603827 -0.05181342363357544 0.05787526071071625 -0.04066885635256767 
0.032444797456264496 -0.021650688722729683 -0.0337398499250412 0.05522870272397995 0.022917170077562332 0.055627789348363876 0.01713111437857151 0.031058302149176598 -0.03382599726319313 
0.026307249441742897 0.050141818821430206 0.06061512976884842 0.03236173838376999 0.05346010997891426 0.04646125063300133 -0.001945685246028006 -0.026240356266498566 -0.004657598678022623 
-0.06496231257915497 -0.03151051327586174 -0.0768924131989479 0.012983269058167934 -0.053017836064100266 -0.0578630194067955 -0.04866672307252884 0.038388483226299286 0.018237655982375145 
0.057118695229291916 0.009800455532968044 0.02363891713321209 0.03545902669429779 -0.03642784804105759 -0.052077341824769974 0.037990935146808624 0.00969611294567585 -0.007079416885972023 
-0.0550074502825737 -0.05241747945547104 -0.03780275583267212 0.010687239468097687 -0.050213687121868134 -0.03841809555888176 -0.037621933966875076 -0.025943772867321968 0.010107209905982018 
-0.05455611273646355 -0.0325084812939167 0.041088592261075974 0.008839433081448078 -0.05571797862648964 0.017624428495764732 -0.023590432479977608 -0.06789632141590118 -0.05131091922521591 
-0.031978756189346313 0.0002730894193518907 0.044061265885829926 0.026279984042048454 -0.06757035851478577 -0.020410099998116493 -0.016106102615594864 0.02961493842303753 -0.02932851016521454 
0.04663180559873581 -0.012462254613637924 0.013918320648372173 -0.06627916544675827 0.006204563193023205 0.013748299330472946 -0.057098180055618286 -0.0445600301027298 -0.07450918108224869 
-0.022215895354747772 -0.07006122171878815 -0.03687761723995209 0.04366019740700722 -0.07336519658565521 0.040460072457790375 -0.06511594355106354 0.005898492876440287 0.030267147347331047 
-0.05329194664955139 0.03881801664829254 -0.02218964509665966 0.055748023092746735 -0.03245195373892784 0.07412206381559372 -0.041184812784194946 0.061590760946273804 0.05998506769537926 
0.04093596339225769 0.016338013112545013 -0.026807550340890884 0.010816225782036781 -0.05389157310128212 0.010930695571005344 -0.05334414541721344 -0.028196845203638077 -0.04985303059220314 
-0.043103598058223724 -0.026180215179920197 -0.006128041073679924 0.013533894903957844 0.035029761493206024 -0.002342376159504056 -0.01435298565775156 0.03449857980012894 -0.008004073053598404 
-0.001957161584869027 -0.023508809506893158 -0.05772573500871658 -0.01220774371176958 -0.053961243480443954 -0.00779151963070035 0.030094265937805176 -0.005793003831058741 -0.0028174452017992735 
-0.040235262364149094 -0.05293495953083038 -0.06985615193843842 -0.016461890190839767 -0.03670676425099373 0.05434080958366394 0.0005772932199761271 -0.018894800916314125 -0.007973680272698402 
-0.032779645174741745 -0.023801295086741447 -0.047281961888074875 0.02035507746040821 -0.029664253816008568 -0.06614038348197937 0.06070820987224579 -0.02957283705472946 -0.017900574952363968 
0.011457143351435661 0.05952944606542587 -0.030535634607076645 -0.022919416427612305 0.026035267859697342 0.04596913978457451 0.0562409982085228 -0.03128760680556297 -0.06542272120714188 
-0.05571281909942627 -0.06060701981186867 -0.01850751042366028 -0.05655984580516815 0.008548433892428875 -0.05567454919219017 0.0239937212318182 -0.036700762808322906 0.031743645668029785 
-0.0027080716099590063 0.07398637384176254 0.009229402989149094 0.06920766085386276 0.08141648024320602 -0.01148316077888012 -0.03356007859110832 -0.018894504755735397 -0.027478845790028572 
0.009139983914792538 0.03335112705826759 0.0035773739218711853 0.012012258172035217 -0.05849706009030342 -0.045446641743183136 0.05606068670749664 -0.06164881959557533 -0.027257580310106277 
0.03261525556445122 -0.011200224049389362 -0.022073622792959213 0.02623090334236622 0.014920666813850403 -0.020496653392910957 0.0348237045109272 0.06113291159272194 -0.01235460489988327 
0.0010855118744075298 -0.0007560921367257833 0.00047850044211372733 0.07328180968761444 0.07071051746606827 0.001465188106521964 0.029821138828992844 0.027350617572665215 -0.03126037120819092 
-0.03550196811556816 0.028029130771756172 -0.0628778487443924 -0.016129108145833015 0.024348750710487366 -0.03377198800444603 0.06163729727268219 -0.030368000268936157 -0.06883136183023453 
-0.03618688881397247 0.04780410975217819 -0.019945552572607994 -0.06070262938737869 -0.0693691149353981 0.037822380661964417 -0.05823615938425064 -0.0018456124234944582 -0.006301746238023043 
-0.046443648636341095 -0.0008762155775912106 0.04298071563243866 0.04869075119495392 -0.0263459924608469 0.06269964575767517 0.0009111407562159002 -2.751258944044821e-05 -0.03336693346500397 
