-0.03105064108967781
0.025209840387105942
-0.026120180264115334
0.03637120872735977
-0.001251062611117959
0.009755218401551247
0.0003203794185537845
0.0134513508528471
0.0010456785093992949
-0.020628511905670166
0.040386997163295746
-0.022175578400492668
0.04577312618494034
-0.006713800597935915
-0.013568207621574402
0.06902581453323364
0.005696146283298731
0.036709535866975784
-0.04069523885846138
0.015401765704154968
-0.000611862342339009
-0.06876008957624435
0.046033214777708054
-0.042593106627464294
0.013143720105290413
-0.030262425541877747
0.03112051449716091
0.03612559661269188
-0.07586817443370819
-0.03514614701271057
-0.05076538398861885
0.00030700801289640367
-0.04146123677492142
-0.010090415365993977
-0.0033871454652398825
-0.005121348425745964
-0.052594687789678574
-0.004455274902284145
-0.010906169191002846
0.008187913335859776
-0.013223201967775822
-0.019994277507066727
-0.03351649269461632
0.060514651238918304
0.0005296081071719527
-0.041341327130794525
-0.08021504431962967
0.035532157868146896
0.07550002634525299
0.02892209216952324
0.0504688024520874
-0.012434253469109535
-0.06762991100549698
0.03246738761663437
-0.02911701612174511
-0.08996253460645676
0.035013552755117416
0.029184306040406227
-0.060187406837940216
0.06979100406169891
-0.06177709996700287
0.022187326103448868
-0.016870593652129173
0.04647057130932808
-0.00859077274799347
0.010364904068410397
0.03988540172576904
0.004379995167255402
0.06398199498653412
-0.002528716577216983
-0.06163230538368225
-0.024853577837347984
0.015441838651895523
0.01625075750052929
-0.008797876536846161
0.016371607780456543
-0.0026665953919291496
-0.019724085927009583
0.04591382294893265
-0.039006199687719345
-0.033775120973587036
0.0033323371317237616
-0.07837427407503128
-0.04704952612519264
-0.010056903585791588
0.03103209100663662
-0.010483434423804283
0.005929034203290939
0.010127020068466663
0.0007348599028773606
-0.06847339123487473
-0.03566613420844078
0.026460593566298485
0.003941442351788282
0.00988843385130167
-0.04946903884410858
