-0.04667079076170921 0.06869637966156006 0.04408520460128784 0.0070584542118012905 -0.001656001666560769 0.0318802110850811 -0.02889704518020153 0.06947306543588638 -0.025378283113241196 
0.05919545888900757 0.04075351357460022 0.06271068006753922 -0.0374804362654686 0.042737435549497604 0.03705314174294472 -0.013725152239203453 0.034699294716119766 -0.0586087591946125 
-0.013427929021418095 -0.051970627158880234 0.0263226255774498 0.06453533470630646 0.011905829422175884 -0.0523267425596714 -0.008367661386728287 0.06645800918340683 -0.05030228570103645 
0.05805013328790665 0.030012138187885284 0.017067577689886093 0.029738981276750565 -0.028579367324709892 -0.05868655443191528 -0.020167633891105652 -0.04473838210105896 0.04088640958070755 
-0.03260079026222229 0.07388564944267273 -0.017368000000715256 -0.0053357332944869995 0.04062742367386818 0.006630707532167435 -0.033769719302654266 -0.010625793598592281 -0.0021674565505236387 
-0.03642110154032707 -0.022360865026712418 0.02617073990404606 0.030471261590719223 -0.03628716990351677 -0.00026192283257842064 -0.008250836282968521 -0.010767755098640919 -0.052045948803424835 
-0.03636469319462776 -0.05283457040786743 0.01301564835011959 -0.008361642248928547 0.03525300696492195 0.0328621044754982 0.04136789217591286 0.020862635225057602 0.05548466742038727 
-0.04759376868605614 -0.030665891245007515 0.0768715888261795 0.03020522929728031 0.02993376925587654 -0.026444628834724426 -0.02274000458419323 -0.03868963569402695 0.05315509811043739 
0.04594762995839119 -0.022552402690052986 -0.05478127673268318 0.005424272734671831 0.028025906533002853 -0.014188019558787346 -0.057772811502218246 -0.047595616430044174 0.04230296611785889 
0.018675899133086205 -0.05690503120422363 0.034468092024326324 0.021199630573391914 0.017129864543676376 0.007252853829413652 -0.016779599711298943 -0.0420103557407856 -0.04154646769165993 
0.002911659423261881 -0.04413052275776863 -0.0011414306936785579 0.07086317241191864 0.04662642255425453 0.008446400985121727 -0.018240565434098244 -0.06767542660236359 -0.07419147342443466 
0.0657627210021019 0.10386567562818527 0.06576336175203323 -0.0192413367331028 0.0830145850777626 0.0666038990020752 -0.002644365420565009 0.06987012177705765 -0.05024914816021919 
-0.018922576680779457 0.03536362200975418 -0.0013106741243973374 -0.09557933360338211 -0.048206839710474014 -0.042707543820142746 -0.09090599417686462 -0.16314886510372162 -0.02592824399471283 
-0.02469521574676037 -0.06062118336558342 -0.010081675834953785 0.04581689462065697 0.046964388340711594 0.012173738330602646 -0.06293989717960358 0.0012646918185055256 0.007653404027223587 
-0.006193497683852911 -0.044005103409290314 0.014068936929106712 0.06218346953392029 -0.05252983793616295 0.0012253568274900317 -0.02137630619108677 -0.09520787000656128 -0.014385920949280262 
-0.05983958765864372 -0.008610719814896584 -0.06504230201244354 0.031871646642684937 -0.00894208811223507 0.002782164141535759 -0.010226397775113583 -0.026818575337529182 -0.043346427381038666 
-0.0540909469127655 0.0441620871424675 0.021255452185869217 0.044380687177181244 -0.05868423357605934 0.009237433783710003 0.06686901301145554 0.05640952289104462 -0.02899451181292534 
-0.06328672170639038 0.028944993391633034 0.014457575976848602 0.034544847905635834 0.011985674500465393 -0.04067620635032654 -0.06322073936462402 0.06157799810171127 0.040596865117549896 
0.06053633242845535 0.003078988753259182 -0.025990057736635208 0.06616311520338058 -0.0190749429166317 -0.05190655589103699 0.043961089104413986 0.059843018651008606 0.032052505761384964 
-0.05069189518690109 -0.002441485645249486 0.01770547404885292 0.052904464304447174 -0.05094188079237938 0.051389895379543304 0.022107863798737526 -0.06630443036556244 -0.017648788169026375 
0.0019385814666748047 -0.061524007469415665 -0.0016478049801662564 -0.050991788506507874 -0.06376540660858154 0.01582389324903488 0.05677616968750954 0.06005708500742912 0.02406981773674488 
-0.05039778724312782 0.024068523198366165 -0.04559296742081642 -0.06361169368028641 0.060878533869981766 0.05188917741179466 -0.05755125731229782 0.05306412652134895 0.024066049605607986 
-0.054310545325279236 -0.04440382495522499 0.002981499070301652 -0.029161756858229637 0.07371573895215988 -0.03658963367342949 -0.023226669058203697 0.012778518721461296 -0.015716709196567535 
-0.03552882745862007 0.06699143350124359 -0.055994320660829544 -0.010278637520968914 -0.06367699056863785 0.034687332808971405 0.019771872088313103 0.021684493869543076 0.06669273227453232 
-0.002982093719765544 -0.02404903620481491 0.06172201409935951 0.00023007609706837684 -0.06742902100086212 0.010669635608792305 -0.016961200162768364 -0.05402778834104538 -0.043226514011621475 
0.06314253807067871 -0.05722064524888992 0.00027136155404150486 0.06385906785726547 0.046658821403980255 -0.030767744407057762 -0.03896666318178177 0.06345804035663605 0.038746196776628494 
0.046991970390081406 -0.044335342943668365 0.021713580936193466 0.044068049639463425 -0.030478375032544136 -0.02788247913122177 -0.03939400613307953 -0.04824405908584595 -0.05739929527044296 
0.05107962712645531 -0.056834083050489426 -0.046256065368652344 -0.021605543792247772 -0.021706031635403633 0.06536905467510223 0.0046853721141815186 -0.04910479485988617 0.01592494174838066 
-0.0067841471172869205 -0.07255811989307404 -0.009019817225635052 0.06369723379611969 -0.0546095184981823 0.038854241371154785 -0.0028687689919024706 -0.050234101712703705 0.024608688428997993 
-0.007327655795961618 0.025057442486286163 0.01154374796897173 -0.005915788002312183 -0.019955988973379135 0.0074789877980947495 0.02605290710926056 -0.048788368701934814 0.012132558971643448 
-0.030231375247240067 0.008099529892206192 0.05265866592526436 -0.04203682765364647 -0.014925518073141575 -0.014186123386025429 -0.053283583372831345 -0.05617482215166092 -0.012469903565943241 
-0.04449012875556946 0.019045831635594368 -0.043146226555109024 0.001956091495230794 0.04066905751824379 -0.05615247040987015 -0.031142519786953926 0.05080956220626831 -0.054412003606557846 
0.06484834849834442 -0.05352881923317909 0.03091626614332199 -0.0064818584360182285 -0.016119053587317467 -0.014337670989334583 -0.013759143650531769 -0.06096149608492851 -0.023599524050951004 
0.04922248050570488 -0.035691529512405396 0.05265826731920242 0.03612508997321129 0.05229690670967102 -0.036255013197660446 0.024507157504558563 0.03211537376046181 -0.06382633000612259 
0.009761418215930462 -0.01083316095173359 -0.013851435855031013 -0.027147885411977768 -0.03949423506855965 -0.052658695727586746 -0.04371357709169388 0.006653173360973597 -0.012171351350843906 
0.042563144117593765 0.03303347900509834 0.0463801734149456 0.009391335770487785 -0.004465767182409763 0.05655033513903618 0.004258585628122091 -0.0046698120422661304 -0.03649546578526497 
0.03875017166137695 0.012666037306189537 0.06213322654366493 0.0309434961527586 0.009735073894262314 0.08472398668527603 -0.0850052535533905 0.1434873640537262 0.10881660878658295 
0.027793841436505318 -0.020433688536286354 -0.05671941488981247 0.05831540748476982 -0.023509379476308823 0.03185524791479111 -0.026177607476711273 0.05913162603974342 0.055409740656614304 
-0.05353507399559021 -0.02735232375562191 0.01957443356513977 0.016098137944936752 0.05321560800075531 -0.03153271600604057 0.041229743510484695 0.03968093916773796 0.08157549053430557 
-0.014084802009165287 0.003779220161959529 0.0033102647867053747 0.023704197257757187 0.020759951323270798 -0.032542310655117035 -0.016156669706106186 -0.05008699372410774 -0.01654530130326748 
-0.06578543782234192 -0.0701882466673851 -0.03016798384487629 -0.005871533416211605 0.0480707623064518 -0.002559303306043148 -0.02156536653637886 -0.03586775064468384 0.03766288608312607 
0.005713076796382666 -0.06457022577524185 0.055394429713487625 0.05613221228122711 0.010966832749545574 -0.02010113187134266 -0.03652803599834442 0.04593314230442047 0.0586208701133728 
-0.056170180439949036 0.01600961945950985 0.03792698681354523 0.052341196686029434 0.048559825867414474 -0.04246746003627777 0.006547374650835991 -0.03600442036986351 -0.05181223526597023 
-0.044960763305425644 -0.024749891832470894 0.02248218096792698 -0.01665850356221199 -0.08136364072561264 0.0706259235739708 -0.05422574281692505 0.009793858043849468 -0.028422072529792786 
-0.07123087346553802 -0.05379488691687584 -0.032790716737508774 0.01041124016046524 -0.0025632274337112904 0.0443790964782238 -0.02069537341594696 0.008416634984314442 0.05059424042701721 
-0.03503584861755371 0.03095286153256893 0.03367171436548233 -0.04192206636071205 0.04002043977379799 0.06154197081923485 0.052718617022037506 0.03126714006066322 0.02488810010254383 
0.0550181120634079 -0.06296597421169281 -0.05451883003115654 -0.01842440478503704 -0.016843203455209732 -0.029009558260440826 -0.02324902079999447 -0.025316772982478142 -0.0004471811407711357 
-0.042341168969869614 0.06527240574359894 -0.010033166967332363 -0.0520566888153553 0.02472362294793129 -0.0066909813322126865 0.03239864110946655 0.05063916742801666 -0.002701830817386508 
-0.038430847227573395 0.013905972242355347 -0.03162712976336479 -0.060944244265556335 -0.0532466322183609 0.01972714066505432 0.030802687630057335 -0.044271934777498245 0.02637159638106823 
0.04139189422130585 0.016895456239581108 -0.020194418728351593 -0.04536378011107445 0.044691052287817 0.058139052242040634 0.026904011145234108 0.03322071209549904 -0.03756474703550339 
0.0459822341799736 -0.015338355675339699 -0.05925065279006958 -0.029871126636862755 0.038788288831710815 0.06814683228731155 0.060712266713380814 -0.056606508791446686 -0.02299012430012226 
0.002172356704249978 0.05557524040341377 -0.03929246589541435 -0.053875818848609924 -0.008746175095438957 -0.0362749844789505 -0.007727498188614845 -0.06595338135957718 -0.062599316239357 
-0.028063172474503517 0.05351303890347481 0.06467237323522568 0.05306360870599747 0.05355706065893173 0.03379504755139351 0.03658129647374153 0.06596639752388 -0.006020556669682264 
0.0005393413011915982 0.03847339376807213 -0.02974965050816536 0.0278131403028965 -0.045011959969997406 0.0403582863509655 -0.03483564779162407 0.032328054308891296 0.04001808911561966 
0.04083956405520439 -0.026567362248897552 -0.0284521896392107 -0.0006444139871746302 0.043020110577344894 0.03909461200237274 -0.019288236275315285 0.010418780148029327 0.049985144287347794 
0.035501640290021896 0.05616327375173569 -0.022293468937277794 0.061703942716121674 -0.05565986782312393 0.0030857273377478123 0.049963612109422684 -0.06492457538843155 -0.04343956708908081 
-0.03537704423069954 0.06436599045991898 -0.048663429915905 0.004185733385384083 -0.03773634508252144 0.047526996582746506 0.014582173898816109 -0.05383600667119026 0.04483271762728691 
-0.024855386465787888 0.0257490836083889 0.05730882287025452 0.03953326866030693 0.0020235837437212467 -0.03772710636258125 0.016811084002256393 -0.0487973615527153 0.05578786879777908 
-0.059574831277132034 0.033006563782691956 -0.000926757522393018 -0.04403475299477577 -0.051086150109767914 0.0029153074137866497 -0.028778264299035072 -0.018984436988830566 0.02209891378879547 
0.02480688877403736 0.03389495611190796 0.016330083832144737 0.04487791657447815 0.06087803468108177 -0.00219996040686965 -0.013467990793287754 -0.025859685614705086 0.02699468843638897 
0.006890138611197472 0.0986521914601326 0.10100707411766052 0.04004095867276192 0.06436336785554886 0.08705604076385498 -0.012932530604302883 -0.04409020021557808 0.01854492723941803 
0.04974443092942238 -0.05134056881070137 -0.014793834649026394 -0.013202942907810211 -0.008215334266424179 -0.03734510391950607 0.04364117607474327 0.0317714549601078 -0.05045251548290253 
-0.012414169497787952 0.0013527986593544483 -0.0013527835253626108 -0.03897082433104515 -0.037948835641145706 0.09304509311914444 0.07367846369743347 -0.002328344155102968 0.06581854075193405 
0.06539316475391388 -0.029088573530316353 -0.025357376784086227 0.06819022446870804 -0.05321686342358589 -0.024988066405057907 0.011334482580423355 -0.006878634914755821 -0.021804654970765114 
0.06881313025951385 0.028378918766975403 0.04311177507042885 -0.05565846338868141 -0.051592033356428146 -0.04708907753229141 -0.058421891182661057 -0.0680726170539856 -0.0407254733145237 
-0.0568859726190567 0.041246313601732254 -0.0400879867374897 -0.027235299348831177 0.031201576814055443 0.053513575345277786 0.022498631849884987 -0.01608525775372982 0.020402394235134125 
0.0011034668423235416 0.02006758749485016 0.014812218956649303 -0.04109581559896469 0.02853490225970745 0.06026851013302803 -0.027165738865733147 0.04708974435925484 -0.010076669044792652 
-0.06250894069671631 -0.015161418356001377 -0.02383788675069809 -0.03565936163067818 0.04800376296043396 0.051026370376348495 -0.018709445372223854 -0.005519278347492218 -0.04659923166036606 
0.04171397164463997 0.007295437157154083 0.059315361082553864 0.01869780570268631 -0.014258846640586853 0.0045282552018761635 0.03076930344104767 0.03695251792669296 -0.028276698663830757 
0.027072574943304062 0.027938686311244965 0.041985537856817245 0.008682912215590477 -0.006761553231626749 0.02427578903734684 0.028467906638979912 -0.01947549730539322 0.028693240135908127 
-0.03975246846675873 -0.029262591153383255 0.03268139064311981 -0.011462618596851826 -0.018235165625810623 -0.022917170077562332 0.01846756413578987 0.059727270156145096 0.010886589996516705 
-0.05582170933485031 0.04315884783864021 0.027898114174604416 -0.033962756395339966 -0.05489634349942207 0.045561544597148895 -0.055342305451631546 0.022715162485837936 -0.013002363033592701 
-0.06535837054252625 0.054208796471357346 0.06559339165687561 0.04013269767165184 -0.030718186870217323 0.06348332017660141 0.013190565630793571 -0.017408058047294617 0.050226565450429916 
0.06505182385444641 -0.058764465153217316 0.01721017435193062 -0.027198074385523796 -0.06259632110595703 -0.01990622840821743 -0.017057212069630623 0.0526636503636837 0.0002004913694690913 
0.011142659932374954 0.041170310229063034 -0.0036431560292840004 -0.0021728065330535173 0.029062695801258087 0.05519762262701988 0.006031795870512724 0.028971659019589424 -0.004056217148900032 
0.025536993518471718 0.06071990355849266 -0.06308912485837936 0.02854922041296959 0.0064347838051617146 0.06744446605443954 0.06743919104337692 -0.06410159170627594 -0.05994360148906708 
-0.022781366482377052 -0.042449723929166794 -0.076028972864151 -0.071860171854496 0.037108972668647766 -0.037729281932115555 -0.026098856702446938 -0.053819481283426285 -0.01225904282182455 
-0.004380086902529001 -0.010217064991593361 0.011330684646964073 -0.02982293628156185 0.019274435937404633 -0.04444073885679245 0.003910178318619728 0.03904307633638382 -0.038648106157779694 
0.0646594688296318 -0.03492266312241554 0.028036395087838173 -0.03326242044568062 -0.0009794457582756877 -0.029695237055420876 -0.03694847598671913 -0.05158020928502083 0.03165332227945328 
-0.03612496331334114 0.004600916523486376 -0.020395204424858093 0.005482501816004515 0.00250323791988194 -0.06764660775661469 0.04005490243434906 0.026881566271185875 0.007330738473683596 
-0.0417606383562088 -0.06658444553613663 -0.02152775414288044 -0.0294180940836668 -0.04150020703673363 0.002853485057130456 0.0476972870528698 0.04268650710582733 0.038297053426504135 
0.06274806708097458 -0.032426055520772934 0.023747943341732025 -0.02758139558136463 -0.03352908790111542 -0.020481262356042862 0.018473895266652107 0.04787322133779526 -0.011308856308460236 
-0.0101154875010252 -0.06419984251260757 0.018157975748181343 0.017327962443232536 -0.01125337090343237 -0.02744273468852043 0.021591799333691597 -0.024910470470786095 0.04471743479371071 
-0.03229717165231705 0.0004143800470046699 -0.008062666282057762 0.041157107800245285 0.052992209792137146 -0.05009938031435013 -0.07239250838756561 0.035390932112932205 0.018007108941674232 
0.03421749919652939 0.08435982465744019 0.03709011152386665 0.03014886938035488 0.00859269592911005 -0.05912620574235916 0.05136926844716072 0.04740224406123161 0.017646504566073418 
-0.05533850938081741 -0.016492458060383797 0.03138728067278862 0.027293434366583824 -0.020119603723287582 0.020421480759978294 0.019948236644268036 0.0443052276968956 -0.07044986635446548 
-0.052169766277074814 -0.08897542208433151 -0.024329960346221924 0.046184808015823364 -0.02394375391304493 -0.021060818806290627 -0.02480398304760456 -0.013712335377931595 0.08004827797412872 
-0.043340280652046204 -0.00240460061468184 0.058563511818647385 -0.06419773399829865 -0.021855168044567108 0.060961928218603134 -0.021752705797553062 -0.03313487023115158 -0.01891983672976494 
0.024522822350263596 -0.020869595929980278 0.0050024171359837055 -0.03378841653466225 -0.005716673564165831 -0.03817075490951538 0.013809192925691605 -0.053677454590797424 0.01760810799896717 
-0.0008771872962825 0.007498519495129585 -0.056062519550323486 -0.04279366135597229 -0.04425374045968056 -0.04365634545683861 0.035996805876493454 -0.041002511978149414 0.04716987907886505 
0.025674840435385704 -0.046272389590740204 -0.04680926725268364 0.005883544683456421 -0.03745732828974724 -0.016824234277009964 -0.0004114172188565135 0.04487612098455429 -0.007346733473241329 
0.002055736957117915 0.06456409394741058 -0.0763072744011879 0.00029353451100178063 0.04780895262956619 -0.08710025995969772 -0.05145377293229103 0.039616964757442474 0.01796885021030903 
-0.031174523755908012 0.005104163661599159 0.06486651301383972 -0.07048529386520386 0.03563190996646881 -0.030927058309316635 -0.00169892399571836 -0.05790366232395172 0.022861367091536522 
-0.006882188376039267 -0.02629687450826168 0.016900723800063133 -0.020385708659887314 0.03734437748789787 -0.0011262503685429692 0.04238469526171684 0.011746612377464771 -0.058254174888134 
0.006235300097614527 0.040372684597969055 -0.03142180293798447 0.047745589166879654 -0.07276858389377594 0.014479386620223522 -0.022894833236932755 0.040352072566747665 -0.003373584011569619 
0.005267185624688864 0.014532165601849556 0.004068782553076744 0.024474142119288445 -0.01941312476992607 -0.05670012906193733 0.018382472917437553 0.003357079578563571 0.01694783754646778 
-0.023517807945609093 0.00253901700489223 0.011953501962125301 0.02874576486647129 0.0699845403432846 0.05889450013637543 0.04138696566224098 0.07836222648620605 0.025070561096072197 
-0.042844004929065704 0.013895812444388866 0.06642338633537292 -0.03322776407003403 0.007051684893667698 0.058257490396499634 -0.033982500433921814 0.02325667254626751 -0.05044744163751602 
-0.023697130382061005 0.045978445559740067 -0.04981701821088791 -0.02954564429819584 0.028474880382418633 -0.04846377298235893 -0.02411002293229103 0.015633033588528633 0.04609648510813713 
-0.0532347671687603 0.03555378317832947 -0.041350021958351135 -0.06560800969600677 -0.002234922256320715 -0.04510696604847908 -0.045519400388002396 -0.020497839897871017 0.06739664077758789 
0.02198704518377781 -0.0013601691462099552 0.06905971467494965 -0.03342968598008156 0.06940221041440964 0.010987648740410805 0.04892094060778618 0.0293072909116745 0.06325965374708176 
0.0586327388882637 0.07677742093801498 -0.04330124706029892 0.07808055728673935 -0.007943113334476948 0.06684113293886185 -0.016350265592336655 -0.019776659086346626 0.042162198573350906 
-0.029536331072449684 -0.036266446113586426 -0.06725683063268661 -0.017087602987885475 0.03453290835022926 0.05196306109428406 0.03254212811589241 0.016172785311937332 -0.06284017115831375 
-0.02631433866918087 0.0338270328938961 -0.019148556515574455 0.03236255422234535 -0.02334527112543583 -0.04514648765325546 0.03205466270446777 0.03628218173980713 0.038983557373285294 
-0.0392264686524868 0.047836948186159134 -0.06032532826066017 0.018023144453763962 0.04794534295797348 0.06092696264386177 0.03205045685172081 -0.05243245139718056 0.04582302272319794 
-0.010567771270871162 0.045687105506658554 0.048328183591365814 0.026714283972978592 -0.05519365891814232 0.06596587598323822 -0.061938729137182236 -0.013074164278805256 -0.0590854287147522 
0.029518090188503265 -0.014221156015992165 0.039359163492918015 0.015063829720020294 0.033238355070352554 0.02410048060119152 0.047339122742414474 -0.008560022339224815 0.033741794526576996 
0.07634218782186508 -0.01330270804464817 -0.052111539989709854 0.05197056382894516 0.02599017694592476 0.0511423796415329 -0.04288158193230629 0.04816370829939842 0.02030254527926445 
-0.07626982033252716 -0.06215961277484894 -0.02170036919414997 -0.048591066151857376 -0.09573063999414444 -0.010257786139845848 0.13112124800682068 -0.023866543546319008 -0.06094301491975784 
-0.004661462269723415 -0.03948717564344406 0.006893298123031855 -0.04657791182398796 0.04347909614443779 0.023194503039121628 0.05316903069615364 0.047449707984924316 -0.04389693960547447 
-0.018193349242210388 -0.002614193595945835 -0.01831326261162758 -0.02642330341041088 -0.04002295807003975 0.06381850689649582 0.020580651238560677 0.021638531237840652 -0.007237632293254137 
-0.06567717343568802 0.008238467387855053 -0.004290986340492964 0.03987646475434303 0.04262298345565796 0.011940043419599533 -0.06219467148184776 0.04659386724233627 0.03314360976219177 
-0.011159176006913185 0.03812987357378006 -0.029201379045844078 -0.01281949132680893 -0.04885823279619217 0.012351919896900654 0.02621844783425331 -0.05474178120493889 -0.02839834615588188 
-0.02966194786131382 0.013205268420279026 0.0033699744381010532 -0.002053691539913416 0.025882994756102562 -0.046063993126153946 -0.022821756079792976 0.005433206912130117 0.013987951911985874 
0.002015360165387392 -0.06560960412025452 -0.0285494364798069 0.03338904678821564 0.044493239372968674 0.04872797057032585 -0.035165682435035706 -0.055458538234233856 0.06101559102535248 
-0.023395435884594917 -0.06073068082332611 -0.0034225592389702797 -0.0785115584731102 -0.0016351973172277212 -0.015314646996557713 0.014728317968547344 -0.07374651730060577 0.03774246200919151 
-0.011968213133513927 0.00016693442012183368 0.03968805447220802 0.04771096259355545 -0.007500769104808569 -0.05943364277482033 -0.051851965487003326 0.002187501871958375 0.04940007999539375 
0.04666411131620407 -0.06901020556688309 -0.02126988396048546 -0.054134126752614975 0.014639134518802166 -0.035519253462553024 0.007046486716717482 0.030751610174775124 -0.02374051697552204 
-0.047740645706653595 0.042822882533073425 0.06477053463459015 -0.031194156035780907 0.06862420588731766 -0.009261561557650566 0.0008592454832978547 0.02360239066183567 0.004980119410902262 
-0.020818643271923065 0.059407591819763184 0.0021965939085930586 -0.03756153583526611 0.050867464393377304 -0.026003701612353325 0.022026317194104195 -0.041283927857875824 -0.05485197901725769 
0.004491779953241348 0.05327262729406357 -0.02396840788424015 -0.04633835330605507 0.07403111457824707 -0.06272324174642563 -0.017700977623462677 0.05240238830447197 -0.06400299072265625 
-0.016112729907035828 -0.00726447394117713 -0.06618272513151169 0.028541386127471924 0.02097860723733902 0.018845675513148308 0.0026415851898491383 0.04116935655474663 0.04586201533675194 
-0.02435697428882122 -0.027171676978468895 0.061908382922410965 0.03264930471777916 0.026794372126460075 0.06785894185304642 -0.011699684895575047 0.046741824597120285 0.04893440753221512 
0.04312317445874214 0.056936632841825485 0.013743373565375805 0.008123752661049366 -0.023621002212166786 0.028193600475788116 -0.04728645458817482 0.05675229802727699 -0.04082344099879265 
0.07167131453752518 -0.04409116879105568 0.031993474811315536 0.004227797035127878 -0.026093903928995132 0.04873109981417656 -0.042330238968133926 0.06978236138820648 0.037800177931785583 
0.024178287014365196 0.04885077476501465 0.0009418765548616648 0.006560633424669504 0.0228218175470829 -0.022885417565703392 0.02704503946006298 0.03899377956986427 -0.05196349322795868 
-0.02436019666492939 0.021990591660141945 -0.03251025080680847 0.026040367782115936 -0.06690684705972672 -0.06425657123327255 0.0174211785197258 -0.020220834761857986 -0.04604806751012802 
-0.04296620935201645 0.03683936595916748 0.016790369525551796 0.014001253992319107 -0.031916629523038864 0.020015092566609383 -0.06874194741249084 0.06024917960166931 -0.055013831704854965 
0.06543613970279694 0.023960599675774574 0.04807529225945473 -0.06636088341474533 -0.016532374545931816 -0.021529074758291245 -0.05552591755986214 0.05707864090800285 0.012341435998678207 
-0.009649986401200294 -0.049750033766031265 0.030376950278878212 0.05305939167737961 0.021061686798930168 -0.02262101322412491 0.0389714315533638 -0.017509503290057182 0.003691453719511628 
-0.05396801233291626 0.012358528561890125 0.0027264622040092945 0.053564172238111496 -0.06307674199342728 -0.0033766550477594137 0.051173362880945206 -0.05634172260761261 0.021357711404561996 
-0.059757299721241 0.00881923921406269 0.03308003395795822 0.05343887209892273 0.0880131646990776 -0.06968905031681061 -0.02801981009542942 0.02901780791580677 -0.0737316831946373 
-0.02912033349275589 0.00404465151950717 0.02462272346019745 0.07265654951334 0.0036202578339725733 0.0178265031427145 0.00806898158043623 0.026265595108270645 0.02221071720123291 
-0.06412135064601898 0.05423366650938988 -0.026935184374451637 0.052688829600811005 -0.04931037127971649 -0.05337662622332573 0.0006213340093381703 -0.021942969411611557 0.05085449665784836 
-0.06110000982880592 -0.04889734461903572 0.05294090509414673 -0.005367402918636799 -0.060831218957901 0.09658312052488327 0.03301424905657768 -0.0020907814614474773 -0.009392973966896534 
-0.04201781749725342 -0.06498715281486511 0.04079524427652359 -0.018324781209230423 -0.04231097549200058 -0.0433395691215992 -0.07057791203260422 -0.04471580684185028 0.027889272198081017 
0.005269788671284914 0.026687681674957275 -0.04229177162051201 -0.04915197566151619 0.003347132820636034 -0.009294942952692509 -0.02996889129281044 0.04700635373592377 0.006177251692861319 
0.012777836062014103 -0.0172914769500494 -0.04400825873017311 0.06581360846757889 0.0516059547662735 -0.0351710207760334 0.04375649243593216 -0.02055947668850422 -0.06158139556646347 
-0.06463617831468582 0.05173691362142563 -0.06838493794202805 0.06104951351881027 0.06190173327922821 -0.004325638525187969 0.030392823740839958 0.047933660447597504 -0.023675281554460526 
-0.05109163373708725 0.02432340942323208 -0.041527118533849716 0.047078460454940796 -0.03938430920243263 0.053683165460824966 0.018314408138394356 -0.06157807633280754 0.04541473835706711 
-0.03246624022722244 0.020796865224838257 0.05893362686038017 -0.033856719732284546 0.0007333583780564368 0.012883715331554413 -0.03497331589460373 -0.058346569538116455 0.054044514894485474 
0.058554757386446 -0.029396332800388336 0.04201064631342888 0.03585701808333397 -0.04368934780359268 -0.015993934124708176 0.02717176079750061 0.05258270353078842 0.051215630024671555 
-0.0036230329424142838 0.03518877923488617 0.059998322278261185 0.019306475296616554 -0.017419032752513885 -0.007503781467676163 -0.02730262279510498 0.08156948536634445 0.0691673755645752 
-0.0511348657310009 0.031454749405384064 0.056755244731903076 0.06286193430423737 -0.04455259442329407 -0.025212209671735764 -0.05253438279032707 0.023503946140408516 -0.006649544462561607 
-0.036842137575149536 -0.05893079563975334 0.04345113784074783 -0.05939725786447525 0.017577962949872017 -0.021664366126060486 -0.0378064289689064 0.005533567164093256 -0.044442709535360336 
0.0378195196390152 -0.010355504229664803 -0.04588129743933678 0.03130815550684929 -0.03488881513476372 -0.017511693760752678 0.05221031606197357 -0.0334259495139122 0.0006073786062188447 
-0.04428289085626602 -0.029320089146494865 -0.05191998928785324 0.0641794204711914 -0.058188024908304214 0.017958465963602066 -0.00781999621540308 -0.045409757643938065 0.01977749727666378 
0.0003816192620433867 0.043133944272994995 0.05409036949276924 -0.03555191308259964 0.05519818887114525 0.004901840817183256 0.05880128592252731 0.05708570405840874 -0.018709031865000725 
0.053716979920864105 -0.035965483635663986 -0.007278965320438147 0.031240280717611313 0.020616544410586357 0.0050324262119829655 -0.003454859834164381 0.05594979599118233 -0.026960697025060654 
-0.030680425465106964 0.02373594231903553 0.045493558049201965 0.05692848563194275 0.06994110345840454 0.07562477141618729 -0.016335053369402885 -0.05384716019034386 -0.004709979519248009 
-0.06012384966015816 -0.03295445814728737 0.019111713394522667 -0.035378240048885345 -0.041815441101789474 0.03726167976856232 -0.05960528180003166 -0.005435032770037651 0.023658055812120438 
-0.04495060071349144 0.039241716265678406 0.0358017235994339 0.0461522713303566 0.0009183605434373021 0.011671270243823528 0.036598090082407 -0.03277585282921791 0.014764384366571903 
-0.03817445784807205 0.002222437644377351 0.056214600801467896 0.021811047568917274 0.04762851074337959 -0.057852502912282944 0.017986008897423744 0.04237626865506172 0.022059345617890358 
0.022897319868206978 0.003005824750289321 0.05020783469080925 0.045267511159181595 0.057502493262290955 -0.050539858639240265 -0.022790653631091118 -0.055267032235860825 0.07053222507238388 
-0.049111608415842056 0.041232917457818985 0.02853446453809738 0.015441523864865303 -0.045386843383312225 -0.040366388857364655 -0.028345638886094093 -0.002870383206754923 -0.0019974210299551487 
0.06354416906833649 -0.028346320614218712 0.06870626658201218 0.04446293041110039 -0.022890428081154823 -0.038644030690193176 -0.01254031341522932 -0.015161612071096897 0.026144791394472122 
-0.0125748161226511 0.009375229477882385 0.008458576165139675 0.07936139404773712 0.0871279239654541 0.029189884662628174 0.0354253351688385 0.02073930762708187 0.04018395021557808 
0.039434388279914856 0.06657755374908447 0.007900018244981766 0.04212802276015282 -0.05642686039209366 0.069206602871418 -0.0060476213693618774 0.05149655044078827 -0.05162929743528366 
0.06623955070972443 0.0677511990070343 -0.04228726029396057 0.060516394674777985 -0.010115215554833412 -0.07875733077526093 0.06485486030578613 0.015804950147867203 -0.03157380223274231 
-0.01692306436598301 -0.061856046319007874 -0.04623478651046753 -0.06307416409254074 -0.0009446798940189183 0.03351869061589241 0.013932891190052032 -0.019065920263528824 -0.008310968056321144 
-0.033837638795375824 0.05014307051897049 -0.014143668115139008 -0.055884748697280884 -0.03735744208097458 0.02839941531419754 -0.009595523588359356 0.04632796347141266 -0.06113995984196663 
0.03697548434138298 0.011643867939710617 0.0484163872897625 0.04922618716955185 0.032022200524806976 -0.04273739829659462 -0.031212568283081055 0.0016055642627179623 0.006701474543660879 
0.03939305990934372 0.05233987048268318 0.02576378360390663 0.007988226599991322 -0.06704235076904297 -0.01595834270119667 -0.020972847938537598 -0.05896811932325363 -0.049656935036182404 
-0.05014000087976456 -0.03258028253912926 -0.0006076378049328923 -0.03545922785997391 -0.04880356043577194 -0.04672232270240784 -0.009660550393164158 -0.009222706779837608 -0.010211159475147724 
0.026654571294784546 -0.020250706002116203 -0.022992532700300217 -0.06513980776071548 -0.04429817572236061 -0.03427266329526901 0.015842828899621964 -0.04993950203061104 -0.08004117012023926 
0.020340295508503914 -0.033031683415174484 0.04371429607272148 -0.024259882047772408 0.04217270761728287 0.01864570379257202 0.04662003368139267 -0.03919901326298714 -0.02562582679092884 
0.05640861764550209 -0.018312640488147736 0.03783286362886429 -0.02102205902338028 -0.04165937006473541 0.033659014850854874 -0.014066257514059544 0.017466474324464798 0.06399153918027878 
0.03515029698610306 -0.015071173198521137 -0.0549267940223217 -0.02825659140944481 0.03583307936787605 0.031018080189824104 0.06782393902540207 -0.0013239174149930477 0.04238680750131607 
-0.044454965740442276 -0.056934941560029984 -0.037024758756160736 -0.04403006657958031 -0.04345591366291046 0.028497742488980293 0.0039344304241240025 0.053284287452697754 0.024390170350670815 
-0.06316274404525757 0.03518103435635567 -0.061720121651887894 -0.016947263851761818 0.0014002613024786115 0.003604477271437645 0.05014337599277496 -0.05131950229406357 -0.0197710283100605 
0.008889545686542988 0.014910879544913769 0.016197962686419487 -0.05579515919089317 -0.06822273135185242 0.041085898876190186 0.004107032902538776 -0.027563953772187233 0.017679868265986443 
-0.034483227878808975 0.0203446913510561 0.016431642696261406 -0.04504192993044853 -0.06912828236818314 -0.007899167016148567 -0.02820173092186451 -0.01133239921182394 -0.02295873686671257 
-0.05480575188994408 -0.040638163685798645 0.03432466462254524 -0.040802206844091415 0.03563283756375313 0.023990530520677567 0.02708609215915203 0.003212550887838006 -0.008715493604540825 
0.010813361033797264 -0.054705917835235596 0.012522853910923004 0.05997505038976669 -0.009587688371539116 -0.013727882876992226 0.0727100521326065 0.02876202017068863 -0.05877871811389923 
0.01928376965224743 0.04224459081888199 -0.02107148803770542 -0.023500604555010796 -0.0324917770922184 0.02332465350627899 -0.052721064537763596 0.0021274404134601355 -0.03632587939500809 
-0.008405826985836029 -0.009084583260118961 -0.0009200778440572321 -0.03667766973376274 0.03450203314423561 0.051242269575595856 -0.008221597410738468 0.024850215762853622 0.04266521334648132 
-0.052623387426137924 0.010246256366372108 -0.0661313384771347 -0.04886468127369881 0.046517543494701385 -0.05894569307565689 0.014507520012557507 0.06680358201265335 -0.0676751509308815 
-0.05509812384843826 0.01688067987561226 -0.055630121380090714 0.0336511991918087 0.06447362154722214 -0.040571969002485275 -0.029392365366220474 0.03970900550484657 -0.057244833558797836 
0.067064069211483 0.02071128971874714 0.0577632412314415 -0.04755065217614174 0.036945611238479614 0.04870090261101723 -0.05955622345209122 -0.06159331277012825 -0.04018201306462288 
-0.03575155884027481 0.0722682774066925 -0.01672418974339962 0.11228541284799576 0.07199843227863312 -0.04866347834467888 0.049109771847724915 0.023008160293102264 -0.06929613649845123 
-0.06494762003421783 -0.09396570175886154 -0.01794249936938286 -0.11612147837877274 -0.010327061638236046 -0.01847730576992035 -0.06465370953083038 -0.1334056407213211 0.01113789901137352 
0.06612741947174072 -0.03572937846183777 0.014470433816313744 -0.007956819608807564 -0.05203333497047424 -0.04712509736418724 0.0244758278131485 0.05713949725031853 -0.06123082712292671 
-0.028628885746002197 0.0005822150269523263 -0.013830052688717842 -0.03753066435456276 -0.03044157847762108 0.0983004942536354 -0.11247504502534866 0.022352639585733414 0.05985049903392792 
0.03233331814408302 0.022685866802930832 -0.05703094229102135 0.039403896778821945 -0.02649688348174095 0.02007957547903061 -0.026077663525938988 0.04220264032483101 0.0248013436794281 
-0.04996383562684059 -0.009700938127934933 0.05264345183968544 0.042924415320158005 -0.04555564373731613 0.020322462543845177 -0.039205700159072876 0.04604880511760712 -0.06271614879369736 
-0.010073029436171055 0.011525952257215977 -0.032526157796382904 -0.04984232038259506 -0.04967917129397392 0.04327398166060448 -0.0007918454939499497 -0.052413154393434525 0.0391722209751606 
-0.018406759947538376 0.0015655506867915392 0.01688936911523342 -0.004365706350654364 -0.06387048214673996 -0.014128227718174458 0.05014694109559059 -0.021383821964263916 0.05916716530919075 
-0.0026790129486471415 -0.02709345519542694 0.005566628649830818 -0.032338883727788925 0.009806521236896515 -0.035979557782411575 -0.023962007835507393 -0.055247385054826736 0.053949639201164246 
-0.010541030205786228 0.032637640833854675 -0.03979651629924774 -0.04230893403291702 0.026300659403204918 -0.04072413221001625 -0.02210870198905468 0.027539633214473724 0.06122748926281929 
-0.051057878881692886 0.014359871856868267 0.05530760809779167 0.009057511575520039 -0.03869152069091797 0.030293773859739304 0.03152823448181152 -0.06123347952961922 -0.0009239104110747576 
-0.046541206538677216 -0.01886669546365738 -0.005753271281719208 0.024067629128694534 0.04197784140706062 -0.006018684711307287 -0.006764621939510107 0.011844735592603683 -0.05766962468624115 
-0.010352923534810543 0.004856940824538469 0.06069460138678551 -0.04907526075839996 0.03916965797543526 0.028219671919941902 -0.04098689928650856 -0.0396992564201355 -0.019462546333670616 
0.04706839844584465 0.0013685270678251982 -0.03840368241071701 0.03800303488969803 -0.005966939963400364 -0.031195824965834618 0.0691397488117218 -0.04377208277583122 -0.045515257865190506 
0.026212161406874657 0.05675172060728073 -0.05226144194602966 0.0679996907711029 0.047654006630182266 0.0024070434737950563 -0.05582667514681816 0.04712273180484772 0.06733211129903793 
0.06074864789843559 -0.05348062887787819 0.059335194528102875 0.05726189911365509 -0.004052526783198118 -0.05516475811600685 0.007884563878178596 0.06943965703248978 0.06644614040851593 
0.06742086261510849 0.016066821292042732 -0.061426907777786255 0.011753994040191174 -0.016778649762272835 0.024308698251843452 0.042808208614587784 -0.059478484094142914 0.007943392731249332 
0.005740170832723379 0.032832544296979904 0.0010569080477580428 0.004021040629595518 -0.03003116138279438 -0.047388602048158646 0.021690161898732185 -0.031856827437877655 0.01644844189286232 
-0.04325786605477333 0.005712804384529591 -0.04509614035487175 0.07512509822845459 0.013984725810587406 -0.017066914588212967 0.05454982817173004 0.05840650200843811 -0.0015989737585186958 
-0.05428548902273178 0.04219358041882515 -0.030843164771795273 0.003764432156458497 0.037884894758462906 -0.021306658163666725 -0.0049943458288908005 -0.0420951209962368 -0.03259754553437233 
-0.004905438981950283 -0.024729561060667038 0.04953211545944214 -0.036675721406936646 0.03318628668785095 -0.060146842151880264 -0.025649631395936012 -0.03485097736120224 -0.03221694380044937 
0.042398858815431595 0.0202349666506052 0.0637621134519577 -0.003361076582223177 -0.03487253189086914 -0.027638521045446396 0.03803825378417969 0.02703121118247509 -0.057617101818323135 
-0.038464970886707306 -0.0188557468354702 -0.0409591905772686 -0.0036666628438979387 -0.040101438760757446 0.00689719757065177 -0.05596446618437767 0.017839601263403893 -0.032266490161418915 
-0.013019202277064323 0.03603518381714821 -0.026909517124295235 -0.03313317894935608 -0.06046224385499954 -0.033805426210165024 -0.06014624610543251 -0.06408023834228516 0.006207551807165146 
0.045406684279441833 -0.008989464491605759 -0.047659870237112045 0.02881435677409172 -0.013121865689754486 0.01742224395275116 -0.05587479844689369 -0.01627502776682377 -0.010558158159255981 
0.019316619262099266 0.01991637423634529 0.025037644430994987 -0.08069024980068207 -0.06594084948301315 -0.05431901663541794 -0.037744518369436264 0.04410390928387642 0.06952683627605438 
-0.03947283327579498 0.04631256312131882 0.041183535009622574 0.03339453414082527 -0.03187748044729233 0.021492641419172287 -0.0387292206287384 0.016316022723913193 -0.01997036673128605 
-0.0069275968708097935 -0.044483330100774765 0.019165530800819397 0.0516701340675354 0.05729283019900322 -0.058911148458719254 -0.062399864196777344 0.01565799117088318 0.04478224366903305 
-0.02473532035946846 0.0015785509021952748 0.036464840173721313 0.05764208734035492 -0.009389441460371017 -0.012976015917956829 -0.039330512285232544 0.07163260132074356 0.03242171183228493 
0.044111959636211395 0.018084513023495674 0.07224281132221222 -0.054575055837631226 -0.03688419982790947 0.028852934017777443 -0.026144355535507202 -0.029190387576818466 0.0351317934691906 
0.06554890424013138 0.009187288582324982 0.0041517214849591255 0.014121676795184612 -0.05826433375477791 0.049746476113796234 -0.02471138723194599 0.04696468263864517 -0.017995132133364677 
0.0575079508125782 0.004170299042016268 -0.009589455090463161 0.029848644509911537 -0.04753129929304123 0.019579343497753143 -0.04387024790048599 0.06808149814605713 0.008030165918171406 
-0.046605151146650314 -0.023880701512098312 -0.01234928984194994 0.009225999005138874 -0.02226092293858528 -0.017098303884267807 -0.00023691396927461028 -0.045358508825302124 -0.04977583885192871 
0.03253745660185814 0.033438704907894135 -0.004745287820696831 0.032277561724185944 0.038453392684459686 0.0596744678914547 -0.04934531822800636 -0.013842164538800716 0.05242621898651123 
-0.003045253688469529 -0.005007289815694094 -0.045652665197849274 -0.0670805349946022 -0.06349386274814606 -0.06327886134386063 -0.026738155633211136 0.004338480066508055 -0.05350064858794212 
0.013206449337303638 -0.009449007920920849 -0.03728866949677467 0.00962838064879179 -0.0011864503612741828 -0.033847399055957794 -0.05602734163403511 -0.006844045594334602 -0.0468503013253212 
-0.04352451115846634 -0.02065989188849926 0.010978874750435352 0.006457158830016851 0.0022838874720036983 0.06390544772148132 0.03613965958356857 -0.030704298987984657 -0.021008500829339027 
-0.027879083529114723 0.06187207251787186 -0.007433312013745308 -0.026765121147036552 -0.016837436705827713 -0.06576985120773315 -0.051278822124004364 -0.044980455189943314 -0.06858618557453156 
-0.06040090322494507 -0.03777029365301132 -0.04921843484044075 -0.000328357913531363 0.049225907772779465 0.006200469098985195 0.03871571272611618 0.001885614008642733 -0.049255914986133575 
-0.004288061521947384 0.029901791363954544 -0.0203818641602993 0.00198987009935081 -0.04146182909607887 -0.03701891750097275 0.051812246441841125 0.0469169020652771 0.032805562019348145 
-0.029392525553703308 0.020619293674826622 -0.030498651787638664 -0.042728669941425323 0.030532388016581535 -0.01800553686916828 -0.04399459436535835 -0.01757742278277874 0.0005127635668031871 
0.048954639583826065 0.07511719316244125 0.04354376345872879 0.0033983425237238407 0.06249215826392174 0.00012622482609003782 -0.010915511287748814 0.05503305792808533 -0.07122834026813507 
0.06468063592910767 0.035040128976106644 -0.015683602541685104 0.028884582221508026 0.08236117660999298 0.002690694062039256 0.02217082306742668 0.012279178947210312 -0.07932551205158234 
-0.010175075381994247 0.01975914090871811 -0.05410917475819588 0.018723860383033752 0.03330836445093155 0.04755872115492821 -0.015744563192129135 -0.03475942462682724 -0.023327063769102097 
-0.016432764008641243 -0.01223412062972784 -0.04514944553375244 -0.01501486822962761 0.011432343162596226 0.023687694221735 0.04194183275103569 -0.05862575024366379 0.06437011063098907 
0.02018062025308609 -0.06319810450077057 0.040741581469774246 -0.026312610134482384 0.015575136058032513 0.038965556770563126 -0.029850460588932037 -0.022246522828936577 -0.06748092174530029 
-0.05646587908267975 0.04840939864516258 0.013680044561624527 -0.06368345767259598 0.02362756058573723 0.06217030808329582 0.0592135451734066 0.018190041184425354 0.053726065903902054 
0.06352820247411728 -0.002503735478967428 0.01299350243061781 0.04955650866031647 -0.007861402817070484 -0.060951780527830124 -9.043485624715686e-05 -0.004308999981731176 0.0030695537570863962 
0.06284424662590027 0.06330586969852448 0.054165612906217575 0.05451621487736702 0.02456015907227993 0.01835409365594387 0.08226478844881058 0.075436070561409 -0.02584788016974926 
0.041281454265117645 0.03457917645573616 0.10734979808330536 0.009473158977925777 -0.014255929738283157 0.052776191383600235 -0.02651314251124859 -0.13492685556411743 -0.06474779546260834 
0.04513397812843323 -0.057957135140895844 0.05841023102402687 0.026525817811489105 0.002314584096893668 0.0031095733866095543 0.0665055513381958 0.0615602508187294 -0.012720081023871899 
0.047197870910167694 -0.060510918498039246 0.05798795819282532 -0.10141129046678543 0.017427878454327583 0.09091166406869888 -0.004600489046424627 -0.10637561976909637 0.00039759051287546754 
-0.02778758853673935 0.03969542309641838 -0.07180538028478622 -0.024729829281568527 0.00782832782715559 -0.040935225784778595 -0.0480550117790699 -0.08087360858917236 0.023076562210917473 
0.038092710077762604 -0.04960891976952553 0.0009935669368132949 -0.026641322299838066 -0.06688587367534637 0.04256089776754379 0.01994169130921364 -0.0007749533397145569 0.03763462230563164 
0.03640352934598923 -0.04598788917064667 -0.06427829712629318 -0.01798934116959572 -0.007555927615612745 0.039463236927986145 -0.044443681836128235 0.05954873189330101 0.03476064279675484 
-0.042462386190891266 -0.028443461284041405 -0.048456814140081406 0.048094555735588074 -9.32668917812407e-05 0.034235987812280655 -0.039987578988075256 -0.01281462050974369 0.029335038736462593 
0.036909107118844986 0.026708226650953293 0.005554924253374338 0.012275549583137035 0.0030827282462269068 0.040507733821868896 -0.007527937646955252 -0.023444967344403267 -0.0013089498970657587 
0.05814926326274872 0.033096518367528915 -0.010898401960730553 -0.018427439033985138 -0.006590754725039005 -0.044305142015218735 0.01789439655840397 -0.03159951791167259 0.07189091295003891 
0.05242231860756874 0.08217396587133408 0.044956762343645096 0.04018986225128174 -0.017214685678482056 0.04889120161533356 0.05462876707315445 -0.01670730672776699 0.005061958450824022 
-0.011297185905277729 -0.008494491688907146 0.05608350411057472 -0.012841307558119297 0.0817098543047905 -0.030630020424723625 0.02948382869362831 0.03856686130166054 -0.040330275893211365 
0.045988015830516815 0.04052649065852165 0.017794912680983543 -0.02027369663119316 -0.02551061101257801 0.010675506666302681 0.026981178671121597 0.023995766416192055 0.05469879135489464 
0.04323285445570946 -0.004382047802209854 0.03975311666727066 0.019136501476168633 0.016136936843395233 -0.0059615434147417545 0.04027243331074715 -0.07862112671136856 -0.03537895157933235 
0.054328322410583496 -0.029482774436473846 0.06585705280303955 -0.06754262000322342 0.014902552589774132 0.0003610833373386413 0.00044395826989784837 0.05994144454598427 -0.054777003824710846 
-0.02968074381351471 0.02270110696554184 -0.036774102598428726 0.018174530938267708 0.04495817795395851 0.004842468071728945 -0.023569734767079353 -0.03103395737707615 0.029685184359550476 
-0.06144828349351883 -0.0243971087038517 -0.01662384904921055 -0.06554204225540161 -0.03669259697198868 -0.021340034902095795 -0.0067744567058980465 -0.0007842511404305696 -0.04192333668470383 
-0.034336525946855545 -0.002752362983301282 -0.04444841668009758 0.003983272705227137 -0.044572506099939346 0.036566030234098434 -0.035438258200883865 0.009474250487983227 -0.039623115211725235 
-0.0559101477265358 -0.04710862785577774 0.03386354446411133 -0.005304023157805204 -0.06306885182857513 0.053724538534879684 0.018318986520171165 0.003139066742733121 0.04966195300221443 
-0.03998519107699394 -0.01891227997839451 0.06590019166469574 -0.01966179721057415 -0.00459214486181736 -0.0062353406101465225 0.04753514751791954 -0.031816210597753525 -0.0684063509106636 
-0.062144238501787186 0.0025531486608088017 0.02133803442120552 0.05054435878992081 0.0006185134989209473 0.04071750491857529 0.02394401654601097 0.018619021400809288 -0.05145170912146568 
-0.0017810610588639975 -0.012192493304610252 0.03560982644557953 0.03612856939435005 0.02902453951537609 -0.0665394589304924 0.03487684577703476 -0.010870547965168953 -0.05955195426940918 
0.002356282202526927 0.006706641521304846 -0.06591431796550751 0.05486010015010834 0.0059766219928860664 0.011704538948833942 -0.028983259573578835 0.013731969520449638 -0.0639488473534584 
0.012872633524239063 -0.03892790153622627 -0.049062296748161316 -0.03473273664712906 -0.02904084138572216 0.05001767724752426 0.019551003351807594 -0.03112068772315979 -0.042279213666915894 
0.04222525656223297 -0.07946881651878357 0.023408781737089157 0.04627201333642006 -0.0469956137239933 0.008110723458230495 0.015873920172452927 -0.045114193111658096 0.06035564839839935 
-0.017528999596834183 0.0969010442495346 0.02849174477159977 -0.05608345568180084 0.03153187036514282 -0.05597815662622452 -0.029674937948584557 0.01108808908611536 -0.0616297647356987 
-0.06766754388809204 0.023181241005659103 0.057469598948955536 -0.03383208438754082 0.03864537924528122 -0.045663103461265564 0.008229395374655724 -0.024418747052550316 -0.03854408487677574 
-0.0287293940782547 0.004274072125554085 -0.07222098857164383 0.03208272159099579 0.05210576578974724 0.020964378491044044 -0.022737115621566772 -0.04549534618854523 -0.08012546598911285 
-0.04978045076131821 0.03578192740678787 -0.008717739954590797 0.046367861330509186 0.04344506934285164 0.03847991302609444 0.04858114570379257 0.023838937282562256 0.04130341857671738 
0.011261542327702045 -0.04360146075487137 0.04015347361564636 -0.03322172164916992 -0.04553327336907387 -0.03557058796286583 0.03680862858891487 -0.06112976372241974 0.028003158047795296 
-0.0008782375953160226 0.03979288786649704 0.00012790686741936952 -0.029871076345443726 0.04480653256177902 0.06369639933109283 0.03392818197607994 -0.015273818746209145 -0.010060806758701801 
0.0671062245965004 -0.05396372452378273 0.025996921584010124 -0.030880015343427658 0.05630358308553696 -0.057898059487342834 0.05426701530814171 -0.06036585196852684 -0.045503802597522736 
-0.01651056855916977 -0.005497615318745375 0.08094117045402527 -0.021545788273215294 -0.028131239116191864 0.0618613138794899 -0.07487595081329346 -0.0866989940404892 0.041314899921417236 
-0.022577134892344475 -0.00520342355594039 -0.020733991637825966 -0.04581063613295555 0.05047822743654251 -0.0032589989714324474 0.06575644761323929 -0.018755760043859482 -0.022658821195364 
-0.0009523927583359182 -0.01797272078692913 0.0636959820985794 -0.013088982552289963 -0.0678846463561058 0.0593375489115715 0.061916377395391464 0.04412044212222099 -0.05979562923312187 
0.06161605939269066 -0.05485472455620766 0.025514928624033928 -0.03920726478099823 -0.0050318739376962185 -0.013778213411569595 -0.016911590471863747 -0.04075991362333298 -0.07660248875617981 
-0.04782412573695183 -0.021775204688310623 -0.03628942742943764 0.010256528854370117 0.02346070483326912 0.022517090663313866 -0.018655799329280853 0.00042620746535249054 -0.060813043266534805 
0.051319222897291183 0.029879625886678696 -0.014657589606940746 -0.022205261513590813 -0.012222549878060818 -0.008066046983003616 -0.05299106240272522 -0.05350019037723541 -0.02209525741636753 
0.06747712194919586 -0.051526397466659546 -0.059981703758239746 0.05968601629137993 0.047409623861312866 -0.00012418915866874158 0.012928934767842293 -0.05888800695538521 -0.0390852689743042 
-0.06723029166460037 0.06363299489021301 -0.05701925605535507 0.025824207812547684 -0.026457572355866432 0.012058371677994728 -0.04533572867512703 -0.03244081884622574 -0.013991343788802624 
-0.03676814213395119 -0.05897529050707817 0.03443564847111702 0.05727718770503998 -0.043480176478624344 0.013820911757647991 0.05732790008187294 -0.0504184328019619 -0.015817662701010704 
-0.021373987197875977 0.010634503327310085 -0.02868625894188881 0.017626827582716942 0.060890547931194305 -0.0124923475086689 0.04953378438949585 0.072937972843647 0.042775221168994904 
0.06570634990930557 0.024004437029361725 -0.053591176867485046 0.06436807662248611 0.04109550639986992 0.013204035349190235 -0.04739364609122276 -0.022369960322976112 -0.038434114307165146 
0.050442520529031754 -0.02614821493625641 0.025656986981630325 -0.018158240243792534 -0.05445094034075737 -0.02895405888557434 -0.01689590886235237 -0.06071871146559715 0.04790651425719261 
-0.06040334329009056 -0.052307941019535065 -0.006185530219227076 -0.02186259627342224 0.07017972320318222 -0.004390436690300703 0.01428962592035532 -0.03273491561412811 0.06435924023389816 
0.021681400015950203 0.03342080116271973 -0.007398063782602549 0.05742865800857544 0.054959531873464584 0.013777120038866997 0.057101402431726456 -0.02321157231926918 0.015101226046681404 
-0.005991939455270767 0.07159025222063065 -0.039889827370643616 0.06154918298125267 0.01921653188765049 0.02645088918507099 0.05737922340631485 0.0658387616276741 0.05481872335076332 
-0.04244719445705414 -0.050114210695028305 0.03590956702828407 0.0422033928334713 0.014870836399495602 -0.020135514438152313 -0.04921996593475342 0.019252467900514603 0.06996577233076096 
0.002193812746554613 -0.0029192143119871616 0.04880301281809807 -0.014980393461883068 0.0938425362110138 0.012946232222020626 0.04264254868030548 0.06035998836159706 0.002871614648029208 
-0.06093071773648262 -0.05221036076545715 0.03046083077788353 -0.03827356547117233 -0.024114493280649185 0.04459778591990471 0.011815398000180721 0.05206784978508949 0.05064626410603523 
0.056895386427640915 -0.04989846050739288 -0.016314076259732246 0.031800366938114166 0.06202635169029236 0.05195125192403793 0.027572322636842728 0.027573226019740105 0.058550335466861725 
-0.010161757469177246 -0.017786161974072456 0.04461655020713806 -0.044206246733665466 0.029402906075119972 -0.01829555630683899 0.027845725417137146 0.062097080051898956 -0.021086355671286583 
0.009936671704053879 -0.021401096135377884 -0.008376773446798325 -0.0594136044383049 0.022896602749824524 0.009755576029419899 -0.044299185276031494 -0.05999549850821495 -0.05044287443161011 
-0.0028404330369085073 0.00991115253418684 -0.04610668122768402 -0.018697934225201607 0.06060100719332695 -0.06417996436357498 0.020602624863386154 0.004956427961587906 0.010637005791068077 
-0.01794181577861309 -0.05641031637787819 -0.04127940535545349 0.01612059585750103 -0.06327375769615173 0.004273323342204094 -0.011828009970486164 -0.05828879401087761 0.03131124749779701 
0.06284122914075851 -0.006556771695613861 -0.02526763826608658 -0.06482093781232834 0.0491272434592247 0.03066854365170002 -0.039448000490665436 0.001969917444512248 0.014883170835673809 
-0.004072838928550482 0.04220622777938843 -0.021682357415556908 -0.08120434731245041 -0.04217775911092758 0.0029650090727955103 -0.03756876289844513 -0.02121390402317047 0.034912027418613434 
-0.07971037179231644 0.04470527544617653 -0.07623925060033798 0.0249545369297266 0.0204098392277956 0.06465964019298553 0.0017078719101846218 -0.005122146103531122 -0.05138804018497467 
0.030072176828980446 0.01769154891371727 0.041307441890239716 -0.006591667886823416 0.030431710183620453 0.047210101038217545 0.022000102326273918 0.05787887051701546 0.050756338983774185 
0.03580555319786072 0.035225797444581985 0.053364235907793045 0.06426434218883514 0.027718570083379745 0.0009572856943123043 -0.026992807164788246 0.0003323953424114734 0.06870836019515991 
-0.048917870968580246 0.029568906873464584 -0.0331692136824131 0.04308263957500458 0.06815314292907715 0.0572308786213398 0.03533976525068283 0.03222522884607315 -0.05973314493894577 
-9.58887321758084e-05 0.02717168629169464 -0.019204966723918915 -0.056364186108112335 -0.019127914682030678 0.05944089591503143 0.0049703060649335384 -0.038419075310230255 -0.0019526038086041808 
0.06623290479183197 0.056954365223646164 0.0011842598905786872 0.015717990696430206 -0.05603089928627014 -0.006628978997468948 0.06013082340359688 0.0010941976215690374 -0.004730398301035166 
-0.023769259452819824 -0.04326557740569115 -0.02153635211288929 0.047450970858335495 0.011285960674285889 0.059146665036678314 -0.0009447786724194884 0.0046820268034935 -0.010892175137996674 
-0.059518001973629 0.07201894372701645 -0.05376739054918289 -0.009412836283445358 -0.040747396647930145 -0.06155453994870186 0.04466111585497856 -0.012692450545728207 -0.012000388465821743 
0.026337750256061554 -0.03515651077032089 0.018225595355033875 0.06661079078912735 0.034944698214530945 0.04366808012127876 0.0030004007276147604 0.05113387852907181 -0.008724777027964592 
-0.07560482621192932 0.028278090059757233 0.012761001475155354 -0.06437967717647552 -0.03517043590545654 0.038615331053733826 -0.010269860737025738 0.0024237562902271748 -0.018212348222732544 
0.009474547579884529 -0.023100202903151512 -0.04027603939175606 0.03273512050509453 -0.035211820155382156 -0.023244570940732956 0.02525874227285385 0.02199450694024563 -0.04526888579130173 
0.044683389365673065 0.008907828480005264 -0.048199329525232315 -0.027092857286334038 -0.03403306379914284 0.04999973624944687 -0.02531868778169155 -0.03510303795337677 0.008494188077747822 
0.035558074712753296 -0.020145975053310394 -0.043195005506277084 -0.05900938808917999 -0.03309210017323494 -0.021804288029670715 -0.055494312196969986 0.05303073674440384 0.014202513732016087 
-0.00533355912193656 0.0429532453417778 0.010574682615697384 0.0054231807589530945 -0.07401573657989502 0.04371137171983719 0.0009689956204965711 0.039977580308914185 0.031757306307554245 
-0.014490559697151184 -0.040099892765283585 0.03866594657301903 0.015001828782260418 0.047494370490312576 0.04112806171178818 -0.007964390330016613 0.07330930233001709 -0.029154490679502487 
-0.0413781963288784 0.0396929569542408 0.017356175929307938 -0.0861714631319046 -0.0012579640606418252 -0.07576719671487808 -0.06987927854061127 -0.032249100506305695 0.08010799437761307 
0.0429365374147892 -0.11675046384334564 -0.10020370781421661 -0.024131398648023605 -0.10366473346948624 -0.03220783546566963 0.10544035583734512 -0.020596623420715332 -0.02433757856488228 
0.023359330371022224 0.060806192457675934 -0.05958087369799614 0.01700747199356556 -0.015038300305604935 0.05953603982925415 0.06427852809429169 0.06550809741020203 -0.046844009310007095 
-0.0033875275403261185 0.04648374021053314 -0.040372334420681 0.035695940256118774 0.04788464680314064 -0.006315165665000677 0.048830460757017136 0.05148324370384216 -0.054808564484119415 
-0.0027325362898409367 0.05668390914797783 -0.047050025314092636 -0.037506479769945145 0.028243253007531166 0.058686502277851105 0.03729439899325371 -0.0337548591196537 -0.05214526504278183 
0.05954478308558464 -0.030809655785560608 -0.052178993821144104 -0.04429709538817406 0.04485570639371872 0.03809602931141853 0.04994528740644455 0.013366512022912502 0.023550231009721756 
0.07085800170898438 0.018247030675411224 -0.01057076919823885 0.04420391842722893 0.005333115812391043 -0.002043564571067691 0.04584818705916405 -0.04575671628117561 -0.013327104039490223 
-0.027621598914265633 0.05499866232275963 -0.01933032087981701 0.03670741245150566 0.022746799513697624 -0.06559470295906067 0.03448297455906868 -0.0596371665596962 -0.06444735825061798 
0.09138941764831543 0.041128404438495636 -0.011668765917420387 0.04015669971704483 0.0440119206905365 -0.005994091276079416 0.06670861691236496 0.026513632386922836 0.007523685228079557 
0.02172834426164627 0.037669047713279724 0.008265280164778233 -0.004090495407581329 0.0005461262771859765 -0.013614442199468613 0.0014287958620116115 0.00743380282074213 0.01842608116567135 
0.01689327321946621 0.05537039786577225 0.05709138140082359 -0.0442013218998909 -0.06742384284734726 0.03210895508527756 -0.006163047626614571 -0.05647825449705124 -0.040764499455690384 
-0.05851275846362114 -0.04379911348223686 0.04255589470267296 0.06339329481124878 0.0013995328918099403 -0.03395623713731766 -0.06096290051937103 0.0232122503221035 0.06893476843833923 
0.027803463861346245 0.048393916338682175 -0.03812391310930252 0.03535982593894005 0.037531428039073944 0.05929483845829964 0.03437211364507675 -0.008458810858428478 0.0001855443842941895 
-0.059021901339292526 -0.04552914947271347 -0.021146953105926514 -0.04261733219027519 0.025922274217009544 0.05821022763848305 -0.03361942246556282 -0.03834565728902817 -0.06501669436693192 
-0.00900349672883749 0.06611266732215881 -0.04164566099643707 0.0492791086435318 -0.006237892434000969 -0.0211323332041502 -0.01026926003396511 -0.05520876497030258 -0.049021221697330475 
-0.022516483440995216 -0.06164668872952461 -0.044596847146749496 0.06306338310241699 0.005320421420037746 0.014792338944971561 0.05295416712760925 -0.02853441797196865 0.01834969036281109 
-0.037687208503484726 -0.05607325956225395 -0.003355278866365552 -0.04145050048828125 -0.03323797881603241 0.010691232047975063 -0.015089232474565506 0.001391465193592012 0.04065965488553047 
0.00510855158790946 0.0657225176692009 0.006263217888772488 -0.011521300300955772 -0.021250994876027107 0.049795735627412796 -0.011188686825335026 -0.04851879924535751 0.04950232431292534 
0.04590190201997757 0.008186861872673035 -5.914443318033591e-05 -0.027338365092873573 0.04160328581929207 0.04518871009349823 0.04093431308865547 -0.06527553498744965 -0.07509385049343109 
0.03879622370004654 -0.023762213066220284 -0.03473277762532234 -0.008863414637744427 0.02493988908827305 0.03338809311389923 -0.025901520624756813 -0.0336044616997242 -0.0010625196155160666 
0.009453622624278069 -0.014478597790002823 -0.06441748142242432 0.06251927465200424 0.059910330921411514 -0.011089930310845375 0.04421391710639 0.01526770368218422 0.028627391904592514 
0.03920823708176613 0.009812588803470135 0.04288490116596222 -0.060091517865657806 0.037536103278398514 0.04598607122898102 0.05617446452379227 0.05577170103788376 0.007699673529714346 
-0.00583239272236824 0.01012542936950922 0.005699607077986002 0.0033183149062097073 0.027831202372908592 -0.03514508157968521 -0.0651654377579689 0.04518978297710419 -0.06287199258804321 
0.04361075535416603 -0.013712048530578613 0.06906268745660782 -0.04366135969758034 -0.00619563739746809 0.013793732970952988 0.0072698211297392845 -0.0627349242568016 0.04103890061378479 
0.06596650928258896 -0.04307170584797859 0.0460602343082428 -0.04504289850592613 0.0246798787266016 0.06089916080236435 0.05141306668519974 -0.055722739547491074 -0.009209522977471352 
-0.057798199355602264 -0.021344957873225212 -0.02719477191567421 -0.01843831315636635 0.04766564816236496 -0.01261591911315918 -0.0008995757671073079 -0.001751552103087306 0.02960360236465931 
0.04999471828341484 -0.012948444113135338 -0.042692363262176514 0.03946198895573616 -0.030285775661468506 -0.029753265902400017 -0.013751975260674953 0.06148183345794678 -0.019581394270062447 
0.015747936442494392 -0.027338329702615738 -0.040990885347127914 0.0006708382279612124 4.367975179775385e-06 0.07662931829690933 -0.04979005455970764 -0.057579901069402695 -0.054212767630815506 
0.0246574766933918 -0.07007931172847748 0.018047720193862915 -0.0672181025147438 -0.04644429311156273 0.005980165675282478 -0.028850415721535683 0.05409794673323631 -0.0034762900322675705 
-0.036073580384254456 0.04113844409584999 0.025741327553987503 -0.036381177604198456 0.040668271481990814 -0.031807102262973785 -0.02988247573375702 -0.058044396340847015 0.06157169118523598 
-0.07112506031990051 0.043642379343509674 -0.06147468462586403 -0.021079016849398613 -0.03354964032769203 0.05284634605050087 -0.04801129922270775 0.05990584194660187 -0.04771414026618004 
0.008992094546556473 0.006121838465332985 0.05296241119503975 -0.05392542853951454 -0.004916551988571882 0.010286584496498108 0.046990107744932175 0.005066492594778538 0.06357920169830322 
-0.04597078263759613 -0.004475987982004881 0.002063642255961895 -0.033732734620571136 0.0330473817884922 -0.06774860620498657 0.0016878946917131543 0.02564232610166073 -0.038216810673475266 
-0.05855564400553703 0.023669607937335968 -0.016916858032345772 0.026146678254008293 -0.02581009827554226 0.06676208227872849 0.006486702244728804 -0.04903522878885269 0.05838887766003609 
0.048340361565351486 0.03664475679397583 -0.007422180380672216 -0.008414837531745434 0.03747451305389404 0.025256244465708733 0.014830850064754486 -0.038047511130571365 -0.046727437525987625 
0.06266385316848755 -0.025718310847878456 -0.01755642332136631 -0.0004679711419157684 0.00962059572339058 -0.007632541935890913 -0.05766790360212326 0.035768114030361176 0.07030705362558365 
0.06553200632333755 -0.06417098641395569 0.04756028205156326 5.273281203699298e-05 0.016957655549049377 -0.06413178145885468 -0.009213317185640335 -0.03688275068998337 -0.04399198666214943 
-0.04811728373169899 0.0028288280591368675 0.019610347226262093 0.005650671664625406 -0.02688150480389595 0.022510262206196785 0.023298319429159164 -0.07781098037958145 -0.0047838119789958 
-0.04784395545721054 -0.0586467906832695 0.031227005645632744 -0.02449772134423256 0.017256131395697594 -0.04367310181260109 0.04818986356258392 -0.028000660240650177 -0.03010179102420807 
-0.04372237250208855 -0.05966346710920334 -0.017360270023345947 0.0681774914264679 -0.06619932502508163 0.04575517401099205 0.02107326127588749 -0.004879191517829895 0.03886692225933075 
0.021582122892141342 0.06354539096355438 0.02588268741965294 0.04851745441555977 0.052400898188352585 -0.0667557641863823 -0.012436683289706707 -0.026831980794668198 0.021770881488919258 
-0.04116785153746605 0.045680977404117584 -0.07745464891195297 0.030516697093844414 -0.06163852661848068 -0.05115346610546112 0.06870949268341064 -0.001567875617183745 0.03636524826288223 
-0.009311710484325886 -0.04757705703377724 -0.05436241999268532 0.00739649310708046 0.0023331167176365852 -0.007239301223307848 0.03545309603214264 -0.03677370026707649 0.008641005493700504 
-0.0531354695558548 -0.05966036766767502 0.008080841973423958 0.0038080373778939247 -0.06481866538524628 0.006693280767649412 0.03178109973669052 0.041838329285383224 -0.03206676244735718 
0.024650409817695618 0.02008964493870735 0.01079296600073576 -0.05953027680516243 0.05697450786828995 -0.06971623003482819 0.0773443728685379 -0.018402256071567535 -0.007478261366486549 
-0.06499914079904556 -0.021763117983937263 -0.05483882874250412 -0.04050087928771973 0.05039829760789871 -0.05038636550307274 -0.037803638726472855 -0.0270749069750309 -0.017842929810285568 
0.02209910936653614 -0.027661068364977837 -0.003847010200843215 0.06571711599826813 -0.019316723570227623 0.012722953222692013 -0.009457908570766449 0.07034675031900406 0.03269227221608162 
0.045498624444007874 0.047206811606884 0.05821853503584862 -0.032820601016283035 -0.0549779087305069 0.03115784004330635 0.02287079021334648 0.03791305050253868 -0.007728872820734978 
0.022503161802887917 -0.047153715044260025 0.04372857138514519 -0.06569598615169525 -0.10824514180421829 -0.021629147231578827 0.006005029659718275 -0.004241046030074358 -0.012760746292769909 
0.0012892811791971326 0.03140747547149658 0.028318706899881363 0.03407711163163185 0.04222055524587631 -0.007066084071993828 -0.010553915053606033 0.03170086070895195 -0.06860195845365524 
-0.06140552833676338 -0.056750647723674774 -0.03481480851769447 0.03552557900547981 0.036759089678525925 0.006800843868404627 0.036417197436094284 -0.01292089931666851 0.04030583053827286 
0.0785907730460167 -0.0017224495531991124 -0.04223599657416344 0.03640710934996605 -0.01754012703895569 -0.021108241751790047 0.00792867224663496 0.01943964883685112 0.012539292685687542 
-0.04281190410256386 -0.055726051330566406 0.04305901750922203 -0.019144127145409584 -0.02371578849852085 -0.031968820840120316 -0.03618788719177246 -0.016659757122397423 0.0017254272243008018 
0.04508846253156662 0.05629774555563927 -0.05171585455536842 0.036491021513938904 -0.00894474983215332 0.04122663661837578 -0.02819288894534111 -0.02452433481812477 0.035269372165203094 
-0.0008908113813959062 0.056490227580070496 0.021363815292716026 -0.04102611914277077 -0.07297395914793015 0.051448892802000046 -0.0036379427183419466 -0.04945245385169983 -0.03472686558961868 
0.049977485090494156 0.045733045786619186 0.024641884490847588 0.00010738208220573142 -0.027043942362070084 0.06041823700070381 -0.030792592093348503 -0.06168988347053528 0.03454428166151047 
0.033774007111787796 -0.008370491676032543 0.07519865036010742 0.04713704437017441 0.05839076638221741 0.03676069900393486 -0.04762253537774086 0.08622436970472336 0.02699567936360836 
0.0029302865732461214 0.03702957555651665 0.004145799670368433 0.05470060557126999 -0.02656775340437889 -0.030205458402633667 0.022276485338807106 -0.019262099638581276 0.03876392915844917 
-0.059877730906009674 0.0007154715713113546 -0.04668246582150459 0.003396959276869893 0.019633272662758827 -0.042859625071287155 0.04684794321656227 -0.030848870053887367 0.06467585265636444 
-0.026922602206468582 -0.02391521818935871 0.0035167112946510315 0.0245559923350811 0.028230341151356697 0.039944905787706375 -0.06613699346780777 -0.05570930242538452 0.03095022402703762 
-0.006148435641080141 -0.04566456377506256 0.004069363232702017 -0.04141800105571747 -0.037784330546855927 0.052374567836523056 -0.05385109409689903 -0.022399725392460823 -0.0255590807646513 
-0.040960922837257385 0.055503662675619125 -0.03904447332024574 -0.03894748538732529 -0.03828218951821327 0.007328249979764223 -0.019763140007853508 0.025063352659344673 -0.04197171330451965 
0.05369029939174652 -0.02902921661734581 0.04108539596199989 -0.04269948974251747 0.021079881116747856 -0.052742745727300644 0.005298284348100424 0.020952409133315086 -0.061041299253702164 
0.002864191075786948 0.013777432031929493 -0.0034284114371985197 0.02363203838467598 0.04766666144132614 -0.0611923485994339 0.03100987710058689 0.018754327669739723 -0.05690624192357063 
-0.03365224972367287 -0.0061582280322909355 0.0396026149392128 -0.05512065067887306 0.003184818895533681 -0.00961542408913374 0.07001300156116486 0.06639662384986877 -0.055232178419828415 
-0.003297950606793165 0.0024578338488936424 -0.055770449340343475 0.008534315042197704 -0.041647616773843765 0.03795408830046654 0.04507816210389137 0.02696027047932148 -0.04078388959169388 
-0.044962719082832336 0.0773368552327156 0.04212162643671036 -0.0699375718832016 0.06295368820428848 0.03352710232138634 0.047547925263643265 0.06172429770231247 0.02537040412425995 
0.007093846797943115 -0.022561190649867058 0.04205552116036415 -0.05325907841324806 -0.03320736810564995 -0.011814957484602928 -0.047219168394804 0.043653085827827454 0.042664989829063416 
0.03528996929526329 0.019285060465335846 0.003176761558279395 -0.02333277091383934 -0.0360080860555172 -0.04333125427365303 -0.056712474673986435 0.04952603206038475 -0.02871195413172245 
-0.027683774009346962 -0.01401115208864212 0.06351201981306076 0.05571160838007927 -0.03479147329926491 -0.027673978358507156 -0.01858018897473812 0.05924246087670326 0.003648279467597604 
0.05604265630245209 0.06296934187412262 -0.022598331794142723 -0.012479270808398724 -0.04759615287184715 0.05086429789662361 -0.03416736051440239 0.020460665225982666 0.013689680024981499 
0.022570466622710228 0.003933934960514307 -0.05394214391708374 -0.033856190741062164 0.03828458860516548 0.04819458723068237 -0.002088334644213319 0.022497078403830528 -0.03393136337399483 
0.006892678327858448 0.06984395533800125 -0.04299263283610344 -0.04232470691204071 -0.03197861835360527 -0.051479678601026535 0.020151380449533463 0.0372457355260849 -0.04730572924017906 
0.0453350692987442 0.06953968107700348 -0.06682755798101425 -0.0037149139679968357 0.0016810833476483822 0.013864647597074509 0.07288287580013275 0.06728113442659378 0.00566607853397727 
-0.042888619005680084 0.038982369005680084 0.06524229049682617 -0.036227259784936905 -0.0067680166102945805 0.06438902020454407 0.051554564386606216 0.03735389932990074 -0.0005775757017545402 
0.029903922230005264 -0.02702026441693306 -0.05068548023700714 0.023111820220947266 -0.014933235943317413 -0.014213728718459606 0.0428418293595314 -0.016947103664278984 -0.05272289365530014 
0.032104138284921646 -0.04538749158382416 0.05761599540710449 -0.02752317301928997 0.036468517035245895 -0.005381646566092968 -0.02786238119006157 0.047160059213638306 0.03784092515707016 
0.0415855348110199 -0.03499568626284599 0.026465412229299545 0.04037676006555557 0.025083748623728752 -0.020488953217864037 0.008418905548751354 -0.05569662153720856 0.052282948046922684 
-0.05379006266593933 -0.0005849580629728734 -0.027517661452293396 -0.014563974924385548 -0.025144122540950775 0.0222313292324543 -0.053179170936346054 0.06241490691900253 -0.06356410682201385 
0.034925300627946854 0.04209329932928085 0.035936832427978516 -0.026566268876194954 0.02882254868745804 -0.005118604749441147 -0.03157813102006912 0.05600011721253395 0.05828067660331726 
0.08760232478380203 0.0282750204205513 -0.044250864535570145 0.09431599825620651 -0.07376545667648315 -0.07041950523853302 0.050550952553749084 0.029543381184339523 0.0454641655087471 
-0.02594713866710663 0.010233227163553238 0.07023245096206665 0.05442283675074577 0.06445395201444626 0.06718461215496063 0.021064257249236107 -0.053248822689056396 0.007214302662760019 
-0.009047623723745346 -0.015040953643620014 -0.02626436948776245 0.017573371529579163 0.033847626298666 -0.03462744131684303 0.04732931777834892 0.06365858763456345 -0.001081253751181066 
0.026317214593291283 0.02728370763361454 -0.017201609909534454 0.0486922487616539 -0.049161285161972046 -0.015808559954166412 -0.002497115172445774 -0.0020686336793005466 0.011032400652766228 
0.021126367151737213 0.06944238394498825 -0.014643868431448936 -0.02741231955587864 0.04070984572172165 -0.02643975242972374 0.03134728968143463 -0.00791687611490488 -0.04317662492394447 
0.056986697018146515 0.06567109376192093 -0.05997830256819725 0.05831476300954819 0.018961431458592415 -0.01593668945133686 0.028208449482917786 0.05324988439679146 0.04923996701836586 
0.028919123113155365 0.031784310936927795 -0.045721180737018585 0.06326538324356079 0.034753020852804184 0.03466474264860153 -0.04461434856057167 -0.02229779213666916 -0.05610862001776695 
0.010587194003164768 0.019622208550572395 -0.02304750494658947 0.012340609915554523 -0.04167405143380165 -0.05351035296916962 -0.004972964059561491 0.06653162091970444 0.016568228602409363 
0.04255355894565582 -0.04065967723727226 -0.059443678706884384 -0.004699614830315113 0.04898682236671448 -0.055547408759593964 0.005641371477395296 -0.031255707144737244 -0.04515627399086952 
-0.012244999408721924 -0.023960096761584282 -0.014796716161072254 -0.014547726139426231 0.04180855304002762 0.07271149009466171 -0.03187718987464905 -0.04303470253944397 -0.027735108509659767 
0.05148717761039734 0.014138893224298954 -0.019638754427433014 -0.018123535439372063 0.05740256980061531 -0.05077880620956421 -0.055933933705091476 0.03542406111955643 0.01913555897772312 
-0.024177350103855133 -0.03730994462966919 -0.04899251461029053 -0.014383482746779919 -0.03490958735346794 -0.012970668263733387 -0.023582609370350838 0.028488580137491226 0.06394395232200623 
-0.03812970966100693 -0.048062317073345184 -0.021483853459358215 0.025585662573575974 0.06903111934661865 0.05376840755343437 -0.019508084282279015 -0.0344930998980999 -0.02655860036611557 
-0.0554782934486866 0.0590738020837307 -0.0467880479991436 0.004697224125266075 0.005205005872994661 -0.05008193850517273 0.041952479630708694 0.05855720490217209 -0.05184498429298401 
0.010556927882134914 0.054113615304231644 0.00019102692021988332 -0.020074913278222084 0.051772914826869965 -0.019248224794864655 0.02463763952255249 0.04501606523990631 0.0017798136686906219 
0.00862022116780281 -0.013408987782895565 -0.010469489730894566 0.04559585079550743 0.02731471322476864 -0.043357085436582565 0.035563141107559204 0.038773488253355026 0.05207792669534683 
0.03528398647904396 0.07972574979066849 0.03448972478508949 0.07989020645618439 0.0037059043534100056 -0.007864619605243206 -0.027559729292988777 0.02725813165307045 0.05325489863753319 
0.025909176096320152 0.09234433621168137 0.08449527621269226 0.026450201869010925 -0.016103550791740417 -0.021055353805422783 -0.008660105988383293 0.05516967922449112 -0.024961164221167564 
-0.009601469151675701 0.022857779636979103 0.035026732832193375 0.037942416965961456 -0.04254751652479172 -0.058535560965538025 0.03956321254372597 0.02600848115980625 0.04773379862308502 
0.036201637238264084 0.06415847688913345 0.09361735731363297 -0.00649208715185523 -0.040198393166065216 0.07135289162397385 -0.0029628609772771597 0.04461433365941048 0.057936687022447586 
0.04744315892457962 -0.04431425780057907 0.04556023329496384 0.047825176268815994 -0.005298085045069456 0.018286660313606262 0.04771769419312477 -0.015653574839234352 -0.043927695602178574 
-0.033321481198072433 -0.017732830718159676 0.024614408612251282 0.04776725172996521 0.011201081797480583 0.04747532680630684 -0.06563332676887512 -0.039165906608104706 -0.034376710653305054 
-0.05629340559244156 0.001993972109630704 -0.042040951550006866 -0.06165598705410957 -0.04115324467420578 -0.05615473538637161 0.009884885512292385 0.045965828001499176 -0.059744495898485184 
0.044972047209739685 -0.053392745554447174 -0.02600947953760624 0.04380611330270767 0.04010331630706787 0.05240631103515625 0.05052278935909271 -0.031804803758859634 -0.053981080651283264 
-0.03374982252717018 0.05393632873892784 0.03587588667869568 -0.03868391737341881 -0.0013855508295819163 0.003739567706361413 0.01593409664928913 0.029090356081724167 -0.027404436841607094 
-0.019665012136101723 0.04945741593837738 -0.05158284306526184 0.03788560628890991 -0.06650761514902115 -0.006506392266601324 0.06676705926656723 -0.04503122344613075 0.017233258113265038 
-0.05130954459309578 -0.05636215582489967 0.018164174631237984 -0.039575979113578796 0.014382232911884785 0.06720326840877533 -0.01455273013561964 0.06722521781921387 -0.016695139929652214 
0.02535870671272278 0.022976655513048172 0.07569638639688492 -0.05856143683195114 0.035739608108997345 0.07466737926006317 0.012800701893866062 0.03256213665008545 0.0634174570441246 
-0.005326058249920607 -0.013231824152171612 0.05273137986660004 0.06532643735408783 0.0031483403872698545 0.04564223438501358 -0.026480471715331078 0.04461699351668358 0.022173967212438583 
0.00881568156182766 0.03342268615961075 0.04447653517127037 0.024127395823597908 -0.0027087091002613306 -0.025213534012436867 0.06038976088166237 0.023857899010181427 -0.01320370938628912 
-0.055236879736185074 -0.008636088110506535 0.05930394306778908 -0.025340937077999115 0.05351357161998749 0.046067554503679276 -0.06279954314231873 -0.057827018201351166 0.06499799340963364 
-0.014748074114322662 -0.061788950115442276 -0.06622414290904999 -0.06730917096138 -0.0393109954893589 0.04779365286231041 -0.03848177194595337 0.053742557764053345 0.04523743316531181 
0.06839264929294586 0.049710970371961594 0.04332058131694794 0.03257210552692413 0.04598590359091759 -0.0006398751283995807 -0.010449974797666073 0.06444667279720306 0.035862114280462265 
0.014562088996171951 0.026559198275208473 0.08447003364562988 0.025800475850701332 -0.023895394057035446 -0.030504705384373665 -0.05086265504360199 0.02803187631070614 0.03431374952197075 
-0.04521609842777252 0.0217251218855381 0.0239997711032629 0.06168303266167641 -0.008135280571877956 0.006140201352536678 0.04306262731552124 -0.03505002334713936 0.007801775820553303 
0.035542555153369904 0.04439578577876091 -0.007455395068973303 -0.04016130417585373 0.029416408389806747 -0.03855983540415764 0.019065365195274353 0.040253423154354095 -0.013470103032886982 
0.05493161454796791 -1.034645174513571e-05 -0.011876670643687248 0.02606239914894104 -0.024288300424814224 -0.01532288733869791 -0.022054320201277733 -0.056189894676208496 -0.05252748727798462 
0.04745600000023842 0.048252008855342865 0.002334487857297063 -0.008154702372848988 -0.027138935402035713 -0.06501086056232452 -0.06460312753915787 -0.030696343630552292 0.026843899860978127 
0.0519656278192997 -0.04960460588335991 -0.016291974112391472 -0.024885065853595734 0.06738437712192535 -0.031794290989637375 -0.04794367775321007 0.06045098975300789 0.03804474696516991 
-0.041750211268663406 0.011754270642995834 0.011033544316887856 -0.05229668319225311 0.015279829502105713 -0.0029656069818884134 0.010644691064953804 0.01462509110569954 -0.06920848786830902 
-0.05005209892988205 0.04451645538210869 0.04209282621741295 -0.021862000226974487 -0.007163302507251501 0.05426435172557831 0.028053900226950645 -0.01680925488471985 -0.027312949299812317 
0.019078832119703293 0.08885912597179413 0.08360668271780014 0.04889698326587677 0.06908668577671051 -0.0012900098226964474 -0.022115757688879967 0.038299378007650375 0.007076506037265062 
0.05564163252711296 -0.0629870668053627 -0.021745095029473305 0.0026638114359229803 -0.020266814157366753 0.011814247816801071 -0.06711667776107788 -0.038860056549310684 0.014416108839213848 
-0.06537852436304092 -0.0041375309228897095 0.08432945609092712 0.01171424426138401 -0.0008805477991700172 0.031382005661726 0.030597537755966187 -0.0804397463798523 -0.005021699704229832 
0.02950463443994522 0.03491750732064247 0.03213607892394066 -0.036211129277944565 0.03406939283013344 -0.05503835156559944 -0.07124409079551697 0.038692656904459 0.0537714920938015 
0.03988345339894295 -0.0558437705039978 -0.026502467691898346 -0.058468494564294815 0.04228853061795235 -0.058993514627218246 0.032729364931583405 -0.007238913793116808 -0.05280052870512009 
0.04637434706091881 0.007373684085905552 0.0748785212635994 0.017475659027695656 -0.01685967668890953 0.07311016321182251 -0.009993381798267365 0.023078348487615585 0.07119373232126236 
-0.02352963387966156 -0.0433376207947731 -0.005454681813716888 0.0355510376393795 -0.0535997673869133 0.016452696174383163 0.0453464537858963 0.04352671653032303 -0.036659855395555496 
-0.0299754086881876 0.07862192392349243 0.05992353335022926 0.008537298068404198 0.005396273918449879 -0.04119648411870003 0.040786199271678925 0.07959099858999252 0.010543186217546463 
-0.06119982898235321 -0.01621597446501255 0.0007847713422961533 -0.06999354809522629 0.04600341618061066 -0.044145625084638596 -0.04586803540587425 0.04115500673651695 0.0025607210118323565 
-0.02086201310157776 -0.04613345488905907 -0.014662460424005985 0.035643983632326126 -0.001553569221869111 0.043268900364637375 -0.0014126244932413101 0.00023293893900699914 0.03836905583739281 
-0.023308636620640755 0.0790724903345108 0.08285994082689285 -0.05343359708786011 0.02872304804623127 0.022182689979672432 0.04085405915975571 -0.024967417120933533 0.009047659114003181 
0.02565961703658104 -0.021394025534391403 0.017890630289912224 -0.017646148800849915 -0.05245712399482727 0.018282370641827583 0.01526036486029625 0.06319447606801987 -0.00015731240273453295 
0.05785772576928139 -0.07179772108793259 0.007184572983533144 0.04751379415392876 -0.034724537283182144 -0.014615797437727451 0.03330320119857788 -0.05574395880103111 -0.0010554584441706538 
0.04652136191725731 -0.026994654908776283 -0.011726779863238335 -0.03466443344950676 -0.013213188387453556 -0.025417128577828407 -0.048734016716480255 -0.020540466532111168 -0.05109885707497597 
0.06649667769670486 -0.026377886533737183 -0.024431772530078888 0.029878394678235054 -0.003989264369010925 0.062318868935108185 0.02107797935605049 -0.03990907967090607 0.0021023638546466827 
-0.04687950387597084 0.004555122461169958 0.04944683611392975 -0.026019630953669548 -0.02840181067585945 0.05413858965039253 -0.020292343571782112 -0.04553390294313431 -0.05509229376912117 
-0.03832072764635086 -0.020499492064118385 -0.07410512119531631 -0.008204995654523373 -0.07522028684616089 -0.0707404837012291 -0.04825964942574501 0.024790197610855103 0.021297737956047058 
-0.031544771045446396 -0.007955220527946949 0.0015684020472690463 -0.04534551128745079 -0.020156167447566986 0.0167367085814476 0.04346015676856041 0.010909208096563816 -0.011848675087094307 
-0.0635981634259224 -0.015019104816019535 -0.024726375937461853 0.058446671813726425 -0.02481384575366974 -0.030765829607844353 0.019236762076616287 -0.023227360099554062 0.03402454033493996 
0.03678607940673828 0.04613393545150757 -0.052236080169677734 0.026525001972913742 0.01287905965000391 -0.02425001747906208 0.05439319461584091 -0.060247719287872314 0.010627670213580132 
-0.03621721267700195 0.02268296852707863 -0.020296666771173477 0.015929346904158592 0.04228902608156204 0.012654662132263184 0.06551504135131836 -0.06588587909936905 -0.00035245800972916186 
-0.003338458016514778 0.042756497859954834 0.0243819747120142 0.01829339936375618 0.0067138029262423515 0.0033343411050736904 -0.03670783340930939 0.03343535214662552 0.02001330442726612 
-0.0048277550376951694 0.03994795307517052 0.04016205295920372 -0.01001197099685669 -0.05850598216056824 -0.020143283531069756 0.0007587430882267654 -0.05870696157217026 0.06082889437675476 
-0.056722886860370636 -0.009745823219418526 -0.026760080829262733 0.005738175008445978 -0.012880917638540268 -0.0051864199340343475 -0.060880787670612335 -0.03870711475610733 -0.050555240362882614 
-0.004404689185321331 0.019792133942246437 0.021534685045480728 0.030221616849303246 0.019516699016094208 -0.021361777558922768 0.02446891926229 0.03385947272181511 0.01551354955881834 
-0.03474460914731026 -0.015422810800373554 0.03804854676127434 -0.05667928606271744 0.04212683439254761 0.048858534544706345 -0.030710317194461823 -0.06244971975684166 -0.06322459131479263 
0.04959331825375557 0.04032765328884125 -0.005023496691137552 0.027761071920394897 -0.07299569249153137 -0.09101258218288422 -0.0252387635409832 0.025793641805648804 -0.03534717857837677 
-0.061336271464824677 -0.022195376455783844 0.06885600090026855 -0.026522457599639893 0.060942862182855606 -0.022269438952207565 0.008104140870273113 -0.015140398405492306 0.07007063180208206 
-0.061337608844041824 0.027873888611793518 -0.02006773091852665 -0.005203108303248882 -0.05061928182840347 -0.05008159205317497 0.029341155663132668 0.001384905306622386 -0.03516480326652527 
0.06848730146884918 -0.017718642950057983 -0.015268421731889248 0.030309215188026428 -0.015515834093093872 -0.007928271777927876 -0.014154926873743534 0.037860602140426636 -0.033712975680828094 
0.0044204858131706715 0.012039844878017902 0.04476487636566162 0.027993222698569298 0.021770967170596123 -0.025694647803902626 0.028438080102205276 -0.023506678640842438 -0.04901459068059921 
-0.01876112073659897 0.027685772627592087 0.007404680363833904 -0.044170230627059937 0.022523006424307823 0.03445969149470329 0.0651753693819046 -0.0715581551194191 0.02353883534669876 
0.05107911676168442 -0.022297067567706108 0.03573496639728546 -0.011573963798582554 -0.017250342294573784 0.04218190163373947 0.06056845560669899 -0.038796719163656235 -0.0420139841735363 
-0.003857596544548869 -0.02751178853213787 -0.034947607666254044 -0.00033095956314355135 -0.06436783820390701 -0.005210675299167633 0.06327790766954422 -0.06061829999089241 0.05095057934522629 
0.0007492499426007271 0.005523680243641138 -0.012901182286441326 -0.0015700497897341847 0.0068125962279737 -0.0074778590351343155 0.00787725206464529 -0.07816934585571289 0.010502644814550877 
0.041309673339128494 0.0490289106965065 0.023104066029191017 0.04874664917588234 0.03131437301635742 0.06767605990171432 0.06183168292045593 0.0103035569190979 0.012728775851428509 
-0.07662419974803925 0.046113960444927216 -0.03284429386258125 -0.028080420568585396 0.018296409398317337 0.03294635936617851 0.05195644125342369 0.038785774260759354 0.052449800074100494 
-0.00046790437772870064 -0.013027217239141464 0.011796665377914906 -0.002645321423187852 0.0353691503405571 -0.06491290777921677 -0.031989749521017075 -6.963330815779045e-05 -0.034858860075473785 
0.01711009256541729 -0.028350746259093285 0.020314695313572884 0.000394758622860536 0.03430938348174095 0.026665007695555687 0.06907836347818375 0.005872358102351427 -0.026474880054593086 
-0.013390723615884781 -0.011701962910592556 0.019783372059464455 0.05823000520467758 0.023621436208486557 -0.06692115217447281 0.030904002487659454 -0.012889090925455093 0.019262950867414474 
0.016925714910030365 0.02393396571278572 0.049072444438934326 0.025250084698200226 -0.004530816338956356 0.0018231857102364302 0.04460665583610535 -0.0809488445520401 0.012591226026415825 
-0.0022163852117955685 0.05225871875882149 -0.07723312079906464 -0.010818526148796082 -0.06320371478796005 -0.022658567875623703 -0.06612807512283325 0.012982064858078957 0.04872831329703331 
-0.023138104006648064 0.06303035467863083 0.039787814021110535 0.002025152090936899 0.019368307664990425 -0.005928068421781063 -0.01829914003610611 -0.04043416678905487 0.047735586762428284 
0.05777760595083237 -0.04736354947090149 -0.03127354010939598 0.04748409986495972 0.05304490774869919 -0.02970237284898758 0.036575887352228165 0.00650439178571105 -0.05032660439610481 
0.04447701573371887 0.057621631771326065 0.016463978216052055 -0.04148627817630768 0.027972042560577393 0.019752278923988342 -0.04803590849041939 -0.005851777270436287 -0.028890859335660934 
0.010658168233931065 0.055575042963027954 0.03157031163573265 -0.037741031497716904 -0.011488750576972961 -0.07427386939525604 0.03762034699320793 -0.055398374795913696 -0.0330989845097065 
-0.06860866397619247 -0.046963732689619064 0.05602400004863739 -0.062431320548057556 -0.0399206206202507 0.03480447083711624 -0.03136787191033363 -0.024630866944789886 0.06405889242887497 
0.0527619831264019 0.10129757225513458 -0.022997934371232986 -0.011516992934048176 0.030641021206974983 -0.014314839616417885 0.026765404269099236 0.023047568276524544 -0.038190215826034546 
-0.1157163456082344 -0.07760165631771088 -0.03170830383896828 -0.07914423197507858 -0.15467119216918945 -0.03571031242609024 0.06700029224157333 -0.10751032829284668 -0.006376934237778187 
-0.04284031316637993 -0.05684516206383705 -0.052280526608228683 0.00645007099956274 0.02247743308544159 -0.00356640899553895 -0.010314648039638996 -0.06801114976406097 -0.04242027550935745 
0.038313575088977814 -0.06849544495344162 -0.029573578387498856 0.014735331758856773 -0.018776530399918556 -0.06260554492473602 -0.03556191548705101 0.024186573922634125 0.0027636210434138775 
0.06333433091640472 0.027804715558886528 0.04784104973077774 -0.05945532023906708 0.03742519021034241 -0.04683782905340195 -0.005040544085204601 -0.014163740910589695 0.006747270468622446 
0.019069135189056396 0.04330791160464287 0.03181387856602669 0.06546925008296967 0.04457271099090576 0.027542844414711 0.011122514493763447 0.005018545780330896 -0.031153885647654533 
-0.016954373568296432 -0.06290577352046967 -0.03430403023958206 -0.02345663495361805 0.019542386755347252 -0.06432275474071503 0.0003948533267248422 -0.03521444648504257 -0.0507839173078537 
0.0301393810659647 -0.040828388184309006 -0.06590920686721802 0.05301752686500549 0.05354513227939606 0.005384257063269615 -0.03395703807473183 -0.03484838083386421 -0.03569714352488518 
-0.013358358293771744 -0.04985534027218819 -0.02980579249560833 -0.014861086383461952 -0.024777553975582123 0.04007198289036751 -0.05888235196471214 0.02401350811123848 0.05038905516266823 
0.07937373220920563 -0.052559953182935715 -0.016960565000772476 -0.04000626876950264 -0.024407533928751945 -0.02534194104373455 0.07470061630010605 0.03161502629518509 0.051426731050014496 
-0.05776553228497505 -0.025371575728058815 -0.00612653698772192 -0.05172235146164894 0.03927750512957573 -0.07756207883358002 0.051970865577459335 0.05700927972793579 -0.030541978776454926 
-0.0729190856218338 -0.042729560285806656 -0.006388497538864613 -0.010470550507307053 -0.04175896942615509 0.006155054550617933 -0.07158377021551132 0.0042509036138653755 0.009766917675733566 
0.026833992451429367 -0.06899185478687286 0.051745086908340454 0.03171301633119583 0.029167093336582184 -0.0495445542037487 -0.013597109355032444 0.014272954314947128 -0.005717730149626732 
0.055875759571790695 -0.06122812256217003 -0.01504223421216011 -0.07341691851615906 -0.013133292086422443 0.050091538578271866 -0.053904201835393906 -0.0329471230506897 0.012376134283840656 
0.004350485745817423 -0.033240217715501785 0.029250582680106163 -0.06367409974336624 -0.06237207353115082 -0.04622972011566162 0.04204755648970604 0.015995439141988754 -0.03156634420156479 
-0.05495019629597664 -0.025243042036890984 -0.05784987658262253 0.06278001517057419 0.054784826934337616 0.018055159598588943 0.008002773858606815 -0.018673354759812355 -0.06504068523645401 
0.03403804823756218 -0.04398456960916519 -0.020377863198518753 -0.043225210160017014 0.002952036913484335 0.0029061702080070972 -0.047553520649671555 -0.036036767065525055 -0.044715020805597305 
-0.02955552376806736 0.016301004216074944 0.0546475313603878 -0.01025322638452053 -0.01994655467569828 0.007953416556119919 -0.06860063225030899 0.01610228233039379 -0.05427371338009834 
-0.055208683013916016 -0.005681763403117657 -0.03452848270535469 0.04007142782211304 0.030517319217324257 -0.03488863632082939 -0.0717337429523468 0.047618091106414795 -0.05899188667535782 
0.028049737215042114 0.052003733813762665 -0.025685669854283333 -0.0670202448964119 0.02834205888211727 -0.020647922530770302 0.06541911512613297 -0.03926942124962807 0.027456505224108696 
-0.0656091719865799 0.03900079056620598 -0.002036579418927431 -0.06422347575426102 0.055268753319978714 0.026912277564406395 -0.0547177791595459 -0.0534704327583313 0.02393697388470173 
0.06300318241119385 -0.05012692138552666 0.042539242655038834 0.05003676936030388 0.033608950674533844 -0.016210360452532768 -0.040048129856586456 0.045940469950437546 0.05867709219455719 
0.020021706819534302 0.011319059878587723 0.01902918331325054 -0.07389112561941147 -0.0426991730928421 -0.042446885257959366 -0.061706144362688065 -0.013940633274614811 -0.03748420625925064 
0.003366002580150962 -0.037719808518886566 -0.03198397904634476 -0.0716855451464653 0.03775878995656967 0.0533728189766407 -0.041372623294591904 -0.02785532921552658 0.03249171003699303 
-0.04316612705588341 -0.10868358612060547 -0.03241059556603432 -0.060169003903865814 0.011831475421786308 -0.043292831629514694 -0.1024707555770874 0.029991431161761284 0.028625499457120895 
0.022037865594029427 -0.027711372822523117 -0.04846455901861191 -0.0067975264973938465 0.06048966944217682 0.06441115587949753 -0.07104719430208206 0.058486662805080414 -0.04911573976278305 
-0.016443287953734398 0.01334662176668644 -0.05968371778726578 -0.07664279639720917 -0.0061221737414598465 -0.029334144666790962 -0.009084627032279968 0.053154852241277695 0.04448571801185608 
0.05344028398394585 -0.010033159516751766 0.056167155504226685 0.0014454358024522662 -0.03242125362157822 0.0252801775932312 -0.038573507219552994 0.03267253190279007 -0.03450057655572891 
0.02741832658648491 0.03231416270136833 0.014652111567556858 -0.02066776715219021 0.03765556216239929 -0.06492907553911209 -0.02879738248884678 0.0032440528739243746 -0.04578620567917824 
-0.06082391366362572 0.05689522251486778 -0.010788680985569954 -0.052919283509254456 -0.04521714895963669 -0.003300707321614027 -0.03478739410638809 0.012273577973246574 -0.006248708814382553 
0.04082624614238739 -0.02047371119260788 0.036054473370313644 -0.007241909392178059 0.03774707019329071 0.013972369022667408 0.0008064366993494332 0.031619902700185776 0.045746296644210815 
0.04717738553881645 0.06299848854541779 0.06574021279811859 0.007047966588288546 -0.002163976663723588 0.01412934809923172 0.03292460739612579 0.03970745950937271 0.06319838762283325 
0.03968406841158867 0.028124667704105377 -0.020771494135260582 -0.030967099592089653 0.07724891602993011 0.007397424895316362 0.0032771111000329256 -0.01489247940480709 0.04964067041873932 
0.05762840434908867 0.01453355047851801 0.027690477669239044 0.06366443634033203 -0.052629318088293076 -0.055456530302762985 0.0247516930103302 -0.036592748016119 0.044687118381261826 
0.012016803957521915 0.04700804874300957 -0.023455830290913582 -0.03713054582476616 0.05567719787359238 0.04862060025334358 0.04636004567146301 -0.029776152223348618 -0.030417848378419876 
-0.05239599943161011 0.04526453837752342 0.038627199828624725 0.051373474299907684 -0.06538799405097961 -0.026661120355129242 0.031362149864435196 0.035045165568590164 -0.05082141235470772 
-0.03467049077153206 0.00967769231647253 -0.030504407361149788 -0.021292325109243393 0.06295923888683319 0.056379564106464386 0.009072384797036648 -0.025946343317627907 0.002562047215178609 
0.003194754011929035 -0.07120466232299805 0.05185597762465477 -0.051912643015384674 0.008682643063366413 0.05153200030326843 0.04680860415101051 -0.016785738989710808 0.04950471967458725 
0.04342907667160034 0.03616863489151001 0.0418413020670414 -0.001943516661413014 0.04925283417105675 0.005172557197511196 -0.01165059208869934 0.007672603242099285 -0.00743658235296607 
0.00792501401156187 0.008968234993517399 -0.06559789925813675 0.06282366067171097 0.009064635261893272 0.0549648255109787 0.038300130516290665 -0.011431452818214893 -0.03213324397802353 
-0.030764732509851456 -0.04688991978764534 0.035321060568094254 0.03202567249536514 0.03986894339323044 -0.048616278916597366 -0.003397890366613865 0.018478741869330406 0.02164657600224018 
-0.0506880022585392 -0.05515793710947037 -0.08122935891151428 -0.0673132836818695 -0.010391958989202976 -0.04878639429807663 -0.037341196089982986 -0.0435856431722641 -0.020513392984867096 
0.0034354908857494593 0.051963165402412415 0.04088884964585304 -0.025549275800585747 0.032463036477565765 -0.05306588113307953 0.05306754261255264 0.0401347391307354 0.03137451037764549 
0.010628442279994488 0.0199881624430418 -0.03090856596827507 0.039284344762563705 -0.04730246216058731 -0.024486878886818886 -0.04525119811296463 -0.061903320252895355 -0.05689156800508499 
0.01181089784950018 0.02647470310330391 -0.02277669683098793 0.019987007603049278 -0.0066782403737306595 0.016419535502791405 -0.056928850710392 0.011544073931872845 -0.03998395428061485 
0.019585028290748596 0.01989845186471939 0.01541825570166111 0.034430284053087234 0.037228018045425415 -0.057571008801460266 0.02951807901263237 0.024570154026150703 0.0216971468180418 
-0.038176529109478 0.06556346267461777 -0.05811956152319908 0.06419351696968079 0.040280118584632874 -0.03965377062559128 -0.006517328787595034 -0.050376325845718384 -0.04473232477903366 
-0.017868569120764732 0.016340147703886032 0.038086578249931335 -0.03131979703903198 -0.0030771594028919935 0.01908496953547001 -0.028445638716220856 -0.02122795209288597 0.06429605931043625 
-0.03233730047941208 -0.051220815628767014 0.05285868048667908 -0.05034138634800911 -0.024348946288228035 -0.05498163029551506 -0.0421413891017437 -0.0065815867856144905 -0.017374949529767036 
-0.05597350001335144 0.045766089111566544 0.05915933847427368 0.09322475641965866 0.08238392323255539 0.027936771512031555 -0.008672143332660198 0.06528454273939133 -0.017772389575839043 
0.019558608531951904 0.02023271657526493 0.034439995884895325 0.029181309044361115 -0.031308118253946304 -0.0029659948777407408 -0.03374510630965233 0.045820314437150955 0.034509580582380295 
0.019364673644304276 -0.0009570576949045062 0.04755157232284546 0.02901592291891575 0.02242962270975113 0.058003347367048264 0.057965584099292755 -0.04630625620484352 -0.0025715259835124016 
-0.05209900438785553 0.010355702601373196 -0.057449232786893845 -0.003779920982196927 -0.05686204135417938 -0.04657154157757759 0.06932076066732407 0.0543782077729702 0.007901990786194801 
0.0602988563477993 0.06416339427232742 -0.04410167410969734 -0.0006536354776471853 -0.06643472611904144 0.02955048345029354 0.04364428669214249 0.024837255477905273 0.06531117856502533 
0.06455253809690475 -0.047841399908065796 0.012037135660648346 -0.028032155707478523 0.033868107944726944 -0.0054575735703110695 -0.041008226573467255 0.03496616333723068 0.04429451376199722 
-0.04018134996294975 -0.061682894825935364 -0.025365447625517845 -0.035884175449609756 0.0030266668181866407 -0.021466588601469994 -0.00839365553110838 -0.05924040451645851 0.06177762150764465 
0.021443938836455345 -0.028552131727337837 -0.0649016723036766 -0.04691832512617111 -0.0032708197832107544 0.040181633085012436 -0.044570472091436386 -0.047475628554821014 -0.033009160310029984 
-0.04599296301603317 0.0383215993642807 -0.007645224221050739 0.0021888359915465117 0.003826756263151765 0.04193113371729851 -0.06923097372055054 0.047778766602277756 0.05298098176717758 
-0.0472099594771862 -0.018498893827199936 0.04753997176885605 0.020265350118279457 -0.05582159385085106 0.005643870681524277 0.06761688739061356 0.03562061861157417 -0.021064767614006996 
-0.0023859606590121984 -0.0247022807598114 -0.05526293069124222 -0.015746945515275 0.01000397652387619 -0.04639261215925217 0.06083773076534271 0.03785361349582672 -0.02725786343216896 
